{"version": "0.5.4", "metadata": {"date": {"year": 2025, "month": 12, "day": 14, "hour": 14, "minute": 34, "second": 47}, "loudness": -12.568927764892578, "gain": 0.7863831429822056}, "architecture": "WaveNet", "config": {"layers": [{"input_size": 1, "condition_size": 1, "head_size": 8, "channels": 16, "kernel_size": 3, "dilations": [1, 2, 4, 8, 16, 32, 64, 128, 256, 512], "activation": "Tanh", "gated": false, "head_bias": false}, {"input_size": 16, "condition_size": 1, "head_size": 1, "channels": 8, "kernel_size": 3, "dilations": [1, 2, 4, 8, 16, 32, 64, 128, 256, 512], "activation": "Tanh", "gated": false, "head_bias": true}], "head": null, "head_scale": 0.02}, "weights": [-0.042518533766269684, 0.5626331567764282, -0.9655928015708923, -0.8144443035125732, -0.3228936493396759, 0.21825557947158813, 0.007422742433845997, 0.7944042086601257, -0.2718808948993683, 0.2992839813232422, -0.1801145374774933, -0.16135109961032867, -0.9098024368286133, -0.6888749003410339, -0.268421471118927, 0.17949116230010986, 0.14832647144794464, 0.3337711691856384, -0.32166996598243713, -0.1255151778459549, -0.2074662744998932, 0.28343355655670166, 0.010693731717765331, 0.3729995787143707, -0.17563018202781677, 0.06674539297819138, 0.3891439139842987, -0.29355353116989136, -0.02134513482451439, 0.21845267713069916, -0.22304464876651764, 0.07083271443843842, -0.35021498799324036, 0.09664052724838257, -0.011503615416586399, 0.03785305470228195, -0.25665363669395447, 0.07315372675657272, -0.1984502524137497, 0.22531463205814362, 0.08398672938346863, 0.20637361705303192, -0.16020303964614868, -0.18321464955806732, -0.3477380871772766, 0.10254113376140594, 0.13642068207263947, 0.3309420943260193, -0.22342604398727417, 0.060134708881378174, 0.3362884819507599, -0.03919864445924759, 0.1078646257519722, 0.2766197919845581, -0.0664605051279068, -0.026784686371684074, 0.28561973571777344, -0.2712494134902954, -0.046974193304777145, 0.18218779563903809, -0.09138943254947662, -0.05742177739739418, -0.30344530940055847, 0.2934519946575165, -0.17151303589344025, 0.13373799622058868, -0.1812198907136917, 0.26154112815856934, -0.0954391285777092, 0.26180845499038696, -0.3311319649219513, 0.13720077276229858, -0.060055676847696304, -0.10611922293901443, 0.3113851547241211, 0.00653116824105382, -0.19976280629634857, 0.06217913329601288, -0.11465185135602951, 0.12189735472202301, -0.324748158454895, 0.23634466528892517, 0.0285093504935503, 0.032862402498722076, -0.12928472459316254, 0.19459807872772217, -0.21121889352798462, 0.04922330752015114, -0.16219232976436615, 0.13302592933177948, -0.06303918361663818, 0.29269641637802124, -0.07932723313570023, 0.1779233068227768, -0.35089021921157837, 0.08089243620634079, -0.05375710502266884, -0.19906967878341675, 0.05945691838860512, -0.2195957750082016, -0.09041433781385422, 0.2799336910247803, -0.18076075613498688, -0.2554629147052765, 0.054315101355314255, -0.11946683377027512, -0.32694876194000244, 0.06906972825527191, -0.12951795756816864, 0.2934552729129791, -0.24466575682163239, 0.25395768880844116, -0.10973886400461197, 0.1341261863708496, 0.23858565092086792, -0.05163053050637245, -0.008663053624331951, -0.0911446213722229, -0.05400741100311279, -0.0009498108993284404, 0.14022521674633026, -0.0647338479757309, -0.09875421226024628, 0.16230137646198273, -0.19582214951515198, -0.10221786797046661, 0.06750372797250748, 0.003061327850446105, -0.026159612461924553, -0.22010906040668488, -0.06834457814693451, 0.00010804439807543531, -0.060592565685510635, 0.06728845089673996, 0.13063214719295502, -0.11073483526706696, -0.05466248840093613, -0.012621565721929073, 0.17068414390087128, 0.15216034650802612, 0.14615441858768463, -0.024788817390799522, 0.07445403188467026, -0.028139136731624603, -0.03121640719473362, -0.12487149238586426, 0.08049440383911133, 0.10699088126420975, -0.14360065758228302, -0.13931390643119812, -0.039134684950113297, -0.19027578830718994, -0.055004801601171494, 0.1770232617855072, 0.012338543310761452, -0.16115641593933105, 0.17690828442573547, -0.06617089360952377, -0.04763398319482803, -0.23437312245368958, 0.011444010771811008, 0.06955166161060333, -0.21642859280109406, -0.18494248390197754, -0.1106206402182579, 0.07603171467781067, -0.012690317817032337, 0.14559145271778107, -0.18936972320079803, 0.0494224950671196, 0.21494261920452118, -0.12920761108398438, 0.18691164255142212, 0.12946616113185883, -0.20828475058078766, 0.036481793969869614, -0.10177304595708847, 0.015907123684883118, 0.061423733830451965, -0.10477116703987122, -0.01749364472925663, -0.0872894823551178, 0.012219518423080444, 0.11317925155162811, 0.10870946943759918, 0.12754075229167938, -0.1339084953069687, -0.08088978379964828, -0.18897095322608948, 0.16876928508281708, 0.15274375677108765, 0.17338992655277252, -0.17446598410606384, 0.06059179827570915, -0.019321102648973465, -0.16384971141815186, -0.022559531033039093, 0.1386559158563614, -0.1549607664346695, 0.05488460510969162, 0.0924808531999588, 0.01492940541356802, -0.05678507313132286, -0.012206890620291233, -0.1487179696559906, 0.02883005514740944, -0.10455669462680817, 0.26045411825180054, -0.20765453577041626, 0.30532628297805786, 0.12963099777698517, 0.20313791930675507, -0.27310165762901306, -0.17876578867435455, -0.22668850421905518, 0.3032638430595398, 0.03231935203075409, -0.2994720935821533, 0.4044061005115509, 0.032791830599308014, -0.24554909765720367, 0.43123874068260193, 0.1962587684392929, 0.22282420098781586, -0.40971675515174866, -0.07718025892972946, -0.1676093190908432, 0.2045532912015915, 0.01506300363689661, 0.20182926952838898, -0.2856389880180359, -0.02987058088183403, -0.21357062458992004, 0.43116167187690735, 0.23582719266414642, 0.1443360149860382, -0.21934591233730316, -0.23869659006595612, -0.2893697917461395, 0.30818426609039307, 0.17942193150520325, -0.13293592631816864, 0.23287536203861237, 0.13561677932739258, -0.15290144085884094, 0.15066881477832794, 0.24851852655410767, -0.34240972995758057, 0.29095205664634705, 0.12305977195501328, -0.30960825085639954, 0.288152277469635, 0.24777664244174957, 0.2382575273513794, -0.3987814784049988, -0.177754208445549, -0.21749641001224518, 0.10811514407396317, 0.07063037902116776, 0.023375656455755234, -0.10423438996076584, -0.019539710134267807, -0.04841083288192749, 0.12815459072589874, 0.14093537628650665, -0.17034927010536194, -0.01771555095911026, 0.14061339199543, 0.004552402533590794, 0.06562164425849915, 0.0362878181040287, 0.05094221606850624, -0.1659814864397049, -0.07804755866527557, -0.07197932153940201, -0.056824974715709686, 0.2077622264623642, 0.031000245362520218, -0.0396743044257164, -0.059789661318063736, -0.1037830263376236, -0.03844791278243065, 0.02493610419332981, 0.22569933533668518, -0.01150550041347742, 0.004333408083766699, -0.15322217345237732, 0.0705149918794632, 0.06348416954278946, -0.11413736641407013, -0.057629384100437164, 0.15582646429538727, -0.07808510214090347, 0.016728121787309647, 0.06496738642454147, -0.2069023698568344, 0.12272169440984726, -0.0027759892400354147, -0.05558585003018379, -0.02628588303923607, 0.021053628996014595, 0.13748158514499664, -0.11666034907102585, -0.13034981489181519, -0.005219386424869299, -0.12010868638753891, 0.18579958379268646, 0.12941642105579376, 0.09136319160461426, -0.14201603829860687, -0.18498922884464264, -0.0659441128373146, 0.1561800092458725, -0.12311345338821411, 0.014258855022490025, 0.21396808326244354, -0.13807719945907593, -0.02552739344537258, 0.18915177881717682, 0.07797352969646454, 0.04138738662004471, -0.11248857527971268, -0.11115657538175583, 0.01523209735751152, 0.17996644973754883, 0.19936351478099823, 0.12224505096673965, -0.10004104673862457, 0.007113869767636061, -0.08389977365732193, 0.048924364149570465, -0.05882532149553299, 0.1620233654975891, -0.048692550510168076, -0.155805304646492, 0.025236966088414192, 0.2200969159603119, 0.08117479830980301, 0.10045935958623886, 0.24586322903633118, -0.10460425168275833, -0.09008979052305222, 0.2333226054906845, 0.00863785669207573, -0.121174156665802, 0.2507709264755249, 0.005119606386870146, 0.042288750410079956, 0.022493435069918633, 0.11271943897008896, -0.057864971458911896, -0.11052092909812927, -0.028359390795230865, -0.098229318857193, 0.0012254184111952782, 0.0926562026143074, 0.1094842404127121, 0.09679573774337769, -0.11688138544559479, -0.12972111999988556, -0.13448603451251984, -0.1663767695426941, -0.27363142371177673, 0.08101880550384521, 0.04463775455951691, -0.015112068504095078, 0.0930708721280098, -0.10391557216644287, 0.05951768904924393, 0.0017803629161790013, -0.14257673919200897, -0.09343428164720535, -0.302224725484848, -0.04323413595557213, 0.023857170715928078, -0.04897940158843994, 0.09479349851608276, -0.04508184269070625, 0.08704647421836853, 0.13017398118972778, 0.27026844024658203, -0.02256198786199093, 0.04979290813207626, -0.023716924712061882, 0.01629376783967018, 0.11642111837863922, -0.07385990768671036, 0.07253196090459824, -0.07852555066347122, -0.09260355681180954, -0.016377778723835945, -0.06263834983110428, -0.23837365210056305, -0.10814414918422699, -0.12790639698505402, -0.055277593433856964, 0.07068222016096115, 0.03725467249751091, 0.03123871050775051, 0.07197336852550507, 0.14509756863117218, -0.08873251080513, -0.005779455881565809, 0.11469687521457672, 0.172325000166893, -0.1444675773382187, 0.14422045648097992, -0.005182226654142141, -0.017830636352300644, 0.08871129900217056, -0.19444851577281952, 0.016175327822566032, 0.14057126641273499, -0.10595375299453735, -0.06136408448219299, -0.05730472505092621, 0.0661112442612648, -0.07894954085350037, 0.012366246432065964, 0.024814970791339874, -0.005311328452080488, -0.09472151845693588, 0.11822117865085602, 0.02463078312575817, 0.09208089858293533, -0.231843039393425, 0.04211057350039482, -0.12370310723781586, 0.03879639878869057, -0.008832896128296852, -0.08001474291086197, -0.04140148311853409, 0.16923491656780243, 0.03464265540242195, -0.195813849568367, 0.0006990229594521224, 0.03975662961602211, -0.22213388979434967, 0.10708624869585037, -0.11747436225414276, -0.24770264327526093, -0.09534930437803268, -0.009865407831966877, -0.007391680032014847, -0.09499838948249817, 0.07383479923009872, 0.06259375065565109, -0.03166957572102547, -0.047996021807193756, -0.09372641146183014, 0.18388783931732178, 0.16941425204277039, 0.1370081603527069, 0.035246774554252625, -0.18997164070606232, 0.11528448015451431, 0.03598935157060623, -0.03106987290084362, -0.11274363100528717, -0.00529642915353179, -0.22734688222408295, -0.04817034304141998, 0.06604062020778656, -0.019690532237291336, 0.033317603170871735, 0.030026180669665337, 0.13394448161125183, 0.0801008939743042, -0.0027346734423190355, 0.054373349994421005, 0.060004234313964844, 0.1009402722120285, 0.0019227199954912066, 0.017347535118460655, 0.11461801081895828, -0.04947651922702789, -0.13521480560302734, 0.016596779227256775, -0.16169625520706177, 0.07573874294757843, -0.06344546377658844, -0.1522553265094757, -0.10286661982536316, 0.11978790163993835, -0.11255703866481781, 0.10757234692573547, 0.12150890380144119, -0.016585586592555046, 0.008836345747113228, -0.004581918008625507, -0.1217602789402008, 0.017252393066883087, 0.09724229574203491, -0.002244772855192423, 0.08521625399589539, -0.08737552911043167, -0.3371089696884155, -0.17125093936920166, 0.2530665993690491, 0.35822200775146484, -0.03858137130737305, -0.010011046193540096, -0.14173457026481628, -0.008566468954086304, 0.22307999432086945, -0.29491424560546875, -0.0431109219789505, 0.17072230577468872, -0.26943281292915344, -0.039128806442022324, 0.0710955560207367, 0.30214786529541016, 0.04598860442638397, -0.16694360971450806, 0.020447202026844025, -0.008790587075054646, 0.03201982378959656, 0.22624827921390533, 0.1671188473701477, -0.12748296558856964, -0.18204638361930847, -0.11907867342233658, 0.18366292119026184, 0.10401923209428787, -0.011243361048400402, -0.19903846085071564, -0.0692841187119484, -0.11173779517412186, 0.11719287186861038, -0.28981077671051025, 0.05528266355395317, 0.25543102622032166, -0.3257042467594147, -0.20051831007003784, 0.0054542976431548595, -0.22119027376174927, -0.12084131687879562, 0.022487517446279526, -0.26375827193260193, -0.05714480206370354, 0.03361627832055092, 0.2935839891433716, 0.0318409763276577, -0.21338072419166565, 0.3160666525363922, -0.06941287219524384, -0.024721292778849602, -0.27371472120285034, 0.14407436549663544, 0.09586546570062637, 0.13935817778110504, -0.32671308517456055, 0.17442640662193298, 0.18604309856891632, -0.17022442817687988, 0.02105092629790306, 0.24563656747341156, -0.23473067581653595, 0.13478681445121765, -0.25676852464675903, 0.0664411336183548, -0.10439351201057434, 0.07960980385541916, -0.1571490615606308, -0.027179216966032982, -0.1367262899875641, 0.1631416529417038, -0.053333546966314316, 0.37482959032058716, -0.17484399676322937, 0.13202641904354095, -0.18865512311458588, 0.15400925278663635, -0.12412168830633163, 0.24737927317619324, -0.06474338471889496, -0.015747375786304474, 0.15033715963363647, -0.12907487154006958, 0.18307672441005707, 0.23589029908180237, -0.3098008632659912, -0.09366171807050705, 0.30697566270828247, -0.20986801385879517, -0.040557991713285446, 0.2998572885990143, -0.13154816627502441, 0.1531645804643631, -0.21948015689849854, 0.22387093305587769, -0.19043047726154327, -0.07580656558275223, -0.07839587330818176, 0.17505605518817902, 0.0362989567220211, 0.09045805782079697, 0.06747791916131973, 0.1666499823331833, -0.09290586411952972, -0.06998412311077118, -0.02708590030670166, -0.31500744819641113, 0.1929236501455307, -0.033689700067043304, -0.2691660523414612, 0.14424163103103638, -0.09156130254268646, 0.14440125226974487, -0.07838591933250427, -0.05046749860048294, -0.2671191096305847, 0.28296467661857605, -0.08808214217424393, 0.2676430642604828, 0.06735170632600784, 0.10182711482048035, -0.20524807274341583, 0.21784409880638123, -0.013329511508345604, 0.13485288619995117, 0.05550919473171234, 0.06881307065486908, -0.3392667770385742, 0.018682142719626427, -0.06292431801557541, -0.07385352998971939, 0.05927101522684097, -0.10378354042768478, -0.22442494332790375, 0.145632803440094, 0.06183673441410065, -0.1696729063987732, 0.07471350580453873, 0.08621571213006973, -0.23813235759735107, 0.0020529015455394983, -0.15140502154827118, 0.07931680232286453, -0.10672688484191895, -0.1874086856842041, 0.20826013386249542, -0.08592434227466583, 0.08668960630893707, -0.29554206132888794, 0.24328555166721344, -0.1598540097475052, 0.32155096530914307, -0.2139909267425537, -0.10820829123258591, 0.28340110182762146, -0.16156749427318573, 0.0387357622385025, 0.10254214704036713, -0.23256263136863708, 0.009923649951815605, -0.17750981450080872, 0.2367594987154007, -0.08004871755838394, 0.2646547555923462, 0.004325686022639275, 0.042162179946899414, -0.101251021027565, -0.0057223206385970116, -0.06472614407539368, 0.34521231055259705, -0.13635265827178955, 0.19022884964942932, -0.23646651208400726, 0.23451831936836243, -0.22131049633026123, 0.16419698297977448, -0.13542287051677704, -0.040205080062150955, 0.24274182319641113, -0.014631230384111404, -0.09458106756210327, 0.19961702823638916, -0.005577972158789635, -0.11216072738170624, 0.32879865169525146, -0.19892747700214386, -0.09925012290477753, 0.182087704539299, -0.04680038243532181, 0.1951378732919693, -0.21032901108264923, 0.04961764067411423, -0.2993670701980591, -0.25242385268211365, -0.05948814004659653, 0.23478733003139496, 0.33396610617637634, 0.21368072926998138, -0.3020639419555664, -0.37320807576179504, 0.025453045964241028, -0.4218819737434387, -0.20986546576023102, -0.05823909118771553, -0.38857877254486084, -0.18716280162334442, -0.20305941998958588, 0.3446139991283417, 0.1512383669614792, 0.06719431281089783, -0.04760768264532089, 0.10144373774528503, -0.127168208360672, 0.4067871868610382, 0.22771389782428741, 0.015148618258535862, -0.458189994096756, -0.38723358511924744, 0.041969336569309235, 0.2900107204914093, 0.26032012701034546, 0.12754148244857788, -0.22677168250083923, -0.13528575003147125, 0.0202028751373291, -0.429874986410141, -0.2697257697582245, -0.16577750444412231, -0.3984984755516052, -0.20951509475708008, 0.05139109119772911, -0.43175777792930603, -0.1583736389875412, -0.15576201677322388, -0.3429631292819977, -0.1256575733423233, -0.10753390938043594, 0.35505369305610657, 0.12049728631973267, 0.17286399006843567, 0.03516778722405434, -0.3850763738155365, 0.18385279178619385, -0.11494265496730804, 0.18052929639816284, -0.09209848940372467, 0.13778185844421387, -0.33905521035194397, 0.15339305996894836, 0.13961869478225708, -0.203944131731987, 0.019903670996427536, -0.0024525336921215057, -0.33102819323539734, -0.006967069115489721, -0.023272600024938583, 0.3980811834335327, 0.021242769435048103, -0.0015610631089657545, -0.18922381103038788, 0.11302094906568527, 0.09002354741096497, 0.23930323123931885, -0.18662451207637787, 0.05059031397104263, -0.2291192263364792, -0.015295152552425861, 0.1051844134926796, 0.3331383168697357, -0.20553967356681824, -0.0054859500378370285, -0.16100184619426727, -0.02156880497932434, -0.013606141321361065, -0.22612856328487396, -0.002173047047108412, 0.09332029521465302, -0.22202396392822266, 0.17894871532917023, -0.07414110749959946, -0.15458637475967407, 0.010280069895088673, 0.16585811972618103, -0.41684815287590027, -0.03036455623805523, 0.06156102567911148, 0.26649966835975647, -0.18678827583789825, -0.0694582536816597, -0.06686718016862869, -0.005465263035148382, -0.08623102307319641, 0.029192164540290833, 0.05050783231854439, -0.022920221090316772, -0.018162503838539124, 0.10432934761047363, 0.11731639504432678, -0.017163952812552452, -0.006565883290022612, -0.02434699982404709, -0.055025313049554825, -0.17573265731334686, -0.06282013654708862, 0.5875558853149414, -0.30427730083465576, 0.6956564784049988, -0.6229690313339233, -0.14699874818325043, 0.7883808016777039, 0.8652693629264832, -0.5270750522613525, 0.14234256744384766, 0.08439096063375473, -0.5643700361251831, -0.37150195240974426, 0.2196608930826187, -0.584981381893158, 0.2389908730983734, 0.34075242280960083, -0.25533968210220337, -0.20837126672267914, -0.10572632402181625, 0.07776619493961334, 0.1473093330860138, -0.2621937096118927, 0.059911273419857025, 0.0904436931014061, -0.004026801325380802, -0.1547025740146637, 0.10213670879602432, 0.2197020798921585, 0.09458896517753601, -0.12948410212993622, 0.10852789133787155, 0.039992935955524445, 0.6630574464797974, -0.17256861925125122, -0.2702406346797943, 0.16286174952983856, -0.4545820951461792, -0.09396863728761673, -0.2774546444416046, -0.292271226644516, -0.003198380349203944, 0.0418505035340786, -0.7074008584022522, 0.09778352081775665, -0.15822605788707733, -0.09908508509397507, 0.27391111850738525, -0.046064723283052444, 0.07045254111289978, 0.012673280201852322, -0.06985850632190704, 0.29621410369873047, 0.048006825149059296, -0.18878187239170074, 0.03855831176042557, -0.30436408519744873, -0.1806514412164688, -0.2820989191532135, 0.08974958211183548, -0.12179990112781525, 0.09732132405042648, 0.4874460697174072, 0.40842553973197937, 0.00963658094406128, 0.041163861751556396, -0.15782052278518677, 0.00822052825242281, -0.1981394737958908, -0.1904781460762024, -0.03294854238629341, -0.01484251394867897, 0.07678401470184326, -0.1053435206413269, -0.0808633416891098, 0.04879942908883095, 0.16747090220451355, 0.1555442363023758, 0.07185228914022446, -0.12118866294622421, 0.023416556417942047, -0.3198447525501251, -0.2607772648334503, -0.1559648960828781, 0.2475776970386505, -0.2759111225605011, 0.012641849927604198, 0.06623817980289459, -0.26275989413261414, 0.09842152148485184, 0.0787934884428978, -0.15003687143325806, 0.4477093517780304, 0.03995789587497711, -0.058634184300899506, -0.28278443217277527, 0.10491763800382614, -0.14612501859664917, -0.0029146058950573206, 0.04657654091715813, 0.09495417028665543, 0.25065237283706665, 0.18388937413692474, 0.1577777862548828, 0.06746858358383179, 0.14761963486671448, -0.06645025312900543, -0.21058182418346405, -0.11661520600318909, 0.0012890867656096816, -0.1282372623682022, -0.143819659948349, 0.0005628492217510939, 0.12197200953960419, 0.059450969099998474, 0.2224130779504776, 0.1561991423368454, -0.2626924514770508, -0.19924867153167725, 0.09298435598611832, 0.0025194729678332806, 0.08309571444988251, -0.2443900853395462, -0.32812419533729553, 0.19877193868160248, 0.1186329647898674, -0.19931328296661377, 0.06876927614212036, -0.21597318351268768, 0.2400917410850525, 0.25624799728393555, 0.30037957429885864, -0.24526552855968475, -0.23917171359062195, 0.2493697702884674, 0.32341575622558594, 0.12943115830421448, 0.12615439295768738, -0.05016852170228958, 0.22321613132953644, -0.3417798578739166, 0.11943387985229492, -0.1618688851594925, -0.24023303389549255, 0.053921595215797424, -0.2337220311164856, -0.408984899520874, -0.20364122092723846, -0.3014635443687439, 0.1929495483636856, -0.21954970061779022, -0.11142116039991379, 0.066413015127182, -0.13922791182994843, -0.22650420665740967, 0.2728195786476135, 0.4391927123069763, 0.10062520951032639, -0.2761059105396271, 0.17001569271087646, 0.19373035430908203, -0.2949081361293793, -0.10414350777864456, 0.38802236318588257, -0.4081207513809204, -0.5745883584022522, 0.11172354966402054, 0.33512023091316223, 0.005880920682102442, 0.31073281168937683, 0.38906875252723694, 0.2758904993534088, 0.12456455826759338, 0.44018495082855225, -0.29885008931159973, -0.15523332357406616, 0.23697537183761597, 0.2600765526294708, 0.2722872793674469, -0.15963217616081238, 0.1032542884349823, -0.0332806222140789, -0.12664829194545746, 0.09199737757444382, -0.012531020678579807, 0.037879958748817444, -0.13721230626106262, -0.1382180005311966, -0.16907036304473877, -0.1271214485168457, 0.20682242512702942, 0.23873929679393768, 0.22128847241401672, 0.20139919221401215, 0.07705716043710709, -0.13175660371780396, 0.3120424449443817, -0.12200218439102173, -0.279015451669693, -0.2885514199733734, -0.2779422700405121, -0.26552364230155945, -0.5356782078742981, -0.28379887342453003, -0.057487912476062775, -0.26465529203414917, 0.48423951864242554, -0.2940826416015625, -0.42579424381256104, -0.16645179688930511, -0.29382970929145813, 0.06601832062005997, 0.00430776784196496, -0.15529751777648926, -0.29319238662719727, -0.03632741793990135, 0.1926516592502594, 0.3250884413719177, -0.13857749104499817, -0.16491982340812683, 0.4274839758872986, 0.24664606153964996, -0.39212602376937866, -0.017645560204982758, 0.25743675231933594, -0.3127650320529938, -0.3452602028846741, -0.03728809580206871, 0.08698739856481552, -0.226706862449646, 0.06207243725657463, 0.28686800599098206, 0.19944535195827484, -0.004489311948418617, -0.1209116280078888, 0.16165998578071594, 0.2872128486633301, 0.00435515446588397, -0.20715931057929993, -0.16021929681301117, 0.36157655715942383, 0.14766047894954681, 0.27807968854904175, 0.09285151958465576, -0.19715522229671478, 0.40129292011260986, 0.2450035810470581, 0.34765130281448364, 0.2402363270521164, -0.2246801257133484, 0.3554336428642273, 0.12340620905160904, -0.325095534324646, 0.28055158257484436, 0.2985081076622009, -0.11224186420440674, 0.05326195806264877, 0.05158749595284462, 0.001448262482881546, 0.39995285868644714, -0.25131186842918396, -0.4494282603263855, 0.35822173953056335, 0.3136580288410187, 0.4096517264842987, 0.1226295754313469, 0.06276868283748627, 0.14304760098457336, -0.2201332449913025, 0.2809544801712036, -0.18177182972431183, 0.1970895230770111, 0.24279846251010895, 0.09272342175245285, -0.019948793575167656, 0.10874007642269135, -0.19832105934619904, -0.16334687173366547, -0.045893438160419464, 0.07378936558961868, -0.027613123878836632, 0.07391102612018585, -0.1399800330400467, 0.14090272784233093, -0.19279290735721588, -0.025719499215483665, 0.014782042242586613, 0.056662287563085556, 0.0009667091653682292, 0.09095679968595505, 0.04315103590488434, -0.12363854795694351, -0.0470610037446022, -0.5366467237472534, -0.04501475766301155, 0.0280801709741354, 0.1486905813217163, 0.0557953417301178, -0.29497987031936646, -0.01989201456308365, 0.03243532404303551, -0.3225741982460022, -0.18546262383460999, 0.3062678873538971, 0.3410325348377228, 0.1896694302558899, 0.21702837944030762, -0.12338147312402725, -0.4348728656768799, 0.13887228071689606, 0.07726018130779266, -0.18467941880226135, -0.3915103077888489, 0.019936593249440193, 0.3404140770435333, -0.09084611386060715, -0.21741819381713867, -0.1051667183637619, -0.3927413523197174, 0.22358673810958862, 0.09396880865097046, -0.09739835560321808, -0.22645018994808197, -0.10202758014202118, 0.27889350056648254, -0.40710440278053284, -0.05758101865649223, 0.5476462244987488, -0.16822925209999084, -0.08774533122777939, 0.469150573015213, 0.1474776417016983, 0.5249879956245422, -0.23176710307598114, 0.21699658036231995, -0.13531795144081116, -0.37552890181541443, -0.0026294200215488672, 0.07066822797060013, 0.14453433454036713, -0.1644078642129898, -0.22732403874397278, 0.11129919439554214, -0.10045701265335083, -0.08875057101249695, 0.29145485162734985, -0.22735996544361115, 0.04526073485612869, 0.0518319234251976, 0.03543419390916824, -0.11162236332893372, 0.147777259349823, -0.005713263992220163, -0.03415674343705177, -0.08310046046972275, -0.008701490238308907, -0.11461678892374039, -0.25851690769195557, 0.2733705937862396, 0.05070863664150238, -0.1319313794374466, -0.28291234374046326, 0.1316315233707428, -0.2507758140563965, 0.19320376217365265, 0.12474857270717621, -0.27043408155441284, -0.030391952022910118, -0.2209029495716095, -0.09830860048532486, -0.24859340488910675, -0.20893332362174988, 0.3164462149143219, -0.23369039595127106, -0.17826099693775177, 0.03553100675344467, -0.05285587161779404, -0.06408112496137619, 0.10677175968885422, 0.09545513987541199, 0.0837939903140068, -0.195842444896698, 0.10870792716741562, 0.1961255669593811, -0.2829895317554474, -0.22245199978351593, -0.26169639825820923, -0.14563846588134766, 0.0518048070371151, 0.07280690968036652, 0.5190343856811523, -0.028049645945429802, 0.14428670704364777, -0.23542667925357819, 0.261115700006485, 0.12053955346345901, 0.005778668913990259, 0.2299492359161377, 0.11646641045808792, 0.09365774691104889, 0.05906503647565842, -0.04295939579606056, -0.3146027624607086, -0.3573061525821686, -0.501099705696106, 0.38433656096458435, -0.16908936202526093, -0.17212417721748352, 0.3837193250656128, -0.271183043718338, -0.48541659116744995, 0.047771304845809937, -0.07800988852977753, 0.005472279619425535, 0.2457391768693924, -0.21912194788455963, -0.2257935255765915, 0.01889488473534584, 0.23090040683746338, 0.16776518523693085, -0.3024470806121826, -0.013933002017438412, -0.32936280965805054, 0.09641557931900024, -0.24879592657089233, -0.07538812607526779, -0.06308107823133469, 0.014567749574780464, -0.03670072928071022, -0.5161826610565186, -0.25726038217544556, 0.00605705427005887, 0.47726970911026, 0.05871017277240753, -0.08262443542480469, 0.11173208802938461, -0.32549363374710083, 0.11108958721160889, 0.0677160918712616, 0.08889218419790268, 0.03615812584757805, -0.25582465529441833, 0.112989641726017, 0.045814596116542816, -0.19551658630371094, -0.05342021957039833, -0.1667112112045288, -0.09750352054834366, -0.1316034495830536, 0.1759987473487854, 0.02873470075428486, 0.03185619041323662, -0.16191735863685608, 0.20813223719596863, -0.25528401136398315, 0.0017961437115445733, 0.12286919355392456, 0.3772293031215668, -0.400387704372406, 0.1234671026468277, 0.08179328590631485, -0.2392122894525528, 0.10067275911569595, 0.15388649702072144, 0.05494368076324463, 0.03547223284840584, 0.1954430341720581, 0.14025473594665527, 0.041339173913002014, 0.37815767526626587, -0.13136053085327148, 0.13655123114585876, 0.3177151381969452, -0.31212642788887024, -0.03326096013188362, -0.0099044693633914, 0.024334896355867386, 0.16341054439544678, -0.05444788187742233, 0.02999773807823658, 0.1592574566602707, -0.016573216766119003, -0.07927467674016953, -0.034297771751880646, -0.021097365766763687, 0.16840729117393494, 0.08175801485776901, -0.1481323391199112, 0.10307520627975464, 0.007044140249490738, -0.20287005603313446, 0.11463304609060287, 0.1533074527978897, -0.12494336813688278, 0.02131296508014202, -0.0727359876036644, -0.004645493347197771, -0.12740211188793182, -0.168219193816185, -0.08195315301418304, -0.09559223800897598, 0.023000305518507957, 0.0907004252076149, 0.11734744161367416, 0.029317809268832207, 0.07004274427890778, -0.06969339400529861, 0.026264015585184097, 0.001922493800520897, -0.07724618166685104, -0.011317269876599312, 0.2318131923675537, 0.11484905332326889, 0.15533265471458435, -0.20172567665576935, 0.07511686533689499, 0.1358889788389206, -0.3399195373058319, -0.16388294100761414, 0.2063158005475998, -0.20946846902370453, -0.04278677701950073, -0.04080461710691452, 0.13265866041183472, -0.1943603903055191, -0.1494722068309784, 0.1775263398885727, 0.01887044496834278, -0.09730057418346405, 0.10656620562076569, -0.32326993346214294, -0.11497268825769424, -0.5392760038375854, 0.05495195835828781, -0.020096879452466965, -0.33894336223602295, -0.20183837413787842, -0.29729583859443665, -0.02301795966923237, 0.1218235194683075, 0.026289792731404305, -0.13547983765602112, 0.17795035243034363, 0.13512755930423737, 0.45659828186035156, 0.3646993637084961, 0.385405957698822, -0.00964533444494009, -0.22741679847240448, 0.014720027334988117, 0.12357353419065475, -0.23472420871257782, 0.13040731847286224, 0.37584397196769714, 0.03204260393977165, -0.10402000695466995, 0.1221591904759407, -0.24947857856750488, -0.03915265575051308, -0.09236959367990494, -0.08339270204305649, -0.05564431846141815, 0.12416277825832367, 0.08406206220388412, 0.11991064250469208, 0.16136279702186584, 0.1901494860649109, 0.32132959365844727, 0.20325985550880432, -0.04036258906126022, 0.32693013548851013, 0.17208997905254364, 0.14398303627967834, -0.16790857911109924, -0.07732512056827545, -0.31209301948547363, -0.1007247045636177, -0.08668971806764603, 0.026776187121868134, -0.11386217176914215, 0.0436721108853817, 0.1547725647687912, 0.17467641830444336, -0.04146523028612137, -0.05107493698596954, 0.15027159452438354, 0.017900461331009865, -0.06667175889015198, -0.0718519315123558, -0.09953508526086807, 0.13076549768447876, -0.030903825536370277, 0.1866447478532791, -0.1200294941663742, 0.025194372981786728, 0.10954928398132324, 0.022248830646276474, 0.2556186318397522, 0.125566303730011, 0.18193332850933075, 0.01745229959487915, -0.21294105052947998, -0.30256444215774536, -0.3681500554084778, 0.106033094227314, 0.027880927547812462, -0.04425812140107155, -0.11485813558101654, -0.027345580980181694, 0.04896381124854088, -0.12875665724277496, 0.09908643364906311, 0.05591310188174248, -0.05321604385972023, -0.15312501788139343, 0.06890132278203964, -0.034615036100149155, -0.0020110243931412697, -0.20451346039772034, -0.10992676764726639, -0.10804570466279984, -0.3007568120956421, -0.013667547143995762, -0.04452258348464966, -0.0734584704041481, -0.08859466016292572, 0.0021876483224332333, 0.18106277287006378, 0.07361853867769241, -0.09327352792024612, 0.03614126518368721, -0.14984339475631714, -0.06449000537395477, 0.10919234156608582, -0.18302106857299805, -0.1148555725812912, -0.15396364033222198, -0.031335748732089996, -0.10115040093660355, -0.1687151938676834, -0.030312325805425644, -0.04526391625404358, 0.018804902210831642, 0.04151172935962677, 0.030695954337716103, 0.16676615178585052, 0.17105816304683685, -0.004347104579210281, -0.0025708386674523354, 0.017031341791152954, -0.0901314839720726, 0.17982381582260132, 0.18791040778160095, 0.13505984842777252, -0.07830680161714554, 0.14940384030342102, -0.14003770053386688, 0.1031002625823021, -0.21130944788455963, -0.08727841824293137, 0.08288291096687317, -0.0065429420210421085, 0.1058695837855339, 0.0024866361636668444, -0.06867100298404694, 0.07270621508359909, -0.01603168621659279, 0.07126159965991974, 0.03334121033549309, -0.09945926070213318, 0.10097448527812958, 0.04137131944298744, 0.007258664816617966, 0.046069417148828506, 0.17916563153266907, -0.09312212467193604, -0.17278949916362762, -0.18250878155231476, -0.17899823188781738, 0.13996604084968567, 0.20092491805553436, 0.26414331793785095, 0.25945982336997986, 0.058668602257966995, -0.018999645486474037, 0.26099029183387756, 0.12778733670711517, 0.11616601794958115, -0.1874750554561615, 0.012664508074522018, -0.10045827925205231, 0.10997772961854935, -0.14274245500564575, -0.15139468014240265, -0.2875688672065735, -0.11249479651451111, 0.09124571084976196, 0.037534575909376144, -0.015387602150440216, 0.13706575334072113, -0.06728703528642654, 0.05837412178516388, -0.13463494181632996, -0.04230117425322533, -0.010712648741900921, -0.0818725973367691, 0.17049798369407654, -0.03939446434378624, 0.023645007982850075, 0.0663309395313263, 0.08236733824014664, 0.04247034713625908, -0.035722579807043076, -0.05610783398151398, -0.19796498119831085, -0.10861002653837204, -0.1321169137954712, 0.18792295455932617, -0.18687747418880463, -0.06498872488737106, -0.09102662652730942, 0.07862657308578491, 0.1801747977733612, -0.02990567497909069, 0.024804482236504555, 0.037937186658382416, 0.20345395803451538, -0.10406789183616638, 0.02393864095211029, -0.12451789528131485, 0.023967763409018517, 0.06432048231363297, -0.09789609163999557, 0.1497286707162857, -0.15074609220027924, -0.03605733439326286, -0.0661626085639, 0.22357992827892303, 0.10354446619749069, 0.20885437726974487, -0.1567239910364151, 0.14771804213523865, -0.19501850008964539, 0.009756607003509998, 0.2230219691991806, 0.0048847198486328125, 0.21417009830474854, -0.2228410542011261, -0.13518434762954712, -0.0684216246008873, 0.1524554044008255, 0.017450105398893356, 0.03236036002635956, 0.09655073285102844, 0.06452156603336334, -0.12084554135799408, -0.07321140170097351, -0.05179250240325928, -0.2262725532054901, -0.15856750309467316, -0.07721135765314102, -0.1869906485080719, -0.11680229753255844, -0.2046998143196106, 0.02628570795059204, 0.018777240067720413, -0.07610919326543808, 0.013060477562248707, -0.017557043582201004, 0.1733405441045761, 0.17915861308574677, -0.06944448500871658, 0.011416688561439514, -0.06721880286931992, -0.13756605982780457, 0.06528507173061371, 0.17193911969661713, 0.3115750849246979, -0.2250424325466156, -0.006961165927350521, 0.01664130389690399, -0.15495014190673828, -0.07620356976985931, -0.12953528761863708, 0.0146844033151865, -0.18813413381576538, -0.10480920970439911, 0.07358668744564056, 0.19323760271072388, 0.20651061832904816, 0.004328800365328789, -0.05663777515292168, -0.12584075331687927, 0.14404138922691345, 0.3431665003299713, 0.32444262504577637, -0.05987488105893135, -0.1588241159915924, -0.21017853915691376, 0.2983010411262512, 0.2994641959667206, 0.273215651512146, -0.04396585002541542, -0.014943794347345829, 0.08081195503473282, 0.039597924798727036, 0.19300103187561035, 0.11886416375637054, 0.07910037785768509, 0.06778328120708466, 0.09046486765146255, 0.06798259913921356, 0.2902746796607971, -0.09085973352193832, 0.14142195880413055, -0.15396533906459808, -0.1756754219532013, 0.04217600077390671, -0.005953456740826368, -0.21774503588676453, -0.17106513679027557, -0.1858816295862198, 0.03948889672756195, -0.35727933049201965, -0.043060652911663055, 0.097826287150383, 0.04388660937547684, 0.08196765184402466, -0.02309749461710453, 0.0891130343079567, 0.13194411993026733, -0.09171080589294434, -0.09965486824512482, 0.3083806335926056, 0.06320954859256744, 0.010824122466146946, -0.016765478998422623, 0.2237458974123001, 0.20261262357234955, 0.1910158395767212, 0.0794612318277359, 0.05973655357956886, -0.06956740468740463, -0.2443150132894516, -0.04841862991452217, 0.17002251744270325, 0.013423731550574303, -0.41259676218032837, -0.2422228753566742, 0.0314454659819603, -0.07868974655866623, 0.0724729597568512, 0.028054967522621155, -0.05536704510450363, 0.011581076309084892, -0.1021299809217453, 0.13007135689258575, 0.17184922099113464, -0.28171953558921814, 0.13648076355457306, -0.08285624533891678, -0.16394810378551483, -0.1409774124622345, 0.0023709714878350496, 0.07774383574724197, -0.11149546504020691, 0.056038253009319305, -0.005909608211368322, 0.1741127222776413, 0.04198938608169556, -0.06845304369926453, 0.1669311821460724, 0.11930455267429352, -0.055159520357847214, 0.10980302095413208, 0.013888982124626637, -0.1149340346455574, 0.2131897360086441, -0.12336556613445282, -0.22528095543384552, -0.18702645599842072, 0.11410979926586151, 0.13317503035068512, 0.16041235625743866, -0.11453042179346085, 0.035834815353155136, -0.20898522436618805, -0.12129882723093033, 0.14463171362876892, -0.056147944182157516, 0.1533346325159073, 0.03774908185005188, -0.14664813876152039, -0.01389510091394186, -0.052213676273822784, 0.01403932273387909, -0.03635242581367493, 0.007341161835938692, 0.24784918129444122, -0.17755281925201416, -0.09686748683452606, 0.23986226320266724, -0.05671202391386032, 0.05889236554503441, 0.12602974474430084, -0.06588007509708405, -0.07351905852556229, -0.07477805763483047, 0.022877972573041916, -0.011058133095502853, -0.029216580092906952, 0.0820751041173935, 0.07642287760972977, 0.04902142658829689, -0.20200194418430328, 0.08320198953151703, -0.3097303807735443, 0.3999135494232178, 0.04690924286842346, 0.1643693745136261, -0.08219067007303238, -0.09582971036434174, -0.06279145181179047, -0.10802212357521057, -0.1751999855041504, -0.03259323537349701, 0.026810260489583015, 0.01210383977741003, -0.1346741020679474, 0.047195978462696075, 0.08817185461521149, -0.2046772539615631, -0.001090157893486321, 0.252424031496048, -0.024327101185917854, 0.03286057710647583, 0.202774778008461, 0.24458856880664825, -0.3887716233730316, 0.1106167584657669, 0.0008461911929771304, -0.23878931999206543, 0.24529598653316498, -0.001114116283133626, 0.14606912434101105, -0.03253791108727455, 0.10480591654777527, 0.15751075744628906, -0.3037182092666626, -0.09164827316999435, -0.26375481486320496, -0.17880739271640778, 0.18783356249332428, -0.08124532550573349, -0.2248256951570511, 0.10617131739854813, -0.22213411331176758, 0.09920680522918701, -0.19639572501182556, -0.1772013008594513, 0.23735922574996948, 0.1217898353934288, -0.15289060771465302, -0.1848890483379364, -0.41987717151641846, 0.07061251252889633, -0.08555027842521667, -0.1526239961385727, -0.06674670428037643, -0.34055057168006897, -0.10909228026866913, -0.14764653146266937, -0.12725166976451874, -0.021597402170300484, 0.13922244310379028, 0.014089885167777538, 0.21575824916362762, 0.04137665033340454, 0.18832823634147644, -0.091900534927845, -0.14736735820770264, 0.028068898245692253, -0.023714706301689148, 0.07730799913406372, 0.1299678236246109, 0.29941296577453613, -0.36363890767097473, -0.18356341123580933, -0.07000625878572464, -0.17051848769187927, 0.16833247244358063, -0.1801433116197586, -0.09710945934057236, -0.21791575849056244, 0.13186323642730713, 0.14470228552818298, -0.20347140729427338, 0.24953700602054596, -0.2119886428117752, -0.000942288723308593, 0.11688213795423508, -0.00553096504881978, -0.03889724239706993, -0.02943933941423893, -0.08021967858076096, -0.025389565154910088, -0.0291090477257967, -0.14537861943244934, 0.03625848889350891, -0.04288434237241745, 0.16300685703754425, -0.20238693058490753, -0.04677572101354599, -0.05039945989847183, 0.045063458383083344, 0.2342073917388916, 0.1645582616329193, 0.00033007923047989607, 0.05085897818207741, 0.05360384285449982, -0.11807142943143845, -0.15807293355464935, -0.04327791929244995, 0.05607021227478981, 0.14286288619041443, 0.04594915732741356, -0.039994556456804276, -0.06539367139339447, -0.06143355369567871, -0.12523964047431946, -0.03200102970004082, -0.19761890172958374, -0.05259326845407486, -0.012415018863976002, 0.04098496586084366, -0.12283379584550858, -0.2320280820131302, 0.009162439033389091, 0.18807867169380188, 0.1180153638124466, -0.04559624567627907, -0.29830193519592285, 0.019014816731214523, 0.0010648249881342053, -0.057425931096076965, -0.33718642592430115, -0.1205577403306961, 0.05288604646921158, -0.044465500861406326, 0.14378151297569275, -0.08628963679075241, 0.13971805572509766, 0.07789799571037292, 0.06549056619405746, -0.09326329082250595, 0.04753958061337471, 0.1429281383752823, 0.26238319277763367, 0.10495062172412872, -0.1751188337802887, 0.14619845151901245, -0.17179006338119507, 0.234400674700737, 0.15121705830097198, 0.24903281033039093, -0.16558639705181122, -0.08042078465223312, 0.1267998069524765, 0.058523789048194885, 0.11263676732778549, 0.1258508265018463, 0.20914502441883087, -0.03918490186333656, -0.6017255187034607, 0.22638645768165588, 0.5929903984069824, -0.5304008722305298, 0.056569501757621765, -0.836207926273346, -0.11994276940822601, -0.2319982647895813, 0.719954252243042, -0.8089219927787781, -0.756064772605896, -0.8315053582191467, 0.23651917278766632, -0.577092170715332, 0.4746333658695221, -0.6739044785499573, -0.16708259284496307, -0.28152593970298767, 0.18480102717876434, 0.25549590587615967, 0.05996314808726311, 0.08692054450511932, -0.13006900250911713, -0.04480871185660362, -0.11654802411794662, 0.09051963686943054, 0.0863875225186348, 0.11737757176160812, 0.12014307081699371, 0.35580703616142273, 0.12979936599731445, 0.10602647811174393, -0.02814396098256111, -0.10985969752073288, 0.08495613187551498, -0.1181960478425026, -0.41428226232528687, 0.010860021226108074, -0.2854970097541809, -0.19795279204845428, 0.20273606479167938, -0.11532269418239594, -0.020838258787989616, 0.3740709125995636, 0.24574725329875946, 0.10387361794710159, 0.10255593806505203, 0.3341960906982422, -0.08227647840976715, -0.30234426259994507, 0.10526029765605927, 0.30835655331611633, 0.07017672061920166, 0.14365731179714203, -0.0729597732424736, 0.17667610943317413, -0.13835398852825165, 0.05251258239150047, -0.18497243523597717, -0.22522501647472382, 0.001025793026201427, 0.2908869683742523, 0.0624803826212883, 0.04747166484594345, 0.277586966753006, 0.22114433348178864, -0.3695942163467407, -0.12722130119800568, 0.014457568526268005, 0.13763903081417084, -0.11094272136688232, 0.0019060306949540973, -0.17473946511745453, -0.00862227100878954, -0.11001357436180115, 0.3366274833679199, -0.03973263502120972, -0.19436195492744446, -0.09098644554615021, -0.09142649173736572, 0.33708804845809937, 0.13123078644275665, -0.3314393162727356, -0.11397823691368103, 0.4328104555606842, 0.02779301442205906, 0.05924704670906067, 0.41829487681388855, -0.0845261961221695, -0.24231165647506714, -0.016736844554543495, 0.604404628276825, -0.5114037394523621, 0.10954700410366058, -0.1775629222393036, -0.4859275221824646, -0.2399362474679947, -0.031123822554945946, -0.1458422690629959, -0.19867563247680664, 0.07763996720314026, -0.1968810260295868, 0.13146939873695374, 0.03754832223057747, 0.0007818879676051438, 0.025094278156757355, 0.13646651804447174, -0.09418077766895294, -0.2261352390050888, -0.16575345396995544, -0.017812812700867653, 0.11200793087482452, 0.21980071067810059, -0.1693427711725235, 0.10619159787893295, -0.06419896334409714, 0.22824864089488983, 0.330285906791687, -0.2654763162136078, -0.29826587438583374, 0.3894953429698944, -0.0005560340941883624, -0.15010225772857666, 0.2088102102279663, -0.07573530822992325, -0.00103184103500098, 0.0667923241853714, -0.07670857757329941, 0.1404045671224594, -0.039255958050489426, 0.10126244276762009, -0.02511550299823284, 0.20274458825588226, -0.14140814542770386, -0.02087000198662281, 0.04209648445248604, 0.03691175952553749, 0.20135149359703064, -0.11193640530109406, 0.09992173314094543, -0.025956250727176666, 0.001451971591450274, 0.1701514571905136, 0.08326467126607895, -0.13699807226657867, 0.03866366669535637, -0.17197149991989136, -0.14906036853790283, -0.324226975440979, -0.2306138128042221, -0.16501814126968384, -0.26443707942962646, 0.2409733533859253, 0.1802324652671814, 0.020323263481259346, -0.018608443439006805, 0.1164407953619957, 0.12913183867931366, -0.2281838357448578, 0.2719487249851227, -0.1410280466079712, 0.0028639270458370447, -0.0421995148062706, -0.010418517515063286, 0.2728438675403595, -0.004351257346570492, 0.30974501371383667, -0.05754927545785904, -0.049501121044158936, -0.08056505024433136, 0.24373792111873627, 0.29270464181900024, -0.059740468859672546, 0.07283083349466324, 0.24597491323947906, -0.2862287759780884, -0.17971040308475494, -0.0029376244638115168, -0.13836322724819183, 0.08295295387506485, -0.22115661203861237, -0.1946721374988556, 0.05033176764845848, -0.08616891503334045, 0.2705118954181671, 0.3369607925415039, -0.3425711989402771, -0.20501138269901276, 0.4659341871738434, -0.060194049030542374, 0.0047196075320243835, 0.10554985702037811, 0.32536160945892334, 0.4216338098049164, -0.46975836157798767, -0.21794448792934418, -0.140050008893013, -0.04164442420005798, -0.049803320318460464, 0.3183826208114624, -0.4068705141544342, 0.12952445447444916, 0.2555094361305237, 0.018673889338970184, 0.06490225344896317, -0.24150778353214264, -0.15689784288406372, -0.08641626685857773, -0.15277782082557678, -0.21582484245300293, -0.2622605562210083, 0.193831667304039, -0.1864059418439865, 0.12671099603176117, -0.34801217913627625, 0.16651110351085663, 0.027868520468473434, -0.058780916035175323, -0.3323480486869812, 0.2568090260028839, 0.204955592751503, -0.12264298647642136, -0.24906322360038757, -0.196148082613945, 0.1306389719247818, -0.059060677886009216, -0.24373191595077515, 0.2809261381626129, -0.28470316529273987, 0.19632238149642944, -0.18837988376617432, -0.15047931671142578, 0.30274689197540283, 0.2169230878353119, 0.006923347245901823, 0.017214838415384293, 0.08118823170661926, 0.11446434259414673, 0.024297652766108513, -0.14835910499095917, 0.07739008963108063, 0.3366548418998718, -0.06174413114786148, -0.22299717366695404, 0.33860552310943604, -0.0730881541967392, 0.1256571114063263, -0.2381235659122467, 0.12316154688596725, -0.22128187119960785, -0.04063424840569496, -0.04762855917215347, -0.3543672561645508, -0.1412583291530609, 0.32911917567253113, -0.003350024577230215, -0.0012430584756657481, -0.3248875141143799, 0.03690124303102493, -0.015355818904936314, -0.22491455078125, 0.12335196137428284, 0.08632460981607437, 0.123330257833004, 0.17536677420139313, -0.10218755155801773, 0.1543746441602707, 0.04615843668580055, -0.16590066254138947, 0.3437389135360718, -0.05594330281019211, -0.23679441213607788, -0.159993514418602, 0.013973594643175602, -0.003016454167664051, -0.09069208055734634, -0.15509489178657532, 0.010501978918910027, 0.15378092229366302, 0.11416183412075043, 0.07916570454835892, 0.020406194031238556, 0.09292454272508621, -0.3154151141643524, 0.00020815228344872594, -0.2745917737483978, -0.026286877691745758, -0.06909838318824768, -0.09977973252534866, -0.049898695200681686, -0.1782299429178238, -0.03541025519371033, -0.18249374628067017, 0.030334608629345894, -0.08407421410083771, -0.032428864389657974, 0.03592840954661369, 0.11934524029493332, -0.07874614000320435, -0.04028673470020294, 0.12759292125701904, -0.018550310283899307, -0.029483294114470482, 0.1678430140018463, 0.09674747288227081, 0.004911528434604406, -0.15472690761089325, -0.037741273641586304, 0.03976540267467499, 0.14867834746837616, 0.11136706918478012, -0.07543100416660309, -0.17374108731746674, 0.08075378090143204, -0.02454192191362381, 0.1550743579864502, 0.06617560982704163, -0.06766638159751892, -0.05316849425435066, -0.032620515674352646, -0.032037153840065, -0.07852277159690857, 0.07227838784456253, 0.03750463202595711, -0.15202927589416504, -0.13840164244174957, 0.0695846825838089, -0.20001555979251862, 0.07116953283548355, -0.04072266072034836, 0.22595876455307007, 0.08472465723752975, -0.09961066395044327, 0.16825267672538757, -0.07608313113451004, -0.03864336013793945, -0.15252470970153809, -0.1459077000617981, 0.14395087957382202, -0.17718179523944855, 0.035773392766714096, -0.07663038372993469, -0.11728113144636154, 0.02580551616847515, 0.2981303334236145, 0.09876779466867447, -0.08037223666906357, -0.018064526841044426, 0.28934526443481445, -0.21896319091320038, -0.04597189277410507, -0.03256300836801529, 0.07393811643123627, -0.24721695482730865, 0.09302829205989838, -0.15757203102111816, 0.2311866581439972, -0.0013053901493549347, -0.03927859291434288, -0.1605808585882187, 0.1745300143957138, 0.12801222503185272, 0.028956439346075058, 0.22391770780086517, 0.13448235392570496, -0.013264492154121399, 0.11047439277172089, 0.2744755148887634, 0.1735161989927292, -0.14209432899951935, -0.25082728266716003, 0.03524332866072655, 0.17967991530895233, 0.3303987681865692, 0.19839566946029663, -0.000882185238879174, -0.05861806869506836, -0.015232071280479431, 0.08182264864444733, 0.3775906264781952, 0.04131215438246727, 0.22275187075138092, -0.01595727726817131, -0.23295937478542328, 0.2738349139690399, -0.023086922243237495, -0.007240673992782831, 0.27078405022621155, 0.019048653542995453, -0.14714699983596802, 0.22343255579471588, -0.1020522266626358, 0.012161794118583202, -0.05676238611340523, -0.11280300468206406, 0.04947521165013313, -0.09586668014526367, -0.15843811631202698, 0.13853274285793304, -0.003451352007687092, 0.1508924663066864, 0.03579070046544075, 0.1306605041027069, 0.06158026307821274, -0.08845935016870499, -0.21739321947097778, 0.21429476141929626, 0.04123494774103165, 0.16253472864627838, -0.09126265347003937, -0.10406224429607391, -0.05797209590673447, 0.18518371880054474, -0.022965887561440468, 0.054502569139003754, 0.10253269970417023, -0.023364495486021042, 0.010231017135083675, -0.26586270332336426, 0.030693301931023598, 0.33813410997390747, -0.13988059759140015, -0.04733337089419365, 0.07615379989147186, -0.0505431666970253, -0.059634651988744736, -0.03521420434117317, -0.013824569061398506, -0.04241956025362015, -0.21003343164920807, 0.09020882099866867, 0.22157546877861023, -0.38632071018218994, -0.1608060747385025, 0.010704727843403816, -0.15719051659107208, 0.09196348488330841, -0.13579030334949493, 0.18093594908714294, 0.1901036947965622, -0.07434345781803131, 0.2524986267089844, -0.17585745453834534, -0.07228220254182816, 0.01843167468905449, -0.2812683880329132, -0.2829553484916687, -0.22015255689620972, -0.05101163312792778, 0.025203095749020576, 0.13378681242465973, -0.052532896399497986, -0.22188924252986908, -0.10228576511144638, 0.20304419100284576, 0.19507469236850739, 0.1750514954328537, 0.04950910806655884, 0.326773464679718, -0.2034200131893158, 0.048598624765872955, 0.0010597757063806057, -0.2095133364200592, -0.02417200431227684, 0.07435474544763565, 0.5081378221511841, -0.2611028254032135, -0.03644978255033493, 0.02500009350478649, -0.05416093021631241, 0.2390555739402771, 0.16979345679283142, -0.09622322767972946, 0.049543704837560654, -0.04586536064743996, -0.06969280540943146, 0.1316019594669342, -0.23183739185333252, 0.14184659719467163, 0.22709336876869202, -0.182091623544693, -0.15560612082481384, -0.22445254027843475, -0.22968946397304535, 0.006470820866525173, 0.062140174210071564, 0.015274669975042343, 0.1582401692867279, -0.08840687572956085, -0.19310905039310455, 0.3040718138217926, -0.03913191333413124, -0.03314986452460289, 0.07920292019844055, -0.027334440499544144, 0.15590323507785797, -0.05263236165046692, -0.038262490183115005, -0.30910763144493103, -0.034468282014131546, 0.20249855518341064, 0.12318845093250275, -0.19775325059890747, 0.13465027511119843, -0.01844595931470394, 0.03901086002588272, 0.09325415641069412, 0.14490871131420135, -0.0361267551779747, -0.02456161007285118, -0.17654965817928314, -0.09225483983755112, -0.13499213755130768, -0.06474992632865906, 0.42392274737358093, 0.012159221805632114, -0.25517538189888, 0.3248901069164276, 0.022227361798286438, -0.2137749195098877, -0.04805044084787369, 0.1668984293937683, 0.1258215755224228, -0.22291900217533112, 0.12530669569969177, 0.14735810458660126, -0.20345056056976318, -0.21566142141819, -0.183405801653862, -0.08403637260198593, -0.12158650159835815, 0.022909650579094887, -0.029715334996581078, 0.21314682066440582, -0.38888734579086304, -0.02712305076420307, -0.002875284058973193, -0.008422772400081158, -0.11014768481254578, 0.15584129095077515, 0.12021011859178543, -0.13190524280071259, -0.030520141124725342, 0.005723515059798956, -0.1100449338555336, 0.04152066633105278, -0.08474652469158173, 0.09935955703258514, 0.10139023512601852, 0.08368829637765884, -0.19161124527454376, 0.1465240716934204, -0.0366215743124485, 0.02739444375038147, -0.030017007142305374, 0.14503958821296692, -0.052410103380680084, -0.04162340238690376, -0.019896114245057106, 0.32450783252716064, 0.19566048681735992, -0.10634428262710571, 0.2361280620098114, -0.013349027372896671, 0.20097823441028595, -0.08968652039766312, -0.06047927588224411, -0.09152714163064957, 0.06383515894412994, 0.2096630483865738, 0.15913859009742737, -0.11114693433046341, -0.19829072058200836, 0.3733854293823242, 0.05054473504424095, 0.0800374299287796, 0.183553084731102, -0.20047606527805328, -0.3076704740524292, 0.2447790652513504, -0.26892945170402527, -0.0977955237030983, 0.3142188787460327, -0.14417622983455658, -0.13311976194381714, -0.2993325889110565, 0.02164621092379093, 0.07440555840730667, -0.6106660962104797, -0.15213151276111603, 0.16790352761745453, -0.15411916375160217, 0.14697881042957306, -0.05660004913806915, 0.16026590764522552, -0.08134139329195023, -0.06583722680807114, 0.13867968320846558, 0.16159594058990479, -0.12457035481929779, 0.030317287892103195, 0.061009734869003296, -0.07136616855859756, -0.09246604144573212, 0.22206029295921326, -0.12987002730369568, 0.3700881898403168, -0.051676880568265915, -0.31373685598373413, -0.2317751795053482, -0.0931616723537445, 0.3207930624485016, 0.029638735577464104, -0.06734762340784073, -0.3657076954841614, 0.0627356469631195, -0.17084574699401855, -0.08202282339334488, -0.2455429881811142, 0.20690160989761353, 0.1342988908290863, 0.09328286349773407, -0.10279865562915802, -0.11307064443826675, -0.24710588157176971, -0.10942309349775314, -0.36291542649269104, 0.0063691521063447, 0.08826839923858643, -0.03561060130596161, -0.34394732117652893, -0.08890938758850098, -0.06273557245731354, -0.30473026633262634, 0.03327903524041176, 0.11998406797647476, -0.23736310005187988, 0.01595742255449295, -0.09678858518600464, 0.10164401680231094, 0.051408156752586365, 0.1391299068927765, -0.05096274986863136, 0.005329760257154703, -0.042421188205480576, 0.12747207283973694, 0.04094543680548668, 0.0609322115778923, 0.07953249663114548, 0.2612690329551697, -0.002345797372981906, 0.06291685253381729, 0.0721307024359703, -0.13248926401138306, 0.01411819364875555, 0.047539759427309036, 0.06482329964637756, -0.23680080473423004, 0.14399927854537964, -0.13848082721233368, -0.09815850853919983, 0.5826317667961121, 0.009010775946080685, -0.17859292030334473, -0.08177238702774048, -0.0022439565509557724, 0.10824757814407349, -0.1505332738161087, 0.11968584358692169, 0.05443130433559418, 0.001033794367685914, -0.03802325576543808, -0.1112409234046936, -0.19582244753837585, 0.045325569808483124, 0.0010728505440056324, -0.08990520983934402, 0.16438348591327667, -0.22087734937667847, -0.09099162369966507, 0.019648104906082153, -0.036539774388074875, 0.2714140713214874, 0.12177113443613052, -0.09023258835077286, 0.032092537730932236, -0.0841015949845314, 0.06784860789775848, -0.15611489117145538, -0.060700807720422745, 0.13831910490989685, 0.04402346536517143, 0.13302607834339142, 0.17965981364250183, -0.20554420351982117, -0.05897769331932068, 0.03764265403151512, 0.043041542172431946, 0.09477613121271133, 0.18065744638442993, -0.05059821903705597, -0.10489703714847565, -0.232034832239151, -0.08420609682798386, -0.12313687801361084, -0.14458860456943512, 0.27970269322395325, -0.10325554013252258, -0.33263421058654785, 0.08637181669473648, -0.20661310851573944, -0.0289230328053236, 0.05611075460910797, 0.13859540224075317, 0.36407530307769775, 0.16757600009441376, -0.021054938435554504, 0.3261220157146454, 0.03511882200837135, -0.1086045503616333, -0.26248234510421753, -0.03199084848165512, -0.0986313447356224, -0.02873433195054531, 0.14266543090343475, 0.20046864449977875, -0.16627976298332214, 0.08835368603467941, 0.19610415399074554, -0.05903876945376396, 0.14563849568367004, -0.19522690773010254, 0.16784918308258057, 0.0868569016456604, -0.03861561790108681, 0.03443343564867973, -0.0958770141005516, -0.050892703235149384, -0.18527090549468994, 0.07849179953336716, -0.05394658446311951, 0.1382630169391632, -0.284015953540802, -0.05260813236236572, -0.07240518927574158, -0.06641589850187302, 0.11988482624292374, 0.18587882816791534, -0.18629848957061768, 0.0015955310082063079, -0.19985418021678925, 0.028217371553182602, -0.034691695123910904, -0.11328357458114624, 0.41331228613853455, -0.19228114187717438, -0.0052743935957551, 0.19285550713539124, 0.009572920389473438, -0.1441257894039154, -0.03258451446890831, 0.0835496336221695, 0.03387080505490303, -0.06025789678096771, -0.2081657350063324, 0.10862096399068832, -0.1442921757698059, -0.1395912617444992, 0.15619467198848724, -0.028846748173236847, 0.13687282800674438, 0.005880390293896198, 0.051838357001543045, 0.12814198434352875, 0.04558463767170906, -0.0671442374587059, 0.21348904073238373, 0.11568804085254669, -0.025743136182427406, 0.06947093456983566, 0.13210365176200867, -0.1550673395395279, -0.04390759766101837, -0.1640092432498932, 0.09735549241304398, -0.1697307527065277, 0.16002973914146423, 0.10712617635726929, -0.13926629722118378, -0.006719409488141537, 0.24735991656780243, -0.08019987493753433, 0.06387177854776382, -0.03207060694694519, 0.12607231736183167, -0.03842560946941376, 0.18082618713378906, 0.057875700294971466, -0.034351896494627, -0.18166664242744446, 0.2039576768875122, 0.09245245903730392, -0.4433482885360718, 0.05965428054332733, 0.17639288306236267, -0.160032257437706, 0.06751472502946854, 0.18795347213745117, -0.18451978266239166, -0.07655765861272812, -0.17097604274749756, 0.21008479595184326, -0.20090653002262115, 0.043324753642082214, 0.053975921124219894, 0.0047270492650568485, 0.07815747708082199, -0.05446821078658104, 0.14661087095737457, 0.13180598616600037, -0.03748178482055664, -0.1350380927324295, 0.02020355500280857, 0.08102690428495407, -0.010684805922210217, -0.0973421260714531, -0.05430338904261589, 0.04382830485701561, 0.04547092318534851, 0.17063049972057343, 0.13361667096614838, -0.11647666245698929, -0.0605817511677742, 0.08700881153345108, 0.06670001149177551, 0.021368782967329025, -0.004352685064077377, 0.06943067163228989, -0.12545645236968994, -0.030609622597694397, -0.15039944648742676, -0.24018116295337677, -0.25920575857162476, -0.11647813767194748, -0.041301850229501724, 0.0790269523859024, -0.20372749865055084, -0.34706035256385803, -0.38508474826812744, 0.13406363129615784, 0.10468952357769012, 0.004323828965425491, 0.24421222507953644, -0.2520548105239868, 0.03724445402622223, -0.0611562505364418, -0.19116497039794922, 0.08779821544885635, -0.28574103116989136, -0.31872329115867615, 0.147176131606102, -0.029069729149341583, -0.1989288479089737, 0.1275358498096466, 0.1355399340391159, 0.018827954307198524, 0.2721233069896698, 0.24293851852416992, 0.05814022198319435, -0.02891007624566555, 0.03898128122091293, -0.27736926078796387, -0.020023154094815254, 0.04556459188461304, -0.1827181875705719, -0.06580646336078644, 0.03208566829562187, -0.018866831436753273, 0.040186479687690735, -0.06715672463178635, 0.17088991403579712, 0.041332948952913284, 0.006337327882647514, 0.14032131433486938, -0.08390505611896515, -0.056850582361221313, 0.0811237320303917, -0.07722976803779602, 0.07046554237604141, -0.21416915953159332, -0.017453035339713097, -0.17199118435382843, 0.19029447436332703, 0.03879363089799881, 0.27845796942710876, 0.22721785306930542, 0.22262859344482422, -0.010640658438205719, -0.46814319491386414, 0.02855389565229416, 0.15420584380626678, -0.1765410602092743, -0.08261699229478836, 0.1684332638978958, 0.02825116738677025, -0.05158919468522072, -0.123419389128685, 0.18655897676944733, -0.19080057740211487, 0.0576869398355484, 0.13621583580970764, 0.0886790007352829, 0.21090926229953766, 0.004145889542996883, 0.0953562781214714, 0.25708189606666565, -0.06013026088476181, -0.036678846925497055, 0.22703488171100616, -0.13004224002361298, -0.0733027532696724, -0.08102309703826904, -0.12198400497436523, 0.11171440035104752, -0.16735514998435974, -0.03429175540804863, 0.10663069784641266, -0.1776389330625534, 0.12669901549816132, -0.12819573283195496, 0.1644028276205063, -0.06619616597890854, 0.009499221108853817, -0.07925953716039658, 0.14240843057632446, -0.11994726955890656, 0.015143470838665962, 0.002036110498011112, -0.12180446833372116, -0.04525240883231163, 0.03866620361804962, 0.1483805626630783, 0.02746177650988102, 0.11234362423419952, -0.06284591555595398, -0.0492439866065979, -0.2563846707344055, 0.021391868591308594, -0.007210223004221916, 0.057025521993637085, -0.2709864675998688, 0.14887864887714386, 0.04746292904019356, -0.1433723419904709, -0.29807379841804504, 0.07281911373138428, -0.020111996680498123, -0.12309730798006058, 0.030736397951841354, 0.04362843185663223, 0.17553217709064484, -0.19368208944797516, 0.04117674380540848, 0.15885969996452332, -0.2875429689884186, -0.02683350257575512, -0.216738760471344, -0.1694166660308838, 0.014386660419404507, 0.06206522881984711, -0.12324792146682739, 0.004826836753636599, -0.2268572449684143, -0.11771262437105179, -0.033771809190511703, 0.03808465600013733, 0.1436416059732437, -0.11504920572042465, 0.04547249898314476, -0.33678725361824036, -0.16425137221813202, 0.15473179519176483, 0.16296085715293884, 0.18110564351081848, 0.2365957647562027, -0.160935640335083, -0.06621281057596207, 0.26813334226608276, 0.15878413617610931, 0.34214070439338684, -0.02243214100599289, -0.044101737439632416, -0.23559555411338806, -0.15936468541622162, 0.32724717259407043, 0.04502030089497566, 0.42345544695854187, 0.008053836412727833, -0.41247692704200745, -0.011342106387019157, -0.31137615442276, -0.20937380194664001, -0.10539446026086807, 0.28986239433288574, 0.25541672110557556, 0.17693892121315002, 0.18724077939987183, 0.1631276160478592, -0.09928466379642487, 0.07315199822187424, 0.0672677755355835, 0.03446362912654877, 0.195241779088974, 0.22816739976406097, -0.20315590500831604, 0.14801664650440216, 0.05260169506072998, -0.13165073096752167, 0.09932271391153336, -0.009634492918848991, 0.0617513582110405, 0.13377732038497925, -0.01383878942579031, 0.18288257718086243, -0.10881776362657547, 0.04610228165984154, 0.08688470721244812, 0.13661105930805206, 0.09062041342258453, 0.0670214518904686, -0.048440080136060715, 0.14596109092235565, -0.02733457274734974, -0.10381796956062317, -0.01783176325261593, -0.1078047826886177, -0.12265752255916595, -0.06040525063872337, -0.09506651759147644, 0.007091899868100882, 0.16546912491321564, -0.12349340319633484, 0.23830220103263855, -0.025037266314029694, -0.19487425684928894, 0.17879703640937805, -0.16997109353542328, -0.021190600469708443, 0.15164481103420258, -0.049703579396009445, 0.18983012437820435, -0.21939462423324585, 0.0038621278945356607, -0.09540476649999619, -0.17749346792697906, 0.06165292114019394, 0.06055876612663269, 0.07384061813354492, -0.00943878386169672, 0.11551252752542496, 0.2155207246541977, -0.01084508839994669, 0.03757515549659729, -0.1321307122707367, 0.00228502438403666, 0.03385753557085991, 0.13369959592819214, 0.003792261704802513, -0.21094904839992523, 0.027204837650060654, -0.029686497524380684, -0.04354430362582207, 0.0009036575211212039, -0.6875113248825073, 0.7380426526069641, 0.2253623902797699, -0.2829461693763733, 0.34535327553749084, -0.244922935962677, 0.10410062223672867, 0.58311527967453, -0.554522693157196, 0.735984742641449, 0.5628588199615479, -0.032273389399051666, -0.5406138300895691, 0.5462160110473633, -0.48910802602767944, 0.2500777244567871, -0.15646697580814362, -0.06781096756458282, -0.49384239315986633, 0.30447453260421753, 0.47318634390830994, 0.06174420937895775, 0.19182711839675903, 0.3329264521598816, 0.2603430151939392, -0.23285962641239166, 0.21552956104278564, -0.3406330347061157, -0.2427898645401001, -0.10563914477825165, 0.033061470836400986, 0.05632663145661354, 0.044385623186826706, -0.08351750671863556, 0.4263058304786682, 0.133268341422081, -0.14657454192638397, -0.05767426639795303, -0.5586163401603699, -0.2789250612258911, 0.09293299913406372, 0.03778543323278427, -0.12632234394550323, 0.09813500940799713, 0.11187420040369034, 0.1623222380876541, -0.12629935145378113, -0.12132604420185089, -0.496406227350235, 0.23408332467079163, -0.05885927751660347, -0.09668556600809097, -0.5603118538856506, -0.021782496944069862, -0.5674249529838562, -0.06737957894802094, -0.1312347799539566, -0.00634131720289588, 0.408696711063385, 0.3035140633583069, 0.08680479973554611, 0.0892387256026268, -0.11456895619630814, 0.3073841333389282, 0.31931227445602417, 0.07256151735782623, -0.11863512545824051, 0.04616016149520874, 0.144670307636261, -0.19235064089298248, 0.09802591055631638, 0.11437612026929855, -0.055025093257427216, -0.05897681415081024, 0.2825126051902771, -0.031151534989476204, 0.10259833186864853, 0.02193306013941765, -0.031103119254112244, 0.14148631691932678, 0.29487144947052, 0.20888112485408783, -0.0474114716053009, -0.09553292393684387, -0.0679076686501503, 0.13959740102291107, -0.0017641480080783367, 0.28369230031967163, -0.07269664108753204, -0.11161495745182037, -0.33757826685905457, 0.020983118563890457, -0.10995441675186157, 0.07274915277957916, -0.2448510229587555, -0.09252893179655075, -0.20852670073509216, 0.1361861228942871, 0.07458963245153427, -0.4553213119506836, -0.12139872461557388, 0.06226557493209839, -0.031588274985551834, -0.015287252143025398, -0.0741034746170044, 0.08812011778354645, 0.28705859184265137, 0.44077932834625244, 0.16186082363128662, 0.22812756896018982, -0.10604826360940933, -0.02080138400197029, 0.4227968752384186, -0.11050716042518616, -0.09312764555215836, 0.21357759833335876, -0.178000345826149, 0.0597560852766037, -0.09196808189153671, -0.169528529047966, 0.18426397442817688, 0.022419514134526253, -0.3412526845932007, 0.12689292430877686, 0.08620403707027435, 0.0965653657913208, 0.21935686469078064, 0.31894126534461975, 0.15529845654964447, -0.06439844518899918, -0.06371065974235535, -0.04127722233533859, 0.059466779232025146, -0.04781358316540718, -0.09638425707817078, -0.000835796759929508, -0.009327646344900131, 0.31065189838409424, 0.11351215094327927, 0.0479033999145031, 0.23050542175769806, 0.08800534904003143, -0.1320013850927353, -0.2721925973892212, 0.4868371784687042, -0.005613536108285189, 0.0365070216357708, 0.2990632951259613, -0.013561475090682507, -0.2854466736316681, 0.09469027817249298, -0.18749482929706573, 0.16062244772911072, -0.2697994112968445, -0.006456171162426472, -0.28959375619888306, -0.060466520488262177, 0.05238225311040878, 0.10570061206817627, 0.42392635345458984, -0.2601175904273987, -0.08878694474697113, 0.014942796900868416, 0.12409019470214844, 0.1927722841501236, -0.10381834208965302, 0.033420391380786896, -0.034700311720371246, -0.07587771117687225, 0.15287674963474274, -0.2370063215494156, -0.020951688289642334, -0.04071200266480446, 0.1407625824213028, -0.07239650934934616, 0.2236546277999878, -0.28544050455093384, -0.16317293047904968, -0.4215381443500519, 0.3868817687034607, -0.11639276146888733, 0.045113757252693176, 0.05232337862253189, 0.178510844707489, 0.18059960007667542, -0.500985324382782, 0.024620046839118004, -0.11711383610963821, -0.3636553883552551, 0.0723002627491951, 0.35935643315315247, 0.2478053867816925, -0.6089788675308228, -0.10906009376049042, 0.04151453077793121, -0.0015306554269045591, 0.3445793688297272, 0.04158748313784599, 0.025926606729626656, -0.2339344620704651, -0.1767198145389557, -0.19639411568641663, 0.7218583822250366, -0.44329187273979187, -0.49905872344970703, -0.02763337455689907, 0.06341693550348282, -0.43966013193130493, -0.3625726103782654, -0.029288005083799362, -0.12438265979290009, 0.17040573060512543, -0.07128828763961792, -0.2421809583902359, -0.23681941628456116, -0.07185331732034683, -0.13576343655586243, -0.18381603062152863, 0.07307004183530807, -0.06476336717605591, 0.11360079050064087, 0.0347474068403244, -0.09530618786811829, -0.2794811725616455, 0.44966211915016174, -0.15251637995243073, -0.20470067858695984, 0.05340496823191643, -0.3275461792945862, 0.2214372754096985, -0.16868124902248383, -0.03274349123239517, -0.050804756581783295, 0.014081752859055996, 0.023378267884254456, -0.028659598901867867, 0.2696947753429413, -0.06673482060432434, -0.026877451688051224, 0.24470004439353943, 0.26149171590805054, 0.038932524621486664, -0.2780848741531372, -0.19242994487285614, 0.21197940409183502, -0.12290245294570923, -0.21888327598571777, 0.4303096532821655, 0.2524619400501251, 0.22088196873664856, -0.13491520285606384, 0.029583698138594627, 0.020925123244524002, -0.01715291105210781, -0.270458847284317, 0.012353413738310337, -0.09904275089502335, -0.042066361755132675, -0.15816457569599152, -0.10724540054798126, 0.1188850998878479, -0.030410023406147957, -0.1606377512216568, 0.12580201029777527, 0.24838314950466156, 0.22778919339179993, 0.14808733761310577, -0.20876501500606537, -0.17231124639511108, -0.05711446329951286, 0.09525572508573532, -0.018074197694659233, -0.0034723146818578243, 0.13256776332855225, 0.05837785452604294, -0.07169479876756668, -0.044405706226825714, 0.07752548158168793, 0.012215974740684032, -0.22506564855575562, -0.1623789519071579, 0.015076280571520329, 0.06847503781318665, 0.10042086243629456, 0.053163789212703705, 0.07947636395692825, 0.021596278995275497, 0.030738532543182373, -0.012841454707086086, -0.2035190910100937, 0.03517650440335274, -0.016868727281689644, 0.005640726536512375, 0.1415092796087265, -0.3340546190738678, -0.03940455988049507, 0.08618776500225067, -0.015609320253133774, 0.24064257740974426, 0.02484298311173916, -0.17929130792617798, 0.08861057460308075, 0.10105972737073898, 0.01857866905629635, 0.3313928246498108, 0.14981910586357117, 0.019612781703472137, -0.2037084549665451, -0.3424821197986603, -0.05573870986700058, -0.01353778038173914, 0.07832162082195282, -0.07729879766702652, -0.2724958658218384, -0.16603286564350128, 0.05971170961856842, 0.027394335716962814, -0.13693322241306305, 0.009279699996113777, -0.21199995279312134, 0.03226059675216675, -0.15268178284168243, -0.23774844408035278, 0.028035594150424004, -0.03425995260477066, -0.1622082144021988, 0.0913359746336937, -0.015165353193879128, -0.2904587388038635, -0.16457125544548035, -0.17480838298797607, 0.046060264110565186, 0.11559067666530609, -0.2016148418188095, 0.13054269552230835, 0.031249966472387314, 0.6027036309242249, -0.1568252593278885, -0.08803656697273254, 0.028675364330410957, 0.32955169677734375, -0.6747475266456604, -0.4543044865131378, 0.002332178642973304, 0.046976618468761444, 0.2909639775753021, -0.3960772454738617, 0.13343048095703125, -0.0629948303103447, 0.07475769519805908, 0.07897185534238815, -0.2629435956478119, -0.004710805602371693, -0.15174193680286407, 0.20374317467212677, 0.04395604133605957, -0.05840499699115753, -0.26185962557792664, -0.1849578320980072, -0.0031622357200831175, 0.4369666576385498, -0.008888852782547474, -0.06104731932282448, -0.011243429966270924, -0.13941042125225067, 0.20729921758174896, 0.6475901007652283, 0.04842814430594444, 0.12005940079689026, 0.09176500886678696, -0.08518563210964203, -0.35425859689712524, 0.049009136855602264, -0.0847151130437851, -0.2954018712043762, 0.10624495148658752, -0.11806294322013855, 0.30197083950042725, 0.008070333860814571, -0.08082311600446701, -0.6920784711837769, 0.25008755922317505, -0.5262601971626282, -0.020629357546567917, 0.21960195899009705, -0.3489390015602112, -0.017519444227218628, 0.21232284605503082, 0.0721789300441742, -0.2698124051094055, -0.08212042599916458, 0.14985427260398865, 0.1793854534626007, 0.18802423775196075, -0.3366003930568695, 0.1505788266658783, -0.13485592603683472, -0.032963041216135025, -0.24340568482875824, -0.34303945302963257, 0.036191098392009735, 0.09569941461086273, 0.23992608487606049, -0.1100430116057396, -0.00147051305975765, -0.08019088208675385, 0.21836021542549133, 0.04709325730800629, -0.03497345745563507, -0.12714312970638275, 0.053444281220436096, -0.12549132108688354, 0.11798731237649918, -0.09880769997835159, 0.39672592282295227, -0.6972123980522156, 0.10244054347276688, 0.27998408675193787, -0.05182231590151787, 0.0367741622030735, 0.05635339394211769, -0.1295592188835144, 0.04008461907505989, 0.10718478262424469, -0.03814152628183365, 0.01613149233162403, -0.22152523696422577, -0.054528966546058655, 0.08374156802892685, 0.20907004177570343, 0.1855974793434143, -0.04584668204188347, 0.1384531855583191, -0.11347711831331253, 0.014140593819320202, 0.061115995049476624, 0.19409732520580292, 0.23261959850788116, 0.2266499549150467, -0.016361922025680542, 0.16473016142845154, -0.057246334850788116, -0.14440561830997467, 0.12739692628383636, 0.08919386565685272, 0.0045204260386526585, -0.03873900696635246, -0.15498219430446625, 0.14355997741222382, 0.0830707922577858, -0.04240015149116516, -0.048103008419275284, 0.013465961441397667, 0.0015714131295681, 0.19485118985176086, 0.06172850355505943, -0.10083320736885071, -0.33507269620895386, -0.20864738523960114, 0.015921778976917267, 0.19550010561943054, 0.07318904250860214, 0.15993042290210724, -0.05200086534023285, 0.17784591019153595, 0.24437765777111053, 0.14171211421489716, -0.01731519214808941, 0.15703047811985016, -0.21262939274311066, 0.007523164618760347, 0.03941451758146286, -0.3512369692325592, -0.10986430197954178, -0.02260301634669304, 0.06728781014680862, -0.19812330603599548, 0.11105276644229889, -0.022474979981780052, 0.05485764518380165, 0.08517257869243622, 0.021018849685788155, -0.009551485069096088, 0.18703699111938477, 0.09493061155080795, 0.08446177840232849, -0.0007227779715321958, -0.03422389179468155, -0.12989477813243866, 0.12922275066375732, 0.029442740604281425, 0.22285747528076172, 0.09338518232107162, -0.006799167022109032, -0.10934890061616898, 0.09343937039375305, 0.07503402233123779, -0.07465551048517227, 0.04127361625432968, 0.023244326934218407, 0.04809197783470154, -0.07745496928691864, -0.23353718221187592, 0.08363865315914154, 0.2544798254966736, -0.02582416497170925, -0.03660319373011589, -0.0072059957310557365, -0.07598558813333511, 0.03459513932466507, -0.18758758902549744, -0.04852546006441116, -0.1203276515007019, -0.027467841282486916, 0.021138856187462807, -0.13817813992500305, 0.22394916415214539, -0.11509501188993454, -0.28142765164375305, 0.24034112691879272, -0.17094169557094574, -0.1083546057343483, -0.43872660398483276, 0.33584150671958923, -0.2366262823343277, 0.21852611005306244, -0.32605186104774475, -0.09600046277046204, 0.07680446654558182, 0.013223442249000072, 0.20820201933383942, 0.1727799028158188, -0.11355209350585938, -0.29818597435951233, -0.15374279022216797, 0.2490123212337494, -0.0006563217611983418, 0.3142007887363434, -0.10093492269515991, 0.18382754921913147, -0.09743364155292511, -0.06634625792503357, -0.15935200452804565, -0.2673457860946655, -0.0537019707262516, -0.014638046734035015, 0.14190806448459625, -0.0336497463285923, -0.05791671946644783, -0.1550743579864502, -0.15194988250732422, 0.030402639880776405, 0.23880775272846222, -0.11344047635793686, 0.06901947408914566, 0.007798637263476849, -0.018526189029216766, 0.2130250185728073, 0.21618203818798065, -0.06869286298751831, 0.15978345274925232, 0.12306832522153854, 0.2618756592273712, -0.04870663583278656, 0.016699114814400673, -0.08837899565696716, -0.16082881391048431, 0.022972045466303825, -0.1143152043223381, -0.027969010174274445, -0.13624946773052216, -0.06175234168767929, 0.006437791511416435, 0.23403586447238922, 0.2983647286891937, -0.001071995822712779, -0.0456906221807003, -0.07737144827842712, -0.08292551338672638, -0.08048029989004135, 0.18599268794059753, -0.1608630120754242, -0.10786588490009308, 0.24910013377666473, 0.01571282371878624, -0.1662484109401703, -0.13488373160362244, 0.08685197681188583, 0.03173079341650009, -0.012560062110424042, -0.09602126479148865, -0.07355023920536041, -0.03342216834425926, -0.131071075797081, -0.10448329150676727, 0.07274788618087769, 0.2108071744441986, 0.03415457159280777, -0.11457740515470505, -0.24720169603824615, 0.11174609512090683, 0.02070326916873455, 0.11407873779535294, 0.0878477618098259, -0.09740607440471649, -0.028989842161536217, -0.06294924020767212, 0.02067132107913494, 0.1823987066745758, -0.048909563571214676, 0.0223250612616539, 0.0985308513045311, -0.0025898402091115713, 0.05257492884993553, -0.20764154195785522, 0.0556911863386631, 0.0625445619225502, 0.14420096576213837, 0.14337743818759918, -0.117780901491642, 0.2530399560928345, 0.23454150557518005, -0.24248315393924713, 0.03401495888829231, 0.061457034200429916, 0.20389202237129211, -0.01970669999718666, 0.11018717288970947, 0.22626499831676483, 0.31289875507354736, -0.060144905000925064, 0.04475952312350273, -0.1231081411242485, 0.010661518201231956, 0.05382572486996651, -0.06338018923997879, 0.05827854201197624, 0.15827034413814545, -0.0938105434179306, -0.1605094075202942, -0.10146979987621307, 0.05861600115895271, -0.019651269540190697, 0.11229559779167175, -0.07463282346725464, 0.03582606837153435, 0.009929796680808067, 0.0141673032194376, 0.1497763693332672, 0.009391616098582745, -0.21773208677768707, -0.055869705975055695, 0.1691400557756424, -0.12916265428066254, -0.12113188952207565, -0.1414162963628769, 0.04625612124800682, -0.13478073477745056, 0.03996289521455765, 0.02715320512652397, 0.05738609656691551, 0.012657423503696918, 0.09256532788276672, 0.009145168587565422, -0.13774265348911285, 0.09110096842050552, -0.2508210241794586, 0.2022121399641037, 0.06121494248509407, 0.1322503238916397, 0.13612069189548492, -0.05804382637143135, 0.27640220522880554, 0.12294640392065048, 0.11119753867387772, -0.13447614014148712, -0.17776894569396973, 0.22679777443408966, 0.006747840903699398, -0.3404199182987213, -0.06649889051914215, 0.09588882327079773, -0.026510506868362427, -0.13461096584796906, 0.04550110548734665, 0.10329446196556091, -0.04665527492761612, 0.07162866741418839, 0.10571441054344177, 0.0495036281645298, -0.050683073699474335, -0.19611132144927979, -0.13492469489574432, -0.18221060931682587, -0.05167239531874657, 0.004905901849269867, 0.016359781846404076, -0.14204154908657074, -0.04841705411672592, 0.05838386341929436, 0.041531745344400406, 0.03536619246006012, -0.07926113903522491, -0.04087447747588158, 0.21972247958183289, 0.16428826749324799, -0.13863202929496765, 0.11641498655080795, -0.003169103991240263, -0.18360331654548645, -0.03248434513807297, 0.12963052093982697, -0.19589321315288544, -0.0037848115898668766, 0.02808980457484722, 0.13049128651618958, -0.3340316414833069, -0.24509768187999725, 0.13750186562538147, 0.13523553311824799, -0.08781654387712479, -0.19240523874759674, 0.09067422151565552, 0.14953768253326416, -0.12543118000030518, 0.29749390482902527, -0.09925133734941483, -0.12181359529495239, 0.2467857450246811, -0.3739691376686096, -0.09547565877437592, 0.05933760106563568, -0.027524124830961227, 0.3124236762523651, -0.13764268159866333, 0.05850246548652649, 0.12598586082458496, 0.09373413771390915, -0.04824581369757652, -0.07587993144989014, -0.09463914483785629, 0.12344228476285934, 0.28255710005760193, 0.055379465222358704, 0.04366505146026611, -0.2227715104818344, -0.22737418115139008, 0.07805400341749191, 0.20617559552192688, -0.12233099341392517, 0.06456007808446884, -0.380474328994751, 0.02358424849808216, -0.20134571194648743, -0.3441150188446045, 0.11421570181846619, -0.07356519252061844, -0.2428569197654724, 0.010788249783217907, 0.06709356606006622, -0.25405099987983704, 0.04734775051474571, 0.035560447722673416, 0.10032463818788528, 0.1481790989637375, -0.04334748163819313, -0.0005244225612841547, 0.0891057550907135, -0.05099807679653168, 0.05781560391187668, -0.12530195713043213, -0.029327411204576492, 0.36041775345802307, 0.26522451639175415, 0.09689851105213165, 0.44137468934059143, 0.08506235480308533, -0.11554282158613205, -0.2520063817501068, -0.07859456539154053, -0.18137149512767792, -0.2526566684246063, 0.18058554828166962, 0.18539075553417206, 0.05286087840795517, 0.10700193792581558, 0.040988989174366, -0.0460464209318161, -0.09462898224592209, 0.09017539024353027, 0.09055978059768677, -0.15220166742801666, -0.16701708734035492, 0.13259507715702057, -0.18422526121139526, 0.09351180493831635, -0.0024589993990957737, -0.19057708978652954, 0.018722916021943092, -0.11488021165132523, -0.18062198162078857, -0.23199643194675446, -0.4627199172973633, 0.11387334764003754, -0.1125764548778534, 0.16115516424179077, 0.2180027961730957, -0.008043240755796432, 0.10246598720550537, -0.1270880103111267, 0.13175643980503082, 0.011873511597514153, 0.0410582460463047, 0.2035546451807022, 0.5023977160453796, -0.08107750117778778, 0.13259771466255188, -0.021837696433067322, 0.04889843240380287, 0.1489478349685669, -0.3961116373538971, 0.1426895558834076, 0.027234312146902084, 0.005947111174464226, -0.03376147523522377, -0.4458426833152771, 0.18254047632217407, -0.17261800169944763, -0.20650063455104828, 0.3555415868759155, -0.04067860171198845, -0.07137042284011841, 0.16282744705677032, 0.11242449283599854, -0.022092944011092186, -0.2678130269050598, -0.1010577529668808, -0.017271598801016808, 0.1988045573234558, 0.07058186829090118, -0.02324121817946434, -0.16353638470172882, -0.20337136089801788, 0.15423229336738586, 0.2926033139228821, 0.09124026447534561, -0.030871687456965446, -0.0041043744422495365, 0.10973630100488663, -0.1702200025320053, -0.19025106728076935, 0.16028644144535065, 0.11698400229215622, -0.2445322722196579, 0.26264697313308716, -0.03229919821023941, -0.09337441623210907, -0.20020493865013123, -0.2039630264043808, 0.1282157599925995, 0.007557561621069908, 0.18239107728004456, 0.2222982794046402, -0.11791974306106567, -0.06256654858589172, -0.19401390850543976, -0.22979377210140228, -0.2747281491756439, 0.09113673865795135, -0.19067856669425964, -0.08921254426240921, 0.16683617234230042, -0.2637520730495453, -0.2049189954996109, -0.24399232864379883, 0.036973029375076294, 0.06599082797765732, -0.10777555406093597, 0.134001225233078, -0.06459885090589523, -0.11581867188215256, -0.14294955134391785, 0.19108723104000092, -0.007484653498977423, 0.04485077038407326, -0.05041223764419556, 0.01601305603981018, -0.05806001275777817, -0.02105066366493702, -0.2812975347042084, -0.029455019161105156, 0.016817083582282066, -0.27336740493774414, -0.15491877496242523, -0.08704143017530441, -0.24350574612617493, -0.11566774547100067, 0.11755819618701935, 0.1855621635913849, -0.09105529636144638, -0.07614298164844513, -0.04753952473402023, 0.016853202134370804, 0.09088826924562454, 0.10777375102043152, 0.06268057227134705, -0.05106376111507416, -0.12301729619503021, 0.31596431136131287, 0.22524651885032654, 0.13169622421264648, 0.06175296753644943, -0.07250958681106567, 0.7077773213386536, 0.2470615655183792, 0.465682715177536, -0.33795684576034546, 0.09462939202785492, -0.19205377995967865, -0.24148236215114594, -0.023018717765808105, -0.3094891905784607, 0.42288416624069214, 0.17809288203716278, -0.09769082814455032, 0.2700853943824768, 0.1454201191663742, 0.3221225440502167, 0.08784770220518112, -0.1236310675740242, 0.0024124954361468554, 0.19126766920089722, -0.19794301688671112, -0.0337674655020237, -0.3184375464916229, -0.007871012203395367, 0.045402754098176956, 0.20995162427425385, -0.05706782639026642, 0.04684992879629135, 0.015615763142704964, 0.016225751489400864, 0.214206263422966, 0.6982848644256592, -0.05305319279432297, -0.5882666110992432, -0.11846776306629181, 0.029144149273633957, -0.22410836815834045, -0.09867635369300842, 0.00078856002073735, -0.19534821808338165, 0.19106438755989075, -0.171365424990654, -0.11615988612174988, 0.0026193615049123764, 0.0367702953517437, -0.01031444501131773, 0.11787163466215134, 0.08489631116390228, 0.2757972180843353, 0.24609357118606567, -0.0668974220752716, -0.06053958833217621, 0.02919229492545128, -0.2982918620109558, -0.11813822388648987, 0.1293364018201828, -0.09229651093482971, 0.18211956322193146, 0.29232344031333923, -0.07192748785018921, -0.042906105518341064, -0.15280091762542725, 0.14069336652755737, -0.12954500317573547, -0.1687450110912323, 0.019120361655950546, -0.1252409815788269, 0.247176855802536, 0.049041833728551865, 0.0042411251924932, -0.16389760375022888, -0.09863164275884628, 0.04439014941453934, 0.2838698923587799, 0.037447672337293625, 0.08530016243457794, -0.1759365051984787, 0.04306309297680855, 0.039105791598558426, 0.1250615268945694, -0.009868809022009373, -0.1719953566789627, -0.12948131561279297, -0.2908898890018463, 0.06268935650587082, 0.05006040260195732, -0.14118053019046783, 0.12934745848178864, 0.230038121342659, 0.0244889073073864, 0.05865656957030296, -0.2342032641172409, 0.12846800684928894, 0.44256606698036194, -0.31751230359077454, 0.09701123833656311, 0.1966761350631714, 0.027543794363737106, -0.01904187723994255, 0.07865288853645325, 0.10390934348106384, 0.05843190848827362, -0.07035861164331436, -0.2936984598636627, 0.38718268275260925, 0.052769631147384644, 0.1434437483549118, 0.0512215718626976, 0.14461253583431244, 0.08667656034231186, -0.19329537451267242, 0.007814217358827591, 0.17586225271224976, 0.10263553261756897, -0.01133908610790968, -0.2386537790298462, -0.3124684989452362, 0.02542695589363575, -0.11964394152164459, 0.2155734896659851, -0.01791738159954548, -0.026511432603001595, -0.2456444352865219, -0.05002305284142494, 0.27192988991737366, -0.14788907766342163, -0.01578170619904995, -0.29419466853141785, 0.205722838640213, -0.010411687195301056, -0.1256987303495407, -0.025165829807519913, -0.018341006711125374, -0.11309155821800232, 0.003611514810472727, 0.06399467587471008, -0.09622931480407715, 0.005588522180914879, -0.016349252313375473, 0.07621614634990692, 0.0639420673251152, 0.04521002620458603, 0.3837507963180542, -0.11926669627428055, -0.10697994381189346, 0.1904355138540268, -0.14979255199432373, 0.13226494193077087, 0.011757287196815014, -0.16014990210533142, -0.08556671440601349, 0.06702400743961334, 0.2517954707145691, 0.05726074054837227, 0.0076965950429439545, 0.008932944387197495, -0.22589142620563507, -0.04725102707743645, -0.03790774196386337, 0.4377749562263489, -0.16985122859477997, 0.47412338852882385, -1.0206153392791748, -1.0559172630310059, -0.23242947459220886, 0.44733354449272156, -0.4044990837574005, 0.23893436789512634, 0.38525357842445374, -0.4271709620952606, 0.27916836738586426, -0.022091025486588478, -0.5658154487609863, -0.026374753564596176, -0.34000247716903687, -0.15982899069786072, -0.12394344061613083, 0.14297273755073547, -0.146770179271698, -0.024853242561221123, 0.02840135619044304, 0.1355580985546112, -0.525196373462677, -0.5309322476387024, -0.08268222212791443, -0.14394032955169678, 0.10670318454504013, 0.14979243278503418, -0.13348223268985748, 0.058474987745285034, -0.04632258042693138, -0.13382044434547424, -0.2536737620830536, -0.01738102361559868, -0.42025768756866455, 0.0008107945905067027, 0.09482648223638535, 0.14842741191387177, -0.1473129391670227, -0.020900115370750427, -0.015222867019474506, -0.15238259732723236, 0.1994789093732834, -0.09538324177265167, 0.14088048040866852, 0.12426085025072098, 0.012922817841172218, 0.018341191112995148, 0.29555392265319824, 0.03612027317285538, -0.08189238607883453, 0.35484248399734497, -0.2100353240966797, -0.35556063055992126, 0.1186550110578537, 0.30213987827301025, -0.1264720857143402, -0.12054122239351273, -0.13304907083511353, -0.00825593899935484, -0.08832205086946487, 0.06245623156428337, 0.26493850350379944, -0.2292456030845642, 0.16208013892173767, -0.01487140916287899, 0.2340579628944397, 0.14896242320537567, 0.2732451260089874, 0.3948395550251007, -0.09455545246601105, -0.30719420313835144, -0.1897064447402954, -0.0771666169166565, -0.3393426239490509, 0.2678089439868927, 0.2382415235042572, -0.08528324216604233, -0.4409501254558563, 0.21490901708602905, -0.0909382551908493, -0.0474662147462368, 0.12049765139818192, 0.20309647917747498, -0.08940841257572174, 0.02161194570362568, -0.16109991073608398, 0.25010138750076294, 0.1028892993927002, 0.12993387877941132, 0.16419818997383118, -0.11990367621183395, -0.19434377551078796, -0.19316790997982025, -0.12821421027183533, -0.2130577713251114, 0.0925140306353569, 0.2199079841375351, 0.2130146622657776, -0.10395205765962601, 0.22908665239810944, -0.012803536839783192, 0.05726823955774307, 0.1507776826620102, 0.1816840022802353, -0.2855999171733856, 0.3485131859779358, -0.021598676219582558, -0.13463255763053894, -0.26942306756973267, 0.1606573909521103, -0.14266091585159302, -0.17810967564582825, -0.052406564354896545, -0.03100157529115677, 0.17419695854187012, -0.033391471952199936, 0.1049572005867958, 0.13459749519824982, -0.024101031944155693, 0.034382425248622894, 0.09867382049560547, -0.026215095072984695, 0.17158567905426025, 0.0649309977889061, 0.1821620613336563, -0.20827199518680573, -0.11652961373329163, 0.28718405961990356, -0.09067156910896301, 0.1988905668258667, 0.5489456653594971, -0.2657267451286316, 0.10380854457616806, 0.34708577394485474, 0.2513563334941864, -0.06407791376113892, 0.0868617594242096, 0.07448884099721909, -0.12923726439476013, -0.007918251678347588, 0.2772686183452606, 0.1667286604642868, -0.302513062953949, 0.04019254446029663, -0.04534173756837845, 0.01614832505583763, 0.29855790734291077, 0.03848937898874283, -0.09451110661029816, -0.08669962733983994, 0.07261529564857483, 0.02937011979520321, -0.021338628605008125, -0.11770901083946228, 0.08421112596988678, 0.029009172692894936, -0.008594476617872715, 0.051983579993247986, 0.08132446557283401, 0.19532720744609833, 0.1192956268787384, -0.026025868952274323, -0.06053128093481064, -0.004009359981864691, -0.002799414563924074, -0.20517687499523163, -0.24480216205120087, -0.11160782724618912, 0.17926794290542603, -0.17398129403591156, 0.1931781768798828, 0.03672563284635544, 0.10379623621702194, -0.055316269397735596, -0.18651391565799713, 0.05281629413366318, -0.21136128902435303, -0.1441427767276764, -0.07123497873544693, -0.014147687703371048, 0.017655108124017715, -0.18116052448749542, 0.38942229747772217, -0.018686894327402115, -0.08723463863134384, -0.04348035901784897, -0.16458937525749207, 0.16182813048362732, 0.04307103529572487, -0.06361278891563416, 0.11052294075489044, -0.06410859525203705, -0.17386536300182343, -0.18111835420131683, -0.17285500466823578, -0.2109057456254959, -0.04547147825360298, 0.1939888447523117, -0.06693478673696518, 0.24343548715114594, 0.3626523017883301, 0.24986165761947632, -0.19243325293064117, 0.3006209135055542, -0.28029492497444153, -0.008227100595831871, -0.037739094346761703, 0.22243013978004456, 0.11161819845438004, 0.25491863489151, -0.08572936803102493, 0.029516467824578285, -0.19648827612400055, -0.04117383062839508, 0.32378914952278137, 0.05172049626708031, -0.21610650420188904, -0.20609277486801147, -0.02674105204641819, 0.06201775372028351, 0.07599706202745438, -0.20245832204818726, -0.10532908141613007, 0.21373167634010315, 0.080990269780159, 0.28185537457466125, 0.04731620103120804, 0.1178356260061264, -0.00934008602052927, 0.041867028921842575, 0.06212247163057327, 0.2115422636270523, -0.04350966587662697, -0.20512755215168, -0.1384880095720291, -0.1933143436908722, -0.03137415274977684, -0.06486826390028, 0.2714383900165558, -0.12439944595098495, 0.06885457783937454, 0.10318046063184738, -0.17651495337486267, -0.05478784814476967, 0.15780794620513916, 0.27129390835762024, -0.10296297073364258, 0.08690278232097626, -0.2619676887989044, 0.06221092864871025, -0.04652706906199455, -0.006286160554736853, -0.05861523747444153, 0.17002250254154205, -0.12771105766296387, 0.19425886869430542, -0.2279532104730606, -0.1585889756679535, 0.09283289313316345, -0.22117562592029572, 0.3551369905471802, -0.5063967704772949, -0.09139308333396912, 0.1457754671573639, -0.2026795893907547, -0.1569424867630005, 0.14660242199897766, 0.12471726536750793, 0.21439270675182343, -0.14293450117111206, -0.2508273720741272, 0.031805235892534256, 0.03405892848968506, -0.07917385548353195, 0.027918271720409393, -0.047885067760944366, 0.029174990952014923, 0.05863991752266884, -0.07446689158678055, 0.10262815654277802, 0.11782723665237427, 0.07444620132446289, -0.03833873197436333, -0.24943354725837708, -0.07661934196949005, 0.10367871075868607, 0.10999622195959091, 0.0830831378698349, -0.1253705769777298, 0.314684122800827, 0.1751139611005783, 0.12944428622722626, -0.08873508870601654, 0.13274234533309937, -0.1415109932422638, 0.08064741641283035, 0.1437133401632309, -0.07836757600307465, 0.04857192188501358, 0.048829544335603714, -0.1621977835893631, 0.16625119745731354, -0.09008666127920151, 0.10963208973407745, -0.008843348361551762, 0.18668925762176514, -0.006898646242916584, 0.24528814852237701, 0.28816235065460205, 0.1815502941608429, -0.07616253197193146, 0.04215308278799057, -0.06685013324022293, 0.12622708082199097, 0.04243817925453186, 0.3180003762245178, 0.16945448517799377, 0.1692294478416443, -0.3240530490875244, -0.1956164538860321, -0.33061161637306213, -0.29901349544525146, 0.061077725142240524, 0.23136647045612335, 0.1950559914112091, -0.007276487071067095, 0.17083610594272614, -0.10259523242712021, 0.1341957300901413, -0.3400731086730957, -0.03279658406972885, -0.10467090457677841, -0.022645987570285797, -0.08855737000703812, 0.06918773800134659, -0.009199305437505245, 0.14578980207443237, -0.04414767399430275, -0.003843408776447177, -0.0807703509926796, -0.16848015785217285, -0.09948054701089859, 0.11367698758840561, 0.05453768000006676, 0.07633082568645477, 0.2606029510498047, 0.20048674941062927, -0.04817797616124153, -0.0845489427447319, 0.08439655601978302, 0.015398049727082253, -0.18958429992198944, -0.12822355329990387, 0.02958383783698082, 0.28188204765319824, -0.11837077885866165, -0.03852902352809906, -0.234675332903862, -0.08494295924901962, 0.07254953682422638, 0.24093803763389587, 0.125311478972435, 0.058473847806453705, -0.21438725292682648, 0.015645481646060944, -0.22062839567661285, 0.24866820871829987, -0.10742161422967911, -0.05397937074303627, 0.14514286816120148, -0.027615107595920563, -0.12556572258472443, 0.15015868842601776, -0.05490231141448021, -0.031763479113578796, 0.21172884106636047, 0.23740287125110626, 0.01629050262272358, -0.15391041338443756, 0.10860773921012878, -0.07726090401411057, -0.20424513518810272, -0.035568930208683014, 0.1394459754228592, 0.18686474859714508, 0.04202720895409584, 0.4314553439617157, -0.16802647709846497, -0.024896690621972084, 0.005543929990381002, -0.156545951962471, -0.15450862050056458, 0.06581990420818329, 0.02961438149213791, -0.00807236973196268, -0.11133963614702225, -0.029853133484721184, 0.1621650904417038, 0.21008756756782532, 0.2115658074617386, 0.0016333359526470304, -0.07748628407716751, -0.23283274471759796, -0.12377188354730606, -0.20307382941246033, -0.006804779637604952, 0.08762897551059723, 0.048659879714250565, -0.27012068033218384, -0.05857660993933678, -0.34706729650497437, 0.30353736877441406, 0.10569179058074951, -0.024501880630850792, -0.06739391386508942, 0.06543195992708206, -0.06276848167181015, 0.09029889851808548, 0.07220789790153503, 0.02450963482260704, -0.07070650160312653, 0.1997794359922409, 0.2082643210887909, -0.0949876680970192, -0.05889786779880524, -0.10339652746915817, 0.24812790751457214, -0.19172634184360504, -0.1594412922859192, 0.16961778700351715, -0.06626207381486893, 0.14877581596374512, 0.595684289932251, 0.06611347943544388, 0.059822238981723785, -0.6153654456138611, 0.17734910547733307, 0.14422370493412018, -0.16357344388961792, -0.08980657160282135, 0.026298783719539642, 0.3134337365627289, -0.017095165327191353, 0.03361609950661659, 0.14038673043251038, -0.007212499156594276, 0.07487983256578445, 0.24126994609832764, 0.1769384890794754, -0.06063077598810196, -0.10520392656326294, 0.026780923828482628, -0.14474795758724213, -0.06909982860088348, 0.08687235414981842, 0.027459794655442238, -0.03145498409867287, -0.2863410711288452, -0.10797454416751862, 0.3795485198497772, 0.058416206389665604, 0.05582888796925545, -0.04513103514909744, -0.09921450912952423, -0.09598404169082642, -0.15294860303401947, 0.09938163310289383, 0.11419647932052612, -0.15052540600299835, 0.0386660099029541, 0.13677939772605896, -0.2706006169319153, -0.06342975795269012, -0.0819307193160057, 0.22523526847362518, -0.18712039291858673, -0.09682108461856842, 0.20088082551956177, -0.042549408972263336, -3.6471021303441375e-05, 0.2874010503292084, -0.009427121840417385, 0.2059091031551361, 0.017663387581706047, 0.1357039213180542, 0.031197089701890945, 0.021418478339910507, -0.09058099240064621, 0.08770359307527542, 0.0443539097905159, 0.06262090057134628, 0.0316287986934185, 0.1542285680770874, 0.01734568364918232, -0.08029425144195557, -0.01981681026518345, 0.19923293590545654, 0.0307199377566576, -0.11336217820644379, -0.0700162947177887, -0.03746357187628746, 0.015198693610727787, 0.12208878993988037, 0.003998637665063143, 0.023677732795476913, 0.04334151744842529, -0.05441436916589737, 0.23725417256355286, 0.06377796828746796, 0.006955845281481743, -0.11268714815378189, 0.1269196718931198, -0.05367681384086609, -0.227801114320755, -0.04580081254243851, 0.10709431022405624, -0.1230899766087532, 0.04871879518032074, 0.11755873262882233, -0.10762941837310791, -0.13772793114185333, -0.1431758850812912, 0.037559881806373596, -0.19294805824756622, -0.1525280624628067, 0.25454503297805786, -0.16495469212532043, 0.019103243947029114, -0.01698920503258705, -0.17939800024032593, -0.03868403285741806, 0.007475098595023155, -0.09958784282207489, 0.06774216890335083, 0.0729224756360054, -0.2608787715435028, -0.007896307855844498, -0.020718898624181747, -0.09416765719652176, 0.009415535256266594, 0.09021010249853134, -0.020732402801513672, -0.16169922053813934, -0.15343385934829712, 0.04181220009922981, -0.18293249607086182, -0.043208129703998566, 0.04196842014789581, 0.1488693207502365, 0.11108510941267014, -0.17403075098991394, -0.19954094290733337, 0.14065203070640564, -0.09345792233943939, 0.07119015604257584, -0.3139459490776062, 0.14069963991641998, 0.05922442674636841, 0.018094079568982124, -0.3834029734134674, 0.10372969508171082, -0.011159323155879974, -0.08220726251602173, -0.21888874471187592, -0.136076882481575, -0.19468852877616882, -0.07707396149635315, 0.062295034527778625, 0.12649428844451904, 0.027181651443243027, -0.12074147164821625, 0.07356305420398712, 0.13854916393756866, -0.2691783607006073, 0.085296131670475, 0.04961744323372841, -0.1016981303691864, -0.05908681079745293, -0.08043244481086731, 0.011337259784340858, -0.08846260607242584, -0.027597136795520782, 0.24304552376270294, -0.07739270478487015, -0.1346461921930313, -0.18183010816574097, 0.05365997180342674, 0.12367602437734604, -0.050162263214588165, 0.18259206414222717, 0.1177339032292366, 0.04262177273631096, 0.005686620250344276, 0.06347623467445374, 0.21665112674236298, -0.15794262290000916, -0.040560804307460785, 0.05064273625612259, -0.17749059200286865, -0.04651765525341034, 0.11285992711782455, 0.09208444505929947, 0.08583080023527145, -0.2675558030605316, -0.05175391957163811, 0.09605218470096588, -0.024480244144797325, 0.028018927201628685, -0.44497835636138916, 0.04728703200817108, -0.14829577505588531, 0.05104207992553711, 0.14123620092868805, 0.045814141631126404, 0.0543840229511261, 0.17330530285835266, -0.0012478864518925548, -0.08230246603488922, 