{"version": "0.5.4", "metadata": {"date": {"year": 2025, "month": 12, "day": 14, "hour": 16, "minute": 22, "second": 17}, "loudness": -12.411662101745605, "gain": 0.7764586496226378}, "architecture": "WaveNet", "config": {"layers": [{"input_size": 1, "condition_size": 1, "head_size": 8, "channels": 16, "kernel_size": 3, "dilations": [1, 2, 4, 8, 16, 32, 64, 128, 256, 512], "activation": "Tanh", "gated": false, "head_bias": false}, {"input_size": 16, "condition_size": 1, "head_size": 1, "channels": 8, "kernel_size": 3, "dilations": [1, 2, 4, 8, 16, 32, 64, 128, 256, 512], "activation": "Tanh", "gated": false, "head_bias": true}], "head": null, "head_scale": 0.02}, "weights": [-0.0378267802298069, 0.5548831224441528, -0.9593589901924133, -0.8081669807434082, -0.3200618028640747, 0.20580323040485382, 0.007772223558276892, 0.7877480983734131, -0.26905813813209534, 0.29636648297309875, -0.17636455595493317, -0.15495514869689941, -0.9004698991775513, -0.6823964715003967, -0.2620796263217926, 0.17418172955513, 0.14817620813846588, 0.3360293209552765, -0.3169955909252167, -0.12508325278759003, -0.21032752096652985, 0.27862057089805603, 0.010532723739743233, 0.37535741925239563, -0.17115555703639984, 0.0664290189743042, 0.39144498109817505, -0.28875815868377686, -0.021404515951871872, 0.22124390304088593, -0.21844662725925446, 0.07078446447849274, -0.3524436056613922, 0.09259121119976044, -0.013671512715518475, 0.0340183861553669, -0.26000744104385376, 0.07306224852800369, -0.20131556689739227, 0.22068428993225098, 0.08371181041002274, 0.20928828418254852, -0.15568500757217407, -0.18257907032966614, -0.3501977026462555, 0.09823582321405411, 0.13597863912582397, 0.33342602849006653, -0.21883268654346466, 0.06001831963658333, 0.33887219429016113, -0.03499441221356392, 0.10743207484483719, 0.2792479991912842, -0.062294065952301025, -0.026827815920114517, 0.2882520258426666, -0.26647451519966125, -0.04690921679139137, 0.18510137498378754, -0.08714073151350021, -0.05724768713116646, -0.3061162233352661, 0.2885190546512604, -0.17097458243370056, 0.1337938755750656, -0.17995551228523254, 0.2617325484752655, -0.09490414708852768, 0.26064056158065796, -0.3311683237552643, 0.13651536405086517, -0.059476546943187714, -0.10680016875267029, 0.31019723415374756, 0.006909385323524475, -0.20015335083007812, 0.06170693412423134, -0.11393267661333084, 0.12250819057226181, -0.3235577940940857, 0.23525235056877136, 0.0280767809599638, 0.031536489725112915, -0.13108406960964203, 0.19501502811908722, -0.21033495664596558, 0.048657823354005814, -0.16259868443012238, 0.13245929777622223, -0.062364500015974045, 0.29279252886772156, -0.07886612415313721, 0.17695000767707825, -0.35077017545700073, 0.08042676746845245, -0.05317388474941254, -0.19932694733142853, 0.059149693697690964, -0.21839796006679535, -0.0911315456032753, 0.27885106205940247, -0.17983032763004303, -0.2556995749473572, 0.05388116091489792, -0.11869905143976212, -0.3269015848636627, 0.06863132119178772, -0.12873753905296326, 0.29347795248031616, -0.24376609921455383, 0.25279700756073, -0.10920730233192444, 0.13490380346775055, 0.23798976838588715, -0.05132026597857475, -0.009798604995012283, -0.09092667698860168, -0.05404796823859215, 0.00019540941866580397, 0.1398470252752304, -0.0647382140159607, -0.09733279049396515, 0.161861851811409, -0.1953950673341751, -0.10073886066675186, 0.06737945973873138, 0.003323516808450222, -0.027109283953905106, -0.2194342017173767, -0.06736692041158676, -0.0007905231323093176, -0.061171386390924454, 0.06728163361549377, 0.12910856306552887, -0.11045399308204651, -0.0546240508556366, -0.011369118466973305, 0.17030221223831177, 0.1518372744321823, 0.14450576901435852, -0.02483062446117401, 0.07420909404754639, -0.026806272566318512, -0.030979542061686516, -0.1246195137500763, 0.0814865231513977, 0.10682119429111481, -0.14338165521621704, -0.13777317106723785, -0.0390000157058239, -0.18991634249687195, -0.05369305983185768, 0.1765531748533249, 0.012198262847959995, -0.1595117747783661, 0.17646600306034088, -0.06591130048036575, -0.04873334988951683, -0.23380064964294434, 0.010571942664682865, 0.06546204537153244, -0.21716190874576569, -0.18394236266613007, -0.1058286800980568, 0.07760488986968994, -0.013106810860335827, 0.14069443941116333, -0.19061924517154694, 0.04882308095693588, 0.20985828340053558, -0.13062386214733124, 0.1858576387166977, 0.12458235025405884, -0.20952323079109192, 0.03675392270088196, -0.09722087532281876, 0.017519192770123482, 0.06052997708320618, -0.10144637525081635, -0.015425805002450943, -0.08658424019813538, 0.016677409410476685, 0.11465657502412796, 0.10790460556745529, 0.1226753517985344, -0.13534826040267944, -0.08011847734451294, -0.1838524043560028, 0.1701744794845581, 0.15173852443695068, 0.1684103161096573, -0.17581374943256378, 0.05989336222410202, -0.023768935352563858, -0.16525916755199432, -0.022955462336540222, 0.1337786316871643, -0.15630900859832764, 0.05425596609711647, 0.08771371841430664, 0.013087735511362553, -0.057152267545461655, -0.016637861728668213, -0.15005600452423096, 0.02934502437710762, -0.09969733655452728, 0.261527419090271, -0.20899640023708344, 0.3028430640697479, 0.1295439898967743, 0.20466947555541992, -0.2707284986972809, -0.17907115817070007, -0.2281239628791809, 0.3008447587490082, 0.033097557723522186, -0.3006955087184906, 0.4017055332660675, 0.033565230667591095, -0.24696962535381317, 0.42841675877571106, 0.19651921093463898, 0.22406843304634094, -0.4071643054485321, -0.0778815895318985, -0.16471333801746368, 0.20628178119659424, 0.015679161995649338, 0.20334969460964203, -0.2832534611225128, -0.030636677518486977, -0.2151348888874054, 0.42827078700065613, 0.2358911782503128, 0.14608754217624664, -0.2170736938714981, -0.23879407346248627, -0.29071322083473206, 0.30565375089645386, 0.17962148785591125, -0.1347903162240982, 0.23046192526817322, 0.1358511596918106, -0.15454868972301483, 0.14867627620697021, 0.24867326021194458, -0.34352990984916687, 0.2885500490665436, 0.12355925142765045, -0.31086575984954834, 0.2856826186180115, 0.24779067933559418, 0.23975376784801483, -0.3959513306617737, -0.1779264658689499, -0.21579673886299133, 0.1110040470957756, 0.07263540476560593, 0.022762121632695198, -0.1072750836610794, -0.021954886615276337, -0.047760117799043655, 0.13111664354801178, 0.14299733936786652, -0.16935208439826965, -0.014351691119372845, 0.14266467094421387, 0.005100629758089781, 0.06877883523702621, 0.03866317868232727, 0.050367146730422974, -0.16865094006061554, -0.08013859391212463, -0.07184907793998718, -0.059282056987285614, 0.20464196801185608, 0.030389802530407906, -0.042898088693618774, -0.062095630913972855, -0.10288660228252411, -0.03493250161409378, 0.027411609888076782, 0.22446341812610626, -0.014891519211232662, 0.0017649100627750158, -0.15211354196071625, 0.07371855527162552, 0.06584751605987549, -0.11319462209939957, -0.05408242717385292, 0.15793797373771667, -0.0773424357175827, 0.020009540021419525, 0.0672483965754509, -0.20578598976135254, 0.12571561336517334, -0.000293277291348204, -0.05483389273285866, -0.02287847362458706, 0.023438835516572, 0.1364550143480301, -0.11973888427019119, -0.13249506056308746, -0.004880831111222506, -0.11796733736991882, 0.18461565673351288, 0.12929849326610565, 0.08930427581071854, -0.1407754272222519, -0.1847398281097412, -0.06396728754043579, 0.15487906336784363, -0.1230364665389061, 0.01600184664130211, 0.21250152587890625, -0.13789699971675873, -0.023628922179341316, 0.1877986192703247, 0.07809174060821533, 0.039598047733306885, -0.11130917072296143, -0.11022379994392395, 0.013519151136279106, 0.17864079773426056, 0.19906432926654816, 0.12009831517934799, -0.09891321510076523, 0.006879245862364769, -0.08181703090667725, 0.04799602925777435, -0.05847010016441345, 0.15967746078968048, -0.047792643308639526, -0.15548668801784515, 0.027012785896658897, 0.21869923174381256, 0.08075065165758133, 0.10203509777784348, 0.24446070194244385, -0.1045743003487587, -0.08803870528936386, 0.23181112110614777, 0.00835512112826109, -0.11902697384357452, 0.24921096861362457, 0.004904225934296846, 0.04397226870059967, 0.02157849259674549, 0.11256679147481918, -0.059566035866737366, -0.1093897745013237, -0.027806198224425316, -0.09663896262645721, 0.00032484030816704035, 0.09217086434364319, 0.10759219527244568, 0.09730056673288345, -0.11632838100194931, -0.12776121497154236, -0.13488420844078064, -0.16567687690258026, -0.2712656557559967, 0.0800129845738411, 0.04480074718594551, -0.013427797704935074, 0.09208520501852036, -0.10376691818237305, 0.05785944312810898, 0.002566905226558447, -0.1409122496843338, -0.09345220029354095, -0.30090826749801636, -0.04333363100886345, 0.02219647541642189, -0.04806439206004143, 0.0947568267583847, -0.04335867986083031, 0.08603623509407043, 0.129512220621109, 0.2678331732749939, -0.021791860461235046, 0.0499640591442585, -0.022035948932170868, 0.015529278665781021, 0.11630009859800339, -0.07206406444311142, 0.07161050289869308, -0.0780811607837677, -0.09075257182121277, -0.017114076763391495, -0.06222745031118393, -0.23609669506549835, -0.10861493647098541, -0.12728190422058105, -0.053542573004961014, 0.0696856752038002, 0.036843277513980865, 0.02951088920235634, 0.07253237813711166, 0.14380119740962982, -0.08766103535890579, -0.005150549113750458, 0.11569082736968994, 0.1710534393787384, -0.1445976197719574, 0.14245058596134186, -0.004413777496665716, -0.01727343164384365, 0.08710391074419022, -0.1931447833776474, 0.0166375320404768, 0.1388818919658661, -0.10485178232192993, -0.060636967420578, -0.05574938282370567, 0.06527617573738098, -0.0791446790099144, 0.013818331994116306, 0.023841971531510353, -0.0066238571889698505, -0.0931023359298706, 0.11712091416120529, 0.02404109574854374, 0.09055756032466888, -0.2303415983915329, 0.04259670898318291, -0.1220841333270073, 0.037839360535144806, -0.009407159872353077, -0.08100210130214691, -0.04043355584144592, 0.16936884820461273, 0.033386580646038055, -0.19433237612247467, 0.0013888898538425565, 0.03829088807106018, -0.2207467257976532, 0.10729396343231201, -0.1184840276837349, -0.24622724950313568, -0.09455221146345139, -0.011096823029220104, -0.00654621422290802, -0.09414885938167572, 0.07487283647060394, 0.061560455709695816, -0.032196298241615295, -0.04849446564912796, -0.09066247195005417, 0.1847212165594101, 0.17038866877555847, 0.13374097645282745, 0.033688824623823166, -0.19094371795654297, 0.11781139671802521, 0.03731689974665642, -0.032484766095876694, -0.1095786988735199, -0.0038575087673962116, -0.2281406670808792, -0.045150842517614365, 0.06731313467025757, -0.018121976405382156, 0.030526526272296906, 0.0286111980676651, 0.13508087396621704, 0.0774790495634079, -0.004817905370146036, 0.055721960961818695, 0.05697111785411835, 0.09921080619096756, 0.0005141403526067734, 0.02023967169225216, 0.11581975221633911, -0.04791878163814545, -0.1377868950366974, 0.015015766955912113, -0.16256530582904816, 0.07844457030296326, -0.061753157526254654, -0.15310132503509521, -0.0995623841881752, 0.12108279764652252, -0.1137358695268631, 0.11012834310531616, 0.12260314077138901, -0.018026215955615044, 0.01168842427432537, -0.0031182875391095877, -0.12281962484121323, 0.02007187157869339, 0.09839486330747604, -0.0008846776327118278, 0.0820046067237854, -0.08864474296569824, -0.3373333811759949, -0.16791418194770813, 0.2510015368461609, 0.3588148355484009, -0.041645340621471405, -0.008393463678658009, -0.14293812215328217, -0.005338061135262251, 0.2208629697561264, -0.29566922783851624, -0.039786145091056824, 0.16866496205329895, -0.270207941532135, -0.03578045591711998, 0.06937285512685776, 0.30287402868270874, 0.04286836087703705, -0.1648808866739273, 0.021922191604971886, -0.010690458118915558, 0.033410169184207916, 0.22720925509929657, 0.1634380966424942, -0.12554210424423218, -0.18315927684307098, -0.11558970808982849, 0.1815374791622162, 0.10527611523866653, -0.014476778917014599, -0.19695742428302765, -0.07057245820760727, -0.10818328708410263, 0.1153828352689743, -0.29062655568122864, 0.05815655738115311, 0.25308844447135925, -0.3263780474662781, -0.19674241542816162, 0.003864342113956809, -0.22216422855854034, -0.11729265004396439, 0.02083713933825493, -0.26461660861968994, -0.05385270714759827, 0.03191908448934555, 0.2943212687969208, 0.028553854674100876, -0.21117176115512848, 0.31365135312080383, -0.07108864933252335, -0.02600242756307125, -0.2720693349838257, 0.14527182281017303, 0.09705410897731781, 0.13812729716300964, -0.32737091183662415, 0.17248429358005524, 0.1846802532672882, -0.17132174968719482, 0.01954873837530613, 0.24407052993774414, -0.23567047715187073, 0.13294364511966705, -0.25527650117874146, 0.06776148080825806, -0.10270728170871735, 0.07997176796197891, -0.1555463969707489, -0.02551870420575142, -0.13549450039863586, 0.16427570581436157, -0.051715776324272156, 0.3728328049182892, -0.17603106796741486, 0.13011877238750458, -0.1872226893901825, 0.15523259341716766, -0.12224186211824417, 0.24568253755569458, -0.06626690924167633, -0.01724911667406559, 0.1490326076745987, -0.13033851981163025, 0.18103060126304626, 0.2343846708536148, -0.3105124235153198, -0.09485335648059845, 0.3052578866481781, -0.21087157726287842, -0.04190780967473984, 0.29808560013771057, -0.1327936351299286, 0.1513003557920456, -0.21788862347602844, 0.2249128818511963, -0.18841589987277985, -0.07518843561410904, -0.07637336105108261, 0.17259059846401215, 0.03603065758943558, 0.0880746841430664, 0.06942809373140335, 0.16632282733917236, -0.0905219316482544, -0.07195305079221725, -0.026855306699872017, -0.3119906485080719, 0.19022433459758759, -0.033366989344358444, -0.26622891426086426, 0.1417372226715088, -0.09136922657489777, 0.14201006293296814, -0.07599707692861557, -0.04941144585609436, -0.26837947964668274, 0.2821972370147705, -0.08798380941152573, 0.26475346088409424, 0.0693134143948555, 0.10170631855726242, -0.20254048705101013, 0.2151007503271103, -0.013523409143090248, 0.13225968182086945, 0.05742478370666504, 0.06885327398777008, -0.3361355662345886, 0.0166176687926054, -0.06252262741327286, -0.07145895808935165, 0.05708624795079231, -0.10333480685949326, -0.2216612547636032, 0.14306402206420898, 0.06182331591844559, -0.167052760720253, 0.07234801352024078, 0.08616861701011658, -0.23535162210464478, -0.00010514770110603422, -0.1512484848499298, 0.07689222693443298, -0.10431580990552902, -0.1864457130432129, 0.20633965730667114, -0.08664987981319427, 0.0858648493885994, -0.2930904030799866, 0.2437455654144287, -0.15879438817501068, 0.31904032826423645, -0.2145141363143921, -0.10730340331792831, 0.28099653124809265, -0.16224230825901031, 0.039160050451755524, 0.10060057789087296, -0.2330860048532486, 0.009266383945941925, -0.17553268373012543, 0.23707763850688934, -0.08129920065402985, 0.26497533917427063, 0.005641883704811335, 0.04144510626792908, -0.09935301542282104, -0.004565022420138121, -0.06398750841617584, 0.34259331226348877, -0.13715599477291107, 0.1891728937625885, -0.23410895466804504, 0.23507191240787506, -0.22018106281757355, 0.16205765306949615, -0.1362827867269516, -0.03962809592485428, 0.2403436154127121, -0.015833478420972824, -0.09371677786111832, 0.19744709134101868, -0.006693143397569656, -0.11125633120536804, 0.3262488842010498, -0.1995065063238144, -0.0984269306063652, 0.17994269728660583, -0.04783898591995239, 0.19406914710998535, -0.2080700546503067, 0.050674162805080414, -0.2933354675769806, -0.24933403730392456, -0.0615946501493454, 0.22798407077789307, 0.330094575881958, 0.21556615829467773, -0.2950679659843445, -0.36926138401031494, 0.022813836112618446, -0.4145572781562805, -0.20638112723827362, -0.0606255829334259, -0.3813537061214447, -0.18370960652828217, -0.20497453212738037, 0.3377940356731415, 0.1480003446340561, 0.06938556581735611, -0.05212012305855751, 0.10063263773918152, -0.12292066216468811, 0.3994893729686737, 0.2241876721382141, 0.017684975638985634, -0.4507177472114563, -0.38322213292121887, 0.03932836279273033, 0.2830243706703186, 0.25666674971580505, 0.12971550226211548, -0.2199699431657791, -0.13199062645435333, 0.01766718551516533, -0.4225010871887207, -0.2659050524234772, -0.16755832731723785, -0.39123860001564026, -0.20602980256080627, 0.04869237169623375, -0.42438045144081116, -0.154995858669281, -0.15784093737602234, -0.33583909273147583, -0.12236093729734421, -0.10969340056180954, 0.3478222191333771, 0.1170908659696579, 0.17475204169750214, 0.03393334522843361, -0.3825942575931549, 0.18138179183006287, -0.11293545365333557, 0.1783170849084854, -0.08973948657512665, 0.13569408655166626, -0.3363923728466034, 0.1508404016494751, 0.13753747940063477, -0.20166119933128357, 0.01774095743894577, -0.00406729755923152, -0.32835182547569275, -0.009015503339469433, -0.02154238522052765, 0.3952863812446594, 0.02322588860988617, 0.0006418392295017838, -0.1905336081981659, 0.11237893998622894, 0.09147004038095474, 0.23692373931407928, -0.1839808225631714, 0.048717137426137924, -0.22684097290039062, -0.01740719936788082, 0.10653337091207504, 0.3304455280303955, -0.20288661122322083, -0.007218171842396259, -0.15901000797748566, -0.023686258122324944, -0.015130691230297089, -0.22364139556884766, -0.004048494156450033, 0.09136784076690674, -0.21968968212604523, 0.17632746696472168, -0.07560968399047852, -0.15242375433444977, 0.008144780062139034, 0.1637171506881714, -0.41403278708457947, -0.03243802860379219, 0.0630013719201088, 0.2640044093132019, -0.1841561645269394, -0.06785865873098373, -0.06583414226770401, -0.005301172379404306, -0.08661778271198273, 0.02707543782889843, 0.0520205944776535, -0.023136187344789505, -0.020109329372644424, 0.10428134351968765, 0.11786598712205887, -0.016617704182863235, -0.007306000217795372, -0.023020857945084572, -0.05499861761927605, -0.17521466314792633, -0.06222158670425415, 0.5818970203399658, -0.30381298065185547, 0.6936980485916138, -0.6194378733634949, -0.14749108254909515, 0.7837037444114685, 0.863711953163147, -0.5247706174850464, 0.14146073162555695, 0.08274377137422562, -0.5611586570739746, -0.3690151870250702, 0.22123809158802032, -0.5822212100028992, 0.24090257287025452, 0.3419238030910492, -0.253852903842926, -0.19936589896678925, -0.1042812317609787, 0.07815156877040863, 0.14997008442878723, -0.25845542550086975, 0.06204530596733093, 0.09103149175643921, -0.006617419887334108, -0.15310119092464447, 0.10664894431829453, 0.2125243842601776, 0.0934842973947525, -0.1260802447795868, 0.10473209619522095, 0.03935598209500313, 0.6526010632514954, -0.17002195119857788, -0.26684683561325073, 0.16005629301071167, -0.44576871395111084, -0.09210611879825592, -0.2716609239578247, -0.28554463386535645, -0.004043348133563995, 0.044077303260564804, -0.6929506063461304, 0.09328365325927734, -0.16025464236736298, -0.09687426686286926, 0.27623653411865234, -0.04738425463438034, 0.06976493448019028, 0.012506174854934216, -0.06814611703157425, 0.29357489943504333, 0.048254694789648056, -0.18742504715919495, 0.03967664763331413, -0.3016606867313385, -0.1763644963502884, -0.2806950807571411, 0.09034953266382217, -0.12067370861768723, 0.09954424947500229, 0.4809328615665436, 0.40518948435783386, 0.011539576575160027, 0.04802459105849266, -0.16294369101524353, 0.004429672844707966, -0.1963222473859787, -0.18813203275203705, -0.03407338261604309, -0.019686341285705566, 0.07162628322839737, -0.10256221145391464, -0.08112821727991104, 0.04164186492562294, 0.17136381566524506, 0.15275132656097412, 0.06965363770723343, -0.12487853318452835, 0.02019379287958145, -0.32063671946525574, -0.2620334327220917, -0.15491659939289093, 0.24439769983291626, -0.27241644263267517, 0.013689715415239334, 0.06642716377973557, -0.26076042652130127, 0.1008848324418068, 0.0808924213051796, -0.14903020858764648, 0.44720956683158875, 0.04032863304018974, -0.061130523681640625, -0.2815108299255371, 0.10485149919986725, -0.1463979035615921, -0.002572073834016919, 0.04548390582203865, 0.09557384997606277, 0.2550122141838074, 0.18241794407367706, 0.1569375842809677, 0.06670340150594711, 0.14304159581661224, -0.0664125606417656, -0.2092452049255371, -0.11611717939376831, -0.0019256076775491238, -0.12298063188791275, -0.14210174977779388, -0.0019223546842113137, 0.12220459431409836, 0.06259274482727051, 0.22335711121559143, 0.15560567378997803, -0.2611546516418457, -0.19809018075466156, 0.09462056308984756, 0.004268154501914978, 0.08229996263980865, -0.24459455907344818, -0.3271254599094391, 0.19648946821689606, 0.12005375325679779, -0.1994512379169464, 0.06947492808103561, -0.21295146644115448, 0.24059002101421356, 0.25640326738357544, 0.29742345213890076, -0.24209122359752655, -0.23598863184452057, 0.2477344125509262, 0.32114124298095703, 0.12729433178901672, 0.12056673318147659, -0.04958304017782211, 0.22184120118618011, -0.34248465299606323, 0.11537164449691772, -0.1538361757993698, -0.23893119394779205, 0.05101387947797775, -0.2274271547794342, -0.40529248118400574, -0.20517988502979279, -0.2978057861328125, 0.19416968524456024, -0.21851055324077606, -0.11343175172805786, 0.06248296797275543, -0.14158400893211365, -0.22659213840961456, 0.2697644531726837, 0.4352262318134308, 0.0970810130238533, -0.2711383104324341, 0.16334152221679688, 0.18959940969944, -0.2892652750015259, -0.09971199184656143, 0.38588401675224304, -0.40602922439575195, -0.5713339447975159, 0.11290842294692993, 0.3332826495170593, 0.003865188453346491, 0.3081620931625366, 0.38879889249801636, 0.27317383885383606, 0.11987504363059998, 0.4349125027656555, -0.29350540041923523, -0.15355326235294342, 0.23214943706989288, 0.2590961456298828, 0.27455273270606995, -0.1563478261232376, 0.10053334385156631, -0.03349348530173302, -0.12234343588352203, 0.0943956971168518, -0.009746693074703217, 0.038913603872060776, -0.1337117701768875, -0.13444124162197113, -0.17215706408023834, -0.12496919929981232, 0.20475266873836517, 0.2379406988620758, 0.22172850370407104, 0.20020551979541779, 0.07249973714351654, -0.12989479303359985, 0.3092634975910187, -0.12481845170259476, -0.27913060784339905, -0.28750285506248474, -0.27557623386383057, -0.2615426480770111, -0.534277617931366, -0.2844593822956085, -0.050259143114089966, -0.25632426142692566, 0.4762510359287262, -0.2954399883747101, -0.4186230003833771, -0.1630529910326004, -0.2918439209461212, 0.06993117928504944, 0.0008271990809589624, -0.16078896820545197, -0.2896791100502014, -0.03316944092512131, 0.19454139471054077, 0.3302563428878784, -0.13824748992919922, -0.16564209759235382, 0.4263206422328949, 0.2525024712085724, -0.3992522358894348, -0.014415801502764225, 0.26229527592658997, -0.31462612748146057, -0.3455519378185272, -0.0363025963306427, 0.0859355553984642, -0.22989004850387573, 0.05953202396631241, 0.2859313488006592, 0.1989494264125824, -0.001630407408811152, -0.12220604717731476, 0.16137929260730743, 0.2904338538646698, 0.00858382973819971, -0.21236014366149902, -0.16073846817016602, 0.3636746108531952, 0.15108290314674377, 0.28050312399864197, 0.09521029889583588, -0.19704243540763855, 0.3896893262863159, 0.24709764122962952, 0.3478187620639801, 0.23916012048721313, -0.22265677154064178, 0.35508647561073303, 0.12165705859661102, -0.32808396220207214, 0.28141695261001587, 0.29669710993766785, -0.11261046677827835, 0.05406584218144417, 0.056661393493413925, 0.0007757078274153173, 0.39574912190437317, -0.24859145283699036, -0.44695156812667847, 0.3570336103439331, 0.3093167245388031, 0.40420815348625183, 0.12032966315746307, 0.06215505674481392, 0.1351683884859085, -0.22043727338314056, 0.2753734290599823, -0.17738808691501617, 0.1947619765996933, 0.2372509092092514, 0.08904533833265305, -0.01890171319246292, 0.10679402202367783, -0.19391462206840515, -0.15832917392253876, -0.04701612889766693, 0.06847874820232391, -0.026889996603131294, 0.07224498689174652, -0.13720737397670746, 0.13959553837776184, -0.19204583764076233, -0.027485167607665062, 0.013939072377979755, 0.05589495971798897, 0.002093846909701824, 0.08874247968196869, 0.039791934192180634, -0.11959132552146912, -0.04186853766441345, -0.5327864289283752, -0.05678688734769821, 0.02856883406639099, 0.14194384217262268, 0.060895878821611404, -0.29303309321403503, -0.01924719288945198, 0.034769207239151, -0.3210327923297882, -0.18397268652915955, 0.30568206310272217, 0.33335813879966736, 0.19234599173069, 0.21602220833301544, -0.11844871938228607, -0.43123626708984375, 0.1277581751346588, 0.0769573226571083, -0.1820603609085083, -0.39232155680656433, 0.018748240545392036, 0.33510300517082214, -0.0843099057674408, -0.21607840061187744, -0.1030053198337555, -0.39078688621520996, 0.2228175550699234, 0.09002119302749634, -0.10028800368309021, -0.22554604709148407, -0.10148067027330399, 0.2773406505584717, -0.4032646417617798, -0.05851167067885399, 0.5536530613899231, -0.16966791450977325, -0.09087585657835007, 0.48427993059158325, 0.14425621926784515, 0.5216817259788513, -0.2254113256931305, 0.21690067648887634, -0.134334534406662, -0.37422502040863037, -0.0025223777629435062, 0.07017512619495392, 0.14513295888900757, -0.16762089729309082, -0.22303561866283417, 0.11314518749713898, -0.09830518811941147, -0.08265449106693268, 0.29025837779045105, -0.2268063873052597, 0.04550303891301155, 0.05155501514673233, 0.03501356765627861, -0.11018762737512589, 0.14938843250274658, -0.0075151510536670685, -0.040677137672901154, -0.08252376317977905, -0.01302130613476038, -0.11276252567768097, -0.25677940249443054, 0.2719239592552185, 0.0476212315261364, -0.1332056224346161, -0.28199759125709534, 0.1308560073375702, -0.24863223731517792, 0.19228412210941315, 0.12206939607858658, -0.27049243450164795, -0.029875963926315308, -0.2161083072423935, -0.0986853539943695, -0.24844422936439514, -0.20714420080184937, 0.31570374965667725, -0.236976757645607, -0.17821519076824188, 0.038460101932287216, -0.054742492735385895, -0.06762127578258514, 0.10483651608228683, 0.0972486287355423, 0.08137277513742447, -0.1993219405412674, 0.10781681537628174, 0.19381015002727509, -0.28369688987731934, -0.21925713121891022, -0.2575744092464447, -0.14149858057498932, 0.057502537965774536, 0.070577472448349, 0.5111107230186462, -0.024556839838624, 0.14444567263126373, -0.22757411003112793, 0.26034221053123474, 0.11965662240982056, 0.005508815869688988, 0.2306097000837326, 0.11601568758487701, 0.09057409316301346, 0.054137956351041794, -0.04537856951355934, -0.3145368695259094, -0.34978756308555603, -0.49736449122428894, 0.3798408508300781, -0.17139902710914612, -0.1725279688835144, 0.37938421964645386, -0.2675654888153076, -0.4801514446735382, 0.05194913595914841, -0.0802616998553276, 0.0050492845475673676, 0.24216799437999725, -0.21693624556064606, -0.22682414948940277, 0.021194277331233025, 0.23219138383865356, 0.16698041558265686, -0.3018577992916107, -0.006460076197981834, -0.3215557336807251, 0.10078593343496323, -0.24326151609420776, -0.06628511101007462, -0.05757636949419975, 0.00896130595356226, -0.03824324160814285, -0.5082820057868958, -0.2586316466331482, 0.005465740337967873, 0.474308580160141, 0.055300094187259674, -0.08540553599596024, 0.1103048324584961, -0.3178976774215698, 0.1128004863858223, 0.06679903715848923, 0.08723390847444534, 0.033913109451532364, -0.2614458203315735, 0.11476270109415054, 0.04737543687224388, -0.19371332228183746, -0.04899120330810547, -0.16410721838474274, -0.09510589390993118, -0.12084786593914032, 0.18394379317760468, 0.03742964193224907, 0.033481016755104065, -0.16144002974033356, 0.20667210221290588, -0.2567198872566223, 0.0027831424959003925, 0.1256503462791443, 0.3723846971988678, -0.40263715386390686, 0.12257891893386841, 0.07618443667888641, -0.2389482855796814, 0.10364314168691635, 0.1495862603187561, 0.05228055268526077, 0.030638769268989563, 0.1998705267906189, 0.1420646458864212, 0.041778575628995895, 0.37624698877334595, -0.13095325231552124, 0.1413964480161667, 0.3121647536754608, -0.3112874925136566, -0.02686767652630806, -0.01482030376791954, 0.023413920775055885, 0.16091394424438477, -0.05999680235981941, 0.029053229838609695, 0.16009020805358887, -0.01581774652004242, -0.07515829801559448, -0.03585650399327278, -0.028480760753154755, 0.17785309255123138, 0.09026133269071579, -0.13919343054294586, 0.10473662614822388, 0.009914265014231205, -0.1973903477191925, 0.11563677340745926, 0.1511995792388916, -0.1218177005648613, 0.029018022119998932, -0.07523169368505478, -0.0060052950866520405, -0.13010267913341522, -0.172114759683609, -0.09129395335912704, -0.08594320714473724, 0.02996865101158619, 0.08240029960870743, 0.11105658859014511, 0.027595743536949158, 0.07079833000898361, -0.066290944814682, 0.025170959532260895, -0.007074809167534113, -0.08282697945833206, -0.013847865164279938, 0.22885677218437195, 0.11415613442659378, 0.16403302550315857, -0.19533096253871918, 0.08113092184066772, 0.1359974592924118, -0.34287258982658386, -0.1547379046678543, 0.20689889788627625, -0.20482413470745087, -0.0440056137740612, -0.04874839261174202, 0.1392688751220703, -0.20711718499660492, -0.1512407511472702, 0.168406680226326, 0.01265475433319807, -0.0973820835351944, 0.1009591594338417, -0.31956782937049866, -0.10246468335390091, -0.5212482810020447, 0.04236030951142311, -0.027141129598021507, -0.3531031012535095, -0.19804911315441132, -0.3042188882827759, -0.02902390994131565, 0.11798933148384094, 0.025540433824062347, -0.13654005527496338, 0.16945311427116394, 0.1366572231054306, 0.45360657572746277, 0.35836002230644226, 0.3950752317905426, 0.00527850491926074, -0.23739975690841675, 0.010327751748263836, 0.13166862726211548, -0.2269822210073471, 0.1290842592716217, 0.36798515915870667, 0.034525316208601, -0.08886858820915222, 0.12591394782066345, -0.24137932062149048, -0.036533281207084656, -0.08853308111429214, -0.08003611862659454, -0.06456267833709717, 0.12197457998991013, 0.07581468671560287, 0.11579026281833649, 0.15772050619125366, 0.1797206848859787, 0.3339923024177551, 0.18713058531284332, -0.0354175828397274, 0.33819684386253357, 0.16333946585655212, 0.15613572299480438, -0.16512984037399292, -0.07402543723583221, -0.3040405213832855, -0.10153578966856003, -0.0843793973326683, 0.02929367683827877, -0.11421120166778564, 0.04201133921742439, 0.15799009799957275, 0.1787671595811844, -0.038887251168489456, -0.05202977731823921, 0.15079332888126373, 0.020135244354605675, -0.06733845174312592, -0.07471258193254471, -0.09803855419158936, 0.13267205655574799, -0.03677252680063248, 0.18335172533988953, -0.12597888708114624, 0.021960610523819923, 0.10946386307477951, 0.026126373559236526, 0.25936970114707947, 0.12329339236021042, 0.18173399567604065, 0.018448827788233757, -0.21022655069828033, -0.29913753271102905, -0.36770710349082947, 0.10529907792806625, 0.0289081372320652, -0.04363369941711426, -0.11608070880174637, -0.028586968779563904, 0.05547807738184929, -0.12813705205917358, 0.09926265478134155, 0.053723666816949844, -0.04851799085736275, -0.15058007836341858, 0.06661497056484222, -0.029471954330801964, -0.0008772043511271477, -0.210806205868721, -0.10903458297252655, -0.11476297676563263, -0.2990874648094177, -0.014028305187821388, -0.043995678424835205, -0.0709579661488533, -0.09021669626235962, 0.0005519796395674348, 0.1834205985069275, 0.07812672108411789, -0.0908842384815216, 0.02471194788813591, -0.15032096207141876, -0.06685708463191986, 0.11239027976989746, -0.18108920753002167, -0.11409787088632584, -0.15054923295974731, -0.030546415597200394, -0.10043402016162872, -0.17111298441886902, -0.035771094262599945, -0.048031553626060486, 0.017598386853933334, 0.04431716352701187, 0.03129185736179352, 0.1529608964920044, 0.1717972308397293, -0.002229104982689023, -0.0027298845816403627, 0.01549732219427824, -0.0916038528084755, 0.18501560389995575, 0.18903134763240814, 0.1375383585691452, -0.07680568099021912, 0.15453048050403595, -0.13790754973888397, 0.10525111109018326, -0.21158482134342194, -0.08942984789609909, 0.07852047681808472, -0.007298293057829142, 0.10439170897006989, 0.004331964533776045, -0.07190565764904022, 0.07146888226270676, -0.012536159716546535, 0.06637612730264664, 0.02897685207426548, -0.08992838859558105, 0.10221567749977112, 0.04367576166987419, 0.008689731359481812, 0.04504194110631943, 0.18241676688194275, -0.09497980028390884, -0.16499148309230804, -0.19929702579975128, -0.17875587940216064, 0.12967440485954285, 0.20654478669166565, 0.270131915807724, 0.25951212644577026, 0.059560082852840424, -0.013863329775631428, 0.26552414894104004, 0.12023738026618958, 0.12323018908500671, -0.1822611689567566, 0.020569628104567528, -0.09301003068685532, 0.11975238472223282, -0.158155620098114, -0.15347519516944885, -0.28455445170402527, -0.1132742166519165, 0.08544289320707321, 0.03711387515068054, -0.00975791271775961, 0.13361889123916626, -0.06460872292518616, 0.05748460814356804, -0.14096945524215698, -0.053017836064100266, -0.016653994098305702, -0.08966206759214401, 0.17077821493148804, -0.04218913987278938, 0.034968920052051544, 0.07684853672981262, 0.08133316785097122, 0.042387187480926514, -0.0299527570605278, -0.05077424272894859, -0.1967722475528717, -0.11699581891298294, -0.11463205516338348, 0.18735837936401367, -0.18522799015045166, -0.06478076428174973, -0.09716376662254333, 0.0855114683508873, 0.17767101526260376, -0.026564180850982666, 0.031822167336940765, 0.025295447558164597, 0.20111192762851715, -0.1091068685054779, 0.024987494572997093, -0.12049700319766998, 0.021455351263284683, 0.06564453989267349, -0.09346642345190048, 0.1533501297235489, -0.15224316716194153, -0.02938929758965969, -0.06123406067490578, 0.22936420142650604, 0.10016881674528122, 0.21732430160045624, -0.16842617094516754, 0.1467573642730713, -0.19534628093242645, 0.00996471382677555, 0.21778710186481476, 0.012664931826293468, 0.21130730211734772, -0.21885384619235992, -0.13413558900356293, -0.06864220649003983, 0.14881794154644012, 0.011982368305325508, 0.027015095576643944, 0.09052810817956924, 0.06396883726119995, -0.12134351581335068, -0.06891805678606033, -0.03925802931189537, -0.22883185744285583, -0.15035921335220337, -0.07414602488279343, -0.1808624416589737, -0.10545981675386429, -0.21512256562709808, 0.041158441454172134, 0.015434418804943562, -0.0762084573507309, 0.012478654272854328, -0.02176797017455101, 0.17310772836208344, 0.17769187688827515, -0.06641106307506561, 0.007779531180858612, -0.07073148339986801, -0.14824233949184418, 0.061474163085222244, 0.1647806018590927, 0.30795153975486755, -0.2254365086555481, -0.00864607747644186, 0.01651010289788246, -0.15536391735076904, -0.077498659491539, -0.12996210157871246, 0.012495170347392559, -0.1841353327035904, -0.09870567172765732, 0.07399773597717285, 0.19122657179832458, 0.20059479773044586, 0.006951530463993549, -0.05265190079808235, -0.12443844228982925, 0.14381030201911926, 0.34101974964141846, 0.3268665373325348, -0.0560225285589695, -0.1549072116613388, -0.2072753608226776, 0.2955693304538727, 0.29607298970222473, 0.2691164016723633, -0.04629376158118248, -0.017215736210346222, 0.07833666354417801, 0.04090067744255066, 0.19010494649410248, 0.1224924847483635, 0.08674660325050354, 0.0689251497387886, 0.10073800384998322, 0.06985174864530563, 0.29325416684150696, -0.08255960792303085, 0.1437583565711975, -0.15120744705200195, -0.17376036942005157, 0.037315238267183304, -0.00063916458748281, -0.2199735790491104, -0.1697496920824051, -0.18432757258415222, 0.035049814730882645, -0.3530903458595276, -0.042823426425457, 0.10369252413511276, 0.04457822069525719, 0.0820230171084404, -0.021922847256064415, 0.08930002152919769, 0.13249489665031433, -0.09269993752241135, -0.1095561608672142, 0.3044292628765106, 0.06670708954334259, 0.009131189435720444, -0.014275954104959965, 0.21520458161830902, 0.2009381651878357, 0.18894816935062408, 0.0762581080198288, 0.05384606122970581, -0.061233874410390854, -0.24624112248420715, -0.050565462559461594, 0.17040801048278809, 0.008897367864847183, -0.408071368932724, -0.24232091009616852, 0.03400145471096039, -0.07629342377185822, 0.07129862904548645, 0.02956916205585003, -0.06376854330301285, 0.020263507962226868, -0.11074580997228622, 0.12375648319721222, 0.1761733740568161, -0.28715962171554565, 0.13653422892093658, -0.08654474467039108, -0.1565553843975067, -0.14242413640022278, 0.0028014318086206913, 0.07452208548784256, -0.11266657710075378, 0.05608454346656799, -0.0036473730579018593, 0.18167485296726227, 0.033125199377536774, -0.08070354908704758, 0.1590043604373932, 0.1162792518734932, -0.04994184896349907, 0.10815862566232681, 0.012791523709893227, -0.11306451261043549, 0.21437673270702362, -0.12818028032779694, -0.22482801973819733, -0.1839551031589508, 0.11770118772983551, 0.1316649317741394, 0.17042522132396698, -0.1212519034743309, 0.02535976655781269, -0.2044697254896164, -0.11666379868984222, 0.14259660243988037, -0.058650288730859756, 0.15343667566776276, 0.03987593203783035, -0.14241333305835724, -0.009753208607435226, -0.05300946161150932, 0.012251487001776695, -0.037633270025253296, 0.004442763980478048, 0.24629418551921844, -0.18194076418876648, -0.09643065184354782, 0.24383877217769623, -0.057698920369148254, 0.05691852420568466, 0.12572307884693146, -0.061877086758613586, -0.06565970927476883, -0.08271230757236481, 0.032450683414936066, -0.0037317269016057253, -0.026098623871803284, 0.08608080446720123, 0.07525832951068878, 0.04778773710131645, -0.2003406137228012, 0.08191274106502533, -0.30676764249801636, 0.396560400724411, 0.04261552914977074, 0.1627051681280136, -0.08738783001899719, -0.0951700434088707, -0.06237088143825531, -0.1074046865105629, -0.17429624497890472, -0.03211521357297897, 0.02740485779941082, 0.010877036489546299, -0.12895303964614868, 0.05426054075360298, 0.0940001830458641, -0.20408789813518524, -0.0006150673143565655, 0.24693286418914795, -0.023669758811593056, 0.035359226167201996, 0.20352226495742798, 0.24206693470478058, -0.3862021267414093, 0.10871722549200058, -0.000732273911125958, -0.23491506278514862, 0.24395233392715454, -0.001992375822737813, 0.14204581081867218, -0.03300807625055313, 0.10637727379798889, 0.15651662647724152, -0.302094042301178, -0.09703101217746735, -0.2539930045604706, -0.18545712530612946, 0.18361182510852814, -0.0723351389169693, -0.2251274138689041, 0.10554733872413635, -0.22223961353302002, 0.1040048748254776, -0.19734755158424377, -0.17466199398040771, 0.23663923144340515, 0.12442322075366974, -0.14802269637584686, -0.1835600882768631, -0.412275105714798, 0.0665557011961937, -0.07831643521785736, -0.15094541013240814, -0.060794420540332794, -0.33743342757225037, -0.10825450718402863, -0.147053062915802, -0.12771478295326233, -0.01868186704814434, 0.13859938085079193, 0.013836964033544064, 0.21296122670173645, 0.03315678983926773, 0.18634134531021118, -0.08516746759414673, -0.14925168454647064, 0.03215765953063965, -0.027236333116889, 0.07329236716032028, 0.12725529074668884, 0.30185574293136597, -0.35727351903915405, -0.18321460485458374, -0.0725766196846962, -0.17289547622203827, 0.1632850021123886, -0.18028205633163452, -0.09539413452148438, -0.21376970410346985, 0.13331067562103271, 0.14472101628780365, -0.20086626708507538, 0.2594151794910431, -0.2062779814004898, -0.004373534582555294, 0.12698012590408325, 0.006187494844198227, -0.05296221375465393, -0.03647490590810776, -0.07992332428693771, -0.028285514563322067, -0.0322246216237545, -0.14698921144008636, 0.03287022188305855, -0.04082571342587471, 0.16337253153324127, -0.200184166431427, -0.04757312685251236, -0.058578114956617355, 0.041612692177295685, 0.23042860627174377, 0.16380910575389862, 0.0068952953442931175, 0.04890715330839157, 0.05340447276830673, -0.11654168367385864, -0.15968559682369232, -0.04363900050520897, 0.05906188488006592, 0.14968241751194, 0.052789460867643356, -0.04561958089470863, -0.06463492661714554, -0.06701457500457764, -0.12608730792999268, -0.03139292448759079, -0.19749212265014648, -0.05636000260710716, -0.009765295311808586, 0.041717611253261566, -0.12086882442235947, -0.23145145177841187, 0.008348545990884304, 0.1842430680990219, 0.11716463416814804, -0.04897959157824516, -0.2994135022163391, 0.017166944220662117, 0.0006826221942901611, -0.054170895367860794, -0.33166977763175964, -0.11865849792957306, 0.056082695722579956, -0.043016787618398666, 0.1493900567293167, -0.07883848994970322, 0.14088262617588043, 0.08550985902547836, 0.06354047358036041, -0.09284915775060654, 0.046297311782836914, 0.1391042023897171, 0.2602332830429077, 0.10498955845832825, -0.17383816838264465, 0.1440596729516983, -0.16953155398368835, 0.2362278699874878, 0.15106311440467834, 0.24680230021476746, -0.16610780358314514, -0.07938947528600693, 0.1277109980583191, 0.057960767298936844, 0.11188524216413498, 0.12491187453269958, 0.2091798037290573, -0.03828059881925583, -0.605881929397583, 0.22594314813613892, 0.5864213705062866, -0.5255413055419922, 0.0565323568880558, -0.8351913690567017, -0.11699943244457245, -0.23280860483646393, 0.7103466391563416, -0.8128260970115662, -0.7554898262023926, -0.8345754742622375, 0.2306746393442154, -0.5758848190307617, 0.4743083715438843, -0.6774176955223083, -0.16599008440971375, -0.28354814648628235, 0.1842939853668213, 0.25389471650123596, 0.05665244534611702, 0.08724666386842728, -0.1370711326599121, -0.04997537285089493, -0.10997378826141357, 0.09328282624483109, 0.08696385473012924, 0.12021145224571228, 0.12086019665002823, 0.3556578457355499, 0.12775257229804993, 0.11036613583564758, -0.03070088103413582, -0.10715565830469131, 0.08060011267662048, -0.12173664569854736, -0.4105122983455658, 0.010977083817124367, -0.29387322068214417, -0.19733037054538727, 0.20035526156425476, -0.12223698198795319, -0.016959575936198235, 0.37346982955932617, 0.23815351724624634, 0.10051032900810242, 0.09440455585718155, 0.3353346586227417, -0.08217375725507736, -0.3038540482521057, 0.1093568280339241, 0.30913472175598145, 0.07162602990865707, 0.14532795548439026, -0.07022422552108765, 0.17175954580307007, -0.13707910478115082, 0.04714084044098854, -0.18309789896011353, -0.22269098460674286, -0.004305262118577957, 0.28695449233055115, 0.06694729626178741, 0.04707368090748787, 0.2746101915836334, 0.2274378389120102, -0.36680105328559875, -0.13171514868736267, 0.017567625269293785, 0.13191619515419006, -0.11395024508237839, 0.004037404432892799, -0.17252413928508759, -0.0047921668738126755, -0.10310408473014832, 0.32475531101226807, -0.04249967634677887, -0.19381272792816162, -0.0965598002076149, -0.08377549797296524, 0.33780935406684875, 0.12336014211177826, -0.3327462673187256, -0.11641166359186172, 0.4301106035709381, 0.029979024082422256, 0.05669928342103958, 0.41158926486968994, -0.07745315134525299, -0.24279212951660156, -0.01747938059270382, 0.5997433066368103, -0.5087527632713318, 0.10129039734601974, -0.1774195432662964, -0.4786582291126251, -0.2350408285856247, -0.03083987347781658, -0.15322022140026093, -0.19293570518493652, 0.07815220952033997, -0.19141048192977905, 0.13215753436088562, 0.03623028099536896, 0.006881189066916704, 0.021374672651290894, 0.1381179392337799, -0.08883515745401382, -0.22605402767658234, -0.17555703222751617, -0.018111702054739, 0.1142951175570488, 0.22685255110263824, -0.16471977531909943, 0.10559330880641937, -0.06724800914525986, 0.22964230179786682, 0.32627567648887634, -0.2631949484348297, -0.3004215955734253, 0.3871579170227051, 0.0006593955913558602, -0.14702311158180237, 0.20286792516708374, -0.07764586061239243, -0.0016122731612995267, 0.05817115679383278, -0.07603086531162262, 0.1379944533109665, -0.04299089312553406, 0.09988933056592941, -0.024019623175263405, 0.2001718431711197, -0.1358163207769394, -0.018972095102071762, 0.04174553602933884, 0.03805825114250183, 0.20141224563121796, -0.12013716250658035, 0.11640052497386932, -0.026143044233322144, 0.005662157200276852, 0.1713676005601883, 0.08496485650539398, -0.1312602460384369, 0.045878153294324875, -0.17059201002120972, -0.15159493684768677, -0.3210020661354065, -0.2286665290594101, -0.1596214920282364, -0.2578887939453125, 0.23577432334423065, 0.17688493430614471, 0.02952897548675537, -0.010144015774130821, 0.11411283165216446, 0.13209110498428345, -0.23231272399425507, 0.2706415057182312, -0.1377609521150589, 0.006974490825086832, -0.045987170189619064, -0.01851428672671318, 0.2728322148323059, -0.003969056997448206, 0.3112636208534241, -0.052508238703012466, -0.049439623951911926, -0.07862628996372223, 0.24231426417827606, 0.2960978150367737, -0.05470646545290947, 0.059383708983659744, 0.24356625974178314, -0.2898235321044922, -0.17998063564300537, 0.001669833087362349, -0.13976985216140747, 0.07753470540046692, -0.2222817838191986, -0.19775843620300293, 0.0440424419939518, -0.08333981782197952, 0.27000799775123596, 0.3378549814224243, -0.3398330509662628, -0.20599620044231415, 0.4688495099544525, -0.05991359427571297, 0.0006732906331308186, 0.10339420288801193, 0.3238225281238556, 0.4215454161167145, -0.466706246137619, -0.21541577577590942, -0.13933314383029938, -0.04241965338587761, -0.046738095581531525, 0.31841593980789185, -0.408441424369812, 0.12904781103134155, 0.2563542127609253, 0.016640763729810715, 0.06273600459098816, -0.23804834485054016, -0.15429441630840302, -0.08403288573026657, -0.15912780165672302, -0.21210835874080658, -0.24936091899871826, 0.19508904218673706, -0.18086037039756775, 0.12037909775972366, -0.33493611216545105, 0.16278360784053802, 0.028476011008024216, -0.05809207260608673, -0.331477552652359, 0.2545941472053528, 0.20001210272312164, -0.11677402257919312, -0.24542610347270966, -0.1901809126138687, 0.1328691691160202, -0.05702921375632286, -0.23869583010673523, 0.28249749541282654, -0.2830260694026947, 0.19503694772720337, -0.18803732097148895, -0.1532898247241974, 0.30068957805633545, 0.21628564596176147, 0.009369916282594204, 0.013374981470406055, 0.077754445374012, 0.12832079827785492, 0.022927863523364067, -0.14041388034820557, 0.08159416913986206, 0.3288288116455078, -0.06312977522611618, -0.21559977531433105, 0.33793318271636963, -0.06929709017276764, 0.12596730887889862, -0.23888178169727325, 0.12100982666015625, -0.2177152782678604, -0.0423414520919323, -0.05586087703704834, -0.346726655960083, -0.13109451532363892, 0.32889264822006226, -0.0015329625457525253, 0.0013587636640295386, -0.31880128383636475, 0.03430728614330292, -0.017129654064774513, -0.2199287712574005, 0.12981227040290833, 0.09183979779481888, 0.12509505450725555, 0.17471405863761902, -0.10460785031318665, 0.15236352384090424, 0.05020873621106148, -0.16768844425678253, 0.3376290202140808, -0.05472487211227417, -0.24013449251651764, -0.1589316576719284, 0.012784688733518124, -0.003716493723914027, -0.09021654725074768, -0.15474651753902435, 0.009393405169248581, 0.15313473343849182, 0.1126454696059227, 0.08218163251876831, 0.021068058907985687, 0.09385667741298676, -0.3145888149738312, 0.0012637546751648188, -0.27251484990119934, -0.02302437089383602, -0.06821152567863464, -0.10765421390533447, -0.04678807780146599, -0.17520563304424286, -0.04051382467150688, -0.18152906000614166, 0.021703697741031647, -0.08513636142015457, -0.0217328779399395, 0.04311689734458923, 0.12453918904066086, -0.0766831487417221, -0.03829636797308922, 0.13261516392230988, -0.0174039825797081, -0.034490130841732025, 0.17373429238796234, 0.08596137911081314, 0.009323664009571075, -0.15735742449760437, -0.03285711631178856, 0.03823620826005936, 0.1431119740009308, 0.1117546409368515, -0.07886622846126556, -0.170934796333313, 0.07762854546308517, -0.018594058230519295, 0.14856475591659546, 0.06268779933452606, -0.06752874702215195, -0.05462971329689026, -0.03499049320816994, -0.027897367253899574, -0.07363723963499069, 0.07168484479188919, 0.032950934022665024, -0.14723999798297882, -0.13835665583610535, 0.09784691780805588, -0.20617099106311798, 0.07224499434232712, -0.034793876111507416, 0.22802655398845673, 0.08113723993301392, -0.10143625736236572, 0.16603203117847443, -0.07301749289035797, -0.03513679280877113, -0.15895536541938782, -0.1452060341835022, 0.14311057329177856, -0.17609989643096924, 0.03766319528222084, -0.07599415630102158, -0.11725616455078125, 0.029224969446659088, 0.29966428875923157, 0.09763985127210617, -0.08801528066396713, -0.024790644645690918, 0.28949451446533203, -0.2294899821281433, -0.0510704405605793, -0.03110317327082157, 0.07500992715358734, -0.246922105550766, 0.09173327684402466, -0.16029323637485504, 0.22765198349952698, -0.0036161646712571383, -0.03927076980471611, -0.1585456132888794, 0.1738440841436386, 0.13362959027290344, 0.03154405951499939, 0.22038641571998596, 0.13307107985019684, -0.013544747605919838, 0.11016879975795746, 0.28505292534828186, 0.17716266214847565, -0.13813334703445435, -0.25531119108200073, 0.031969595700502396, 0.17588825523853302, 0.3347289562225342, 0.1944148689508438, -0.006205106154084206, -0.06155496463179588, -0.020176531746983528, 0.07918986678123474, 0.37235963344573975, 0.036235906183719635, 0.21639715135097504, -0.017551010474562645, -0.23171168565750122, 0.27294379472732544, -0.022696558386087418, -0.011140133254230022, 0.27124688029289246, 0.01729658804833889, -0.1502021700143814, 0.22214291989803314, -0.0988268032670021, 0.005495970603078604, -0.05870608985424042, -0.11112373322248459, 0.051741864532232285, -0.0972629263997078, -0.16015200316905975, 0.1374455839395523, 0.0007172052864916623, 0.14424026012420654, 0.04057949036359787, 0.13303767144680023, 0.06475337594747543, -0.09131808578968048, -0.21782465279102325, 0.21847334504127502, 0.04386920854449272, 0.1628330796957016, -0.09035764634609222, -0.10171884298324585, -0.05986519902944565, 0.18503746390342712, -0.020839812234044075, 0.05466697737574577, 0.10400218516588211, -0.02062050625681877, 0.00852237083017826, -0.2690433859825134, 0.029923174530267715, 0.33735430240631104, -0.1368871033191681, -0.032853834331035614, 0.0720277950167656, -0.04504196345806122, -0.058632005006074905, -0.03598610684275627, -0.011996977031230927, -0.04049726203083992, -0.20990058779716492, 0.0975860059261322, 0.22293557226657867, -0.3826810419559479, -0.1608654409646988, 0.017002182081341743, -0.15723706781864166, 0.08931144326925278, -0.13159658014774323, 0.18436674773693085, 0.19246511161327362, -0.06034049764275551, 0.2540590763092041, -0.17184703052043915, -0.07909969985485077, 0.025957468897104263, -0.2791011929512024, -0.2872178554534912, -0.22265248000621796, -0.046851322054862976, 0.024198409169912338, 0.13558968901634216, -0.05633105710148811, -0.2213374823331833, -0.10058174282312393, 0.19943414628505707, 0.19791054725646973, 0.1679052859544754, 0.05150143802165985, 0.3214775621891022, -0.20050381124019623, 0.04703209921717644, 0.004895458463579416, -0.2152811884880066, -0.02294633537530899, 0.0756673589348793, 0.505885124206543, -0.2592501640319824, -0.04234405234456062, 0.019185438752174377, -0.038998670876026154, 0.23540112376213074, 0.16816866397857666, -0.09688559174537659, 0.04588295519351959, -0.03912603110074997, -0.06562638282775879, 0.12633627653121948, -0.22875362634658813, 0.1399907022714615, 0.23441344499588013, -0.18171438574790955, -0.15465514361858368, -0.219622403383255, -0.2308291792869568, 0.008716982789337635, 0.06324087083339691, 0.011591460555791855, 0.15258626639842987, -0.08783797174692154, -0.18961413204669952, 0.30435386300086975, -0.0379849374294281, -0.02779378928244114, 0.08274447172880173, -0.026017338037490845, 0.15948490798473358, -0.0501851886510849, -0.03891001269221306, -0.3122061491012573, -0.030996207147836685, 0.20569247007369995, 0.12316788733005524, -0.19893333315849304, 0.13284918665885925, -0.020670229569077492, 0.03623587638139725, 0.09454546123743057, 0.14793677628040314, -0.0360071025788784, -0.025401253253221512, -0.17834524810314178, -0.09641442447900772, -0.13592830300331116, -0.06098180636763573, 0.4278935194015503, 0.012273161672055721, -0.2569124400615692, 0.3127824664115906, 0.021653413772583008, -0.21395821869373322, -0.04670290648937225, 0.17301759123802185, 0.1268405020236969, -0.21884557604789734, 0.12270165979862213, 0.14800243079662323, -0.20744861662387848, -0.21417666971683502, -0.19527627527713776, -0.07896283268928528, -0.11484015733003616, 0.009021638892591, -0.02977057173848152, 0.2130693644285202, -0.3922070264816284, -0.021419933065772057, 0.005219552665948868, 0.0009233207092620432, -0.1087072417140007, 0.15696106851100922, 0.12663434445858002, -0.12730422616004944, -0.029766637831926346, 0.014699026942253113, -0.11255460977554321, 0.038351040333509445, -0.09640999883413315, 0.10301175713539124, 0.1020837053656578, 0.07991217821836472, -0.19326502084732056, 0.1427764892578125, -0.03243017569184303, 0.025198722258210182, -0.031035378575325012, 0.14310967922210693, -0.054316602647304535, -0.04294244945049286, -0.016898827627301216, 0.31501075625419617, 0.194351926445961, -0.09862395375967026, 0.2380896955728531, -0.012515438720583916, 0.20957793295383453, -0.09607481211423874, -0.0537235289812088, -0.09400548040866852, 0.06443610042333603, 0.21305769681930542, 0.1647290736436844, -0.11240921169519424, -0.20102250576019287, 0.3704337477684021, 0.049646440893411636, 0.07917046546936035, 0.18610109388828278, -0.2023002803325653, -0.3039388060569763, 0.24458032846450806, -0.2674386203289032, -0.09499496966600418, 0.3155924081802368, -0.1426902711391449, -0.13162371516227722, -0.2988200783729553, 0.024723868817090988, 0.06816668808460236, -0.6118395924568176, -0.15062661468982697, 0.15877032279968262, -0.15861527621746063, 0.14406976103782654, -0.05940772965550423, 0.16372741758823395, -0.07842610776424408, -0.06331810355186462, 0.13746264576911926, 0.15845412015914917, -0.12166497111320496, 0.03154297545552254, 0.06064588949084282, -0.06792793422937393, -0.0935152918100357, 0.2190718650817871, -0.12935073673725128, 0.3673058748245239, -0.053555477410554886, -0.30754613876342773, -0.23518653213977814, -0.0905664786696434, 0.31063172221183777, 0.03367080166935921, -0.060758765786886215, -0.3535688817501068, 0.0654633417725563, -0.17000925540924072, -0.08057727664709091, -0.24552085995674133, 0.20608703792095184, 0.13201437890529633, 0.09306324273347855, -0.10553769022226334, -0.1090826690196991, -0.2588180601596832, -0.10777024924755096, -0.3666568696498871, -0.004117637872695923, 0.09172571450471878, -0.03465014323592186, -0.3573026955127716, -0.08798617124557495, -0.06033453345298767, -0.2960733473300934, 0.02721346914768219, 0.11987113207578659, -0.23468466103076935, 0.020485403016209602, -0.09594112634658813, 0.10720895975828171, 0.052593156695365906, 0.14163659512996674, -0.059332944452762604, 0.007359959185123444, -0.046088580042123795, 0.13146722316741943, 0.04202134907245636, 0.05559953674674034, 0.08386588096618652, 0.2551696002483368, 0.00340606109239161, 0.06666120141744614, 0.07499856501817703, -0.13724826276302338, 0.022250661626458168, 0.03988524526357651, 0.06929083168506622, -0.23415695130825043, 0.14088855683803558, -0.13399559259414673, -0.08562616258859634, 0.5741245150566101, 0.01563437096774578, -0.18052487075328827, -0.09110891073942184, -0.005233477801084518, 0.11176267266273499, -0.153173565864563, 0.11400949209928513, 0.057593636214733124, 0.0010228849714621902, -0.04238779470324516, -0.1064765602350235, -0.1876489371061325, 0.0404367558658123, -0.0010643786517903209, -0.09050615131855011, 0.1561271846294403, -0.20901599526405334, -0.08123315870761871, 0.014901241287589073, -0.03984816372394562, 0.2582162022590637, 0.13040035963058472, -0.09249673783779144, 0.019726432859897614, -0.07818613946437836, 0.06829982250928879, -0.1496499478816986, -0.060888756066560745, 0.13864068686962128, 0.03937897831201553, 0.13315840065479279, 0.1772753745317459, -0.20595668256282806, -0.05848249793052673, 0.03611946105957031, 0.05378705635666847, 0.0885818675160408, 0.17977312207221985, -0.05045284330844879, -0.10342288017272949, -0.2311476618051529, -0.07403168827295303, -0.13258634507656097, -0.1480259895324707, 0.2706848978996277, -0.09745613485574722, -0.33018264174461365, 0.09236125648021698, -0.20925192534923553, -0.031568750739097595, 0.054950159043073654, 0.13977977633476257, 0.36303308606147766, 0.1595848649740219, -0.010683977045118809, 0.3268430531024933, 0.039552100002765656, -0.11063246428966522, -0.26100078225135803, -0.0363277830183506, -0.09996090829372406, -0.027287954464554787, 0.13681353628635406, 0.19771312177181244, -0.17121188342571259, 0.07894902676343918, 0.19480791687965393, -0.06329166144132614, 0.14953982830047607, -0.1844206005334854, 0.16451416909694672, 0.09054717421531677, -0.02746097557246685, 0.03681869059801102, -0.08584492653608322, -0.05187097191810608, -0.18742987513542175, 0.07281581312417984, -0.048549436032772064, 0.1436896175146103, -0.284531831741333, -0.06354266405105591, -0.07302993535995483, -0.06402663886547089, 0.11710497736930847, 0.19006800651550293, -0.18432842195034027, -0.005901860073208809, -0.19637106359004974, 0.02739262767136097, -0.04672097787261009, -0.11460989713668823, 0.4175748825073242, -0.1767112910747528, -0.009866160340607166, 0.1976543813943863, 0.006089626811444759, -0.1446581333875656, -0.03308846801519394, 0.08877997100353241, 0.02789715677499771, -0.05507642403244972, -0.2064223289489746, 0.11418575793504715, -0.14607010781764984, -0.15332132577896118, 0.15659362077713013, -0.028564056381583214, 0.136999249458313, 0.00593161815777421, 0.05538823455572128, 0.12643009424209595, 0.05021899193525314, -0.06476942449808121, 0.2116486132144928, 0.11627871543169022, -0.024940447881817818, 0.06513264030218124, 0.12947727739810944, -0.1538909375667572, -0.05183377116918564, -0.16754181683063507, 0.08813762664794922, -0.1695399433374405, 0.16334527730941772, 0.11073865741491318, -0.1402396708726883, -0.009631320834159851, 0.24630479514598846, -0.07594998925924301, 0.06687676906585693, -0.033049870282411575, 0.12736977636814117, -0.042191240936517715, 0.17812462151050568, 0.059153374284505844, -0.033204589039087296, -0.18102528154850006, 0.20968617498874664, 0.09035671502351761, -0.4412030875682831, 0.052994370460510254, 0.1810905784368515, -0.1588762104511261, 0.06901577860116959, 0.18957968056201935, -0.18315951526165009, -0.0770108625292778, -0.16604618728160858, 0.20531661808490753, -0.19496911764144897, 0.04126757010817528, 0.05189870297908783, 0.008485737256705761, 0.07752036303281784, -0.05687028914690018, 0.15263178944587708, 0.12824444472789764, -0.03898853063583374, -0.13360613584518433, 0.01826821081340313, 0.07787040621042252, -0.003991611767560244, -0.09533394128084183, -0.0529562383890152, 0.03962109237909317, 0.04774441197514534, 0.17264966666698456, 0.13346464931964874, -0.11617852747440338, -0.05401994287967682, 0.08387971669435501, 0.06484821438789368, 0.018159855157136917, -0.0026250246446579695, 0.07235695421695709, -0.1281343251466751, -0.03041706420481205, -0.15223929286003113, -0.23965676128864288, -0.26019009947776794, -0.11165937781333923, -0.042023081332445145, 0.08019058406352997, -0.20440387725830078, -0.3478175103664398, -0.3868885338306427, 0.13153430819511414, 0.1081847995519638, 0.0011380193755030632, 0.24186751246452332, -0.2537781298160553, 0.031079258769750595, -0.06088118627667427, -0.19356033205986023, 0.08797375112771988, -0.2782175540924072, -0.3159792125225067, 0.14384467899799347, -0.026168158277869225, -0.20265747606754303, 0.12861217558383942, 0.13286133110523224, 0.020800050348043442, 0.2694392502307892, 0.24729454517364502, 0.059945616871118546, -0.02910386584699154, 0.03877972811460495, -0.2718221843242645, -0.02904769964516163, 0.04653729870915413, -0.18278589844703674, -0.0664953738451004, 0.032692570239305496, -0.024629250168800354, 0.037210989743471146, -0.0671360194683075, 0.1657690852880478, 0.0415504164993763, 0.01220867782831192, 0.14360815286636353, -0.08406464755535126, -0.06146607920527458, 0.08413469046354294, -0.07005282491445541, 0.0714622512459755, -0.2107134312391281, -0.01716088503599167, -0.17798134684562683, 0.1885843724012375, 0.04450402036309242, 0.2776730954647064, 0.23149316012859344, 0.22353318333625793, -0.007441876921802759, -0.4710918068885803, 0.025582987815141678, 0.15570630133152008, -0.16450399160385132, -0.07556705176830292, 0.16814567148685455, 0.03573521226644516, -0.05113095045089722, -0.12569820880889893, 0.18175311386585236, -0.18900436162948608, 0.051629479974508286, 0.14209984242916107, 0.09351356327533722, 0.21595966815948486, -0.000615038676187396, 0.08971843123435974, 0.2575702369213104, -0.06170886009931564, -0.039927273988723755, 0.23388555645942688, -0.13849978148937225, -0.07811011373996735, -0.08513683080673218, -0.11729566752910614, 0.1177726462483406, -0.17278039455413818, -0.029234325513243675, 0.11259980499744415, -0.17529897391796112, 0.13066178560256958, -0.12133152782917023, 0.16439653933048248, -0.06739546358585358, 0.0068071335554122925, -0.0767257809638977, 0.1429188996553421, -0.12472878396511078, 0.013425961136817932, -0.0006653498858213425, -0.11782188713550568, -0.04341835528612137, 0.038128238171339035, 0.14243778586387634, 0.02871124818921089, 0.11159902811050415, -0.06440036743879318, -0.05373639985918999, -0.25281813740730286, 0.027045579627156258, 0.000682524056173861, 0.06090664863586426, -0.27119576930999756, 0.14643943309783936, 0.04587389528751373, -0.14425529539585114, -0.30054131150245667, 0.07849401235580444, -0.009752176702022552, -0.11774319410324097, 0.02764901891350746, 0.03496181219816208, 0.18592587113380432, -0.1887640804052353, 0.024838458746671677, 0.15914753079414368, -0.2807454764842987, -0.03662339225411415, -0.19597341120243073, -0.16025708615779877, 0.004310765769332647, 0.05364614725112915, -0.13095562160015106, 0.0177615936845541, -0.23016035556793213, -0.12282057851552963, -0.027167484164237976, 0.03131595253944397, 0.1439695656299591, -0.11380546540021896, 0.04904573783278465, -0.342338502407074, -0.1739608645439148, 0.15589307248592377, 0.16679349541664124, 0.18301373720169067, 0.23224085569381714, -0.15903519093990326, -0.07623568922281265, 0.26317688822746277, 0.16277411580085754, 0.3332046866416931, -0.029136160388588905, -0.037218350917100906, -0.23559018969535828, -0.168080672621727, 0.3229348361492157, 0.057280268520116806, 0.4068732261657715, 0.006096581928431988, -0.42693111300468445, -0.012410002760589123, -0.3170502781867981, -0.21721963584423065, -0.10067661851644516, 0.28354692459106445, 0.27097177505493164, 0.18536533415317535, 0.19226782023906708, 0.15262556076049805, -0.09262543171644211, 0.07364163547754288, 0.06301239877939224, 0.04486793652176857, 0.19618843495845795, 0.23604044318199158, -0.20072712004184723, 0.14335976541042328, 0.04018224775791168, -0.13656392693519592, 0.09029345959424973, -0.013701261021196842, 0.0567019023001194, 0.12713691592216492, -0.00894114188849926, 0.17643892765045166, -0.10317251831293106, 0.046389080584049225, 0.09263231605291367, 0.13003982603549957, 0.08938880264759064, 0.06732939183712006, -0.0488794781267643, 0.148965522646904, -0.023984206840395927, -0.0990828424692154, -0.019964104518294334, -0.10663461685180664, -0.12007439136505127, -0.05719710513949394, -0.08983348309993744, 0.013883049599826336, 0.16397321224212646, -0.12589146196842194, 0.2346566915512085, -0.019181372597813606, -0.19644401967525482, 0.18052884936332703, -0.18704555928707123, -0.014723876491189003, 0.14766432344913483, -0.05473104491829872, 0.18205620348453522, -0.22403103113174438, -0.001083357841707766, -0.09530416131019592, -0.17814825475215912, 0.05998188257217407, 0.059575747698545456, 0.07739973813295364, -0.009881453588604927, 0.11375074088573456, 0.21370361745357513, -0.011559907346963882, 0.03836635500192642, -0.12930619716644287, 0.0008852010942064226, 0.03379791975021362, 0.13353334367275238, 0.0033077101688832045, -0.21061410009860992, 0.025615563616156578, -0.031050758436322212, -0.041783131659030914, -0.0030346394050866365, -0.6841918230056763, 0.7423997521400452, 0.23266495764255524, -0.2829112410545349, 0.34226590394973755, -0.24199849367141724, 0.1016581729054451, 0.5803543329238892, -0.567788302898407, 0.7368761897087097, 0.560907244682312, -0.02286047302186489, -0.5466350317001343, 0.5358812212944031, -0.4783686101436615, 0.24842461943626404, -0.155674010515213, -0.06916022300720215, -0.4903528094291687, 0.30157923698425293, 0.4678887724876404, 0.05802817642688751, 0.18703898787498474, 0.32988762855529785, 0.2556363344192505, -0.23176276683807373, 0.21381302177906036, -0.33735403418540955, -0.2446560263633728, -0.11286037415266037, 0.03468269109725952, 0.05767581984400749, 0.05325308442115784, -0.08259349316358566, 0.4234349727630615, 0.13179050385951996, -0.15206578373908997, -0.05476336181163788, -0.5590477585792542, -0.2785879373550415, 0.08942005038261414, 0.039424099028110504, -0.1318526566028595, 0.09854812920093536, 0.11946192383766174, 0.16025327146053314, -0.128031924366951, -0.12695616483688354, -0.5011876821517944, 0.2305465042591095, -0.06059256196022034, -0.09774008393287659, -0.5615195035934448, -0.01650877483189106, -0.5668128728866577, -0.05965056270360947, -0.13216881453990936, -0.007685821037739515, 0.40148109197616577, 0.3022812604904175, 0.08924151957035065, 0.0883256196975708, -0.11005810648202896, 0.31600841879844666, 0.3195953071117401, 0.06809428334236145, -0.10947968065738678, 0.046671994030475616, 0.15372896194458008, -0.18272726237773895, 0.10439586639404297, 0.11443573981523514, -0.05058523267507553, -0.06036774814128876, 0.2811240553855896, -0.031657058745622635, 0.09261448681354523, 0.024318935349583626, -0.034292060881853104, 0.1382039487361908, 0.2860664129257202, 0.21174246072769165, -0.04718638211488724, -0.09531711786985397, -0.06533177196979523, 0.1402570605278015, -0.0008402593666687608, 0.27534523606300354, -0.08092671632766724, -0.11278519034385681, -0.33725854754447937, 0.020920883864164352, -0.11106335371732712, 0.07011459767818451, -0.23356705904006958, -0.09011835604906082, -0.20264585316181183, 0.14231982827186584, 0.07762429118156433, -0.4552725851535797, -0.12040966749191284, 0.05816588178277016, -0.0317247100174427, -0.0171798188239336, -0.08153332024812698, 0.08187529444694519, 0.2824680805206299, 0.4403262734413147, 0.15841764211654663, 0.22414906322956085, -0.10160055756568909, -0.01822461560368538, 0.42183804512023926, -0.10999749600887299, -0.09252280741930008, 0.21474187076091766, -0.18357908725738525, 0.06409810483455658, -0.09440591931343079, -0.16628727316856384, 0.17613308131694794, 0.02841058187186718, -0.3421276807785034, 0.1274745911359787, 0.09916926175355911, 0.08824857324361801, 0.21523526310920715, 0.3097721040248871, 0.15073692798614502, -0.05956001207232475, -0.0627746507525444, -0.04858250170946121, 0.059836190193891525, -0.05481467768549919, -0.09752630442380905, -0.01000295951962471, -0.005360843613743782, 0.30547016859054565, 0.1145341545343399, 0.05340854451060295, 0.2240479588508606, 0.08356468379497528, -0.12583044171333313, -0.27440449595451355, 0.4912213385105133, -0.004002084489911795, 0.03685960918664932, 0.3003411889076233, -0.025195710361003876, -0.28186970949172974, 0.09435893595218658, -0.18704675137996674, 0.16045495867729187, -0.269650936126709, -0.009530706331133842, -0.2877659797668457, -0.0467388741672039, 0.05273115634918213, 0.1009165421128273, 0.42445167899131775, -0.2629702389240265, -0.07793863117694855, 0.014050564728677273, 0.12554794549942017, 0.1920490860939026, -0.10479101538658142, 0.03885401040315628, -0.03788555786013603, -0.08674375712871552, 0.15423808991909027, -0.23321707546710968, -0.01987225003540516, -0.0389428585767746, 0.13907240331172943, -0.07585236430168152, 0.22473105788230896, -0.28248631954193115, -0.1613619476556778, -0.41835394501686096, 0.3846346139907837, -0.12093664705753326, 0.043441880494356155, 0.05455745384097099, 0.17598699033260345, 0.1755390465259552, -0.4958333373069763, 0.02468431554734707, -0.11230161786079407, -0.3563031256198883, 0.06627094000577927, 0.35363641381263733, 0.24627141654491425, -0.6045844554901123, -0.11050725728273392, 0.03844842314720154, -0.002035687677562237, 0.3412250578403473, 0.03792737424373627, 0.02251751907169819, -0.23327216506004333, -0.17238326370716095, -0.19407297670841217, 0.7188969254493713, -0.44193407893180847, -0.4952901303768158, -0.026581300422549248, 0.06019982695579529, -0.44520896673202515, -0.36910390853881836, -0.028085028752684593, -0.12395350635051727, 0.1612626314163208, -0.08067932724952698, -0.23643192648887634, -0.23865583539009094, -0.07489199191331863, -0.1341579407453537, -0.17217522859573364, 0.07537122070789337, -0.05894056335091591, 0.12094227224588394, 0.036538928747177124, -0.09613694995641708, -0.276701956987381, 0.4513823091983795, -0.15933801233768463, -0.20281650125980377, 0.05168231204152107, -0.3204208314418793, 0.22547322511672974, -0.16605578362941742, -0.026466088369488716, -0.04343095049262047, 0.016759134829044342, 0.022534672170877457, -0.030263051390647888, 0.27308082580566406, -0.06376373022794724, -0.02972043678164482, 0.24511320888996124, 0.25849267840385437, 0.039960701018571854, -0.2810894846916199, -0.18908149003982544, 0.21924477815628052, -0.12168564647436142, -0.21437044441699982, 0.4319121837615967, 0.24865101277828217, 0.20954252779483795, -0.1280655860900879, 0.027787193655967712, 0.007863287813961506, -0.016886914148926735, -0.2669568359851837, 0.014412617310881615, -0.10317787528038025, -0.042010486125946045, -0.1650410145521164, -0.10302327573299408, 0.12194790691137314, -0.025014901533722878, -0.15558631718158722, 0.13360242545604706, 0.24356190860271454, 0.219761461019516, 0.15232981741428375, -0.21071918308734894, -0.1673128306865692, -0.05374559387564659, 0.09302765130996704, -0.018968364223837852, -0.008318203501403332, 0.13029344379901886, 0.056595154106616974, -0.07276404649019241, -0.045957181602716446, 0.0743054524064064, 0.012280638329684734, -0.22196318209171295, -0.16156600415706635, 0.014609131962060928, 0.06926460564136505, 0.09601366519927979, 0.05439307168126106, 0.07708216458559036, 0.02332264930009842, 0.037114255130290985, -0.01505293045192957, -0.2127981036901474, 0.04366149753332138, -0.015118202194571495, 0.00895731896162033, 0.1375008076429367, -0.3320203423500061, -0.03483113646507263, 0.08662749826908112, -0.01254191342741251, 0.2353765219449997, 0.02196747437119484, -0.17532052099704742, 0.08431839942932129, 0.09163599461317062, 0.0186428464949131, 0.3362119793891907, 0.1532745063304901, 0.020471623167395592, -0.20523107051849365, -0.3409399390220642, -0.05799148976802826, -0.01244038064032793, 0.07933885604143143, -0.07417044788599014, -0.27203527092933655, -0.1662936955690384, 0.05439365655183792, 0.029499676078557968, -0.12808403372764587, 0.005300468765199184, -0.21937797963619232, 0.03557856008410454, -0.14976650476455688, -0.23978100717067719, 0.024709738790988922, -0.03334883973002434, -0.15493249893188477, 0.09363921731710434, -0.013844246044754982, -0.29195958375930786, -0.16467855870723724, -0.17405179142951965, 0.03732854872941971, 0.11669182777404785, -0.20620940625667572, 0.129739910364151, 0.039810966700315475, 0.6181367635726929, -0.14559146761894226, -0.07623767107725143, 0.018544569611549377, 0.32280561327934265, -0.6709123253822327, -0.45764797925949097, -0.005034042987972498, 0.023690905421972275, 0.29880383610725403, -0.3923698365688324, 0.11041462421417236, -0.05346796661615372, 0.07714594155550003, 0.07871251553297043, -0.2617238461971283, -0.006696220487356186, -0.1523689180612564, 0.20485681295394897, 0.044258397072553635, -0.05105362832546234, -0.26021358370780945, -0.18991421163082123, -0.004660273902118206, 0.4251197874546051, -0.0009436922264285386, -0.05388273671269417, -0.008724900893867016, -0.14109031856060028, 0.2173817753791809, 0.6454338431358337, 0.052738215774297714, 0.10771343111991882, 0.09141355752944946, -0.08643881231546402, -0.35773003101348877, 0.04495912417769432, -0.08939167112112045, -0.2999812662601471, 0.11114776134490967, -0.11323291063308716, 0.29120805859565735, 0.014609727077186108, -0.07268816232681274, -0.6652268767356873, 0.24368689954280853, -0.5234527587890625, -0.027734903618693352, 0.21872401237487793, -0.33966219425201416, -0.011354307644069195, 0.2092091143131256, 0.07554682344198227, -0.26199615001678467, -0.08259772509336472, 0.14848437905311584, 0.17385096848011017, 0.19379585981369019, -0.3391961455345154, 0.15041248500347137, -0.13207802176475525, -0.04009102284908295, -0.23792482912540436, -0.34277263283729553, 0.030722681432962418, 0.09556717425584793, 0.2367597222328186, -0.10892370343208313, 0.0026875766925513744, -0.07918962091207504, 0.21925511956214905, 0.04007226973772049, -0.03388458490371704, -0.12345831096172333, 0.0560334138572216, -0.125367671251297, 0.11956503242254257, -0.11100664734840393, 0.39724865555763245, -0.6804109811782837, 0.0985356792807579, 0.2808038294315338, -0.05156305804848671, 0.03785625472664833, 0.0548098087310791, -0.12900492548942566, 0.04192664846777916, 0.1049443781375885, -0.03859451040625572, 0.014294133521616459, -0.21584518253803253, -0.055049166083335876, 0.08896853774785995, 0.20823708176612854, 0.1934123933315277, -0.04821951314806938, 0.1455049365758896, -0.11309054493904114, 0.013052689842879772, 0.06292489916086197, 0.19657394289970398, 0.23025299608707428, 0.22747500240802765, -0.015235311351716518, 0.16791123151779175, -0.055291254073381424, -0.1461849808692932, 0.12730976939201355, 0.0874134972691536, 0.00014294421998783946, -0.039190370589494705, -0.15877395868301392, 0.14366106688976288, 0.0808703675866127, -0.039081916213035583, -0.04915013536810875, 0.012405656278133392, 0.0011138927657157183, 0.19436778128147125, 0.06404752284288406, -0.09657925367355347, -0.3319503962993622, -0.2089983969926834, 0.017253879457712173, 0.1959533840417862, 0.07609453052282333, 0.1626051962375641, -0.04736854508519173, 0.1828465312719345, 0.24272601306438446, 0.13964535295963287, -0.017040515318512917, 0.1581670194864273, -0.21157312393188477, 0.00837741605937481, 0.040227316319942474, -0.3519895374774933, -0.10923928767442703, -0.02061132900416851, 0.06424623727798462, -0.19947966933250427, 0.115242600440979, -0.02003302052617073, 0.05695710331201553, 0.07523387670516968, 0.016785897314548492, 0.009016676805913448, 0.1884726732969284, 0.09333053231239319, 0.08931104093790054, -0.003923802170902491, -0.03222529590129852, -0.13922201097011566, 0.1364932805299759, 0.01905723661184311, 0.21138279139995575, 0.10440614074468613, -0.017163099721074104, -0.1096794381737709, 0.10216560959815979, 0.07702389359474182, -0.061220284551382065, 0.04081247001886368, 0.018871260806918144, 0.04733423888683319, -0.07919170707464218, -0.23570333421230316, 0.08315198868513107, 0.24198979139328003, -0.016501547768712044, -0.03781657665967941, -0.017329588532447815, -0.07576867938041687, 0.03496963158249855, -0.19458970427513123, -0.044600144028663635, -0.1246732845902443, -0.017844567075371742, 0.012229625135660172, -0.1321886032819748, 0.21369189023971558, -0.11139029264450073, -0.2757895588874817, 0.23796066641807556, -0.1703176498413086, -0.12288177013397217, -0.4352825880050659, 0.3344724178314209, -0.22627615928649902, 0.1955520361661911, -0.3164953291416168, -0.09044056385755539, 0.08632822334766388, 0.017319250851869583, 0.2013862133026123, 0.17298737168312073, -0.11162184923887253, -0.3034287393093109, -0.15007679164409637, 0.2498142570257187, 0.006569863762706518, 0.3109528720378876, -0.09228984266519547, 0.1837695837020874, -0.10005311667919159, -0.05871594324707985, -0.1625346541404724, -0.2733363211154938, -0.05828236788511276, -0.01804417371749878, 0.14584901928901672, -0.02889060229063034, -0.05933747440576553, -0.15607568621635437, -0.15423403680324554, 0.03776712343096733, 0.24604344367980957, -0.11011604964733124, 0.06666521728038788, 0.009750843979418278, -0.024802401661872864, 0.2231922745704651, 0.2179347425699234, -0.06796978414058685, 0.16528037190437317, 0.11784745007753372, 0.26696518063545227, -0.050450053066015244, 0.018772706389427185, -0.09220775961875916, -0.16268213093280792, 0.02748565748333931, -0.10765261203050613, -0.025890225544571877, -0.13417768478393555, -0.05855216085910797, 0.001133014797233045, 0.24008195102214813, 0.2897071838378906, 0.0012153377756476402, -0.04800144582986832, -0.08406811952590942, -0.08030890673398972, -0.08747299760580063, 0.18469972908496857, -0.15600846707820892, -0.09862194955348969, 0.2416708916425705, 0.005548532586544752, -0.1603420078754425, -0.12320268154144287, 0.07650976628065109, 0.041599832475185394, -0.003331386484205723, -0.09594877809286118, -0.07115041464567184, -0.03292503207921982, -0.12897680699825287, -0.09627056866884232, 0.07603747397661209, 0.21246756613254547, 0.03524404764175415, -0.1194923147559166, -0.24721969664096832, 0.1021304726600647, 0.01760733872652054, 0.11717776954174042, 0.08619403839111328, -0.10368871688842773, -0.026097234338521957, -0.0712960958480835, 0.014561097137629986, 0.17342689633369446, -0.05560537427663803, 0.030908137559890747, 0.10105637460947037, 0.000169977531186305, 0.049411505460739136, -0.20617003738880157, 0.06095505878329277, 0.06472466886043549, 0.15070700645446777, 0.155865877866745, -0.1109873354434967, 0.26179376244544983, 0.2306431531906128, -0.25661155581474304, 0.0319269523024559, 0.06149931624531746, 0.20512931048870087, -0.02138352021574974, 0.11077255010604858, 0.22524292767047882, 0.3172265589237213, -0.06752180308103561, 0.04798620939254761, -0.13174471259117126, 0.01426758710294962, 0.054027847945690155, -0.07302787899971008, 0.06359907239675522, 0.15794141590595245, -0.09239791333675385, -0.15987926721572876, -0.1017543375492096, 0.056342963129282, -0.021440086886286736, 0.11322581022977829, -0.07185401022434235, 0.03518889099359512, 0.008624243550002575, 0.012705291621387005, 0.14600294828414917, 0.008344818837940693, -0.21610525250434875, -0.05667731538414955, 0.16626136004924774, -0.1293683797121048, -0.12025382369756699, -0.14370720088481903, 0.043322574347257614, -0.12800905108451843, 0.040459536015987396, 0.03183278441429138, 0.04882432892918587, 0.010125196538865566, 0.09923077374696732, 0.004748023580759764, -0.1366128772497177, 0.07600216567516327, -0.24803781509399414, 0.2012622356414795, 0.06962171196937561, 0.12737415730953217, 0.13419565558433533, -0.05481850728392601, 0.27605921030044556, 0.12114790081977844, 0.11205770075321198, -0.13130958378314972, -0.1757875233888626, 0.23126518726348877, 0.007912051863968372, -0.3322032690048218, -0.06348986178636551, 0.09572777152061462, -0.0298903901129961, -0.13420403003692627, 0.04357413202524185, 0.09946993738412857, -0.04759923368692398, 0.07233244180679321, 0.10872950404882431, 0.05122813582420349, -0.052293963730335236, -0.19666339457035065, -0.136431023478508, -0.18148307502269745, -0.04928208887577057, 0.006730168126523495, 0.015573091804981232, -0.14458948373794556, -0.04978439211845398, 0.05753519758582115, 0.0428735613822937, 0.033449191600084305, -0.0786915048956871, -0.04582355543971062, 0.22035184502601624, 0.1679537147283554, -0.14095324277877808, 0.11766956001520157, -0.004621344618499279, -0.18100839853286743, -0.028329962864518166, 0.1278272420167923, -0.1977362036705017, -0.0063268146477639675, 0.0233274158090353, 0.12700602412223816, -0.3324050009250641, -0.24282579123973846, 0.1406620442867279, 0.14688332378864288, -0.06694088131189346, -0.20095135271549225, 0.0793219730257988, 0.16362364590168, -0.12302986532449722, 0.28608980774879456, -0.10224728286266327, -0.108591727912426, 0.2526131868362427, -0.3682887554168701, -0.09097430109977722, 0.055279720574617386, -0.035896215587854385, 0.3159913718700409, -0.1423034965991974, 0.045792438089847565, 0.13274605572223663, 0.08323315531015396, -0.04197167232632637, -0.0755084678530693, -0.09674149751663208, 0.11686258018016815, 0.2784730792045593, 0.0680558905005455, 0.043267734348773956, -0.22135159373283386, -0.2212996929883957, 0.07291415333747864, 0.20347733795642853, -0.10797374695539474, 0.08372152596712112, -0.40225744247436523, 0.0309889018535614, -0.18159452080726624, -0.346150666475296, 0.12266755104064941, -0.06520513445138931, -0.2282489836215973, 0.01493192370980978, 0.06727109104394913, -0.2386494129896164, 0.05082967132329941, 0.021294625476002693, 0.09274861216545105, 0.15987440943717957, -0.0366545207798481, -0.0036338865756988525, 0.08459439873695374, -0.0521530918776989, 0.04900159686803818, -0.12413294613361359, -0.028146665543317795, 0.3575849235057831, 0.26272010803222656, 0.09460371732711792, 0.44124436378479004, 0.08730030059814453, -0.1151873767375946, -0.25154101848602295, -0.0746111273765564, -0.18044644594192505, -0.24774537980556488, 0.1813676506280899, 0.1855050027370453, 0.0561465322971344, 0.10581956803798676, 0.03913351148366928, -0.04849417135119438, -0.09736969321966171, 0.08699458092451096, 0.08800984919071198, -0.1502445489168167, -0.16679087281227112, 0.1312471628189087, -0.18596993386745453, 0.0914282500743866, -0.004284272901713848, -0.19556787610054016, 0.020171113312244415, -0.12827356159687042, -0.17712576687335968, -0.22730691730976105, -0.4606379568576813, 0.11433708667755127, -0.11103066802024841, 0.16287578642368317, 0.22066296637058258, -0.006416762713342905, 0.10508280992507935, -0.1283213198184967, 0.13089770078659058, 0.010397725738584995, 0.036742109805345535, 0.2019098550081253, 0.49687841534614563, -0.08319547027349472, 0.12360601127147675, -0.018796617165207863, 0.05727660655975342, 0.15032543241977692, -0.3928523361682892, 0.14844340085983276, 0.03564807400107384, 0.004533592611551285, -0.035984233021736145, -0.44317781925201416, 0.1854197084903717, -0.1787765473127365, -0.2044256329536438, 0.35385772585868835, -0.04339069128036499, -0.06808427721261978, 0.15924465656280518, 0.11608541011810303, -0.019839931279420853, -0.2624764144420624, -0.10549411177635193, -0.014395651407539845, 0.1951303780078888, 0.0756722167134285, -0.02331746555864811, -0.15951335430145264, -0.2090412825345993, 0.15302018821239471, 0.28596508502960205, 0.09211967140436172, -0.04171301797032356, 0.0011867317371070385, 0.10837598890066147, -0.17460229992866516, -0.18631614744663239, 0.1683797538280487, 0.12529151141643524, -0.24798256158828735, 0.266756534576416, -0.029362007975578308, -0.09085918962955475, -0.20449094474315643, -0.19846007227897644, 0.12711374461650848, 0.004012888763099909, 0.1808786392211914, 0.21610088646411896, -0.10960066318511963, -0.05815885588526726, -0.18683883547782898, -0.22447137534618378, -0.2815344035625458, 0.0943852886557579, -0.19698716700077057, -0.09074380993843079, 0.15647949278354645, -0.27671656012535095, -0.2031605839729309, -0.23838408291339874, 0.023139668628573418, 0.07012778520584106, -0.10120026767253876, 0.13185064494609833, -0.06265734881162643, -0.12187644094228745, -0.14442405104637146, 0.192388653755188, -0.002723013749346137, 0.04684997349977493, -0.04973509535193443, 0.014755158685147762, -0.05898987129330635, -0.02196423150599003, -0.2797330915927887, -0.02711435593664646, 0.018737999722361565, -0.2731887698173523, -0.1421644538640976, -0.08848220854997635, -0.23747561872005463, -0.11755078285932541, 0.10810045152902603, 0.18835708498954773, -0.09509743750095367, -0.07601859420537949, -0.04906494542956352, 0.00945163145661354, 0.09168171882629395, 0.10795015096664429, 0.05921757221221924, -0.045800331979990005, -0.12098907679319382, 0.3239269256591797, 0.22318604588508606, 0.12634333968162537, 0.059747807681560516, -0.07774800807237625, 0.699120819568634, 0.24504826962947845, 0.45635026693344116, -0.33076027035713196, 0.09285493940114975, -0.19375285506248474, -0.24134965240955353, -0.02349117211997509, -0.30256187915802, 0.4196707308292389, 0.18328630924224854, -0.08317673206329346, 0.2682649493217468, 0.1472950428724289, 0.3254561424255371, 0.08858969807624817, -0.12402455508708954, 0.0005948566249571741, 0.18972717225551605, -0.19814521074295044, -0.03685664013028145, -0.3198138177394867, -0.011036138981580734, 0.043083712458610535, 0.20963381230831146, -0.05801816284656525, 0.043047837913036346, 0.011639130301773548, 0.01105000264942646, 0.20487599074840546, 0.6851850152015686, -0.052375148981809616, -0.5836787223815918, -0.11510112881660461, 0.023374101147055626, -0.2269805669784546, -0.09999498724937439, 7.318753887375351e-06, -0.1901860386133194, 0.19303378462791443, -0.16994905471801758, -0.11454009264707565, -0.0020861036609858274, 0.03255844488739967, -0.02325424924492836, 0.11269546300172806, 0.07752547413110733, 0.28462904691696167, 0.2453589141368866, -0.06441488862037659, -0.05882267653942108, 0.0337592177093029, -0.29403752088546753, -0.12625278532505035, 0.13598021864891052, -0.09452152997255325, 0.1837550401687622, 0.287414014339447, -0.06665937602519989, -0.04613232985138893, -0.15379327535629272, 0.1454371064901352, -0.13255853950977325, -0.16843950748443604, 0.01640266738831997, -0.12394195795059204, 0.2465539276599884, 0.05060507357120514, 0.0006284736446104944, -0.16877113282680511, -0.10727892816066742, 0.044839952141046524, 0.2814667224884033, 0.03754545748233795, 0.08181991428136826, -0.17940688133239746, 0.03024623915553093, 0.05031361058354378, 0.12350115925073624, -0.00785115547478199, -0.16278915107250214, -0.12566758692264557, -0.28988441824913025, 0.05937354639172554, 0.055286843329668045, -0.14294399321079254, 0.12837857007980347, 0.2305707186460495, 0.016039207577705383, 0.05602455884218216, -0.24166719615459442, 0.12330565601587296, 0.43932124972343445, -0.31862038373947144, 0.09869781881570816, 0.19516406953334808, 0.035133227705955505, -0.02271435223519802, 0.07812251895666122, 0.11040426790714264, 0.05971986800432205, -0.06621459126472473, -0.2783508896827698, 0.3906843066215515, 0.06541355699300766, 0.1312626749277115, 0.059011898934841156, 0.14942775666713715, 0.06977682560682297, -0.1940140575170517, 0.005774290766566992, 0.17317776381969452, 0.10538263618946075, -0.01022208109498024, -0.23726725578308105, -0.31147846579551697, 0.020348571240901947, -0.1198081225156784, 0.2132958024740219, -0.013668677769601345, -0.019743558019399643, -0.2445281744003296, -0.05434863641858101, 0.27207159996032715, -0.15071597695350647, -0.014869685284793377, -0.2840441167354584, 0.20518116652965546, -0.0018926140619441867, -0.1343340128660202, -0.028029490262269974, -0.012341330759227276, -0.10067972540855408, 0.0068454802967607975, 0.0642601028084755, -0.096714086830616, 0.005109608173370361, -0.014433616772294044, 0.06825834512710571, 0.06169832870364189, 0.0384751558303833, 0.39071571826934814, -0.11964324116706848, -0.10956301540136337, 0.19084446132183075, -0.15015843510627747, 0.1277327835559845, 0.013457958586513996, -0.15767133235931396, -0.08560144156217575, 0.06471023708581924, 0.2476826310157776, 0.05623111501336098, 0.008853829465806484, 0.010376946069300175, -0.2261984646320343, -0.04761199653148651, -0.03662014380097389, 0.44014468789100647, -0.17710725963115692, 0.47643595933914185, -1.0147504806518555, -1.0593616962432861, -0.24414731562137604, 0.4405466914176941, -0.4058566987514496, 0.24034148454666138, 0.3812955319881439, -0.42975619435310364, 0.27406787872314453, -0.019146602600812912, -0.5691036581993103, -0.0280280914157629, -0.33846691250801086, -0.1554981768131256, -0.11193136125802994, 0.14716601371765137, -0.14436978101730347, -0.017250869423151016, 0.033224646002054214, 0.14073389768600464, -0.5270076990127563, -0.5319565534591675, -0.0826081857085228, -0.13679702579975128, 0.10630565881729126, 0.1445489376783371, -0.14116668701171875, 0.05393596366047859, -0.043201420456171036, -0.1340143084526062, -0.2525414526462555, -0.018567299470305443, -0.4213232696056366, -0.0018232462462037802, 0.09337351471185684, 0.14465150237083435, -0.14628614485263824, -0.022989409044384956, -0.011810178868472576, -0.14973632991313934, 0.19104540348052979, -0.09734761714935303, 0.14006692171096802, 0.12722289562225342, 0.01426039356738329, 0.02288377843797207, 0.29418838024139404, 0.034187786281108856, -0.07603894174098969, 0.3420771658420563, -0.20948360860347748, -0.3509361445903778, 0.11602572351694107, 0.3025768995285034, -0.11867552250623703, -0.11114436388015747, -0.12760278582572937, -0.011850877664983273, -0.08081535995006561, 0.06333384662866592, 0.26852405071258545, -0.22661185264587402, 0.15613482892513275, -0.01689753867685795, 0.22059394419193268, 0.150889053940773, 0.2632859945297241, 0.38947629928588867, -0.09228686988353729, -0.30095869302749634, -0.19279739260673523, -0.072416290640831, -0.3342798054218292, 0.26424142718315125, 0.22941066324710846, -0.08219827711582184, -0.4410035014152527, 0.21285171806812286, -0.09033508598804474, -0.04467235133051872, 0.1251944601535797, 0.20098158717155457, -0.08430010080337524, 0.02321518026292324, -0.16335172951221466, 0.24397146701812744, 0.09910950064659119, 0.12703396379947662, 0.16625003516674042, -0.1257990300655365, -0.18479566276073456, -0.19715313613414764, -0.1258339285850525, -0.21364422142505646, 0.09296322613954544, 0.22071535885334015, 0.21121348440647125, -0.09958340972661972, 0.23143702745437622, -0.010586323216557503, 0.059262655675411224, 0.14801105856895447, 0.18212077021598816, -0.28591760993003845, 0.3498784005641937, -0.022721106186509132, -0.1329604834318161, -0.26729249954223633, 0.1575566530227661, -0.13529342412948608, -0.17527547478675842, -0.05036185309290886, -0.02910754270851612, 0.1726195067167282, -0.03197376802563667, 0.09716043621301651, 0.13396956026554108, -0.010306277312338352, 0.03790774196386337, 0.09307275712490082, -0.028713202103972435, 0.1674155741930008, 0.06140647828578949, 0.18008972704410553, -0.2049287110567093, -0.11536531150341034, 0.29055529832839966, -0.08481314033269882, 0.20233973860740662, 0.540503978729248, -0.26128166913986206, 0.11321094632148743, 0.3389926850795746, 0.24640262126922607, -0.06585431098937988, 0.08258499205112457, 0.06591327488422394, -0.11450941115617752, -0.010030512697994709, 0.2749789357185364, 0.16139116883277893, -0.2939312756061554, 0.043318524956703186, -0.041759178042411804, 0.008389112539589405, 0.3028081953525543, 0.040312759578228, -0.09831637889146805, -0.08062276244163513, 0.07433651387691498, 0.033755652606487274, -0.01636464335024357, -0.12291296571493149, 0.08727787435054779, 0.029655683785676956, -0.008808322250843048, 0.041326869279146194, 0.08511971682310104, 0.19025690853595734, 0.11898904293775558, -0.024622518569231033, -0.051084909588098526, -0.0017584138549864292, 0.0005438171792775393, -0.2120424062013626, -0.24505013227462769, -0.11092493683099747, 0.16916246712207794, -0.16727551817893982, 0.19318650662899017, 0.03590894117951393, 0.09839984029531479, -0.0541534461081028, -0.18003052473068237, 0.05419175326824188, -0.21420036256313324, -0.14378346502780914, -0.06794703006744385, -0.016697250306606293, 0.016954347491264343, -0.1777799278497696, 0.3895289897918701, -0.015154071152210236, -0.08433398604393005, -0.0472584143280983, -0.16482530534267426, 0.15350212156772614, 0.0447557270526886, -0.05522836744785309, 0.1137080267071724, -0.061395157128572464, -0.17279167473316193, -0.17849715054035187, -0.16521254181861877, -0.21134589612483978, -0.0478571355342865, 0.18850909173488617, -0.06627107411623001, 0.24411852657794952, 0.3580171465873718, 0.2450207620859146, -0.1860557198524475, 0.29747408628463745, -0.28337013721466064, -0.007669515907764435, -0.03887704387307167, 0.2202138900756836, 0.11804015189409256, 0.2641362249851227, -0.09106306731700897, 0.030999185517430305, -0.19751209020614624, -0.04013799875974655, 0.32374832034111023, 0.05407845601439476, -0.20639970898628235, -0.20419394969940186, -0.02175135537981987, 0.052046552300453186, 0.079829141497612, -0.1944979876279831, -0.10483081638813019, 0.2089965045452118, 0.08196645975112915, 0.27902504801750183, 0.04059808328747749, 0.11657321453094482, -0.018130503594875336, 0.0483521893620491, 0.07332807779312134, 0.21231123805046082, -0.03276564180850983, -0.20385350286960602, -0.1373881995677948, -0.19471752643585205, -0.027554098516702652, -0.059629086405038834, 0.264833927154541, -0.1250401735305786, 0.0712679773569107, 0.10560782998800278, -0.16891874372959137, -0.05097867175936699, 0.1618480235338211, 0.2678438425064087, -0.10612369328737259, 0.08547139167785645, -0.2771368622779846, 0.06375060975551605, -0.0431627593934536, -0.004608893301337957, -0.057087332010269165, 0.16382423043251038, -0.1261063665151596, 0.1954435259103775, -0.22873690724372864, -0.15783178806304932, 0.09140729159116745, -0.22106070816516876, 0.3552790582180023, -0.5021744966506958, -0.08512405306100845, 0.13627569377422333, -0.20519323647022247, -0.15176084637641907, 0.15282489359378815, 0.1287076473236084, 0.212187260389328, -0.1463281363248825, -0.2503557503223419, 0.029863230884075165, 0.030997339636087418, -0.07942096143960953, 0.02597334235906601, -0.048181697726249695, 0.026929324492812157, 0.05746862664818764, -0.06739254295825958, 0.10167589038610458, 0.11702804267406464, 0.07399304211139679, -0.04338691756129265, -0.24873751401901245, -0.07632658630609512, 0.10163280367851257, 0.11041998118162155, 0.08299080282449722, -0.11818037927150726, 0.31474190950393677, 0.1716761589050293, 0.13189253211021423, -0.09039957076311111, 0.12911218404769897, -0.14803598821163177, 0.07867009937763214, 0.13847783207893372, -0.07572991400957108, 0.048781462013721466, 0.0512080192565918, -0.1643403321504593, 0.1657724827528, -0.08807457238435745, 0.10127267241477966, -0.00836598128080368, 0.18582788109779358, -0.006159840617328882, 0.2500022053718567, 0.2952100336551666, 0.18104104697704315, -0.07898637652397156, 0.03619697317481041, -0.06556683778762817, 0.1284366101026535, 0.04739896580576897, 0.32134923338890076, 0.1718411147594452, 0.16419526934623718, -0.30448564887046814, -0.19874237477779388, -0.33918526768684387, -0.29789263010025024, 0.0570807047188282, 0.226270392537117, 0.19270260632038116, -0.01026503462344408, 0.16742949187755585, -0.10882580280303955, 0.13695572316646576, -0.3334735631942749, -0.029180174693465233, -0.10159474611282349, -0.018117085099220276, -0.07964590191841125, 0.07063847780227661, -0.015247082337737083, 0.14661647379398346, -0.044847119599580765, -0.006220418028533459, -0.08480831980705261, -0.17385660111904144, -0.0935518890619278, 0.1078779473900795, 0.06119789928197861, 0.07372471690177917, 0.26217442750930786, 0.20553350448608398, -0.04701300710439682, -0.07247109711170197, 0.08402858674526215, 0.018407875671982765, -0.18950407207012177, -0.12724876403808594, 0.026640890166163445, 0.2809959650039673, -0.12369625270366669, -0.036066990345716476, -0.2387196570634842, -0.08600961416959763, 0.06931353360414505, 0.23986448347568512, 0.12509718537330627, 0.06012338772416115, -0.2201632261276245, 0.011882628314197063, -0.2298402637243271, 0.25307559967041016, -0.10599327087402344, -0.058317478746175766, 0.15345211327075958, -0.029656579717993736, -0.12089916318655014, 0.14479462802410126, -0.054726630449295044, -0.029734941199421883, 0.20958390831947327, 0.236998051404953, 0.01393087301403284, -0.15119139850139618, 0.11057965457439423, -0.07760314643383026, -0.20723412930965424, -0.03870619833469391, 0.13878361880779266, 0.184920996427536, 0.040188536047935486, 0.43317940831184387, -0.1659044772386551, -0.022852420806884766, 0.009338151663541794, -0.15590322017669678, -0.15130525827407837, 0.06322335451841354, 0.029346425086259842, 0.0019141413504257798, -0.11273244023323059, -0.022173156961798668, 0.15939511358737946, 0.20761121809482574, 0.2088690549135208, 0.003252616384997964, -0.07409318536520004, -0.22983260452747345, -0.1254359632730484, -0.2044667899608612, -0.0036528222262859344, 0.09097439050674438, 0.052061136811971664, -0.27199727296829224, -0.06285884976387024, -0.34684890508651733, 0.301704078912735, 0.09847276657819748, -0.026595860719680786, -0.068090058863163, 0.06733272969722748, -0.0670887678861618, 0.09526029229164124, 0.07073380798101425, 0.022686690092086792, -0.07346565276384354, 0.20234864950180054, 0.20865990221500397, -0.09716584533452988, -0.05600414052605629, -0.10411404818296432, 0.25169846415519714, -0.19678650796413422, -0.16091209650039673, 0.16120073199272156, -0.06954672932624817, 0.145165354013443, 0.5977786183357239, 0.06203928217291832, 0.05336064472794533, -0.6136586666107178, 0.18101884424686432, 0.14411838352680206, -0.16373930871486664, -0.09016865491867065, 0.0244224201887846, 0.3159096837043762, -0.01833331026136875, 0.0338609516620636, 0.1392010897397995, 0.0006379878032021224, 0.08051634579896927, 0.24194884300231934, 0.17282383143901825, -0.06336580961942673, -0.10590732842683792, 0.026595763862133026, -0.14120304584503174, -0.06592828035354614, 0.0893164649605751, 0.027365030720829964, -0.02963447943329811, -0.2890917956829071, -0.10670942068099976, 0.37820854783058167, 0.05495733767747879, 0.05431847274303436, -0.042658962309360504, -0.09944560378789902, -0.09653303772211075, -0.1509052813053131, 0.1019091010093689, 0.11477518081665039, -0.14936073124408722, 0.04313422739505768, 0.13701246678829193, -0.26818951964378357, -0.06575387716293335, -0.08303148299455643, 0.2245125025510788, -0.19584806263446808, -0.1029234379529953, 0.19679436087608337, -0.04840464890003204, -0.004862930625677109, 0.29444441199302673, -0.009410645812749863, 0.20025895535945892, 0.024359378963708878, 0.13867774605751038, 0.028064081445336342, 0.018576713278889656, -0.0952901542186737, 0.08978036791086197, 0.04502338916063309, 0.05958114564418793, 0.03707267716526985, 0.14669662714004517, 0.023400774225592613, -0.0768733099102974, -0.02152397856116295, 0.19418390095233917, 0.02752290666103363, -0.11281713843345642, -0.061889126896858215, -0.03966057300567627, 0.020817086100578308, 0.11967279762029648, 0.004581242799758911, 0.022990679368376732, 0.04523119702935219, -0.05593936890363693, 0.24031803011894226, 0.05688290297985077, 0.004459842573851347, -0.10404423624277115, 0.12327040731906891, -0.05125392600893974, -0.2275751531124115, -0.0426577590405941, 0.10449588298797607, -0.12487252801656723, 0.054533738642930984, 0.11559700220823288, -0.1093846783041954, -0.13981439173221588, -0.13996250927448273, 0.03577950596809387, -0.19746461510658264, -0.1619066447019577, 0.2588230073451996, -0.16639138758182526, 0.016214296221733093, -0.02194209210574627, -0.17874646186828613, -0.041710853576660156, 0.007980093359947205, -0.09850982576608658, 0.06096905097365379, 0.074953593313694, -0.26265114545822144, -0.011230439879000187, -0.02053414285182953, -0.0892263725399971, 0.010535025969147682, 0.08729464560747147, -0.01923891343176365, -0.16594986617565155, -0.15189619362354279, 0.04531380906701088, -0.18368713557720184, -0.042234376072883606, 0.041988305747509, 0.1515742391347885, 0.10591603815555573, -0.18371722102165222, -0.20203006267547607, 0.1392284631729126, -0.09357843548059464, 0.0784841850399971, -0.30960333347320557, 0.13035258650779724, 0.06283874809741974, 0.012714046984910965, -0.37668687105178833, 0.10672643780708313, -0.019349243491888046, -0.08927051723003387, -0.21967318654060364, -0.1323433667421341, -0.1950293928384781, -0.08532964438199997, 0.0622158907353878, 0.12358678877353668, 0.0309536624699831, -0.1220150962471962, 0.07261645793914795, 0.14395473897457123, -0.2619655728340149, 0.08681338280439377, 0.05065298080444336, -0.10330595076084137, -0.06141973286867142, -0.08477049320936203, 0.006414178293198347, -0.09027811139822006, -0.02964106947183609, 0.24468687176704407, -0.07671786844730377, -0.13213348388671875, -0.17775516211986542, 0.05468284338712692, 0.12045038491487503, -0.04613294452428818, 0.18448705971240997, 0.11733143776655197, 0.043728530406951904, 0.004934327676892281, 0.06234641745686531, 0.215267151594162, -0.15730828046798706, -0.03625635802745819, 0.04461802542209625, -0.18205280601978302, -0.04583786055445671, 0.11670354008674622, 0.09461221843957901, 0.08766742795705795, -0.27245351672172546, -0.049715980887413025, 0.0982041284441948, -0.0261148139834404, 0.026770533993840218, -0.4441911280155182, 0.04821576178073883, -0.14870356023311615, 0.052301015704870224, 0.14418433606624603, 0.04197097569704056, 0.0541849322617054, 0.17598149180412292, 