{"version": "0.5.4", "metadata": {"date": {"year": 2025, "month": 12, "day": 14, "hour": 13, "minute": 59, "second": 1}, "loudness": -12.39724349975586, "gain": 0.7761941942946856}, "architecture": "WaveNet", "config": {"layers": [{"input_size": 1, "condition_size": 1, "head_size": 8, "channels": 16, "kernel_size": 3, "dilations": [1, 2, 4, 8, 16, 32, 64, 128, 256, 512], "activation": "Tanh", "gated": false, "head_bias": false}, {"input_size": 16, "condition_size": 1, "head_size": 1, "channels": 8, "kernel_size": 3, "dilations": [1, 2, 4, 8, 16, 32, 64, 128, 256, 512], "activation": "Tanh", "gated": false, "head_bias": true}], "head": null, "head_scale": 0.02}, "weights": [-0.047206953167915344, 0.5632638335227966, -0.9655237793922424, -0.8160369396209717, -0.3253433108329773, 0.2187618762254715, 0.004860499873757362, 0.7936174273490906, -0.27172449231147766, 0.2988491654396057, -0.18155981600284576, -0.16105851531028748, -0.9092353582382202, -0.6882303357124329, -0.2671416103839874, 0.1787036657333374, 0.1507401019334793, 0.33525997400283813, -0.3203238546848297, -0.128313809633255, -0.20909856259822845, 0.2816072404384613, 0.013415565714240074, 0.37482523918151855, -0.17365844547748566, 0.06951487064361572, 0.39098095893859863, -0.2917042672634125, -0.01868445985019207, 0.2200981080532074, -0.22115692496299744, 0.06823623180389404, -0.3519984185695648, 0.09461476653814316, -0.012731161899864674, 0.03695200756192207, -0.2586338520050049, 0.07052620500326157, -0.20009197294712067, 0.223405122756958, 0.08669555187225342, 0.20796196162700653, -0.15830492973327637, -0.18607807159423828, -0.3495057225227356, 0.10053355991840363, 0.13923226296901703, 0.3327009379863739, -0.2215522974729538, 0.06277897208929062, 0.3379727900028229, -0.03721760958433151, 0.11066937446594238, 0.2783385217189789, -0.06439715623855591, -0.024113111197948456, 0.2873412072658539, -0.26939088106155396, -0.0443938784301281, 0.1837501972913742, -0.08942457288503647, -0.06008836627006531, -0.30509161949157715, 0.29171380400657654, -0.17128980159759521, 0.13253524899482727, -0.18168359994888306, 0.26075589656829834, -0.09448284655809402, 0.2621503174304962, -0.3303762972354889, 0.1363096833229065, -0.060186807066202164, -0.10514792799949646, 0.31066566705703735, 0.006470114924013615, -0.19892531633377075, 0.06118333712220192, -0.11484790593385696, 0.12093808501958847, -0.32408377528190613, 0.23663195967674255, 0.02644832246005535, 0.032092444598674774, -0.12987729907035828, 0.19371913373470306, -0.21039001643657684, 0.049353912472724915, -0.16135141253471375, 0.13207434117794037, -0.06322609633207321, 0.2919420897960663, -0.07834045588970184, 0.17819978296756744, -0.35023033618927, 0.07991817593574524, -0.053885333240032196, -0.19829061627388, 0.05842249095439911, -0.2199428826570511, -0.08943755179643631, 0.27917012572288513, -0.18101780116558075, -0.25465357303619385, 0.05331933870911598, -0.11967171728610992, -0.32627370953559875, 0.06806275993585587, -0.12975791096687317, 0.29276397824287415, -0.24379123747348785, 0.2543364465236664, -0.1110934168100357, 0.1341932862997055, 0.24035300314426422, -0.05041314661502838, -0.008684376254677773, -0.09304022043943405, -0.055311985313892365, -0.0009250377188436687, 0.14218242466449738, -0.06605054438114166, -0.09882718324661255, 0.16427654027938843, -0.1972937434911728, -0.1023152768611908, 0.06936896592378616, 0.004271050915122032, -0.026241010054945946, -0.22214314341545105, -0.06804963946342468, 0.0002628693182487041, -0.06112606078386307, 0.06861422210931778, 0.1307433545589447, -0.11265332996845245, -0.05600593239068985, -0.012651299126446247, 0.1726168543100357, 0.1536056399345398, 0.14631085097789764, -0.026599431410431862, 0.07321790605783463, -0.028185762465000153, -0.02947687730193138, -0.12628348171710968, 0.08055247366428375, 0.10885057598352432, -0.14499832689762115, -0.13942880928516388, -0.0373564213514328, -0.19172969460487366, -0.055044014006853104, 0.1790115237236023, 0.011056425981223583, -0.1613263487815857, 0.17885538935661316, -0.06490153074264526, -0.0476374477148056, -0.23636560142040253, 0.012914212420582771, 0.07007701694965363, -0.218439519405365, -0.1865258663892746, -0.11117782443761826, 0.07810287177562714, -0.011321783997118473, 0.14616933465003967, -0.1915624737739563, 0.050856370478868484, 0.215592160820961, -0.13133695721626282, 0.188513845205307, 0.1300576776266098, -0.21047469973564148, 0.035174138844013214, -0.10227687656879425, 0.017918547615408897, 0.06169041991233826, -0.10494616627693176, -0.01703140139579773, -0.08876105397939682, 0.01178836077451706, 0.11528988927602768, 0.110226571559906, 0.12812840938568115, -0.13601040840148926, -0.08239446580410004, -0.18962927162647247, 0.17091509699821472, 0.15435154736042023, 0.17403829097747803, -0.17660491168498993, 0.06207869574427605, -0.01885758340358734, -0.16595153510570526, -0.021194348111748695, 0.13923171162605286, -0.15711724758148193, 0.05633667856454849, 0.09301882982254028, 0.012937435880303383, -0.05541891232132912, -0.011755701154470444, -0.15083830058574677, 0.027399156242609024, -0.10515403747558594, 0.26268270611763, -0.2080669105052948, 0.30379432439804077, 0.12658709287643433, 0.20355524122714996, -0.27119070291519165, -0.1750684678554535, -0.22714442014694214, 0.30135542154312134, 0.028439588844776154, -0.29999852180480957, 0.40260228514671326, 0.02892402559518814, -0.2460060566663742, 0.42948490381240845, 0.1925828754901886, 0.22329376637935638, -0.40792208909988403, -0.0733754113316536, -0.16776417195796967, 0.20606185495853424, 0.017487013712525368, 0.20225106179714203, -0.28372520208358765, -0.026002271100878716, -0.21396073698997498, 0.4294545650482178, 0.23224478960037231, 0.14467009902000427, -0.21739888191223145, -0.23506313562393188, -0.2898429036140442, 0.3063586950302124, 0.1758004128932953, -0.13323654234409332, 0.23099805414676666, 0.13196982443332672, -0.15328064560890198, 0.14861874282360077, 0.24486000835895538, -0.3429654538631439, 0.289043128490448, 0.11927890032529831, -0.3100983500480652, 0.28629887104034424, 0.24420443177223206, 0.2386469691991806, -0.39705345034599304, -0.17411814630031586, -0.21887679398059845, 0.1075005829334259, 0.07197725027799606, 0.024300839751958847, -0.10375839471817017, -0.021079253405332565, -0.04933160915970802, 0.12771987915039062, 0.1426062136888504, -0.17139208316802979, -0.01829327456653118, 0.14228329062461853, 0.0036452002823352814, 0.06510218232870102, 0.037842731922864914, 0.05182851850986481, -0.1656198650598526, -0.0796501487493515, -0.07277932018041611, -0.0570552721619606, 0.20735636353492737, 0.03191150352358818, -0.03914405032992363, -0.06137166917324066, -0.10481364279985428, -0.03909417614340782, 0.026440607383847237, 0.2268393635749817, -0.010915109887719154, 0.0028366348706185818, -0.15433095395565033, 0.06997515261173248, 0.0650419369339943, -0.11519095301628113, -0.05830339342355728, 0.15744036436080933, -0.07904297113418579, 0.01617904007434845, 0.06656058132648468, -0.20799757540225983, 0.12226565927267075, -0.0012521414319053292, -0.05657375976443291, -0.02691168338060379, 0.022568371146917343, 0.13857883214950562, -0.11614285409450531, -0.131963312625885, -0.007651645224541426, -0.12129213660955429, 0.18721799552440643, 0.132099911570549, 0.09255917370319366, -0.1435544341802597, -0.18771545588970184, -0.06710617244243622, 0.15774020552635193, -0.1257779449224472, 0.013174222782254219, 0.21558260917663574, -0.1407841593027115, -0.02667454071342945, 0.19072510302066803, 0.080535389482975, 0.042480289936065674, -0.11400475353002548, -0.1101452186703682, 0.01588432677090168, 0.17989689111709595, 0.20211195945739746, 0.12347079068422318, -0.10153815895318985, 0.004549241159111261, -0.08510763943195343, 0.05034027621150017, -0.05629025399684906, 0.1633181869983673, -0.050119876861572266, -0.15853743255138397, 0.02414410561323166, 0.2217015027999878, 0.07868573814630508, 0.09942634403705597, 0.2474537491798401, -0.1072576642036438, -0.09128066897392273, 0.23495464026927948, 0.006081183906644583, -0.12240396440029144, 0.25242000818252563, 0.00254449131898582, 0.04120846837759018, 0.023892773315310478, 0.11546894907951355, -0.05675560608506203, -0.1119961366057396, -0.030569493770599365, -0.0999494343996048, 0.0009667688864283264, 0.09509234875440598, 0.11149666458368301, 0.09737412631511688, -0.1193331778049469, -0.13175512850284576, -0.1351085752248764, -0.16887818276882172, -0.2758065164089203, 0.08060657978057861, 0.04231634363532066, -0.017054712399840355, 0.09265802800655365, -0.1017368733882904, 0.06142681464552879, 0.002242142567411065, -0.14181795716285706, -0.09235266596078873, -0.3015494644641876, -0.04093603789806366, 0.02579132467508316, -0.04853292927145958, 0.09253956377506256, -0.04703040048480034, 0.08664356172084808, 0.13267478346824646, 0.272469162940979, -0.02207302860915661, 0.047469139099121094, -0.025649074465036392, 0.015829654410481453, 0.11418624222278595, -0.07584138214588165, 0.07210426777601242, -0.08094203472137451, -0.09460212290287018, -0.016883624717593193, -0.06505027413368225, -0.240522101521492, -0.10874094069004059, -0.13038697838783264, -0.057235028594732285, 0.07026892155408859, 0.0396968312561512, 0.033221520483493805, 0.07255284488201141, 0.14507907629013062, -0.08828481286764145, -0.0037915136199444532, 0.11492627114057541, 0.17184263467788696, -0.14699238538742065, 0.14425937831401825, -0.004522948991507292, -0.015444373711943626, 0.08869562298059464, -0.19397498667240143, 0.018590625375509262, 0.1405896097421646, -0.10540856420993805, -0.059041827917099, -0.05728428438305855, 0.06549818813800812, -0.08141890168190002, 0.012499279342591763, 0.024752847850322723, -0.006276498548686504, -0.09470555931329727, 0.11767945438623428, 0.022259732708334923, 0.0920228585600853, -0.23145437240600586, 0.044488511979579926, -0.12368535995483398, 0.03820506110787392, -0.011210638098418713, -0.0802355408668518, -0.04081512615084648, 0.1717427670955658, 0.03451424837112427, -0.1954076886177063, 0.003010460175573826, 0.039690643548965454, -0.22168883681297302, 0.10959125310182571, -0.11770200729370117, -0.24728864431381226, -0.09304355829954147, -0.010021722875535488, -0.006778168026357889, -0.09274774044752121, 0.07407109439373016, 0.06205092743039131, -0.034041233360767365, -0.04930746182799339, -0.09446815401315689, 0.18558281660079956, 0.1705635040998459, 0.1376345008611679, 0.033500637859106064, -0.1911098062992096, 0.11492589116096497, 0.03782222047448158, -0.032057035714387894, -0.11332709342241287, -0.0035061719827353954, -0.22856281697750092, -0.04871503263711929, 0.0678873211145401, -0.01879783533513546, 0.03378479927778244, 0.028268735855817795, 0.13330985605716705, 0.07991784065961838, -0.0034506339579820633, 0.0553850457072258, 0.06054193899035454, 0.0992499366402626, 0.0009217288461513817, 0.01684618927538395, 0.11647186428308487, -0.048525892198085785, -0.1348332166671753, 0.014848925173282623, -0.16289280354976654, 0.07529323548078537, -0.0617489255964756, -0.15344223380088806, -0.1035180538892746, 0.12160515785217285, -0.11362750828266144, 0.10720070451498032, 0.12342198938131332, -0.017575453966856003, 0.008356261067092419, -0.002796836430206895, -0.12288270890712738, 0.01676393672823906, 0.09909728169441223, -0.0012068537762388587, 0.08584083616733551, -0.08921041339635849, -0.33767542243003845, -0.17399170994758606, 0.25132936239242554, 0.3587391674518585, -0.03570018336176872, -0.007671747822314501, -0.14202968776226044, -0.011493658646941185, 0.22094492614269257, -0.29536765813827515, -0.04607483372092247, 0.16853287816047668, -0.2698897421360016, -0.04211079329252243, 0.06878864765167236, 0.30259716510772705, 0.04888787865638733, -0.16480813920497894, 0.019861578941345215, -0.007827552035450935, 0.03286680951714516, 0.22662995755672455, 0.1702040135860443, -0.12525169551372528, -0.18237875401973724, -0.12208845466375351, 0.18152019381523132, 0.10430102795362473, -0.008310696110129356, -0.1968604028224945, -0.06956946849822998, -0.11478500068187714, 0.11494661122560501, -0.29026517271995544, 0.052449584007263184, 0.2533566355705261, -0.326185941696167, -0.20363666117191315, 0.0031037793960422277, -0.22156913578510284, -0.12389029562473297, 0.020148279145359993, -0.2641872465610504, -0.06010349094867706, 0.031324904412031174, 0.2940528988838196, 0.03481286019086838, -0.21123474836349487, 0.3167669475078583, -0.06726951152086258, -0.02416759915649891, -0.2738282382488251, 0.14205925166606903, 0.09536847472190857, 0.13929778337478638, -0.3248997628688812, 0.1751752495765686, 0.18603496253490448, -0.16825899481773376, 0.02164652571082115, 0.24573732912540436, -0.23279128968715668, 0.13551245629787445, -0.25680407881736755, 0.06443513184785843, -0.10505098849534988, 0.08166466653347015, -0.1571059376001358, -0.02720152772963047, -0.13667379319667816, 0.16115733981132507, -0.053975507616996765, 0.37508174777030945, -0.17282965779304504, 0.132781520485878, -0.18869315087795258, 0.15197722613811493, -0.1248592808842659, 0.2475281059741974, -0.0626341700553894, -0.015173145569860935, 0.15039032697677612, -0.1270143687725067, 0.18388612568378448, 0.2359384447336197, -0.30795997381210327, -0.09316711872816086, 0.3071029484272003, -0.2079140841960907, -0.040002819150686264, 0.30004557967185974, -0.12949347496032715, 0.1539323478937149, -0.21962006390094757, 0.22185049951076508, -0.19126251339912415, -0.07851606607437134, -0.0798431932926178, 0.17663031816482544, 0.039322394877672195, 0.09221348166465759, 0.06608372181653976, 0.1638292819261551, -0.09466572105884552, -0.06858928501605988, -0.03009810298681259, -0.3169851005077362, 0.19457170367240906, -0.03673074021935463, -0.2711104154586792, 0.14583547413349152, -0.08874186128377914, 0.1461622267961502, -0.0799114853143692, -0.048727791756391525, -0.2655073404312134, 0.28388261795043945, -0.0851772204041481, 0.2695814371109009, 0.06596231460571289, 0.09894097596406937, -0.207124263048172, 0.21949034929275513, -0.010311674326658249, 0.13669469952583313, 0.054130878299474716, 0.065861776471138, -0.3412837088108063, 0.020131338387727737, -0.06597265601158142, -0.07560467720031738, 0.06074374541640282, -0.10687243938446045, -0.2263137549161911, 0.1472391039133072, 0.058895230293273926, -0.17151904106140137, 0.07624901831150055, 0.0833108127117157, -0.24003508687019348, 0.003494212869554758, -0.14848680794239044, 0.08113263547420502, -0.10824590921401978, -0.18742311000823975, 0.2082536667585373, -0.08792469650506973, 0.08650697022676468, -0.2957048714160919, 0.24570415914058685, -0.159753680229187, 0.3217323124408722, -0.2163964956998825, -0.10805515199899673, 0.2835461497306824, -0.16391690075397491, 0.03904794529080391, 0.10252191126346588, -0.23496641218662262, 0.009698234498500824, -0.17753887176513672, 0.23917075991630554, -0.08033915609121323, 0.2645516097545624, 0.00504326680675149, 0.04194265604019165, -0.10122182220220566, -0.0035371966660022736, -0.06450668722391129, 0.3454439342021942, -0.1386343538761139, 0.19012759625911713, -0.236594095826149, 0.23691648244857788, -0.22123806178569794, 0.1642528474330902, -0.13769134879112244, -0.03994463384151459, 0.24288858473300934, -0.01676955074071884, -0.09441500902175903, 0.19967924058437347, -0.007779281586408615, -0.11200596392154694, 0.32899191975593567, -0.20131804049015045, -0.09906212240457535, 0.18216101825237274, -0.04899287223815918, 0.19502754509449005, -0.21044416725635529, 0.051820967346429825, -0.2963840961456299, -0.25149106979370117, -0.05855897068977356, 0.23118968307971954, 0.33301299810409546, 0.2128475159406662, -0.29850348830223083, -0.37227505445480347, 0.026539640501141548, -0.4184533655643463, -0.20878386497497559, -0.05724672973155975, -0.3851286470890045, -0.1860729604959488, -0.2022293508052826, 0.34114521741867065, 0.15011096000671387, 0.06621120125055313, -0.04976809769868851, 0.10065408796072006, -0.12855981290340424, 0.4033256471157074, 0.22663532197475433, 0.014097841456532478, -0.4548259675502777, -0.38631242513656616, 0.04308513551950455, 0.2864363193511963, 0.25927332043647766, 0.1265992969274521, -0.22321085631847382, -0.134165421128273, 0.02123735100030899, -0.42655566334724426, -0.26874426007270813, -0.16491520404815674, -0.3950314223766327, -0.20842516422271729, 0.052496347576379776, -0.4283183813095093, -0.15723073482513428, -0.15485426783561707, -0.339481383562088, -0.1244962066411972, -0.10658402740955353, 0.35158541798591614, 0.11933721601963043, 0.17197637259960175, 0.03264693170785904, -0.38845816254615784, 0.18296323716640472, -0.11199860274791718, 0.18453861773014069, -0.09049325436353683, 0.13485050201416016, -0.34324535727500916, 0.15182292461395264, 0.13668988645076752, -0.20799663662910461, 0.01820881851017475, -0.005526592954993248, -0.33519989252090454, -0.008677329868078232, -0.020304027944803238, 0.4022578299045563, 0.02296503260731697, 0.0007245917222462595, -0.18610714375972748, 0.1158192828297615, 0.09317825734615326, 0.24339471757411957, -0.1850895881652832, 0.047603458166122437, -0.23315130174160004, -0.01699456013739109, 0.10837463289499283, 0.3373371660709381, -0.20401746034622192, -0.008509508334100246, -0.1649160087108612, -0.023210860788822174, -0.016669873148202896, -0.23017080128192902, -0.003884893376380205, 0.09034706652164459, -0.22609327733516693, 0.1774129420518875, -0.07728923857212067, -0.15860165655612946, 0.00857535284012556, 0.16298101842403412, -0.4210597574710846, -0.032076746225357056, 0.06473271548748016, 0.2706443965435028, -0.18524648249149323, -0.06981966644525528, -0.06456301361322403, -0.004489848390221596, -0.08646566420793533, 0.029020044952630997, 0.05157921835780144, -0.02274579554796219, -0.019534781575202942, 0.10485848039388657, 0.11766022443771362, -0.017403945326805115, -0.008438358083367348, -0.026318859308958054, -0.05462409555912018, -0.17562086880207062, -0.06491925567388535, 0.5859729647636414, -0.3045094609260559, 0.6944979429244995, -0.6215517520904541, -0.14320367574691772, 0.7876011729240417, 0.8646918535232544, -0.5271039605140686, 0.14005619287490845, 0.08265884965658188, -0.5625616312026978, -0.3724355101585388, 0.21839842200279236, -0.5833351016044617, 0.23816025257110596, 0.3428093492984772, -0.2552697956562042, -0.20916031301021576, -0.10753724724054337, 0.08036591112613678, 0.1494605988264084, -0.2651560604572296, 0.058390360325574875, 0.08911515027284622, -0.006957338657230139, -0.15784503519535065, 0.10228283703327179, 0.22127363085746765, 0.0931241363286972, -0.1265249401330948, 0.10752202570438385, 0.03889033943414688, 0.6644363403320312, -0.1739887148141861, -0.2739624083042145, 0.1652587205171585, -0.4516540765762329, -0.09664811939001083, -0.2806329131126404, -0.2956858277320862, -0.004748625680804253, 0.04040304571390152, -0.7089735269546509, 0.10166250169277191, -0.16066737473011017, -0.09696514904499054, 0.27090969681739807, -0.04748684912919998, 0.07093293964862823, 0.015070409514009953, -0.06855958700180054, 0.2951661944389343, 0.046772655099630356, -0.18659500777721405, 0.03991956263780594, -0.30365073680877686, -0.17984817922115326, -0.2803788483142853, 0.09231342375278473, -0.12494131922721863, 0.09828918427228928, 0.4878416061401367, 0.4091686010360718, 0.010343069210648537, 0.04707839712500572, -0.1572113186120987, 0.006658797152340412, -0.19508470594882965, -0.19289402663707733, -0.03496216610074043, -0.01674608327448368, 0.07461203634738922, -0.10755278915166855, -0.08438928425312042, 0.04634989798069, 0.16777847707271576, 0.15558496117591858, 0.07422181963920593, -0.12176065146923065, 0.02339911088347435, -0.3195528984069824, -0.26236310601234436, -0.15882080793380737, 0.2504746615886688, -0.27268895506858826, 0.010280778631567955, 0.06387211382389069, -0.2656928598880768, 0.09547536075115204, 0.07680113613605499, -0.15094156563282013, 0.44954121112823486, 0.036739565432071686, -0.054538220167160034, -0.284572571516037, 0.10182195156812668, -0.14632762968540192, -0.0032397282775491476, 0.04655756056308746, 0.09439291059970856, 0.2508438527584076, 0.18504351377487183, 0.15800394117832184, 0.06744943559169769, 0.1487381011247635, -0.06492757052183151, -0.21136748790740967, -0.11663421988487244, 0.0007402623305097222, -0.1295199692249298, -0.1455722153186798, -7.202477718237787e-05, 0.11858910322189331, 0.061268117278814316, 0.22326067090034485, 0.1555238664150238, -0.2603458762168884, -0.19853265583515167, 0.0940927192568779, 0.0034643809776753187, 0.0828503966331482, -0.24309220910072327, -0.3252815306186676, 0.19694194197654724, 0.11830194294452667, -0.19824576377868652, 0.06940366327762604, -0.2166757732629776, 0.23484142124652863, 0.2547474205493927, 0.3002918064594269, -0.24619460105895996, -0.23685568571090698, 0.24867042899131775, 0.32365599274635315, 0.12983982264995575, 0.1264147311449051, -0.04929511994123459, 0.22387267649173737, -0.3401184678077698, 0.1186424195766449, -0.16245964169502258, -0.24070872366428375, 0.05301850289106369, -0.23971480131149292, -0.40931692719459534, -0.202266126871109, -0.30351850390434265, 0.19222894310951233, -0.21923001110553741, -0.10984056442975998, 0.06878122687339783, -0.13781993091106415, -0.22551585733890533, 0.27594268321990967, 0.43964487314224243, 0.10297045111656189, -0.2788119614124298, 0.17183277010917664, 0.19635820388793945, -0.3000553250312805, -0.10327961295843124, 0.3889677822589874, -0.4091612696647644, -0.572032630443573, 0.11214572191238403, 0.33699169754981995, 0.007362008560448885, 0.31036126613616943, 0.3905327618122101, 0.2800643742084503, 0.12452256679534912, 0.4397141933441162, -0.2985348403453827, -0.15722373127937317, 0.2360665649175644, 0.25983622670173645, 0.2712610065937042, -0.1607341766357422, 0.10412168502807617, -0.033216435462236404, -0.12773360311985016, 0.09103328734636307, -0.013564342632889748, 0.038020431995391846, -0.13786710798740387, -0.1399497091770172, -0.16802707314491272, -0.1278374195098877, 0.20715084671974182, 0.2391093522310257, 0.22110402584075928, 0.2064506709575653, 0.07630379498004913, -0.13562165200710297, 0.3144925534725189, -0.12320601940155029, -0.2806123197078705, -0.29354777932167053, -0.28335559368133545, -0.26669901609420776, -0.5377752780914307, -0.29004645347595215, -0.0571049228310585, -0.26779109239578247, 0.486966997385025, -0.29594677686691284, -0.4289955794811249, -0.16589918732643127, -0.29044297337532043, 0.06825829297304153, 0.00357915204949677, -0.1578361541032791, -0.29176533222198486, -0.03462362289428711, 0.19446821510791779, 0.32632943987846375, -0.13940644264221191, -0.16290190815925598, 0.4242340624332428, 0.2498365342617035, -0.3936574459075928, -0.01492881216108799, 0.26037365198135376, -0.3090701997280121, -0.34326067566871643, -0.035347774624824524, 0.08719630539417267, -0.23168599605560303, 0.06313358247280121, 0.2882489264011383, 0.2007475644350052, -0.0036476459354162216, -0.122239850461483, 0.16061349213123322, 0.2843213677406311, 0.007889705710113049, -0.20885388553142548, -0.15671692788600922, 0.3650626540184021, 0.1473003625869751, 0.28229108452796936, 0.09736096858978271, -0.19969023764133453, 0.3961285948753357, 0.24794165790081024, 0.35292187333106995, 0.24528391659259796, -0.22345539927482605, 0.35729923844337463, 0.12635181844234467, -0.32867950201034546, 0.2854940593242645, 0.2960391342639923, -0.10826433449983597, 0.05808870494365692, 0.046959564089775085, 0.0029455123003572226, 0.4019409418106079, -0.25240838527679443, -0.44755032658576965, 0.3589083254337311, 0.3166239857673645, 0.4130004942417145, 0.12276395410299301, 0.06341563165187836, 0.14912891387939453, -0.22038111090660095, 0.2823522686958313, -0.18284882605075836, 0.19498112797737122, 0.24429169297218323, 0.09008428454399109, -0.020684143528342247, 0.10852113366127014, -0.2011841982603073, -0.16352319717407227, -0.044169340282678604, 0.07496409863233566, -0.02650105208158493, 0.07534205913543701, -0.1407303810119629, 0.1420094072818756, -0.1932966113090515, -0.0281062014400959, 0.013773643411695957, 0.056551866233348846, 3.9521537473774515e-06, 0.09159813076257706, 0.04490170627832413, -0.12286113202571869, -0.03993282839655876, -0.536720335483551, -0.047757651656866074, 0.028474263846874237, 0.15017001330852509, 0.06082605943083763, -0.2956244647502899, -0.020307432860136032, 0.03208427131175995, -0.3226359784603119, -0.1866151988506317, 0.30515778064727783, 0.33905357122421265, 0.1855681985616684, 0.21570825576782227, -0.11663724482059479, -0.4333159029483795, 0.13502237200737, 0.0768970176577568, -0.18407852947711945, -0.3925381600856781, 0.02039334550499916, 0.34326860308647156, -0.09028294682502747, -0.21813881397247314, -0.10380388796329498, -0.39421552419662476, 0.22556358575820923, 0.09611831605434418, -0.0954306349158287, -0.2263527810573578, -0.10332756489515305, 0.2789437174797058, -0.4057503640651703, -0.055208735167980194, 0.5435500741004944, -0.17291106283664703, -0.08483806252479553, 0.4655618965625763, 0.14342501759529114, 0.5250844359397888, -0.22952303290367126, 0.21710839867591858, -0.13373196125030518, -0.37587815523147583, -0.0019140171352773905, 0.0715765506029129, 0.14389799535274506, -0.16732363402843475, -0.22927424311637878, 0.1173023208975792, -0.09918369352817535, -0.08591033518314362, 0.29180794954299927, -0.2283049374818802, 0.044819608330726624, 0.05094613507390022, 0.03279589116573334, -0.11326666921377182, 0.1466582715511322, -0.0076091899536550045, -0.03612920641899109, -0.08762045204639435, -0.01029238011687994, -0.11596337705850601, -0.25377973914146423, 0.27400922775268555, 0.049902644008398056, -0.13159778714179993, -0.2823970913887024, 0.13260437548160553, -0.2524094879627228, 0.19359765946865082, 0.1237480416893959, -0.27135977149009705, -0.0287383571267128, -0.2191476970911026, -0.09429389983415604, -0.25041472911834717, -0.20938006043434143, 0.31715741753578186, -0.2355983704328537, -0.17956110835075378, 0.03188536316156387, -0.052139151841402054, -0.06384265422821045, 0.10214748978614807, 0.09878342598676682, 0.08579229563474655, -0.19891159236431122, 0.10970452427864075, 0.19583645462989807, -0.28303301334381104, -0.22333280742168427, -0.2621736526489258, -0.14415232837200165, 0.054949987679719925, 0.08289244025945663, 0.5119414329528809, -0.024534914642572403, 0.14397397637367249, -0.23229749500751495, 0.2625391483306885, 0.1213798001408577, 0.006868427619338036, 0.2331290990114212, 0.12050588428974152, 0.09507549554109573, 0.06052275747060776, -0.04336930066347122, -0.3141412138938904, -0.35834360122680664, -0.4944564998149872, 0.3786487579345703, -0.1724601835012436, -0.1739531308412552, 0.38182196021080017, -0.2724551260471344, -0.4860379695892334, 0.05010009557008743, -0.08213643729686737, 0.004179791547358036, 0.24464051425457, -0.2187688797712326, -0.22600150108337402, 0.01685861311852932, 0.235415980219841, 0.1702028512954712, -0.30227550864219666, -0.015569525770843029, -0.32383257150650024, 0.09909506887197495, -0.2538411319255829, -0.07552307844161987, -0.057292524725198746, 0.012880482710897923, -0.045434217900037766, -0.5133376717567444, -0.26153668761253357, 0.0043206773698329926, 0.4760281443595886, 0.05862206593155861, -0.08307679742574692, 0.11263840645551682, -0.33047133684158325, 0.11563171446323395, 0.062435537576675415, 0.0919395312666893, 0.032114703208208084, -0.25478675961494446, 0.11299539357423782, 0.04607021063566208, -0.19554102420806885, -0.05487683042883873, -0.16502618789672852, -0.098009392619133, -0.1316649466753006, 0.17665639519691467, 0.029272248968482018, 0.026609186083078384, -0.15750305354595184, 0.20355090498924255, -0.25623854994773865, 0.0020839946810156107, 0.12231560051441193, 0.37740346789360046, -0.40112781524658203, 0.12461907416582108, 0.0808165892958641, -0.23864857852458954, 0.10057109594345093, 0.15475943684577942, 0.05323405936360359, 0.0344688780605793, 0.19531527161598206, 0.14090274274349213, 0.04103493317961693, 0.37233680486679077, -0.12614040076732635, 0.13468174636363983, 0.31471431255340576, -0.3107377290725708, -0.03129474073648453, -0.00551458727568388, 0.020226100459694862, 0.1667354255914688, -0.054852165281772614, 0.029545001685619354, 0.15900380909442902, -0.014969403855502605, -0.07553821057081223, -0.037176571786403656, -0.020938638597726822, 0.16504313051700592, 0.07909085601568222, -0.14971454441547394, 0.10564877837896347, 0.013305566273629665, -0.20258890092372894, 0.1149706244468689, 0.15609221160411835, -0.12555865943431854, 0.01942901313304901, -0.07240413874387741, -0.004079192876815796, -0.12747910618782043, -0.17080192267894745, -0.07979293912649155, -0.09955070167779922, 0.018302099779248238, 0.09219531714916229, 0.1164933517575264, 0.025898631662130356, 0.07221031934022903, -0.06549198180437088, 0.023415280506014824, 0.004943673964589834, -0.07764215022325516, -0.015919657424092293, 0.2317228764295578, 0.11575393378734589, 0.1571592390537262, -0.20451128482818604, 0.07395676523447037, 0.1394808143377304, -0.33426207304000854, -0.1630779653787613, 0.20124438405036926, -0.20443274080753326, -0.04113021865487099, -0.04436080530285835, 0.13237318396568298, -0.19164809584617615, -0.14552995562553406, 0.1807253658771515, 0.019086116924881935, -0.10090681910514832, 0.10710636526346207, -0.3250855803489685, -0.11549976468086243, -0.5387053489685059, 0.05972790718078613, -0.01980089396238327, -0.33823785185813904, -0.20557376742362976, -0.29731839895248413, -0.022963151335716248, 0.12139235436916351, 0.02420804277062416, -0.13462138175964355, 0.17931585013866425, 0.13199415802955627, 0.4582827389240265, 0.36465898156166077, 0.383244127035141, -0.009162811562418938, -0.22175337374210358, 0.01556419488042593, 0.12135358899831772, -0.23413272202014923, 0.13334548473358154, 0.37584397196769714, 0.03035799041390419, -0.10472530126571655, 0.11960698664188385, -0.24905605614185333, -0.037188224494457245, -0.09278886765241623, -0.08203241974115372, -0.05166369676589966, 0.12592753767967224, 0.08447865396738052, 0.1177239939570427, 0.16073285043239594, 0.1935405135154724, 0.3181553781032562, 0.20137540996074677, -0.04177841544151306, 0.32403314113616943, 0.17097383737564087, 0.1403896063566208, -0.16693110764026642, -0.07978779822587967, -0.3120247721672058, -0.09810931980609894, -0.08794088661670685, 0.030651947483420372, -0.1118958592414856, 0.043359462171792984, 0.15644267201423645, 0.1622578352689743, -0.042154956609010696, -0.053975120186805725, 0.1525382399559021, 0.01514477375894785, -0.07226326316595078, -0.07161618024110794, -0.10141164064407349, 0.1283101737499237, -0.03325209766626358, 0.18952937424182892, -0.11867088824510574, 0.02691144496202469, 0.10970223695039749, 0.025326523929834366, 0.24431049823760986, 0.12585054337978363, 0.18308225274085999, 0.016293473541736603, -0.21588368713855743, -0.299343079328537, -0.3661625385284424, 0.1052936464548111, 0.02936508134007454, -0.04533373564481735, -0.1123175173997879, -0.026384374126791954, 0.04624151811003685, -0.1294739842414856, 0.09556503593921661, 0.05438694357872009, -0.057304129004478455, -0.15150141716003418, 0.06647779047489166, -0.03646038472652435, -0.0030501082073897123, -0.1977464109659195, -0.10763861238956451, -0.11012502759695053, -0.2889805734157562, -0.014060238376259804, -0.043029021471738815, -0.0746740773320198, -0.08948829025030136, 0.004135331138968468, 0.18099908530712128, 0.08481869101524353, -0.0932631716132164, 0.03164304420351982, -0.15018217265605927, -0.06517552584409714, 0.10933519899845123, -0.18172268569469452, -0.11633903533220291, -0.1535428762435913, -0.025251053273677826, -0.10201107710599899, -0.16843213140964508, -0.031148720532655716, -0.04334629327058792, 0.02237589843571186, 0.05233277007937431, 0.03277307748794556, 0.16323791444301605, 0.16917772591114044, -0.004443166311830282, -0.002892418298870325, 0.015337766148149967, -0.08773215115070343, 0.17905765771865845, 0.18554234504699707, 0.13534165918827057, -0.07916370779275894, 0.14782044291496277, -0.14100347459316254, 0.09782213717699051, -0.20561645925045013, -0.08854398131370544, 0.08414824306964874, -0.0034129470586776733, 0.10895324498414993, 0.0012789705069735646, -0.07067282497882843, 0.07430365681648254, -0.014253312721848488, 0.05976022407412529, 0.032646022737026215, -0.09591414779424667, 0.0983356386423111, 0.041646961122751236, 0.0063473740592598915, 0.04798581823706627, 0.17727671563625336, -0.09217096865177155, -0.17556637525558472, -0.18325817584991455, -0.17753872275352478, 0.13804659247398376, 0.1987096220254898, 0.2604808211326599, 0.25934362411499023, 0.05877462774515152, -0.019291812554001808, 0.261837363243103, 0.12866641581058502, 0.11830410361289978, -0.18764741718769073, 0.014635623432695866, -0.10294629633426666, 0.10846806317567825, -0.1440855860710144, -0.14802053570747375, -0.2873571217060089, -0.11179108917713165, 0.0926615446805954, 0.04012147709727287, -0.018403654918074608, 0.13884243369102478, -0.06596706807613373, 0.05858118087053299, -0.13226449489593506, -0.04770904406905174, -0.013666682876646519, -0.08461160212755203, 0.16843053698539734, -0.03862800821661949, 0.021399009972810745, 0.06819123029708862, 0.07855802029371262, 0.047090716660022736, -0.03231238201260567, -0.057571299374103546, -0.19390086829662323, -0.10864630341529846, -0.13037092983722687, 0.18422625958919525, -0.18643580377101898, -0.06533364951610565, -0.0896296352148056, 0.07929583638906479, 0.17901287972927094, -0.027167480438947678, 0.02148863486945629, 0.04197122901678085, 0.20823894441127777, -0.09878100454807281, 0.026510857045650482, -0.12378659844398499, 0.02639603428542614, 0.06680095195770264, -0.09763497114181519, 0.14965111017227173, -0.14688660204410553, -0.03493833914399147, -0.0716080293059349, 0.22057239711284637, 0.09992706030607224, 0.20479878783226013, -0.15507763624191284, 0.15228909254074097, -0.19749730825424194, 0.007183635141700506, 0.22216680645942688, 0.006485894322395325, 0.21249602735042572, -0.21949812769889832, -0.13733473420143127, -0.07145462930202484, 0.15288028120994568, 0.019377250224351883, 0.033176347613334656, 0.09934322535991669, 0.06573019176721573, -0.11665450036525726, -0.07366425544023514, -0.05231785401701927, -0.2270037978887558, -0.15257272124290466, -0.0759558379650116, -0.189555361866951, -0.11561861634254456, -0.2015780657529831, 0.021562743932008743, 0.013695336878299713, -0.07774291187524796, 0.009943919256329536, -0.01713651791214943, 0.17316864430904388, 0.18229800462722778, -0.06924702227115631, 0.01143889594823122, -0.06846826523542404, -0.14706343412399292, 0.06379038095474243, 0.16808608174324036, 0.3132324516773224, -0.22638154029846191, -0.008347518742084503, 0.016657482832670212, -0.1557006686925888, -0.07650401443243027, -0.13059748709201813, 0.019625946879386902, -0.18534716963768005, -0.10320860147476196, 0.07377408444881439, 0.19487124681472778, 0.1984822005033493, 0.0050380113534629345, -0.055084846913814545, -0.12571489810943604, 0.14168615639209747, 0.3456685543060303, 0.3241925835609436, -0.060203272849321365, -0.15731941163539886, -0.21094901859760284, 0.2995761036872864, 0.29854917526245117, 0.2730475068092346, -0.044170625507831573, -0.01616307720541954, 0.08062887191772461, 0.03691175952553749, 0.1950383484363556, 0.115162692964077, 0.07769649475812912, 0.07269458472728729, 0.09459446370601654, 0.06947798281908035, 0.2897520959377289, -0.08362139016389847, 0.14146924018859863, -0.15312691032886505, -0.17625820636749268, 0.04380499944090843, -0.008612528443336487, -0.21719422936439514, -0.16866044700145721, -0.18426045775413513, 0.03981964662671089, -0.35663902759552, -0.04067075252532959, 0.09750672429800034, 0.045578084886074066, 0.08318082988262177, -0.02195817045867443, 0.09173660725355148, 0.1330023854970932, -0.09009917825460434, -0.09898173063993454, 0.3087381422519684, 0.065794937312603, 0.01368089858442545, -0.01713230088353157, 0.2245466113090515, 0.2008395493030548, 0.19007085263729095, 0.07911501079797745, 0.062381427735090256, -0.07312031090259552, -0.24350351095199585, -0.049366023391485214, 0.1681707501411438, 0.013540474697947502, -0.41499316692352295, -0.24136734008789062, 0.028536701574921608, -0.07743559777736664, 0.07454702258110046, 0.028949927538633347, -0.04767373949289322, 0.008802478201687336, -0.09837822616100311, 0.13403815031051636, 0.16767078638076782, -0.27892085909843445, 0.13279476761817932, -0.08366980403661728, -0.16632406413555145, -0.14227162301540375, 0.0008825488621369004, 0.07739569246768951, -0.11430200934410095, 0.0539553128182888, -0.005290196742862463, 0.17966271936893463, 0.04608229175209999, -0.07228119671344757, 0.16798266768455505, 0.11462977528572083, -0.057533830404281616, 0.1098562628030777, 0.014221210032701492, -0.11494743078947067, 0.2136721909046173, -0.12236480414867401, -0.22719155251979828, -0.18904507160186768, 0.11419478058815002, 0.13541066646575928, 0.16251879930496216, -0.10962068289518356, 0.03342451900243759, -0.20966312289237976, -0.118620865046978, 0.14715009927749634, -0.05915193632245064, 0.15158069133758545, 0.039271533489227295, -0.14832279086112976, -0.010454044677317142, -0.04881930723786354, 0.017573492601513863, -0.03818473219871521, 0.006105847656726837, 0.2503352165222168, -0.17896129190921783, -0.10000699013471603, 0.23570716381072998, -0.05425480380654335, 0.060393720865249634, 0.11739522963762283, -0.06559636443853378, -0.07057607173919678, -0.07817499339580536, 0.019009118899703026, -0.00806507095694542, -0.030280180275440216, 0.08479248732328415, 0.079542376101017, 0.04916421324014664, -0.20186671614646912, 0.0848364308476448, -0.30911311507225037, 0.39897647500038147, 0.04140407219529152, 0.16340376436710358, -0.08220381289720535, -0.09364835917949677, -0.06296077370643616, -0.1081489846110344, -0.17505088448524475, -0.031972166150808334, 0.02724127098917961, 0.012841174378991127, -0.13433650135993958, 0.04599596932530403, 0.0908694863319397, -0.20320114493370056, -0.0014338584151118994, 0.2480282038450241, -0.024730289354920387, 0.03228122740983963, 0.20006953179836273, 0.24487948417663574, -0.38876408338546753, 0.11265456676483154, 0.0007095413166098297, -0.23915012180805206, 0.24331244826316833, -0.0012967066140845418, 0.14598369598388672, -0.034316763281822205, 0.10491283982992172, 0.1574752777814865, -0.3037225306034088, -0.08894090354442596, -0.26242944598197937, -0.1761718988418579, 0.18966148793697357, -0.07851791381835938, -0.22027066349983215, 0.10547563433647156, -0.22198495268821716, 0.1016584113240242, -0.19722840189933777, -0.17792794108390808, 0.23476552963256836, 0.1235816478729248, -0.15211787819862366, -0.185053750872612, -0.41366738080978394, 0.06326203048229218, -0.07908570021390915, -0.15302199125289917, -0.06234661489725113, -0.3402304947376251, -0.10944179445505142, -0.1479184776544571, -0.1274598240852356, -0.02048061601817608, 0.13804110884666443, 0.015815740451216698, 0.21058690547943115, 0.03977150842547417, 0.18490010499954224, -0.08574221283197403, -0.15379448235034943, 0.03472423180937767, -0.024952583014965057, 0.07507038116455078, 0.12776288390159607, 0.3019249141216278, -0.36308804154396057, -0.18379174172878265, -0.06993741542100906, -0.17322883009910583, 0.1661841869354248, -0.17926140129566193, -0.09556183964014053, -0.2166987955570221, 0.13170669972896576, 0.1447477489709854, -0.20242583751678467, 0.25722208619117737, -0.21692444384098053, 0.003292087698355317, 0.12233898043632507, -0.006154281552881002, -0.04104884713888168, -0.034852396696805954, -0.07473922520875931, -0.029908716678619385, -0.0292391125112772, -0.14712630212306976, 0.033963680267333984, -0.04356514289975166, 0.16453824937343597, -0.20209726691246033, -0.048472899943590164, -0.054140493273735046, 0.04593895748257637, 0.2352588176727295, 0.1673068106174469, 0.008300446905195713, 0.05080040171742439, 0.05543571338057518, -0.11699880659580231, -0.1595291644334793, -0.04121105745434761, 0.057280972599983215, 0.1419144570827484, 0.04232562705874443, -0.04277125746011734, -0.06787168979644775, -0.06450431793928146, -0.12757296860218048, -0.03141123801469803, -0.19929052889347076, -0.05678622052073479, -0.013216880150139332, 0.0435691773891449, -0.12225141376256943, -0.23164714872837067, 0.00915022287517786, 0.1841321587562561, 0.11912848800420761, -0.04773027077317238, -0.2959289848804474, 0.018282094970345497, 0.0012965528294444084, -0.05452276021242142, -0.34228453040122986, -0.11474735289812088, 0.051447972655296326, -0.045890215784311295, 0.15033264458179474, -0.08939022570848465, 0.14195288717746735, 0.07918819785118103, 0.0653916448354721, -0.09263688325881958, 0.046882279217243195, 0.1398017704486847, 0.262687623500824, 0.1054256334900856, -0.17514145374298096, 0.146429181098938, -0.17244817316532135, 0.235261470079422, 0.1543814241886139, 0.2495346963405609, -0.16539223492145538, -0.08083625882863998, 0.128176748752594, 0.057440586388111115, 0.11163342744112015, 0.12641853094100952, 0.21004220843315125, -0.03932657092809677, -0.6033126711845398, 0.22868482768535614, 0.5892664194107056, -0.5327177047729492, 0.051275089383125305, -0.8346483707427979, -0.12630324065685272, -0.2337748110294342, 0.7228132486343384, -0.8086986541748047, -0.7594335079193115, -0.8322609663009644, 0.238930806517601, -0.5824171900749207, 0.47412586212158203, -0.678232729434967, -0.16546402871608734, -0.2834598422050476, 0.18194593489170074, 0.25503987073898315, 0.05911692976951599, 0.08837328106164932, -0.13341204822063446, -0.046847954392433167, -0.11257560551166534, 0.09249163419008255, 0.08628740161657333, 0.11753709614276886, 0.12147393822669983, 0.35298147797584534, 0.12712934613227844, 0.10826432704925537, -0.026663610711693764, -0.11511651426553726, 0.08759857714176178, -0.11834558844566345, -0.4147844910621643, 0.012023639865219593, -0.28781989216804504, -0.2004777491092682, 0.2033182978630066, -0.1144300252199173, -0.02368473820388317, 0.37211114168167114, 0.24654734134674072, 0.10027783364057541, 0.09993281215429306, 0.33324626088142395, -0.07992876321077347, -0.29896578192710876, 0.1020837277173996, 0.3062816858291626, 0.07128144055604935, 0.1414821296930313, -0.07265032082796097, 0.17722567915916443, -0.13783980906009674, 0.049625568091869354, -0.1829041689634323, -0.22444932162761688, 0.0002072801871690899, 0.29267075657844543, 0.06299982964992523, 0.04849103093147278, 0.27903297543525696, 0.22736351191997528, -0.36989372968673706, -0.12625308334827423, 0.018604816868901253, 0.1383575052022934, -0.10228342562913895, 0.004931148607283831, -0.17681878805160522, -0.012617547065019608, -0.11094988137483597, 0.34201890230178833, -0.043693430721759796, -0.19526803493499756, -0.08868112415075302, -0.09580500423908234, 0.33890607953071594, 0.13346251845359802, -0.3305298089981079, -0.1160883679986, 0.4311439096927643, 0.028087448328733444, 0.05540820583701134, 0.4173618257045746, -0.08292624354362488, -0.2409568578004837, -0.011155856773257256, 0.6020350456237793, -0.5110674500465393, 0.10781022906303406, -0.1812252700328827, -0.48887550830841064, -0.2398967742919922, -0.034106116741895676, -0.1422327607870102, -0.19602924585342407, 0.07275703549385071, -0.19489991664886475, 0.12483057379722595, 0.036377087235450745, 0.00139503157697618, 0.029616693034768105, 0.1380186229944229, -0.0978841632604599, -0.22395746409893036, -0.16132651269435883, -0.01662885770201683, 0.11226955056190491, 0.21596121788024902, -0.17169056832790375, 0.1045004278421402, -0.060521699488162994, 0.231131449341774, 0.33159583806991577, -0.2570410668849945, -0.2996242046356201, 0.39167889952659607, 0.00011389119026716799, -0.15271958708763123, 0.21113793551921844, -0.0773022472858429, 0.0038587001617997885, 0.07075649499893188, -0.07665196806192398, 0.1403006911277771, -0.042230039834976196, 0.10000233352184296, -0.02282595820724964, 0.2011955976486206, -0.14110426604747772, -0.026866262778639793, 0.041724883019924164, 0.03765978664159775, 0.2041671723127365, -0.10945228487253189, 0.09407034516334534, -0.025050310418009758, -0.0038842239882797003, 0.1669565886259079, 0.08406313508749008, -0.13688938319683075, 0.03891761600971222, -0.17671933770179749, -0.14780840277671814, -0.3233383893966675, -0.2280740588903427, -0.16375325620174408, -0.26459431648254395, 0.24195069074630737, 0.17481359839439392, 0.019932424649596214, -0.01801415905356407, 0.11338987201452255, 0.1290614753961563, -0.22722910344600677, 0.2723698318004608, -0.14188186824321747, 0.001571932341903448, -0.04021000862121582, -0.011854969896376133, 0.27172237634658813, -0.0020413638558238745, 0.3039468824863434, -0.05723970755934715, -0.051253050565719604, -0.08018319308757782, 0.24378301203250885, 0.29329535365104675, -0.06138969585299492, 0.07084420323371887, 0.24493227899074554, -0.28528061509132385, -0.18082298338413239, -0.0034156343899667263, -0.1399366855621338, 0.08486118912696838, -0.2206231951713562, -0.19246818125247955, 0.0548165962100029, -0.08576947450637817, 0.2708094120025635, 0.335129976272583, -0.3447965085506439, -0.20576739311218262, 0.46542200446128845, -0.06246424838900566, 0.0034569529816508293, 0.10683269053697586, 0.3264651894569397, 0.4247535169124603, -0.47004058957099915, -0.2191510647535324, -0.138511061668396, -0.04249711334705353, -0.04634786397218704, 0.31894809007644653, -0.4069112241268158, 0.12652236223220825, 0.25686049461364746, 0.02134612202644348, 0.0638776570558548, -0.24275188148021698, -0.15702983736991882, -0.08912208676338196, -0.15261192619800568, -0.21818874776363373, -0.2614052891731262, 0.1947343647480011, -0.18628111481666565, 0.12415972352027893, -0.3459218442440033, 0.16592490673065186, 0.027290713042020798, -0.05637755244970322, -0.33470815420150757, 0.2530308663845062, 0.21008457243442535, -0.12391598522663116, -0.2472316473722458, -0.1987152248620987, 0.1269495040178299, -0.0608031265437603, -0.2438553124666214, 0.2850970923900604, -0.2832086384296417, 0.19654446840286255, -0.1821887344121933, -0.15351848304271698, 0.30737772583961487, 0.2197265625, 0.002089706715196371, 0.019269373267889023, 0.08336201310157776, 0.1180257797241211, 0.03021572157740593, -0.14694130420684814, 0.07113996893167496, 0.3395858407020569, -0.05927126482129097, -0.22425389289855957, 0.3386266231536865, -0.07544367760419846, 0.12121216952800751, -0.23773391544818878, 0.12220340222120285, -0.21838721632957458, -0.04364888370037079, -0.04557504132390022, -0.3558124303817749, -0.14210206270217896, 0.32789015769958496, -0.003941658418625593, 0.0012239994248375297, -0.32642319798469543, 0.037747353315353394, -0.014166549779474735, -0.22847120463848114, 0.12541763484477997, 0.0819910317659378, 0.12394533306360245, 0.17486968636512756, -0.10036325454711914, 0.15482060611248016, 0.04504146799445152, -0.16651508212089539, 0.3441774845123291, -0.05643673241138458, -0.2370104342699051, -0.16218440234661102, 0.012060939334332943, -0.0032231893856078386, -0.09163954108953476, -0.15496088564395905, 0.013690288178622723, 0.15393175184726715, 0.11581146717071533, 0.08143201470375061, 0.020159732550382614, 0.09312266111373901, -0.315847784280777, -0.002931375987827778, -0.27776360511779785, -0.026592900976538658, -0.06948928534984589, -0.09772419184446335, -0.04429278150200844, -0.1817171573638916, -0.03813270479440689, -0.1792801022529602, 0.023568198084831238, -0.07850425690412521, -0.03201575577259064, 0.032375045120716095, 0.12055951356887817, -0.08628712594509125, -0.04065942391753197, 0.13177429139614105, -0.02541743591427803, -0.028607385233044624, 0.1631281077861786, 0.0976816937327385, 0.007569932844489813, -0.14781764149665833, -0.03538404405117035, 0.03529725223779678, 0.14589354395866394, 0.11708267778158188, -0.0733112022280693, -0.18258129060268402, 0.08080645650625229, -0.027032913640141487, 0.15374408662319183, 0.07275154441595078, -0.06607040017843246, -0.06337977200746536, -0.028286004438996315, -0.034955739974975586, -0.078375443816185, 0.06469042599201202, 0.03721662983298302, -0.1595786213874817, -0.13422635197639465, 0.06512820720672607, -0.19901970028877258, 0.07205004245042801, -0.04669854789972305, 0.22798649966716766, 0.08039592206478119, -0.0945296511054039, 0.1670626848936081, -0.07093516737222672, -0.03821729123592377, -0.15397626161575317, -0.14572873711585999, 0.14309783279895782, -0.17568542063236237, 0.03450353071093559, -0.07876476645469666, -0.1187584400177002, 0.02493438869714737, 0.2978633940219879, 0.09773924946784973, -0.08272099494934082, -0.017799369990825653, 0.2863825559616089, -0.22246016561985016, -0.04556446895003319, -0.03252948448061943, 0.0746496245265007, -0.24394334852695465, 0.09418395906686783, -0.15860092639923096, 0.2304602861404419, -0.00033636324224062264, -0.03719515725970268, -0.16066120564937592, 0.175651416182518, 0.12871281802654266, 0.030373182147741318, 0.22444668412208557, 0.1360563188791275, -0.01143732015043497, 0.1142285168170929, 0.2766290009021759, 0.1753683090209961, -0.14428210258483887, -0.2547007203102112, 0.033104490488767624, 0.17951428890228271, 0.33030229806900024, 0.20081526041030884, -0.0010192056652158499, -0.059549249708652496, -0.015711279585957527, 0.08338486403226852, 0.38005247712135315, 0.04608140140771866, 0.22367991507053375, -0.013481802307069302, -0.23176200687885284, 0.2752881944179535, -0.023773418739438057, -0.004358832724392414, 0.27311933040618896, 0.016700174659490585, -0.14437460899353027, 0.22529655694961548, -0.09978499263525009, 0.01403095293790102, -0.05798417329788208, -0.11051775515079498, 0.04630546271800995, -0.09779766201972961, -0.15541289746761322, 0.1373094767332077, -0.006657784804701805, 0.15138156712055206, 0.030615709722042084, 0.13074497878551483, 0.06075571849942207, -0.08302485942840576, -0.21647362411022186, 0.21153895556926727, 0.04239998012781143, 0.16359828412532806, -0.09223511070013046, -0.10519725829362869, -0.05735926330089569, 0.18433472514152527, -0.022640010342001915, 0.05702181160449982, 0.10151130706071854, -0.025307731702923775, 0.008760298602283001, -0.26371273398399353, 0.028604909777641296, 0.34282752871513367, -0.13726317882537842, -0.054958783090114594, 0.07953938841819763, -0.04993939399719238, -0.05903279036283493, -0.040719203650951385, -0.012917179614305496, -0.04623035714030266, -0.20753046870231628, 0.08694817125797272, 0.2224585860967636, -0.38813793659210205, -0.16037434339523315, 0.008294372819364071, -0.15970470011234283, 0.09046394377946854, -0.1379804015159607, 0.17643369734287262, 0.18994870781898499, -0.08125944435596466, 0.2533399164676666, -0.17767564952373505, -0.06888407468795776, 0.02147083170711994, -0.282056987285614, -0.2760414779186249, -0.21899619698524475, -0.05041064694523811, 0.02421851083636284, 0.1329842209815979, -0.05334686487913132, -0.22119636833667755, -0.10010755807161331, 0.2058725357055664, 0.19656237959861755, 0.1736920028924942, 0.049740757793188095, 0.32385489344596863, -0.20109353959560394, 0.05161097273230553, 0.002460693009197712, -0.21167100965976715, -0.024467552080750465, 0.06994028389453888, 0.5079508423805237, -0.26438090205192566, -0.03424648940563202, 0.021388567984104156, -0.0516728051006794, 0.23448698222637177, 0.1690017431974411, -0.09686293452978134, 0.049879271537065506, -0.0407988578081131, -0.06795375049114227, 0.13655897974967957, -0.22944214940071106, 0.14658473432064056, 0.2269526720046997, -0.18214479088783264, -0.15736894309520721, -0.22279644012451172, -0.23105944693088531, 0.00863345805555582, 0.06371831148862839, 0.014291136525571346, 0.1548246294260025, -0.08903168886899948, -0.19531570374965668, 0.3022058606147766, -0.04529304802417755, -0.034349050372838974, 0.07943631708621979, -0.03213115781545639, 0.15535064041614532, -0.052934564650058746, -0.03903627768158913, -0.30924224853515625, -0.0344516821205616, 0.2022574543952942, 0.12409015744924545, -0.19689732789993286, 0.13903523981571198, -0.018067408353090286, 0.03888603299856186, 0.09386598318815231, 0.145758718252182, -0.03549066558480263, -0.021283991634845734, -0.17755341529846191, -0.09308810532093048, -0.13283056020736694, -0.06708259135484695, 0.425062358379364, 0.006535227410495281, -0.2572387158870697, 0.32199662923812866, 0.021498432382941246, -0.21484088897705078, -0.050485361367464066, 0.16436636447906494, 0.12678125500679016, -0.22498595714569092, 0.12270264327526093, 0.14811168611049652, -0.20423251390457153, -0.21166940033435822, -0.18132524192333221, -0.08110001683235168, -0.12035270780324936, 0.022181948646903038, -0.023744333535432816, 0.21267297863960266, -0.38815224170684814, -0.027109093964099884, -0.002709314227104187, -0.007808571215718985, -0.11281459778547287, 0.15367430448532104, 0.12166628986597061, -0.1328849345445633, -0.03457169979810715, 0.003272585105150938, -0.11077047884464264, 0.04243030399084091, -0.08262370526790619, 0.10205411165952682, 0.099683977663517, 0.08356393873691559, -0.19071699678897858, 0.14773257076740265, -0.038191717118024826, 0.02525574341416359, -0.028066592290997505, 0.14462396502494812, -0.051394764333963394, -0.04197400435805321, -0.02424570359289646, 0.32694128155708313, 0.19946712255477905, -0.10638538748025894, 0.23435509204864502, -0.016431530937552452, 0.2036595344543457, -0.0847313180565834, -0.05592292919754982, -0.09012975543737411, 0.06399939209222794, 0.2094266563653946, 0.1569468379020691, -0.11557560414075851, -0.20036818087100983, 0.3733219504356384, 0.05046786740422249, 0.08110193908214569, 0.1835884153842926, -0.20256362855434418, -0.30502626299858093, 0.2445381134748459, -0.27101078629493713, -0.09544782340526581, 0.31602686643600464, -0.14321088790893555, -0.12879933416843414, -0.3024274408817291, 0.02496517449617386, 0.07020729035139084, -0.6149287223815918, -0.1490706354379654, 0.16428042948246002, -0.15157382190227509, 0.14701132476329803, -0.056346237659454346, 0.1579912006855011, -0.08120185136795044, -0.06540510803461075, 0.13935931026935577, 0.16068130731582642, -0.1251140832901001, 0.03240462392568588, 0.05979997664690018, -0.06993205845355988, -0.09305383265018463, 0.22105012834072113, -0.1305997371673584, 0.3754972815513611, -0.05403994396328926, -0.3098415434360504, -0.2346462607383728, -0.0898752436041832, 0.3179163932800293, 0.03225496783852577, -0.07113724946975708, -0.3633629083633423, 0.06135521084070206, -0.17200301587581635, -0.08242341876029968, -0.2462286353111267, 0.2093157321214676, 0.13177905976772308, 0.0940757542848587, -0.10541070997714996, -0.11269033700227737, -0.24324914813041687, -0.10784564912319183, -0.36187735199928284, 0.009181758388876915, 0.08962485939264297, -0.02945808321237564, -0.337777316570282, -0.08757242560386658, -0.05889833718538284, -0.31114688515663147, 0.030324064195156097, 0.11561663448810577, -0.24322812259197235, 0.01253360603004694, -0.09929624944925308, 0.09750278294086456, 0.04832166060805321, 0.13668835163116455, -0.047967180609703064, 0.007179338485002518, -0.04108138009905815, 0.12523017823696136, 0.040362436324357986, 0.05946662276983261, 0.08215948194265366, 0.26280713081359863, -0.003024212783202529, 0.060285184532403946, 0.07187917828559875, -0.13431131839752197, 0.015736250206828117, 0.0500728003680706, 0.06990337371826172, -0.23954108357429504, 0.14132694900035858, -0.13915176689624786, -0.09641757607460022, 0.5928925275802612, 0.011907007545232773, -0.17666248977184296, -0.08047100901603699, -0.004381044302135706, 0.10086804628372192, -0.1576688140630722, 0.11179116368293762, 0.0534885935485363, 0.0012593322899192572, -0.04036077484488487, -0.10821565985679626, -0.20256751775741577, 0.044168565422296524, -0.00023969190078787506, -0.09248080104589462, 0.16331708431243896, -0.21733270585536957, -0.09354785829782486, 0.021156758069992065, -0.03851049020886421, 0.27814921736717224, 0.11957792192697525, -0.08997411280870438, 0.03875572606921196, -0.08722540736198425, 0.06369780749082565, -0.15661537647247314, -0.05842289701104164, 0.13927656412124634, 0.04283851757645607, 0.13017480075359344, 0.18212704360485077, -0.20602034032344818, -0.05846751853823662, 0.032647524029016495, 0.03923194855451584, 0.09717917442321777, 0.18352732062339783, -0.050743963569402695, -0.10475620627403259, -0.2351035624742508, -0.08582514524459839, -0.11858296394348145, -0.1486467570066452, 0.28462275862693787, -0.10638748854398727, -0.3307681679725647, 0.08772452920675278, -0.20325970649719238, -0.03055563196539879, 0.05426853150129318, 0.13674242794513702, 0.36373698711395264, 0.17023369669914246, -0.02001364529132843, 0.32901132106781006, 0.03297391161322594, -0.10814595222473145, -0.26036518812179565, -0.031133994460105896, -0.10103241354227066, -0.030422398820519447, 0.14393210411071777, 0.19991523027420044, -0.16335585713386536, 0.08871062844991684, 0.1968640685081482, -0.0610724501311779, 0.14445312321186066, -0.19416813552379608, 0.1649305820465088, 0.08756118267774582, -0.03915334865450859, 0.032236047089099884, -0.10025852173566818, -0.048310935497283936, -0.18519750237464905, 0.08167769759893417, -0.056433409452438354, 0.13774971663951874, -0.2834341824054718, -0.05551599711179733, -0.07146742194890976, -0.06836260110139847, 0.1223156601190567, 0.186246857047081, -0.18591274321079254, -0.0009174562292173505, -0.20078495144844055, 0.02536061592400074, -0.03151540458202362, -0.11776261776685715, 0.4115493893623352, -0.1907188892364502, -0.003489196067675948, 0.18774224817752838, 0.01669955626130104, -0.14350241422653198, -0.03300006315112114, 0.08191116899251938, 0.03367259353399277, -0.06102332845330238, -0.2088201940059662, 0.11004737764596939, -0.143185093998909, -0.1431020200252533, 0.15858694911003113, -0.028126416727900505, 0.1345078945159912, 0.007058968301862478, 0.053075212985277176, 0.12873263657093048, 0.05080262944102287, -0.06322255730628967, 0.21126551926136017, 0.11599744111299515, -0.025251634418964386, 0.0731121227145195, 0.13424156606197357, -0.15491883456707, -0.041469261050224304, -0.16621093451976776, 0.09442504495382309, -0.16979309916496277, 0.1611139327287674, 0.10809576511383057, -0.13877680897712708, -0.008360536769032478, 0.24663321673870087, -0.08284256607294083, 0.06361313164234161, -0.032505184412002563, 0.12737827003002167, -0.03868212178349495, 0.17995195090770721, 0.054852258414030075, -0.03480667620897293, -0.18036513030529022, 0.20352141559123993, 0.09278500080108643, -0.44279325008392334, 0.0660051703453064, 0.18105578422546387, -0.15614134073257446, 0.06790000945329666, 0.18895278871059418, -0.18353557586669922, -0.0752267837524414, -0.17789845168590546, 0.2046768069267273, -0.20445625483989716, 0.04357156530022621, 0.052688952535390854, 0.0004412303678691387, 0.07822733372449875, -0.05607091262936592, 0.14553159475326538, 0.13316820561885834, -0.03961867094039917, -0.13404187560081482, 0.016032781451940536, 0.0755569338798523, -0.012154245749115944, -0.09896519780158997, -0.0521337166428566, 0.04512183368206024, 0.043797511607408524, 0.1734251230955124, 0.1372273862361908, -0.1146397665143013, -0.061757396906614304, 0.08695053309202194, 0.0669274777173996, 0.02148587629199028, -0.005414597690105438, 0.07168367505073547, -0.12331187725067139, -0.029422473162412643, -0.15011730790138245, -0.24107429385185242, -0.2623656988143921, -0.11524730175733566, -0.03946948051452637, 0.08003240823745728, -0.2030048817396164, -0.3516044020652771, -0.3869478404521942, 0.13317085802555084, 0.10538958013057709, 0.006767977494746447, 0.24357692897319794, -0.25726187229156494, 0.035298727452754974, -0.060997799038887024, -0.19115929305553436, 0.08623065054416656, -0.28567808866500854, -0.31586959958076477, 0.14698337018489838, -0.028010159730911255, -0.1965087652206421, 0.12734779715538025, 0.13510724902153015, 0.018801003694534302, 0.2726549804210663, 0.24275150895118713, 0.05727691575884819, -0.03176864609122276, 0.04091453552246094, -0.27494674921035767, -0.017756346613168716, 0.047329407185316086, -0.1820945143699646, -0.0637160912156105, 0.03368818759918213, -0.01823127083480358, 0.042046621441841125, -0.06940774619579315, 0.1725468784570694, 0.040298331528902054, 0.005966857075691223, 0.13862966001033783, -0.08360302448272705, -0.05772027000784874, 0.07913432270288467, -0.08085223287343979, 0.0698748305439949, -0.21449938416481018, -0.01772371307015419, -0.17280369997024536, 0.18957959115505219, 0.03645530715584755, 0.27861303091049194, 0.22830858826637268, 0.21987658739089966, -0.009068564511835575, -0.4675404131412506, 0.030535360798239708, 0.15411175787448883, -0.1734837144613266, -0.08480630069971085, 0.16991731524467468, 0.028481438755989075, -0.0493001863360405, -0.12314274907112122, 0.18685531616210938, -0.18962788581848145, 0.05718852952122688, 0.13435512781143188, 0.08713969588279724, 0.20923733711242676, 0.006363460328429937, 0.09706366062164307, 0.2568962574005127, -0.05895087867975235, -0.038071323186159134, 0.2226865440607071, -0.12668685615062714, -0.07029247283935547, -0.07754439115524292, -0.1221255287528038, 0.11281188577413559, -0.16308319568634033, -0.034790895879268646, 0.10668116062879562, -0.17971216142177582, 0.12337680906057358, -0.12966400384902954, 0.16608086228370667, -0.06405019760131836, 0.008893207646906376, -0.0803721621632576, 0.14247708022594452, -0.12029942870140076, 0.01413719542324543, 0.0015343555714935064, -0.12120628356933594, -0.04612942412495613, 0.039208970963954926, 0.149556964635849, 0.024654099717736244, 0.11241760849952698, -0.06347426027059555, -0.04633075371384621, -0.2574101388454437, 0.021030662581324577, -0.012898627668619156, 0.057775627821683884, -0.2649936378002167, 0.15163931250572205, 0.05006696283817291, -0.14114409685134888, -0.2954239547252655, 0.07274792343378067, -0.01961711049079895, -0.12475753575563431, 0.03254733607172966, 0.04590608552098274, 0.17752708494663239, -0.17955300211906433, 0.03950376436114311, 0.15876151621341705, -0.2964918613433838, -0.02851751260459423, -0.21160180866718292, -0.14407841861248016, 0.010289249941706657, 0.059033021330833435, -0.12888182699680328, 0.011207223869860172, -0.2328086644411087, -0.12408996373414993, -0.02393650822341442, 0.03839169815182686, 0.14295148849487305, -0.11697447299957275, 0.0485270619392395, -0.33379530906677246, -0.15371674299240112, 0.14722254872322083, 0.15748238563537598, 0.17261658608913422, 0.2441776841878891, -0.15485839545726776, -0.07026136666536331, 0.2590392529964447, 0.16164630651474, 0.3387777805328369, -0.021259674802422523, -0.044184889644384384, -0.24941983819007874, -0.16107098758220673, 0.3149550259113312, 0.05081694573163986, 0.42213958501815796, 0.01902894303202629, -0.417431503534317, -0.00814810860902071, -0.3036770224571228, -0.202024906873703, -0.10469432920217514, 0.2935679256916046, 0.25915226340293884, 0.17390325665473938, 0.19477659463882446, 0.15738046169281006, -0.09334998577833176, 0.07610755413770676, 0.06999307870864868, 0.037934694439172745, 0.1948944628238678, 0.2285250574350357, -0.19772440195083618, 0.14992655813694, 0.05905337631702423, -0.1389627605676651, 0.09427644312381744, -0.012794259004294872, 0.05689845234155655, 0.12846311926841736, -0.015209904871881008, 0.18025583028793335, -0.10926637053489685, 0.04609279707074165, 0.08920759707689285, 0.1368764191865921, 0.09105915576219559, 0.06634823232889175, -0.04736676812171936, 0.1464381217956543, -0.025638941675424576, -0.10020466893911362, -0.019366800785064697, -0.10893319547176361, -0.12135437875986099, -0.05828152224421501, -0.09298624098300934, 0.010331413708627224, 0.16726212203502655, -0.12750251591205597, 0.22989989817142487, -0.029730141162872314, -0.19651368260383606, 0.18220019340515137, -0.1602666825056076, -0.019706353545188904, 0.15215419232845306, -0.051366012543439865, 0.18427832424640656, -0.2211400419473648, -0.0008307736134156585, -0.09452490508556366, -0.17323939502239227, 0.06319687515497208, 0.0618700236082077, 0.07381415367126465, -0.008865663781762123, 0.11623739451169968, 0.21657291054725647, -0.010960112325847149, 0.03748844191431999, -0.13033975660800934, 0.004446094855666161, 0.03407011553645134, 0.1336318403482437, 0.004031694959849119, -0.2109975963830948, 0.027298927307128906, -0.028490295633673668, -0.043027713894844055, -0.0019526553805917501, -0.6874895691871643, 0.738818347454071, 0.22589421272277832, -0.279207706451416, 0.3456067144870758, -0.24467360973358154, 0.104417584836483, 0.5831362009048462, -0.5573784708976746, 0.7343498468399048, 0.5652802586555481, -0.03883834183216095, -0.5426822900772095, 0.54326331615448, -0.4871293902397156, 0.24842940270900726, -0.15768636763095856, -0.07100804150104523, -0.4954545199871063, 0.30559027194976807, 0.47231563925743103, 0.060480210930109024, 0.1891474723815918, 0.33305343985557556, 0.2614213824272156, -0.23169903457164764, 0.21686750650405884, -0.3426111936569214, -0.2424217313528061, -0.10796422511339188, 0.03378809615969658, 0.055136892944574356, 0.04840945824980736, -0.08279579877853394, 0.4238417446613312, 0.1280101239681244, -0.14698828756809235, -0.05954805016517639, -0.5605877637863159, -0.2795292139053345, 0.08954528719186783, 0.038885265588760376, -0.12640315294265747, 0.09898119419813156, 0.1128576472401619, 0.16132377088069916, -0.1271517276763916, -0.11522901803255081, -0.5002923607826233, 0.2316097468137741, -0.060804661363363266, -0.0903460830450058, -0.5591144561767578, -0.02508515678346157, -0.5694926977157593, -0.06343060731887817, -0.13074935972690582, -0.010033788159489632, 0.41938289999961853, 0.29699209332466125, 0.0818345844745636, 0.09049151092767715, -0.11643898487091064, 0.3063434064388275, 0.3240453004837036, 0.07342100143432617, -0.11830109357833862, 0.04603632166981697, 0.14868195354938507, -0.1956816166639328, 0.09743668138980865, 0.11402535438537598, -0.054807309061288834, -0.05806899815797806, 0.28648337721824646, -0.03355948626995087, 0.10107176005840302, 0.026325706392526627, -0.0363319106400013, 0.1399305909872055, 0.2947489619255066, 0.21330730617046356, -0.04746263846755028, -0.09718520194292068, -0.0739981085062027, 0.13962122797966003, -0.004132636822760105, 0.2850832939147949, -0.07142934948205948, -0.1107841432094574, -0.3398350179195404, 0.023419741541147232, -0.10937118530273438, 0.06934554874897003, -0.24381496012210846, -0.09708210825920105, -0.21204471588134766, 0.13821646571159363, 0.07400476187467575, -0.4568389654159546, -0.12588253617286682, 0.06652632355690002, -0.034380074590444565, -0.015124337747693062, -0.07250086218118668, 0.0897710844874382, 0.2872884273529053, 0.4428366422653198, 0.16428923606872559, 0.22571805119514465, -0.10369212925434113, -0.019660567864775658, 0.4260552227497101, -0.11008120328187943, -0.09641260653734207, 0.21544085443019867, -0.18153902888298035, 0.0595979169011116, -0.08909190446138382, -0.16793790459632874, 0.18251647055149078, 0.018870098516345024, -0.3420020043849945, 0.12749283015727997, 0.087046779692173, 0.1016831323504448, 0.2162013053894043, 0.31759539246559143, 0.15654145181179047, -0.06585696339607239, -0.06298478692770004, -0.042591143399477005, 0.05526222661137581, -0.04541033133864403, -0.09778808802366257, -0.0036857801023870707, -0.007430633530020714, 0.3139841854572296, 0.11146102100610733, 0.04642140865325928, 0.22956183552742004, 0.0848086029291153, -0.13116562366485596, -0.2726074755191803, 0.4899822771549225, -0.004887531045824289, 0.03685782849788666, 0.3007485568523407, -0.016070349141955376, -0.28466087579727173, 0.09653416275978088, -0.18447406589984894, 0.1567336618900299, -0.2699424922466278, -0.006029780022799969, -0.29008394479751587, -0.05678717419505119, 0.05416863039135933, 0.10445275902748108, 0.41920483112335205, -0.26249924302101135, -0.08395601809024811, 0.012860585004091263, 0.11944149434566498, 0.18323510885238647, -0.10299315303564072, 0.03427136316895485, -0.03690039739012718, -0.07579111307859421, 0.15548717975616455, -0.23761460185050964, -0.015562683343887329, -0.03302943706512451, 0.14018286764621735, -0.07064690440893173, 0.2257169634103775, -0.28403785824775696, -0.16524100303649902, -0.4235699772834778, 0.38831350207328796, -0.11494199931621552, 0.04529006406664848, 0.054636795073747635, 0.17948149144649506, 0.18199242651462555, -0.5017911791801453, 0.023731209337711334, -0.11840087920427322, -0.36262521147727966, 0.07456447929143906, 0.35811498761177063, 0.24947096407413483, -0.6091973781585693, -0.10539755970239639, 0.03938997536897659, -0.00250402488745749, 0.34670308232307434, 0.04446974769234657, 0.02953152358531952, -0.2323717623949051, -0.17989690601825714, -0.1979799121618271, 0.7229838967323303, -0.44200563430786133, -0.497799277305603, -0.02592342719435692, 0.0632067397236824, -0.4481638967990875, -0.3660203814506531, -0.023836925625801086, -0.1216469258069992, 0.16849283874034882, -0.07281098514795303, -0.2461751401424408, -0.2377859652042389, -0.07711853832006454, -0.14540232717990875, -0.18296732008457184, 0.07549925893545151, -0.06287626922130585, 0.11959315091371536, 0.03780641406774521, -0.09662660211324692, -0.2803274095058441, 0.4523155093193054, -0.15504519641399384, -0.2024863213300705, 0.05618997663259506, -0.3168718218803406, 0.21920278668403625, -0.167707622051239, -0.02990551106631756, -0.051096849143505096, 0.010761021636426449, 0.02474021166563034, -0.03145903721451759, 0.26359274983406067, -0.06421642005443573, -0.028148408979177475, 0.2469274252653122, 0.2602645456790924, 0.039558105170726776, -0.2746642231941223, -0.1948259323835373, 0.21505668759346008, -0.12175682932138443, -0.22025960683822632, 0.42884179949760437, 0.2562907338142395, 0.22354984283447266, -0.13851119577884674, 0.03172486647963524, 0.013152929954230785, -0.018570316955447197, -0.2668667137622833, 0.010079614818096161, -0.102895587682724, -0.03723008185625076, -0.16368193924427032, -0.10832338780164719, 0.11441130936145782, -0.026619821786880493, -0.15935125946998596, 0.12526367604732513, 0.24837864935398102, 0.22700023651123047, 0.15224483609199524, -0.20568284392356873, -0.1702086329460144, -0.05423866957426071, 0.0961393266916275, -0.01796441338956356, -0.0044309464283287525, 0.1332295686006546, 0.05813002213835716, -0.07095735520124435, -0.043497636914253235, 0.07832576334476471, 0.01274504978209734, -0.22501049935817719, -0.16298365592956543, 0.015676509588956833, 0.06768564134836197, 0.09623993188142776, 0.051134590059518814, 0.07847870886325836, 0.02132408134639263, 0.03283459693193436, -0.015608230605721474, -0.20395101606845856, 0.03541933372616768, -0.016819795593619347, 0.004246430471539497, 0.14137211441993713, -0.3331812620162964, -0.038038838654756546, 0.08849916607141495, -0.009999388828873634, 0.2395520657300949, 0.027312234044075012, -0.1732972413301468, 0.08445865660905838, 0.10081049799919128, 0.017270751297473907, 0.3311659097671509, 0.14927759766578674, 0.01999002881348133, -0.205905944108963, -0.34376978874206543, -0.05606966093182564, -0.010568768717348576, 0.07780582457780838, -0.07761573791503906, -0.2708492875099182, -0.16686226427555084, 0.058601558208465576, 0.028034644201397896, -0.1328175663948059, 0.004220560193061829, -0.21182318031787872, 0.03458885848522186, -0.1523544043302536, -0.23984645307064056, 0.025699758902192116, -0.031138047575950623, -0.15999238193035126, 0.09173259139060974, -0.012863642536103725, -0.2907833755016327, -0.16665221750736237, -0.17044222354888916, 0.04686164855957031, 0.11464624851942062, -0.20458336174488068, 0.13588480651378632, 0.030033240094780922, 0.608086109161377, -0.1561059057712555, -0.09502687305212021, 0.021393844857811928, 0.33070480823516846, -0.670746386051178, -0.455892413854599, 0.0073280371725559235, 0.04938025027513504, 0.29601162672042847, -0.3928125202655792, 0.13924692571163177, -0.05839826539158821, 0.07686391472816467, 0.08187184482812881, -0.26360198855400085, -0.005855099763721228, -0.15542994439601898, 0.20053818821907043, 0.04439816251397133, -0.05581542104482651, -0.2591143846511841, -0.1842111051082611, -0.008359381929039955, 0.4352693259716034, -0.009831629693508148, -0.05911758169531822, -0.008422832936048508, -0.1389797180891037, 0.20562492311000824, 0.6558225154876709, 0.04603232070803642, 0.1205592155456543, 0.09437914192676544, -0.08380904793739319, -0.35633888840675354, 0.048149265348911285, -0.08540995419025421, -0.29852181673049927, 0.10418149083852768, -0.11905869096517563, 0.30297207832336426, 0.012996557168662548, -0.07964722812175751, -0.6955209970474243, 0.2522704303264618, -0.5273464918136597, -0.018605099990963936, 0.21614566445350647, -0.3526158034801483, -0.01553681306540966, 0.21055452525615692, 0.06922855228185654, -0.2725191116333008, -0.0815514549612999, 0.14882344007492065, 0.17762216925621033, 0.18669117987155914, -0.338538259267807, 0.1514417678117752, -0.1324271857738495, -0.03254019096493721, -0.2441154420375824, -0.338318407535553, 0.039309874176979065, 0.10060469806194305, 0.24021030962467194, -0.11255702376365662, -0.0018471978837624192, -0.08036912977695465, 0.21840143203735352, 0.04815584048628807, -0.03612104430794716, -0.1264820396900177, 0.05412312597036362, -0.12588798999786377, 0.11776839196681976, -0.09689462929964066, 0.3925783038139343, -0.7002862691879272, 0.10026036947965622, 0.2770730257034302, -0.053876522928476334, 0.03491376340389252, 0.05592626705765724, -0.12990081310272217, 0.03931298106908798, 0.10682835429906845, -0.03858606889843941, 0.017535729333758354, -0.2212786227464676, -0.053935956209897995, 0.08302714675664902, 0.20571796596050262, 0.18365547060966492, -0.05048546940088272, 0.13453629612922668, -0.1140470951795578, 0.01418949943035841, 0.060930050909519196, 0.19301995635032654, 0.23355863988399506, 0.22997798025608063, -0.015792259946465492, 0.16569268703460693, -0.05764802545309067, -0.1453929990530014, 0.13020075857639313, 0.0896848738193512, 0.0025895144790410995, -0.03686927258968353, -0.15361961722373962, 0.14440199732780457, 0.08316272497177124, -0.0426781140267849, -0.04962407052516937, 0.012884732335805893, 0.0023370813578367233, 0.19459953904151917, 0.06168587505817413, -0.10197745263576508, -0.3328993618488312, -0.21023064851760864, 0.016085246577858925, 0.19489839673042297, 0.06833140552043915, 0.15347892045974731, -0.050699926912784576, 0.17749246954917908, 0.24155330657958984, 0.14162853360176086, -0.018261142075061798, 0.15863358974456787, -0.2110416293144226, 0.007647837046533823, 0.04008108004927635, -0.3507363200187683, -0.11018382757902145, -0.02342338114976883, 0.06580223143100739, -0.20164303481578827, 0.11087608337402344, -0.02263944409787655, 0.06190849468111992, 0.08173268288373947, 0.018384626135230064, -0.013728097081184387, 0.18237446248531342, 0.09240981936454773, 0.08833444118499756, 0.0059354244731366634, -0.02960902452468872, -0.13055209815502167, 0.13599172234535217, 0.031128443777561188, 0.213191419839859, 0.1007271260023117, -0.008922556415200233, -0.11597141623497009, 0.09460177272558212, 0.07569732517004013, -0.07934089004993439, 0.04413587227463722, 0.01666315644979477, 0.04945101588964462, -0.07636917382478714, -0.2351069152355194, 0.09048496931791306, 0.25219452381134033, -0.01838325709104538, -0.034049030393362045, -0.006044414360076189, -0.07714018225669861, 0.0416574701666832, -0.19514410197734833, -0.05034850165247917, -0.12166482955217361, -0.029556581750512123, 0.019975624978542328, -0.1305638998746872, 0.22824595868587494, -0.1094176173210144, -0.2848368287086487, 0.24399703741073608, -0.17053969204425812, -0.1027393564581871, -0.4335499703884125, 0.33824023604393005, -0.22283020615577698, 0.21484224498271942, -0.3248024880886078, -0.10604076832532883, 0.07614663243293762, 0.014414357952773571, 0.213343545794487, 0.17560817301273346, -0.10629267990589142, -0.2922590970993042, -0.15067501366138458, 0.25065475702285767, -0.0013875494478270411, 0.3072405457496643, -0.11043386161327362, 0.18708229064941406, -0.10558376461267471, -0.07156503200531006, -0.1568593680858612, -0.2641153037548065, -0.051297351717948914, -0.010379630140960217, 0.14191065728664398, -0.02780604176223278, -0.06331177055835724, -0.15796034038066864, -0.15387989580631256, 0.03205592930316925, 0.2417205572128296, -0.11228141188621521, 0.06402187049388885, 0.004580250475555658, -0.019705940037965775, 0.19811810553073883, 0.2192816287279129, -0.06954716145992279, 0.15659858286380768, 0.12095018476247787, 0.2564472556114197, -0.04681088775396347, 0.019531887024641037, -0.09112656116485596, -0.155794158577919, 0.02625894919037819, -0.11117270588874817, -0.030055224895477295, -0.14194154739379883, -0.06840118020772934, 0.00028573875897563994, 0.2359367161989212, 0.29975810647010803, -0.003922584466636181, -0.04806814342737198, -0.07610151171684265, -0.0824972465634346, -0.08664603531360626, 0.18643686175346375, -0.16084960103034973, -0.10978229343891144, 0.25041571259498596, 0.011301189661026001, -0.16447527706623077, -0.13595005869865417, 0.0816042497754097, 0.035199109464883804, -0.014434845186769962, -0.09240048378705978, -0.07295224070549011, -0.035276129841804504, -0.13443437218666077, -0.10423608869314194, 0.07453890889883041, 0.2113310992717743, 0.03265871852636337, -0.11431850492954254, -0.24650193750858307, 0.11230180412530899, 0.02024371176958084, 0.11241714656352997, 0.08677730709314346, -0.0987933874130249, -0.02922983653843403, -0.06274424493312836, 0.022579532116651535, 0.18137148022651672, -0.0473749041557312, 0.023246388882398605, 0.10000528395175934, -0.004969946574419737, 0.05048802122473717, -0.20904764533042908, 0.05608164891600609, 0.0636969655752182, 0.13623234629631042, 0.14331676065921783, -0.11896340548992157, 0.2502565085887909, 0.23049260675907135, -0.24148736894130707, 0.03286715969443321, 0.057053856551647186, 0.2016073614358902, -0.010305485688149929, 0.1089695617556572, 0.2253308743238449, 0.31684380769729614, -0.05412570387125015, 0.043957412242889404, -0.1256745457649231, 0.011783137917518616, 0.05541077256202698, -0.06962767988443375, 0.05818774923682213, 0.1611819565296173, -0.09523994475603104, -0.15789812803268433, -0.09941042214632034, 0.05675605684518814, -0.02228158712387085, 0.10867169499397278, -0.07391726970672607, 0.03835757449269295, 0.010847523808479309, 0.016225330531597137, 0.14897951483726501, 0.007913750596344471, -0.21703174710273743, -0.05434276908636093, 0.17142808437347412, -0.1281556636095047, -0.12778854370117188, -0.14318078756332397, 0.046592261642217636, -0.1368422657251358, 0.04223301634192467, 0.03287302330136299, 0.06154705211520195, 0.010980975814163685, 0.09215663373470306, 0.009725982323288918, -0.1406836062669754, 0.08754930645227432, -0.2487497478723526, 0.2054460644721985, 0.06760137528181076, 0.13465313613414764, 0.13691715896129608, -0.05764571949839592, 0.2746112048625946, 0.12173044681549072, 0.10930319130420685, -0.13270246982574463, -0.17911088466644287, 0.22488227486610413, 0.008389297872781754, -0.3407144844532013, -0.06238241121172905, 0.09498540312051773, -0.02803121693432331, -0.1299474835395813, 0.042690958827733994, 0.10384281724691391, -0.049073539674282074, 0.07176114618778229, 0.1073288694024086, 0.049705181270837784, -0.05140838027000427, -0.19759854674339294, -0.1350032091140747, -0.1813136786222458, -0.04958338662981987, 0.004395144060254097, 0.01798276975750923, -0.1434212177991867, -0.048494499176740646, 0.05886668339371681, 0.04422872141003609, 0.036625899374485016, -0.08112066984176636, -0.04243529587984085, 0.22169391810894012, 0.1618335098028183, -0.14110873639583588, 0.11564645171165466, -0.0017118488904088736, -0.183967724442482, -0.03319159522652626, 0.1290905624628067, -0.1971234828233719, 0.0011580216232687235, 0.03085319511592388, 0.13284383714199066, -0.3354852497577667, -0.24336183071136475, 0.13995784521102905, 0.14836066961288452, -0.08905279636383057, -0.1916361004114151, 0.08515461534261703, 0.15254628658294678, -0.11733807623386383, 0.28273388743400574, -0.0996008962392807, -0.1210498958826065, 0.2575201988220215, -0.3778465986251831, -0.10252026468515396, 0.06834150105714798, -0.03373730555176735, 0.30569636821746826, -0.1455235630273819, 0.05553089827299118, 0.12525728344917297, 0.10130585730075836, -0.04731299355626106, -0.07177744805812836, -0.10067638754844666, 0.11768580228090286, 0.2797811031341553, 0.060396403074264526, 0.05312814190983772, -0.2224310338497162, -0.23002293705940247, 0.07314945757389069, 0.20162233710289001, -0.11496611684560776, 0.06632056832313538, -0.37167447805404663, 0.03203323110938072, -0.2027103304862976, -0.34225994348526, 0.10365871340036392, -0.06627444177865982, -0.2466575652360916, 0.013867474161088467, 0.07278132438659668, -0.2572556436061859, 0.05751087889075279, 0.03147740662097931, 0.09370089322328568, 0.14385583996772766, -0.04482278972864151, 8.418064680881798e-05, 0.08850686252117157, -0.04626784846186638, 0.06095921993255615, -0.129129558801651, -0.028419436886906624, 0.3596803843975067, 0.2665899991989136, 0.09604775905609131, 0.4425744116306305, 0.0899377316236496, -0.11218146979808807, -0.2502043545246124, -0.07579066604375839, -0.182938352227211, -0.25499194860458374, 0.17996391654014587, 0.18208123743534088, 0.050578225404024124, 0.10526733845472336, 0.042382415384054184, -0.04675901308655739, -0.09323867410421371, 0.09094158560037613, 0.0915607437491417, -0.15455558896064758, -0.16732731461524963, 0.1321307122707367, -0.18424417078495026, 0.0938597247004509, -0.002145687583833933, -0.19161128997802734, 0.02400398999452591, -0.11087413877248764, -0.17847514152526855, -0.22975985705852509, -0.46077480912208557, 0.11547908186912537, -0.11199856549501419, 0.16291137039661407, 0.21705269813537598, -0.009195460006594658, 0.10189618170261383, -0.1244874969124794, 0.132772296667099, 0.01252397708594799, 0.04127398878335953, 0.20605085790157318, 0.5061033964157104, -0.08344558626413345, 0.13320083916187286, -0.02016841061413288, 0.05684603378176689, 0.14653626084327698, -0.39930713176727295, 0.1489887237548828, 0.02881416119635105, 0.004037720151245594, -0.0411384180188179, -0.4459438621997833, 0.187256321310997, -0.18047328293323517, -0.20795387029647827, 0.3626149892807007, -0.040422841906547546, -0.07096845656633377, 0.16138070821762085, 0.11320644617080688, -0.02257930114865303, -0.2670604884624481, -0.10187070071697235, -0.02002745494246483, 0.19204768538475037, 0.07125164568424225, -0.02130591683089733, -0.16283445060253143, -0.20460249483585358, 0.15170155465602875, 0.287533164024353, 0.0887952446937561, -0.026180600747466087, 0.0016982152592390776, 0.10697286576032639, -0.16930508613586426, -0.18448857963085175, 0.16837386786937714, 0.12021426856517792, -0.24312114715576172, 0.2645720839500427, -0.030079808086156845, -0.08893617987632751, -0.2110997587442398, -0.207004576921463, 0.13014188408851624, 0.00949009507894516, 0.18084141612052917, 0.21774663031101227, -0.12017545849084854, -0.058510951697826385, -0.19518764317035675, -0.23009264469146729, -0.2754852771759033, 0.09155269712209702, -0.19432885944843292, -0.09129795432090759, 0.17027829587459564, -0.2656358778476715, -0.20736771821975708, -0.24660997092723846, 0.03698238357901573, 0.06510331481695175, -0.11019550263881683, 0.13593704998493195, -0.0671924576163292, -0.11576731503009796, -0.1435937136411667, 0.1927798092365265, -0.006211927160620689, 0.046025462448596954, -0.051304638385772705, 0.01669303886592388, -0.05890519544482231, -0.01910400390625, -0.2810056507587433, -0.029099740087985992, 0.01641392707824707, -0.27443113923072815, -0.1560378074645996, -0.08309512585401535, -0.24400584399700165, -0.11697058379650116, 0.11610402911901474, 0.18245159089565277, -0.09421613812446594, -0.07793503999710083, -0.048096057027578354, 0.015440416522324085, 0.09025601297616959, 0.1091015413403511, 0.061702556908130646, -0.052084099501371384, -0.1245117262005806, 0.31523236632347107, 0.22495515644550323, 0.13075324892997742, 0.0627143457531929, -0.07043159753084183, 0.7082082033157349, 0.24904602766036987, 0.4685443639755249, -0.33719322085380554, 0.09722982347011566, -0.18881019949913025, -0.24077638983726501, -0.023198435083031654, -0.3124915659427643, 0.42202451825141907, 0.17618879675865173, -0.10531089454889297, 0.26555219292640686, 0.14272871613502502, 0.31993550062179565, 0.08858119696378708, -0.12195338308811188, 0.0036572555545717478, 0.19131769239902496, -0.19899985194206238, -0.03409362584352493, -0.31915804743766785, -0.006741886958479881, 0.04783960059285164, 0.2108800858259201, -0.05766866356134415, 0.04703965038061142, 0.013698248192667961, 0.014562397263944149, 0.21464461088180542, 0.7038312554359436, -0.05337973311543465, -0.5903332829475403, -0.11803063005208969, 0.03135939687490463, -0.22096684575080872, -0.09627512842416763, 0.0038096574135124683, -0.19393964111804962, 0.19054770469665527, -0.17284764349460602, -0.11779521405696869, -0.0006148327374830842, 0.03774773329496384, -0.004033583682030439, 0.11668092012405396, 0.09251418709754944, 0.2685837149620056, 0.24750463664531708, -0.06580507755279541, -0.06127224490046501, 0.02587212808430195, -0.29868435859680176, -0.1099960058927536, 0.12567517161369324, -0.09146934002637863, 0.17767082154750824, 0.29615792632102966, -0.07530021667480469, -0.045308299362659454, -0.15120619535446167, 0.13641725480556488, -0.12650173902511597, -0.1694442629814148, 0.022040028125047684, -0.1269252598285675, 0.24762454628944397, 0.04736217111349106, 0.007445449009537697, -0.1640101969242096, -0.09538117796182632, 0.04349203035235405, 0.28648504614830017, 0.036213506013154984, 0.08751418441534042, -0.17600609362125397, 0.05260417237877846, 0.03225095197558403, 0.12783001363277435, -0.010156150907278061, -0.17855079472064972, -0.1287141740322113, -0.29035916924476624, 0.06779534369707108, 0.049520522356033325, -0.13957910239696503, 0.12907063961029053, 0.2306971400976181, 0.025812393054366112, 0.057652443647384644, -0.23246505856513977, 0.13023802638053894, 0.44418469071388245, -0.32086604833602905, 0.09498710930347443, 0.19844785332679749, 0.021585848182439804, -0.017586253583431244, 0.07913059741258621, 0.09833104908466339, 0.061396948993206024, -0.06798660010099411, -0.29498645663261414, 0.3888150453567505, 0.05097925662994385, 0.14810064435005188, 0.05149892345070839, 0.1442132443189621, 0.09034665673971176, -0.19328555464744568, 0.007777262479066849, 0.17843152582645416, 0.10126408189535141, -0.010845649056136608, -0.24245469272136688, -0.3123319745063782, 0.026743894442915916, -0.11889779567718506, 0.2154282182455063, -0.018800610676407814, -0.02790900692343712, -0.24556122720241547, -0.04958594590425491, 0.2721944749355316, -0.1497032791376114, -0.015791434794664383, -0.2973320186138153, 0.20698092877864838, -0.014003452844917774, -0.12398126721382141, -0.02288699895143509, -0.01795908994972706, -0.11324492841959, 0.002760567469522357, 0.06462855637073517, -0.09607826918363571, 0.0074365511536598206, -0.01607358828186989, 0.07915843278169632, 0.06537985056638718, 0.04743050038814545, 0.3822799324989319, -0.11906897276639938, -0.1060677170753479, 0.18972034752368927, -0.15007059276103973, 0.13542182743549347, 0.00885523296892643, -0.15802156925201416, -0.0869353711605072, 0.06786158680915833, 0.25208228826522827, 0.05870747193694115, 0.007595815230160952, 0.011162632144987583, -0.2256372720003128, -0.04659000039100647, -0.03735249862074852, 0.438383013010025, -0.17417767643928528, 0.47449854016304016, -1.0233898162841797, -1.064225435256958, -0.22845514118671417, 0.44719576835632324, -0.405251681804657, 0.24163782596588135, 0.3874964714050293, -0.427568256855011, 0.2713165879249573, -0.02308460883796215, -0.566103994846344, -0.028324127197265625, -0.3415888249874115, -0.1621522754430771, -0.12525221705436707, 0.14168797433376312, -0.15012428164482117, -0.021990882232785225, 0.026932379230856895, 0.12929557263851166, -0.5248587727546692, -0.5333496928215027, -0.0823158472776413, -0.14561128616333008, 0.10514315962791443, 0.15663917362689972, -0.13143372535705566, 0.05776748061180115, -0.048789747059345245, -0.13161082565784454, -0.25076356530189514, -0.01726328209042549, -0.42232173681259155, 0.0023956403601914644, 0.09181295335292816, 0.1477990448474884, -0.1447277069091797, -0.019409731030464172, -0.0119172940030694, -0.15513722598552704, 0.2008042335510254, -0.09639246016740799, 0.14035026729106903, 0.12465310841798782, 0.014041552320122719, 0.018345916643738747, 0.29689040780067444, 0.03476494923233986, -0.08327159285545349, 0.35545840859413147, -0.21551398932933807, -0.3529081344604492, 0.12020751088857651, 0.3011099398136139, -0.12324570119380951, -0.12176637351512909, -0.1297718584537506, -0.008779271505773067, -0.08978457003831863, 0.0630946010351181, 0.2666633725166321, -0.23197713494300842, 0.16533581912517548, -0.010596287436783314, 0.23348619043827057, 0.1459415853023529, 0.2661134898662567, 0.3928312063217163, -0.0949944481253624, -0.31002116203308105, -0.1851114183664322, -0.0756184533238411, -0.34010958671569824, 0.2749103903770447, 0.23734143376350403, -0.08535291999578476, -0.4458126127719879, 0.21803458034992218, -0.09632781893014908, -0.04729558899998665, 0.12155676633119583, 0.20250260829925537, -0.08499718457460403, 0.021885938942432404, -0.16638101637363434, 0.2523115277290344, 0.09959635883569717, 0.13293275237083435, 0.1615888476371765, -0.11861041188240051, -0.19534838199615479, -0.19335901737213135, -0.12592200934886932, -0.21085788309574127, 0.09250256419181824, 0.21938161551952362, 0.21446935832500458, -0.10465238243341446, 0.23049233853816986, -0.010341178625822067, 0.05686132237315178, 0.15024778246879578, 0.17879727482795715, -0.28283071517944336, 0.35052043199539185, -0.019072165712714195, -0.1338377743959427, -0.26848888397216797, 0.16082900762557983, -0.1405138224363327, -0.17162460088729858, -0.05443645268678665, -0.031509459018707275, 0.1780022531747818, -0.035913947969675064, 0.11171272397041321, 0.13628850877285004, -0.03454502299427986, 0.0384737029671669, 0.09929995238780975, -0.01888846419751644, 0.17193569242954254, 0.06539162248373032, 0.1881275624036789, -0.20867609977722168, -0.11989488452672958, 0.2812158465385437, -0.08840841799974442, 0.1993112862110138, 0.5529394745826721, -0.2649853229522705, 0.0997299924492836, 0.3469802439212799, 0.25522580742836, -0.06915382295846939, 0.08601101487874985, 0.07124403864145279, -0.1299760937690735, -0.01010694820433855, 0.2733440101146698, 0.16856902837753296, -0.3024630844593048, 0.04761302098631859, -0.03973730280995369, 0.018939701840281487, 0.3029480278491974, 0.03924812749028206, -0.0955093502998352, -0.07955751568078995, 0.0663667619228363, 0.03337477520108223, -0.01855887845158577, -0.11035802960395813, 0.08123692870140076, 0.022860249504446983, -0.008159554563462734, 0.05538668856024742, 0.08324047178030014, 0.1920253038406372, 0.12185784429311752, -0.024278385564684868, -0.06282475590705872, 0.0013794251717627048, 0.0003122490888927132, -0.21129761636257172, -0.24460721015930176, -0.11341481655836105, 0.18293210864067078, -0.17389363050460815, 0.19690901041030884, 0.03710634633898735, 0.10774069279432297, -0.053200509399175644, -0.18886855244636536, 0.053388528525829315, -0.21156693994998932, -0.1486010104417801, -0.07153136283159256, -0.018220113590359688, 0.021561235189437866, -0.1851007044315338, 0.38524124026298523, -0.013774925842881203, -0.09414440393447876, -0.04217756167054176, -0.16378888487815857, 0.15858891606330872, 0.04195967689156532, -0.06383760273456573, 0.10715588927268982, -0.06231096759438515, -0.17306703329086304, -0.18181708455085754, -0.17181776463985443, -0.2094746232032776, -0.04610109701752663, 0.1966017186641693, -0.0674949437379837, 0.24415726959705353, 0.3607388436794281, 0.2511163651943207, -0.19297616183757782, 0.3002653419971466, -0.27795252203941345, -0.008793842978775501, -0.03341485559940338, 0.2301047295331955, 0.11223511397838593, 0.25511813163757324, -0.08755287528038025, 0.02738305740058422, -0.2001008689403534, -0.03675248473882675, 0.3239534795284271, 0.056639011949300766, -0.21479029953479767, -0.20711643993854523, -0.0298016294836998, 0.06207042559981346, 0.07353519648313522, -0.20241743326187134, -0.10686765611171722, 0.2165917307138443, 0.07928504049777985, 0.2777250409126282, 0.04634628817439079, 0.11006719619035721, -0.012279422953724861, 0.04727077856659889, 0.05828085169196129, 0.2130832076072693, -0.04185926169157028, -0.2028849571943283, -0.14038875699043274, -0.1959443986415863, -0.034310054033994675, -0.06364575773477554, 0.272869735956192, -0.1310386061668396, 0.0689006969332695, 0.10134099423885345, -0.17843346297740936, -0.05563027039170265, 0.15806500613689423, 0.2656969428062439, -0.09983748197555542, 0.08172301948070526, -0.2617154121398926, 0.056212328374385834, -0.044426944106817245, -0.0030175026040524244, -0.05835322290658951, 0.1668258160352707, -0.12896858155727386, 0.1894235759973526, -0.22787362337112427, -0.1576983630657196, 0.09375569969415665, -0.21765637397766113, 0.3563361167907715, -0.5092489719390869, -0.08899148553609848, 0.14711993932724, -0.20446215569972992, -0.1551687866449356, 0.146277517080307, 0.12649503350257874, 0.2173398733139038, -0.14628049731254578, -0.2514442503452301, 0.03184911981225014, 0.03370155394077301, -0.07838250696659088, 0.02995866909623146, -0.048308856785297394, 0.03065444529056549, 0.05912109464406967, -0.07246118038892746, 0.10285621136426926, 0.12015044689178467, 0.07517825812101364, -0.042185861617326736, -0.25212204456329346, -0.07846897095441818, 0.10408995300531387, 0.1127559170126915, 0.07862746715545654, -0.12729167938232422, 0.3165855407714844, 0.17030459642410278, 0.12778781354427338, -0.08875399082899094, 0.13056543469429016, -0.1410977691411972, 0.07938648760318756, 0.13820403814315796, -0.08068984001874924, 0.04620689898729324, 0.05290104076266289, -0.16361376643180847, 0.16249291598796844, -0.08901571482419968, 0.11143722385168076, -0.005782160442322493, 0.184078648686409, -0.006821187678724527, 0.24433380365371704, 0.28965920209884644, 0.1823817640542984, -0.07584986090660095, 0.04007666930556297, -0.06907211989164352, 0.1277064085006714, 0.0436868779361248, 0.3212294578552246, 0.16785235702991486, 0.1657640039920807, -0.33270636200904846, -0.20015142858028412, -0.32789939641952515, -0.3089653551578522, 0.06008649617433548, 0.22846566140651703, 0.19346244633197784, -0.006575579755008221, 0.16798707842826843, -0.10324974358081818, 0.13355229794979095, -0.3361682891845703, -0.03289792314171791, -0.1021227017045021, -0.023625878617167473, -0.08706559985876083, 0.07290934026241302, -0.005874749273061752, 0.1470184624195099, -0.0411573126912117, -0.0014564687153324485, -0.08121994137763977, -0.17038960754871368, -0.09797103703022003, 0.11439862847328186, 0.05578047037124634, 0.07738594710826874, 0.2616966962814331, 0.19348476827144623, -0.054528407752513885, -0.08460886776447296, 0.08332314342260361, 0.012676062993705273, -0.19060346484184265, -0.12737703323364258, 0.03162552788853645, 0.28276142477989197, -0.12084725499153137, -0.04073034226894379, -0.23623400926589966, -0.08210811018943787, 0.07494762539863586, 0.24453118443489075, 0.12714803218841553, 0.05838195979595184, -0.2151663452386856, 0.020434889942407608, -0.21573486924171448, 0.24948111176490784, -0.11088798940181732, -0.056795332580804825, 0.14594481885433197, -0.02728610299527645, -0.12367558479309082, 0.15151265263557434, -0.05522441491484642, -0.03158775344491005, 0.21334046125411987, 0.23463208973407745, 0.014092570170760155, -0.15361464023590088, 0.1153997927904129, -0.07391583919525146, -0.20528464019298553, -0.03630797564983368, 0.13980726897716522, 0.18882659077644348, 0.04184623807668686, 0.4321654736995697, -0.16806352138519287, -0.02368943579494953, 0.0005354458116926253, -0.16224394738674164, -0.15910866856575012, 0.06341215968132019, 0.029693903401494026, -0.007737891748547554, -0.106142558157444, -0.026029672473669052, 0.16395318508148193, 0.2090435028076172, 0.20827524363994598, 0.0018802281701937318, -0.07568813860416412, -0.2301979660987854, -0.12309040874242783, -0.20099633932113647, -0.008817292749881744, 0.08571349829435349, 0.044215794652700424, -0.26933932304382324, -0.056975431740283966, -0.34582439064979553, 0.30413922667503357, 0.10130610316991806, -0.0266212560236454, -0.06746654957532883, 0.06029293313622475, -0.06041911616921425, 0.09268712997436523, 0.06936658173799515, 0.019510777667164803, -0.07462993264198303, 0.20312191545963287, 0.2056192010641098, -0.0956156998872757, -0.057852890342473984, -0.0999673381447792, 0.2521468997001648, -0.19276930391788483, -0.16021336615085602, 0.17195050418376923, -0.06492781639099121, 0.15079417824745178, 0.5932801961898804, 0.06297148019075394, 0.06675828248262405, -0.612080454826355, 0.17628782987594604, 0.1441597044467926, -0.16419894993305206, -0.08843355625867844, 0.02507714554667473, 0.31108248233795166, -0.012138030491769314, 0.03148471936583519, 0.14123670756816864, -0.009798232465982437, 0.0741063803434372, 0.24050070345401764, 0.17796768248081207, -0.05819980800151825, -0.10360801219940186, 0.026468845084309578, -0.14698392152786255, -0.06889187544584274, 0.08652627468109131, 0.029031412675976753, -0.0326559878885746, -0.2859343886375427, -0.10922103375196457, 0.37977492809295654, 0.05769792199134827, 0.05494625121355057, -0.0467546321451664, -0.09825265407562256, -0.09604135155677795, -0.1521981954574585, 0.09840171784162521, 0.11369748413562775, -0.1520082950592041, 0.03944118693470955, 0.13796283304691315, -0.2715780436992645, -0.059917423874139786, -0.08438017964363098, 0.22533684968948364, -0.18529297411441803, -0.09734776616096497, 0.19961245357990265, -0.04587501659989357, 0.0007538292557001114, 0.28644633293151855, -0.008736795745790005, 0.2078152298927307, 0.016912737861275673, 0.1374898999929428, 0.03101739101111889, 0.022269779816269875, -0.09626232832670212, 0.08932057023048401, 0.045595988631248474, 0.06156650558114052, 0.0319991372525692, 0.1548379361629486, 0.01881408877670765, -0.08192086964845657, -0.020035970956087112, 0.19747895002365112, 0.03235338255763054, -0.1120457798242569, -0.06722211092710495, -0.03756486624479294, 0.019184166565537453, 0.12185254693031311, 0.005890621338039637, 0.02063750848174095, 0.045869797468185425, -0.0562775693833828, 0.23833568394184113, 0.06012764945626259, 0.007301940117031336, -0.1143108606338501, 0.12330064177513123, -0.053290609270334244, -0.22786813974380493, -0.047102075070142746, 0.1076737642288208, -0.12316803634166718, 0.048966966569423676, 0.11915060877799988, -0.105942502617836, -0.13791769742965698, -0.14538542926311493, 0.035876430571079254, -0.19226978719234467, -0.15088428556919098, 0.2537151873111725, -0.15897110104560852, 0.020146315917372704, -0.014818335883319378, -0.17540208995342255, -0.040316518396139145, 0.0070070973597466946, -0.10098472237586975, 0.07175926864147186, 0.07783592492341995, -0.2523399591445923, -0.006246065720915794, -0.018727175891399384, -0.0973605141043663, 0.009626246057450771, 0.08964066952466965, -0.023012258112430573, -0.15922808647155762, -0.15285341441631317, 0.04281134158372879, -0.18330778181552887, -0.044149305671453476, 0.03559764102101326, 0.1504606455564499, 0.10782741010189056, -0.16876326501369476, -0.19809921085834503, 0.1431189924478531, -0.09710146486759186, 0.06955701112747192, -0.3172478973865509, 0.15023542940616608, 0.059504903852939606, 0.01832709088921547, -0.3821932375431061, 0.10088968276977539, -0.01212473027408123, -0.0792500302195549, -0.21621523797512054, -0.13276633620262146, -0.1950906664133072, -0.07359512150287628, 0.06504805386066437, 0.12532691657543182, 0.029116526246070862, -0.12125086784362793, 0.07427322119474411, 0.13696715235710144, -0.272760272026062, 0.08610737323760986, 0.04915351793169975, -0.10068119317293167, -0.059867601841688156, -0.08034159988164902, 0.012075012549757957, -0.08838484436273575, -0.028687017038464546, 0.2411070019006729, -0.07721463590860367, -0.1359969675540924, -0.17966371774673462, 0.053313061594963074, 0.12534180283546448, -0.048451561480760574, 0.18259023129940033, 0.11857229471206665, 0.04244516044855118, 0.005642876960337162, 0.062473829835653305, 0.21681594848632812, -0.15756472945213318, -0.038192182779312134, 0.04855651780962944, -0.17863211035728455, -0.0501207634806633, 0.11132438480854034, 0.09297449141740799, 0.09044250845909119, -0.26670482754707336, -0.049637455493211746, 0.09550034999847412, -0.023359987884759903, 0.02673623152077198, -0.4464728534221649, 0.047372542321681976, -0.14892540872097015, 0.049268610775470734, 0.14086340367794037, 0.04407304525375366, 0.051220521330833435, 0.17137639224529266, 0.0006986133521422744, 