{"version": "0.5.4", "metadata": {"date": {"year": 2025, "month": 12, "day": 14, "hour": 16, "minute": 57, "second": 34}, "loudness": -12.593216896057129, "gain": 0.764411492529309}, "architecture": "WaveNet", "config": {"layers": [{"input_size": 1, "condition_size": 1, "head_size": 8, "channels": 16, "kernel_size": 3, "dilations": [1, 2, 4, 8, 16, 32, 64, 128, 256, 512], "activation": "Tanh", "gated": false, "head_bias": false}, {"input_size": 16, "condition_size": 1, "head_size": 1, "channels": 8, "kernel_size": 3, "dilations": [1, 2, 4, 8, 16, 32, 64, 128, 256, 512], "activation": "Tanh", "gated": false, "head_bias": true}], "head": null, "head_scale": 0.02}, "weights": [-0.036834124475717545, 0.5532990097999573, -0.9589007496833801, -0.8048317432403564, -0.32000279426574707, 0.20702354609966278, 0.007127509452402592, 0.7870328426361084, -0.268097460269928, 0.2956874370574951, -0.17586880922317505, -0.15289123356342316, -0.8983395099639893, -0.6815620064735413, -0.2618490159511566, 0.17337572574615479, 0.14636261761188507, 0.3338810205459595, -0.31779205799102783, -0.12283908575773239, -0.20771963894367218, 0.2799653708934784, 0.008351827971637249, 0.3725564181804657, -0.17263317108154297, 0.06420466303825378, 0.3886408805847168, -0.290120393037796, -0.02352907508611679, 0.21861203014850616, -0.21985487639904022, 0.07277387380599976, -0.349757581949234, 0.09409581124782562, -0.011135732755064964, 0.036435265094041824, -0.2581086754798889, 0.07516525685787201, -0.19867613911628723, 0.2221127152442932, 0.08152589201927185, 0.20670324563980103, -0.15711709856987, -0.18025295436382294, -0.3474351763725281, 0.09975841641426086, 0.13373348116874695, 0.3307052254676819, -0.2202339619398117, 0.05792779102921486, 0.3362545669078827, -0.03648880496621132, 0.10516471415758133, 0.2765369117259979, -0.06386762112379074, -0.028962286189198494, 0.28554531931877136, -0.26784998178482056, -0.04896173253655434, 0.18254917860031128, -0.08862615376710892, -0.05509510263800621, -0.3034675121307373, 0.2897961139678955, -0.1706678420305252, 0.13375410437583923, -0.1806953102350235, 0.26158690452575684, -0.09461532533168793, 0.26170817017555237, -0.3309730291366577, 0.13617272675037384, -0.06074856221675873, -0.10680990666151047, 0.3096963167190552, 0.005579498130828142, -0.20006076991558075, 0.061446718871593475, -0.11514094471931458, 0.12250297516584396, -0.32304927706718445, 0.23631195724010468, 0.029012145474553108, 0.032253459095954895, -0.12997615337371826, 0.1949426382780075, -0.2099286913871765, 0.04993271455168724, -0.16252654790878296, 0.13216285407543182, -0.06358148902654648, 0.2926184833049774, -0.07859694957733154, 0.17808547616004944, -0.3505129814147949, 0.08015827089548111, -0.05443429574370384, -0.1992313712835312, 0.05891438201069832, -0.2194320112466812, -0.09115507453680038, 0.2783796489238739, -0.18098893761634827, -0.25556668639183044, 0.053623706102371216, -0.11990345269441605, -0.32667240500450134, 0.06839030981063843, -0.12989689409732819, 0.2932818830013275, -0.24336907267570496, 0.25382235646247864, -0.10947974771261215, 0.1348079890012741, 0.2379784733057022, -0.050595737993717194, -0.009599074721336365, -0.09088853746652603, -0.05469691753387451, -1.1772121069952846e-05, 0.13975080847740173, -0.06537268310785294, -0.09744825959205627, 0.16174878180027008, -0.1958906054496765, -0.10083205252885818, 0.06736821681261063, 0.004028393421322107, -0.026864098384976387, -0.2192433476448059, -0.06657184660434723, -0.0006601426866836846, -0.06149180233478546, 0.06791109591722488, 0.12919023633003235, -0.1103929728269577, -0.05523413047194481, -0.011524129658937454, 0.1702212244272232, 0.15236803889274597, 0.14454616606235504, -0.024877941235899925, 0.07352384179830551, -0.02692684531211853, -0.03086983785033226, -0.12514647841453552, 0.0812491923570633, 0.10679500550031662, -0.14394500851631165, -0.13785144686698914, -0.03893149271607399, -0.19043366611003876, -0.05384054407477379, 0.176435187458992, 0.011534196324646473, -0.15953314304351807, 0.1763732135295868, -0.06520594656467438, -0.04853573814034462, -0.2336818426847458, 0.011218319647014141, 0.06585703790187836, -0.21652573347091675, -0.18478721380233765, -0.10641661286354065, 0.0769568458199501, -0.01206379197537899, 0.14126823842525482, -0.18985386192798615, 0.04980672150850296, 0.21036627888679504, -0.12991668283939362, 0.18669424951076508, 0.12514536082744598, -0.20876090228557587, 0.03568616881966591, -0.09782373905181885, 0.016914306208491325, 0.05954287573695183, -0.10199698805809021, -0.015583815053105354, -0.08753100037574768, 0.015968849882483482, 0.11396798491477966, 0.10880821198225021, 0.12323199957609177, -0.13466776907444, -0.08105055242776871, -0.1843542456626892, 0.16946306824684143, 0.15256984531879425, 0.16891132295131683, -0.17510245740413666, 0.060791004449129105, -0.023108139634132385, -0.1645822823047638, -0.021909186616539955, 0.1343526542186737, -0.15557976067066193, 0.055230673402547836, 0.08832534402608871, 0.013658993877470493, -0.05610932037234306, -0.015959953889250755, -0.14935873448848724, 0.028343025594949722, -0.10025427490472794, 0.26075679063796997, -0.20843996107578278, 0.30302169919013977, 0.12918929755687714, 0.20372729003429413, -0.2713305950164795, -0.17893360555171967, -0.22713220119476318, 0.3014487624168396, 0.03311343491077423, -0.2996446490287781, 0.4022095501422882, 0.03357478976249695, -0.24598611891269684, 0.42887890338897705, 0.19636270403862, 0.22308145463466644, -0.40766608715057373, -0.07787079364061356, -0.16448569297790527, 0.20618322491645813, 0.016105202957987785, 0.20239296555519104, -0.28386038541793823, -0.03064454160630703, -0.2142055630683899, 0.4287078380584717, 0.23567377030849457, 0.14520637691020966, -0.21771569550037384, -0.23858331143856049, -0.28972500562667847, 0.30618882179260254, 0.17944423854351044, -0.13398534059524536, 0.23103012144565582, 0.13572338223457336, -0.15363268554210663, 0.14940886199474335, 0.2484886795282364, -0.34244927763938904, 0.2891489863395691, 0.12347760796546936, -0.3098525404930115, 0.2862410247325897, 0.24755245447158813, 0.2388094663619995, -0.39639413356781006, -0.17772088944911957, -0.21552160382270813, 0.11119383573532104, 0.07264114916324615, 0.022874927148222923, -0.1073228195309639, -0.021891377866268158, -0.04786580428481102, 0.13112790882587433, 0.1428097039461136, -0.16934888064861298, -0.014208738692104816, 0.14247964322566986, 0.00496368994936347, 0.06886237114667892, 0.038584254682064056, 0.05048830434679985, -0.16861215233802795, -0.07999850064516068, -0.07133763283491135, -0.05922900512814522, 0.20419590175151825, 0.030508073046803474, -0.04299508407711983, -0.06198916211724281, -0.10290522128343582, -0.034726981073617935, 0.027374714612960815, 0.22438445687294006, -0.015040594153106213, 0.0017833352321758866, -0.1520589292049408, 0.07383248955011368, 0.06577098369598389, -0.11319130659103394, -0.05386212468147278, 0.15778982639312744, -0.07742013782262802, 0.020123589783906937, 0.0671323835849762, -0.20574186742305756, 0.1257423460483551, -0.000339418591465801, -0.05489569529891014, -0.022691717371344566, 0.02339239791035652, 0.13643813133239746, -0.11980532109737396, -0.13237732648849487, -0.005360668990761042, -0.11742023378610611, 0.18479189276695251, 0.1299874633550644, 0.08890949934720993, -0.14095142483711243, -0.18539541959762573, -0.06360530108213425, 0.1550336629152298, -0.12374664843082428, 0.016289038583636284, 0.21260206401348114, -0.1385728120803833, -0.023284485563635826, 0.18793712556362152, 0.07884491980075836, 0.03927861899137497, -0.11149332672357559, -0.10937052965164185, 0.013347511179745197, 0.17800895869731903, 0.19970101118087769, 0.11967821419239044, -0.09912578761577606, 0.006074037402868271, -0.08141127973794937, 0.048281118273735046, -0.057617269456386566, 0.15919582545757294, -0.048081640154123306, -0.15609213709831238, 0.02732870541512966, 0.21881473064422607, 0.0799114778637886, 0.10226239264011383, 0.24456378817558289, -0.10529817640781403, -0.08765249699354172, 0.2318977564573288, 0.007529698312282562, -0.11860658973455429, 0.24928957223892212, 0.004110072739422321, 0.044258393347263336, 0.021873174235224724, 0.1132519468665123, -0.05984627455472946, -0.109630286693573, -0.02786226011812687, -0.0965925008058548, 0.00039563444443047047, 0.09241471439599991, 0.10764379799365997, 0.09710872918367386, -0.11655674129724503, -0.1278001070022583, -0.13466104865074158, -0.1658608615398407, -0.2711741328239441, 0.08004238456487656, 0.044445402920246124, -0.01354994811117649, 0.09211820363998413, -0.10331424325704575, 0.057966042309999466, 0.0024732593446969986, -0.1401630938053131, -0.09276121109724045, -0.300434947013855, -0.04296204820275307, 0.022327838465571404, -0.048124637454748154, 0.0943531021475792, -0.04345608875155449, 0.08607948571443558, 0.12970852851867676, 0.2677192986011505, -0.021901149302721024, 0.049633923918008804, -0.022140588611364365, 0.015633920207619667, 0.11588598787784576, -0.07214006036520004, 0.07165856659412384, -0.07834342122077942, -0.09082382172346115, -0.01699838601052761, -0.06250284612178802, -0.23603332042694092, -0.10841198265552521, -0.12748101353645325, -0.053633540868759155, 0.06973079591989517, 0.03711257502436638, 0.029607906937599182, 0.07233098149299622, 0.14421792328357697, -0.0873844176530838, -0.005162863526493311, 0.11519253253936768, 0.17087900638580322, -0.14424896240234375, 0.14270059764385223, -0.0044070053845644, -0.017493680119514465, 0.08740440756082535, -0.19296374917030334, 0.016392957419157028, 0.13915246725082397, -0.10473590344190598, -0.060797225683927536, -0.05603992938995361, 0.06522803008556366, -0.0788290873169899, 0.013329777866601944, 0.023455653339624405, -0.006834289990365505, -0.0934031680226326, 0.11700530350208282, 0.024248138070106506, 0.09089726954698563, -0.23008260130882263, 0.04237079620361328, -0.12238650768995285, 0.037765469402074814, -0.009200921282172203, -0.08049772679805756, -0.04033878073096275, 0.16904008388519287, 0.03378048166632652, -0.1940935254096985, 0.0012145143700763583, 0.03863832354545593, -0.22054077684879303, 0.1069636344909668, -0.11798647046089172, -0.24598908424377441, -0.09469001740217209, -0.010666917078197002, -0.0064893015660345554, -0.094248466193676, 0.07437664270401001, 0.06143762171268463, -0.03201130032539368, -0.04834725335240364, -0.09004645049571991, 0.18531732261180878, 0.1703551560640335, 0.13323411345481873, 0.03296473249793053, -0.19090889394283295, 0.11807557940483093, 0.03796577826142311, -0.03259487450122833, -0.1091093122959137, -0.003170543350279331, -0.22805647552013397, -0.04472414031624794, 0.06794723868370056, -0.017939768731594086, 0.030159449204802513, 0.02794715203344822, 0.13506001234054565, 0.07688441127538681, -0.0060017528012394905, 0.05580795183777809, 0.056545015424489975, 0.09843290597200394, 0.0004146543506067246, 0.020638253539800644, 0.11644314229488373, -0.04776117950677872, -0.13806533813476562, 0.014281178824603558, -0.16251051425933838, 0.07877574115991592, -0.06099039316177368, -0.15302246809005737, -0.09904377162456512, 0.12170128524303436, -0.11377064138650894, 0.11039979755878448, 0.12317515909671783, -0.018140587955713272, 0.012060292065143585, -0.0024199734907597303, -0.12281250208616257, 0.020457934588193893, 0.09901558607816696, -0.0007906515384092927, 0.08151444792747498, -0.08930108696222305, -0.33567699790000916, -0.16754049062728882, 0.2500799596309662, 0.3569636344909668, -0.04168081283569336, -0.0074424599297344685, -0.14126284420490265, -0.005257044918835163, 0.21971385180950165, -0.2938620448112488, -0.03967250883579254, 0.16756965219974518, -0.2684158682823181, -0.03566186875104904, 0.06837475299835205, 0.3011677861213684, 0.042850494384765625, -0.16373136639595032, 0.02060045674443245, -0.011490502394735813, 0.03320019319653511, 0.2254578322172165, 0.16320781409740448, -0.12448835372924805, -0.18146242201328278, -0.1154233068227768, 0.1804204136133194, 0.10361785441637039, -0.014550934545695782, -0.19584307074546814, -0.0689629539847374, -0.10797815024852753, 0.11436069756746292, -0.2888822853565216, 0.05817533656954765, 0.25195327401161194, -0.3245387375354767, -0.1964835375547409, 0.002919101156294346, -0.22042052447795868, -0.1171124130487442, 0.019869443029165268, -0.2628585696220398, -0.053748540580272675, 0.03093015030026436, 0.2925063967704773, 0.028469637036323547, -0.21002060174942017, 0.3130747675895691, -0.07073376327753067, -0.024649538099765778, -0.27171242237091064, 0.1445763111114502, 0.09527484327554703, 0.13790440559387207, -0.3264900743961334, 0.17404663562774658, 0.18441598117351532, -0.17058588564395905, 0.021241717040538788, 0.24373097717761993, -0.23489613831043243, 0.1345190405845642, -0.2549610137939453, 0.06712445616722107, -0.10428246855735779, 0.07867638766765594, -0.15682372450828552, -0.027112944051623344, -0.1352744996547699, 0.16354654729366302, -0.053379375487565994, 0.37236642837524414, -0.1753319352865219, 0.13166411221027374, -0.18694041669368744, 0.15453031659126282, -0.12381723523139954, 0.24529482424259186, -0.06568091362714767, -0.0155612388625741, 0.14879964292049408, -0.12967228889465332, 0.18248538672924042, 0.23407740890979767, -0.30964767932891846, -0.09305386245250702, 0.3048788607120514, -0.21010586619377136, -0.04016437754034996, 0.2976771593093872, -0.132135272026062, 0.1528312861919403, -0.21755506098270416, 0.22417601943016052, -0.1898828148841858, -0.07334902882575989, -0.07549171149730682, 0.17168407142162323, 0.034150611609220505, 0.08718494325876236, 0.07034986466169357, 0.1680244505405426, -0.08963358402252197, -0.0728907659649849, -0.024988370016217232, -0.31090638041496277, 0.18905478715896606, -0.03146985545754433, -0.2651658356189728, 0.14062348008155823, -0.0930527001619339, 0.14110490679740906, -0.07493243366479874, -0.05083530768752098, -0.269170880317688, 0.2817571461200714, -0.08976173400878906, 0.2637008726596832, 0.07024592906236649, 0.10347845405340195, -0.20152707397937775, 0.21393825113773346, -0.015398097224533558, 0.13129563629627228, 0.058343321084976196, 0.0706668496131897, -0.33499425649642944, 0.015652364119887352, -0.06066072732210159, -0.0705796629190445, 0.056131210178136826, -0.10138887912034988, -0.220652773976326, 0.14193527400493622, 0.06362567842006683, -0.1660870611667633, 0.07128729671239853, 0.08794821798801422, -0.23431487381458282, -0.001078827423043549, -0.1529812067747116, 0.07597968727350235, -0.10327304899692535, -0.1870000958442688, 0.20643983781337738, -0.08610155433416367, 0.0864814892411232, -0.2932274043560028, 0.2429078370332718, -0.1593349277973175, 0.3191719949245453, -0.21368315815925598, -0.1078898087143898, 0.2811568081378937, -0.16146761178970337, 0.03842257335782051, 0.10091040283441544, -0.2322581261396408, 0.00990575272589922, -0.17578719556331635, 0.23622453212738037, -0.08071903139352798, 0.26469340920448303, 0.0055318656377494335, 0.042097534984350204, -0.09967641532421112, -0.0051909019239246845, -0.06465129554271698, 0.34266260266304016, -0.13643530011177063, 0.18972277641296387, -0.23428241908550262, 0.2342544049024582, -0.22070546448230743, 0.16226992011070251, -0.1355932503938675, -0.04030531272292137, 0.24047046899795532, -0.015266261994838715, -0.09431932121515274, 0.19768352806568146, -0.0060546561144292355, -0.1118512898683548, 0.32636338472366333, -0.1986982375383377, -0.09905559569597244, 0.18015660345554352, -0.047201886773109436, 0.1946299970149994, -0.2082352340221405, 0.05005998909473419, -0.2951243817806244, -0.24713245034217834, -0.05883463844656944, 0.2299039512872696, 0.32768237590789795, 0.2125474214553833, -0.29695042967796326, -0.3668100833892822, 0.025624150410294533, -0.41632434725761414, -0.20408384501934052, -0.05774486064910889, -0.38314470648765564, -0.18141454458236694, -0.201944038271904, 0.3395013213157654, 0.14580784738063812, 0.06661757826805115, -0.04995281994342804, 0.09877172857522964, -0.12550970911979675, 0.40127620100975037, 0.22186939418315887, 0.014838682487607002, -0.4524266719818115, -0.38073834776878357, 0.04214193671941757, 0.2849089801311493, 0.25429314374923706, 0.12673699855804443, -0.22188454866409302, -0.12977783381938934, 0.02044958807528019, -0.42414525151252747, -0.2635576128959656, -0.16460956633090973, -0.39302536845207214, -0.2037263661623001, 0.05147748813033104, -0.42614051699638367, -0.15272685885429382, -0.15485398471355438, -0.33763548731803894, -0.12012112140655518, -0.10676047950983047, 0.34961172938346863, 0.11484930664300919, 0.17173510789871216, 0.037705954164266586, -0.379996657371521, 0.18090087175369263, -0.11687008291482925, 0.17567172646522522, -0.08931063115596771, 0.1396394670009613, -0.33358344435691833, 0.150352343916893, 0.14145854115486145, -0.19898857176303864, 0.017374850809574127, 4.063576852786355e-06, -0.32554855942726135, -0.009354710578918457, -0.025426339358091354, 0.3924940228462219, 0.023542441427707672, -0.0025809642393141985, -0.19237881898880005, 0.11207430064678192, 0.08732406049966812, 0.23420915007591248, -0.18345974385738373, 0.05271032080054283, -0.22414568066596985, -0.017733637243509293, 0.10235627740621567, 0.3276243507862091, -0.20236355066299438, -0.003207325004041195, -0.15641850233078003, -0.02403837814927101, -0.011199473403394222, -0.22101478278636932, -0.004325407091528177, 0.0953424945473671, -0.21699519455432892, 0.17581240832805634, -0.07147407531738281, -0.1497812122106552, 0.007785795722156763, 0.1675931066274643, -0.41118091344833374, -0.03276228532195091, 0.05892496556043625, 0.26127418875694275, -0.18366141617298126, -0.06610401719808578, -0.06434502452611923, -0.002552348654717207, -0.08747795224189758, 0.025371219962835312, 0.052897706627845764, -0.021021593362092972, -0.019661039113998413, 0.10551121830940247, 0.11787852644920349, -0.01710725575685501, -0.007699139881879091, -0.021677445620298386, -0.056509118527173996, -0.17500531673431396, -0.06204820051789284, 0.5830169916152954, -0.3021981716156006, 0.6930486559867859, -0.6194823384284973, -0.1474103182554245, 0.7830617427825928, 0.8626428842544556, -0.524387001991272, 0.14157995581626892, 0.08199025690555573, -0.5596973299980164, -0.37041738629341125, 0.22205550968647003, -0.5823453068733215, 0.23784007132053375, 0.3419755697250366, -0.25055572390556335, -0.19716836512088776, -0.10406127572059631, 0.07783959805965424, 0.1507115513086319, -0.2564651072025299, 0.06216799467802048, 0.09033532440662384, -0.007097217720001936, -0.15153616666793823, 0.10584917664527893, 0.20979763567447662, 0.09208808839321136, -0.12429050356149673, 0.10424059629440308, 0.03792022541165352, 0.6478132009506226, -0.1688295304775238, -0.2638128995895386, 0.15780778229236603, -0.444652795791626, -0.09031840413808823, -0.2682892084121704, -0.28165677189826965, -0.0030228637624531984, 0.04559982940554619, -0.6856875419616699, 0.09061267226934433, -0.1588624119758606, -0.09824340045452118, 0.27660199999809265, -0.04654083400964737, 0.07440721988677979, 0.01416619960218668, -0.06841711699962616, 0.295118123292923, 0.04854125902056694, -0.18738436698913574, 0.039451971650123596, -0.3018810451030731, -0.17904967069625854, -0.2826036810874939, 0.09119736403226852, -0.12214479595422745, 0.09870941191911697, 0.4832792580127716, 0.40451905131340027, 0.01100501324981451, 0.0489196740090847, -0.16250444948673248, 0.0065849339589476585, -0.19790315628051758, -0.1916840523481369, -0.03303208202123642, -0.01830446533858776, 0.07332760095596313, -0.09905179589986801, -0.0808168426156044, 0.043024055659770966, 0.17123137414455414, 0.1566764861345291, 0.06412364542484283, -0.12435147166252136, 0.023934928700327873, -0.3169456124305725, -0.2616339325904846, -0.15684467554092407, 0.24636168777942657, -0.27067649364471436, 0.01341297011822462, 0.06423386931419373, -0.26292696595191956, 0.09873508661985397, 0.0803142786026001, -0.14978964626789093, 0.4455682635307312, 0.03783643618226051, -0.05768962204456329, -0.2836137115955353, 0.10247832536697388, -0.14251559972763062, -0.004384801723062992, 0.04622649773955345, 0.09578423947095871, 0.24992075562477112, 0.18093298375606537, 0.156844362616539, 0.0668993815779686, 0.144155353307724, -0.06857948005199432, -0.21347807347774506, -0.11340942233800888, 0.0005913623608648777, -0.1251666396856308, -0.13965168595314026, 0.0004503389063756913, 0.11918922513723373, 0.06098531559109688, 0.22295309603214264, 0.15421029925346375, -0.2612611651420593, -0.19732290506362915, 0.09411882609128952, 0.004208533093333244, 0.08487199991941452, -0.2422615885734558, -0.3253607749938965, 0.19689308106899261, 0.12025925517082214, -0.2017488181591034, 0.06759294867515564, -0.21273192763328552, 0.23745903372764587, 0.25633448362350464, 0.2977237105369568, -0.24408797919750214, -0.23539584875106812, 0.25000444054603577, 0.3213190734386444, 0.12737280130386353, 0.12296561151742935, -0.0454794317483902, 0.22151952981948853, -0.3435937464237213, 0.11527173966169357, -0.15484869480133057, -0.2378857135772705, 0.05064718797802925, -0.22317391633987427, -0.40544581413269043, -0.205326110124588, -0.2963245213031769, 0.19317243993282318, -0.21946652233600616, -0.11398264765739441, 0.06176571175456047, -0.14181150496006012, -0.2283947765827179, 0.26757869124412537, 0.43595752120018005, 0.09756460785865784, -0.2712266147136688, 0.16321687400341034, 0.1901201605796814, -0.2902359366416931, -0.09955830872058868, 0.38590550422668457, -0.40643128752708435, -0.5713083744049072, 0.1135730966925621, 0.3334987163543701, 0.004159627016633749, 0.308572381734848, 0.389489084482193, 0.2730328440666199, 0.1190660372376442, 0.4341369867324829, -0.29336532950401306, -0.15210342407226562, 0.2312556356191635, 0.2644735872745514, 0.27375373244285583, -0.15708759427070618, 0.10143120586872101, -0.03412356600165367, -0.12195061892271042, 0.09313604980707169, -0.011185994371771812, 0.03824790567159653, -0.13337697088718414, -0.1384173482656479, -0.1720339059829712, -0.12592902779579163, 0.20564405620098114, 0.23696839809417725, 0.22031237185001373, 0.19974009692668915, 0.07167349010705948, -0.12891170382499695, 0.3082178235054016, -0.12539717555046082, -0.2787381112575531, -0.28712978959083557, -0.27477431297302246, -0.2601972818374634, -0.5334569215774536, -0.28327861428260803, -0.04942585527896881, -0.25363218784332275, 0.4739171862602234, -0.2954157888889313, -0.41610509157180786, -0.1614796221256256, -0.2949923574924469, 0.06835199892520905, 0.0025348931085318327, -0.16149114072322845, -0.29295024275779724, -0.035100676119327545, 0.1930638700723648, 0.3307267129421234, -0.14158856868743896, -0.16504797339439392, 0.4309253394603729, 0.25352734327316284, -0.4017159044742584, -0.017268912866711617, 0.26332369446754456, -0.31553584337234497, -0.3464062809944153, -0.03734300658106804, 0.08636002987623215, -0.22719217836856842, 0.058183737099170685, 0.28443288803100586, 0.1976809799671173, -0.0013871939154341817, -0.12239756435155869, 0.16318321228027344, 0.2923867106437683, 0.008843821473419666, -0.21366196870803833, -0.1616736501455307, 0.3636450171470642, 0.15064096450805664, 0.27884477376937866, 0.09411944448947906, -0.19561098515987396, 0.3886987268924713, 0.2454528659582138, 0.3466634452342987, 0.2379399985074997, -0.2235306203365326, 0.3535514175891876, 0.1210634782910347, -0.32574349641799927, 0.27986079454421997, 0.29754728078842163, -0.1110919788479805, 0.05292624980211258, 0.056038130074739456, -0.0009991569677367806, 0.3948369026184082, -0.24837657809257507, -0.44834914803504944, 0.35682395100593567, 0.3087010383605957, 0.4032934308052063, 0.12042605876922607, 0.0624467134475708, 0.13483574986457825, -0.21948476135730743, 0.2739694118499756, -0.17699451744556427, 0.19395369291305542, 0.23540976643562317, 0.08960288763046265, -0.01805141381919384, 0.10383113473653793, -0.1940004974603653, -0.1563815325498581, -0.048787400126457214, 0.07332012802362442, -0.02380632795393467, 0.0695660412311554, -0.13470551371574402, 0.14068666100502014, -0.19163388013839722, -0.029347572475671768, 0.013809270225465298, 0.0550963319838047, 0.0032664292957633734, 0.08755678683519363, 0.03540307655930519, -0.12139171361923218, -0.047148119658231735, -0.5251058340072632, -0.050725869834423065, 0.032583702355623245, 0.14320634305477142, 0.056419678032398224, -0.2909165918827057, -0.01740519516170025, 0.03562889248132706, -0.3200899660587311, -0.18146385252475739, 0.3070029318332672, 0.3343849182128906, 0.19386185705661774, 0.2168901264667511, -0.1261368840932846, -0.42792949080467224, 0.13318303227424622, 0.07508223503828049, -0.18395383656024933, -0.39074525237083435, 0.018198203295469284, 0.32948386669158936, -0.08578193187713623, -0.21749688684940338, -0.10568755865097046, -0.3889116644859314, 0.22116416692733765, 0.0884784460067749, -0.10214642435312271, -0.2241768091917038, -0.0985843762755394, 0.27774620056152344, -0.40372997522354126, -0.0595322884619236, 0.5574604272842407, -0.1684282422065735, -0.09774228185415268, 0.48239779472351074, 0.14692163467407227, 0.5172542333602905, -0.2301938682794571, 0.21537113189697266, -0.13678252696990967, -0.3733985722064972, -0.002551065990701318, 0.07065040618181229, 0.1465998888015747, -0.1624758243560791, -0.22354567050933838, 0.10761990398168564, -0.09963589906692505, -0.0845370665192604, 0.2915423512458801, -0.22720621526241302, 0.044759176671504974, 0.051190368831157684, 0.035978738218545914, -0.11098205298185349, 0.148136168718338, -0.007737965323030949, -0.04100721701979637, -0.0805085152387619, -0.0084832813590765, -0.11157718300819397, -0.2605285346508026, 0.27132347226142883, 0.04844781383872032, -0.1339832842350006, -0.2818736433982849, 0.13132916390895844, -0.24630138278007507, 0.1917252093553543, 0.12342105805873871, -0.2702242136001587, -0.028820177540183067, -0.21590113639831543, -0.09927167743444443, -0.2480325996875763, -0.20897263288497925, 0.3136254847049713, -0.23531951010227203, -0.17655470967292786, 0.04033388942480087, -0.057000793516635895, -0.0662488117814064, 0.1076856404542923, 0.09312958270311356, 0.08144114911556244, -0.19560544192790985, 0.10721398144960403, 0.1949135810136795, -0.2835204005241394, -0.21886402368545532, -0.2572055757045746, -0.14168699085712433, 0.052960556000471115, 0.06733597815036774, 0.5104175806045532, -0.024414585903286934, 0.1440909504890442, -0.22719520330429077, 0.2601325511932373, 0.12001582980155945, 0.0062302048318088055, 0.2288495898246765, 0.11619693785905838, 0.09130806475877762, 0.05578746646642685, -0.04237578064203262, -0.3114435076713562, -0.35327932238578796, -0.49991345405578613, 0.3787921369075775, -0.17060258984565735, -0.1723477691411972, 0.3786512613296509, -0.2672675848007202, -0.479718953371048, 0.05138704180717468, -0.07971162348985672, 0.004684395622462034, 0.2411162108182907, -0.21751396358013153, -0.22898034751415253, 0.019901271909475327, 0.23130330443382263, 0.1677161455154419, -0.30012795329093933, -0.00864357315003872, -0.32282742857933044, 0.10055164247751236, -0.24275070428848267, -0.06554877012968063, -0.05750406160950661, 0.012771985493600368, -0.03636763244867325, -0.5070127248764038, -0.2577482759952545, 0.004903032910078764, 0.4730125665664673, 0.05354158207774162, -0.08627016097307205, 0.10987383127212524, -0.3149425983428955, 0.11008944362401962, 0.06253799796104431, 0.08699141442775726, 0.033944036811590195, -0.26064708828926086, 0.11585509777069092, 0.048669155687093735, -0.19162894785404205, -0.047479260712862015, -0.16319116950035095, -0.0929926186800003, -0.1190590113401413, 0.18863338232040405, 0.044343698769807816, 0.0336700901389122, -0.16487570106983185, 0.20140309631824493, -0.25613632798194885, 0.0033717546612024307, 0.12443914264440536, 0.37027692794799805, -0.40292540192604065, 0.12287788838148117, 0.0756787434220314, -0.23819005489349365, 0.10270913690328598, 0.14798301458358765, 0.049782514572143555, 0.026484183967113495, 0.2013855278491974, 0.1427261084318161, 0.043283648788928986, 0.3752015233039856, -0.13082443177700043, 0.14490649104118347, 0.3096076548099518, -0.3091942369937897, -0.021650180220603943, -0.017255442216992378, 0.02452845126390457, 0.16170936822891235, -0.06059969961643219, 0.029139753431081772, 0.15824627876281738, -0.012026508338749409, -0.07307673990726471, -0.034904081374406815, -0.0315803624689579, 0.17864713072776794, 0.08889036625623703, -0.1382485330104828, 0.10158178210258484, 0.010310254991054535, -0.20129090547561646, 0.11123720556497574, 0.1478985697031021, -0.12718532979488373, 0.02700679562985897, -0.07868839800357819, -0.009230143390595913, -0.12811501324176788, -0.1743229180574417, -0.09301351010799408, -0.08426213264465332, 0.030364740639925003, 0.0829358771443367, 0.11228075623512268, 0.028364360332489014, 0.07388100028038025, -0.06536353379487991, 0.024787621572613716, -0.006008671130985022, -0.08214462548494339, -0.013260080479085445, 0.23373255133628845, 0.11545344442129135, 0.16777785122394562, -0.19964200258255005, 0.07907217741012573, 0.13348989188671112, -0.34468358755111694, -0.1560726761817932, 0.20464737713336945, -0.20424222946166992, -0.04623323678970337, -0.049122970551252365, 0.1436944305896759, -0.20705300569534302, -0.1469639241695404, 0.17027601599693298, 0.013146067969501019, -0.09596632421016693, 0.09840857982635498, -0.31899693608283997, -0.09753984212875366, -0.5232738852500916, 0.041025374084711075, -0.03218063339591026, -0.35476523637771606, -0.2002096176147461, -0.30008798837661743, -0.030401352792978287, 0.11892085522413254, 0.027407919988036156, -0.13788025081157684, 0.17074690759181976, 0.13860411942005157, 0.46025052666664124, 0.36012348532676697, 0.3969472348690033, 0.0007787761860527098, -0.23729421198368073, 0.00484203826636076, 0.13286127150058746, -0.22694115340709686, 0.12351155281066895, 0.36344125866889954, 0.034921757876873016, -0.0829613134264946, 0.12431465834379196, -0.24046318233013153, -0.03988100215792656, -0.08949552476406097, -0.0826011523604393, -0.06933197379112244, 0.12226419895887375, 0.0757112056016922, 0.1168150007724762, 0.15060748159885406, 0.18340857326984406, 0.3364706337451935, 0.1796175241470337, -0.028806466609239578, 0.3442789912223816, 0.16755390167236328, 0.1566668450832367, -0.16273550689220428, -0.07504937797784805, -0.3041260242462158, -0.10505741089582443, -0.07923761755228043, 0.029156506061553955, -0.11539077758789062, 0.041680481284856796, 0.15417678654193878, 0.1884460598230362, -0.03967646136879921, -0.04980144649744034, 0.15113604068756104, 0.02028265781700611, -0.06748969852924347, -0.07627617567777634, -0.09694697707891464, 0.13143594563007355, -0.03621259331703186, 0.1799832284450531, -0.12429012358188629, 0.017265725880861282, 0.11187770962715149, 0.020510654896497726, 0.27036672830581665, 0.12301863729953766, 0.18038314580917358, 0.017833618447184563, -0.20376062393188477, -0.29967355728149414, -0.36902502179145813, 0.10730929672718048, 0.02653113193809986, -0.04407640919089317, -0.11787496507167816, -0.028893254697322845, 0.060799676924943924, -0.13053488731384277, 0.10046292096376419, 0.0546121820807457, -0.03955681622028351, -0.15710589289665222, 0.06917519122362137, -0.022225862368941307, -0.002627669833600521, -0.21501941978931427, -0.11094633489847183, -0.11027117073535919, -0.30679017305374146, -0.012600376270711422, -0.046112339943647385, -0.0705794095993042, -0.08782350271940231, 0.0009806930320337415, 0.18436889350414276, 0.0725884959101677, -0.09076932072639465, 0.026350297033786774, -0.14936542510986328, -0.06747544556856155, 0.11104964464902878, -0.18297994136810303, -0.11531161516904831, -0.1521865278482437, -0.03192673251032829, -0.09871046245098114, -0.1703324317932129, -0.03450366109609604, -0.04491350054740906, 0.017702315002679825, 0.039672307670116425, 0.031099136918783188, 0.15576592087745667, 0.17107854783535004, -0.00304088881239295, -0.0029822506476193666, 0.017677728086709976, -0.09147327393293381, 0.18614856898784637, 0.18858100473880768, 0.1361725628376007, -0.07687299698591232, 0.15343427658081055, -0.13944147527217865, 0.10632826387882233, -0.21319806575775146, -0.08819795399904251, 0.077726349234581, -0.008306258358061314, 0.10335713624954224, 0.0064089116640388966, -0.06965482980012894, 0.07128404080867767, -0.01138110738247633, 0.0708565041422844, 0.02898968569934368, -0.09105444699525833, 0.10181407630443573, 0.04214974492788315, 0.008355840109288692, 0.042096465826034546, 0.18111708760261536, -0.09537342190742493, -0.15721768140792847, -0.1978304237127304, -0.17757068574428558, 0.12523958086967468, 0.20958790183067322, 0.2662132978439331, 0.261201947927475, 0.059561651200056076, -0.013780146837234497, 0.2705742120742798, 0.11494544893503189, 0.12295690923929214, -0.18174375593662262, 0.017175843939185143, -0.09159991145133972, 0.12647895514965057, -0.1571393609046936, -0.15230289101600647, -0.2835973799228668, -0.1123625710606575, 0.08762527257204056, 0.034195587038993835, -0.010740945115685463, 0.13315923511981964, -0.06448465585708618, 0.05840086191892624, -0.13862188160419464, -0.05683642253279686, -0.006599506363272667, -0.09297794103622437, 0.17506486177444458, -0.04426531866192818, 0.03384777903556824, 0.07955052703619003, 0.08054785430431366, 0.04290757328271866, -0.03158515319228172, -0.05409480258822441, -0.19645994901657104, -0.12493891268968582, -0.11227185279130936, 0.18487590551376343, -0.18563546240329742, -0.06255222111940384, -0.0953034833073616, 0.08266722410917282, 0.17784155905246735, -0.02781633660197258, 0.02811344340443611, 0.03064170479774475, 0.20533661544322968, -0.10488053411245346, 0.0269660335034132, -0.12153978645801544, 0.024849755689501762, 0.0680510476231575, -0.09323981404304504, 0.15508884191513062, -0.14791682362556458, -0.027825389057397842, -0.05895978584885597, 0.2303118109703064, 0.10389582067728043, 0.21154645085334778, -0.16395963728427887, 0.1503632515668869, -0.19758190214633942, 0.006956088822335005, 0.21729516983032227, 0.009169135242700577, 0.21181948482990265, -0.22003455460071564, -0.13781403005123138, -0.07122311741113663, 0.14811091125011444, 0.009063204750418663, 0.026979468762874603, 0.09077686816453934, 0.06856957823038101, -0.11780575662851334, -0.06765569746494293, -0.04526795446872711, -0.22454625368118286, -0.14828787744045258, -0.07449352741241455, -0.18182241916656494, -0.10976595431566238, -0.2112496793270111, 0.03521210700273514, 0.012251916341483593, -0.07975064963102341, 0.009933658875524998, -0.022231800481677055, 0.17552760243415833, 0.18055304884910583, -0.06304489076137543, 0.010520922020077705, -0.07041732221841812, -0.1475568413734436, 0.05983529984951019, 0.16439324617385864, 0.3082873225212097, -0.226895272731781, -0.011373083107173443, 0.014271983876824379, -0.15536555647850037, -0.079796701669693, -0.13196614384651184, 0.008503579534590244, -0.1870594322681427, -0.1040971577167511, 0.07979833334684372, 0.19321344792842865, 0.20437155663967133, 0.006982525810599327, -0.05206538364291191, -0.12409932911396027, 0.14629854261875153, 0.34327560663223267, 0.32988229393959045, -0.0551753044128418, -0.15404686331748962, -0.20598027110099792, 0.29593420028686523, 0.29857781529426575, 0.2719004154205322, -0.04754595458507538, -0.019316114485263824, 0.07598966360092163, 0.04491748660802841, 0.18873357772827148, 0.12396495789289474, 0.09078814834356308, 0.06616602092981339, 0.10125748813152313, 0.0677628144621849, 0.2942170798778534, -0.0815415233373642, 0.14420846104621887, -0.14988133311271667, -0.17205016314983368, 0.041662171483039856, -0.0016343746101483703, -0.2199554741382599, -0.17063012719154358, -0.187278613448143, 0.03643278032541275, -0.3559318780899048, -0.04226591810584068, 0.10120617598295212, 0.0428912527859211, 0.08066917210817337, -0.0230804942548275, 0.0881175696849823, 0.13030476868152618, -0.09244354814291, -0.107906773686409, 0.303898423910141, 0.06509430706501007, 0.011816645041108131, -0.01777942106127739, 0.21702292561531067, 0.2021457999944687, 0.18920782208442688, 0.07690802216529846, 0.05913891643285751, -0.06326445937156677, -0.24660827219486237, -0.04704853892326355, 0.16965901851654053, 0.009335430338978767, -0.40799567103385925, -0.23978833854198456, 0.034352898597717285, -0.07953234761953354, 0.07050928473472595, 0.02915101684629917, -0.056531138718128204, 0.014828414656221867, -0.1105348989367485, 0.12965524196624756, 0.17332175374031067, -0.2868296504020691, 0.1362116038799286, -0.08200319111347198, -0.15761859714984894, -0.1394500583410263, 0.0026722042821347713, 0.07446000725030899, -0.11536997556686401, 0.05364604294300079, -0.0019771349616348743, 0.17759396135807037, 0.04294060543179512, -0.08022985607385635, 0.1650608628988266, 0.1159026026725769, -0.050777897238731384, 0.11095891892910004, 0.015227033756673336, -0.11246855556964874, 0.21653702855110168, -0.12146018445491791, -0.22435219585895538, -0.18109486997127533, 0.11370350420475006, 0.13178545236587524, 0.16220161318778992, -0.11168484389781952, 0.0264818724244833, -0.2079615443944931, -0.11824808269739151, 0.14309753477573395, -0.06247203052043915, 0.15080200135707855, 0.04252539202570915, -0.14811672270298004, -0.011440088041126728, -0.051124799996614456, 0.010340949520468712, -0.039302412420511246, 0.003461308777332306, 0.2521401345729828, -0.17688558995723724, -0.09760314971208572, 0.23561668395996094, -0.05295008048415184, 0.06168891862034798, 0.12285986542701721, -0.06171372905373573, -0.06265632063150406, -0.07843680679798126, 0.02120651863515377, -0.006093986798077822, -0.031217951327562332, 0.08371062576770782, 0.07684026658535004, 0.046444155275821686, -0.2000889927148819, 0.08109752833843231, -0.30404481291770935, 0.39678823947906494, 0.03914185240864754, 0.16128087043762207, -0.0901927500963211, -0.09524016827344894, -0.0620819516479969, -0.10728160291910172, -0.17400936782360077, -0.032105423510074615, 0.026939040049910545, 0.0095142787322402, -0.12864351272583008, 0.05443352460861206, 0.09463336318731308, -0.2028580754995346, 0.0008280323236249387, 0.24266889691352844, -0.022129936143755913, 0.03778980299830437, 0.20528511703014374, 0.24013306200504303, -0.3855573236942291, 0.10762952268123627, -2.346743713133037e-05, -0.23158511519432068, 0.2450469434261322, -0.0018927357159554958, 0.14127208292484283, -0.03328486159443855, 0.10678895562887192, 0.15536196529865265, -0.3022233247756958, -0.10025780647993088, -0.25012990832328796, -0.19208677113056183, 0.1804717481136322, -0.07037249952554703, -0.22596466541290283, 0.10496583580970764, -0.22298090159893036, 0.10728532075881958, -0.1962929368019104, -0.17149759829044342, 0.2380746603012085, 0.12388648092746735, -0.14797881245613098, -0.18295757472515106, -0.4074453115463257, 0.06582251936197281, -0.07661683857440948, -0.15302541851997375, -0.059542085975408554, -0.33846786618232727, -0.10837409645318985, -0.14733749628067017, -0.1281793862581253, -0.018582656979560852, 0.13654008507728577, 0.012704591266810894, 0.21203185617923737, 0.027938837185502052, 0.18406321108341217, -0.0815713107585907, -0.14977245032787323, 0.03410923480987549, -0.025693636387586594, 0.07452787458896637, 0.1289234608411789, 0.30105191469192505, -0.3570917248725891, -0.18256904184818268, -0.07107746601104736, -0.17136237025260925, 0.16507108509540558, -0.17986445128917694, -0.09286289662122726, -0.21236681938171387, 0.13299593329429626, 0.14348946511745453, -0.20171384513378143, 0.2604866027832031, -0.20871922373771667, -0.004077501129359007, 0.12502026557922363, 0.0016235787188634276, -0.055424004793167114, -0.03912559896707535, -0.07821390777826309, -0.029134739190340042, -0.030989501625299454, -0.14462660253047943, 0.03495965898036957, -0.04363841935992241, 0.16298054158687592, -0.20114542543888092, -0.04727865755558014, -0.05142493546009064, 0.04248643293976784, 0.23519863188266754, 0.16373062133789062, 0.0031181168742477894, 0.050301190465688705, 0.05351242795586586, -0.11718541383743286, -0.15908744931221008, -0.04278634488582611, 0.05651513487100601, 0.14754800498485565, 0.047791704535484314, -0.04282177984714508, -0.06645938754081726, -0.060052789747714996, -0.12494706362485886, -0.032401107251644135, -0.1970520168542862, -0.05316614359617233, -0.013635806739330292, 0.041827887296676636, -0.12217716872692108, -0.23388296365737915, 0.009037749841809273, 0.18662415444850922, 0.11905856430530548, -0.046698905527591705, -0.29841306805610657, 0.020683759823441505, 0.0011778464540839195, -0.056018292903900146, -0.3397594690322876, -0.11453700065612793, 0.0534936748445034, -0.04661114513874054, 0.14704443514347076, -0.08215992897748947, 0.14217185974121094, 0.0771125927567482, 0.0643593966960907, -0.09447428584098816, 0.04735184088349342, 0.1417478621006012, 0.2583507001399994, 0.10541535913944244, -0.17411117255687714, 0.1425204873085022, -0.16508673131465912, 0.23664243519306183, 0.1520373821258545, 0.24835896492004395, -0.16737133264541626, -0.08037471026182175, 0.1306755244731903, 0.05932066589593887, 0.11063027381896973, 0.12427040934562683, 0.20875494182109833, -0.039146870374679565, -0.6023849248886108, 0.22369089722633362, 0.5851569175720215, -0.5278476476669312, 0.0564088299870491, -0.8400653004646301, -0.11466918140649796, -0.23234975337982178, 0.7128953337669373, -0.8107708096504211, -0.7544949054718018, -0.8325645327568054, 0.2317727953195572, -0.5745084881782532, 0.4770888090133667, -0.673212468624115, -0.16603544354438782, -0.28444916009902954, 0.18434591591358185, 0.25091543793678284, 0.05639110878109932, 0.08533702045679092, -0.1384023129940033, -0.049355968832969666, -0.11070016026496887, 0.09463192522525787, 0.08723723143339157, 0.11982705444097519, 0.1220020204782486, 0.35352036356925964, 0.12523102760314941, 0.11410436779260635, -0.03354322537779808, -0.11217546463012695, 0.0841992050409317, -0.12047209590673447, -0.41196179389953613, 0.00968807004392147, -0.2939688265323639, -0.19911517202854156, 0.19907104969024658, -0.11621410399675369, -0.01880761981010437, 0.3675684332847595, 0.24206560850143433, 0.10325022786855698, 0.09599144011735916, 0.33337539434432983, -0.08398843556642532, -0.3006748557090759, 0.10816388577222824, 0.30394577980041504, 0.07108154147863388, 0.14347413182258606, -0.07656445354223251, 0.17199571430683136, -0.13582323491573334, 0.04814927652478218, -0.18346793949604034, -0.21963725984096527, -0.0039291647262871265, 0.2800503969192505, 0.06257447600364685, 0.05005035921931267, 0.27100297808647156, 0.22262704372406006, -0.36239928007125854, -0.1277916431427002, 0.019712038338184357, 0.13368399441242218, -0.11326920241117477, 0.0018906078767031431, -0.17820200324058533, -0.006233358755707741, -0.10692936927080154, 0.3161986470222473, -0.04341363534331322, -0.18953174352645874, -0.09156165271997452, -0.08607055246829987, 0.33909448981285095, 0.12693770229816437, -0.3357314467430115, -0.11257500946521759, 0.4281887412071228, 0.03283669799566269, 0.06114593893289566, 0.4125816226005554, -0.07650947570800781, -0.24332590401172638, -0.014984739944338799, 0.608043909072876, -0.5099992156028748, 0.10209585726261139, -0.17349347472190857, -0.47969526052474976, -0.2347768247127533, -0.030701907351613045, -0.15059247612953186, -0.19033223390579224, 0.07971979677677155, -0.19382387399673462, 0.14321273565292358, 0.03774756193161011, 0.004939998034387827, 0.020982928574085236, 0.13822783529758453, -0.088413767516613, -0.22592072188854218, -0.17282560467720032, -0.014609607867896557, 0.11091326177120209, 0.22930896282196045, -0.1629931628704071, 0.10451142489910126, -0.06963696330785751, 0.2291097790002823, 0.32678619027137756, -0.2670974135398865, -0.30328041315078735, 0.3879925310611725, -0.00028560913051478565, -0.1466132253408432, 0.19885757565498352, -0.07935074716806412, -0.0031372488010674715, 0.05592247098684311, -0.07753357291221619, 0.14032725989818573, -0.04159519076347351, 0.09786581993103027, -0.024667348712682724, 0.19873963296413422, -0.13573656976222992, -0.01262118574231863, 0.04402729868888855, 0.03704288974404335, 0.2020522654056549, -0.1203007847070694, 0.12315801531076431, -0.02329063042998314, 0.00738366786390543, 0.1726173758506775, 0.08013676851987839, -0.13381117582321167, 0.042839568108320236, -0.16871234774589539, -0.15394242107868195, -0.321645051240921, -0.23107506334781647, -0.1621079295873642, -0.2593540549278259, 0.23761282861232758, 0.1798652559518814, 0.025230692699551582, -0.013788876123726368, 0.11666062474250793, 0.13161885738372803, -0.23617537319660187, 0.26997917890548706, -0.1350378543138504, 0.01036736462265253, -0.04623067378997803, -0.016238950192928314, 0.2714478075504303, -0.007159160450100899, 0.3134286105632782, -0.049007028341293335, -0.051485825330019, -0.07787558436393738, 0.24330346286296844, 0.29886096715927124, -0.05377691239118576, 0.06276647001504898, 0.24593612551689148, -0.2970985174179077, -0.1785166710615158, -0.0004991012392565608, -0.13822416961193085, 0.08127228915691376, -0.22262677550315857, -0.19603140652179718, 0.04651651158928871, -0.08714540302753448, 0.2729145288467407, 0.3418170213699341, -0.34011369943618774, -0.207991361618042, 0.46928277611732483, -0.05480143427848816, 0.00402343925088644, 0.10603461414575577, 0.321964830160141, 0.41673675179481506, -0.4658455550670624, -0.2131039798259735, -0.1404915153980255, -0.04129976034164429, -0.04658200591802597, 0.3176111578941345, -0.40793439745903015, 0.1322501301765442, 0.25542008876800537, 0.013404902070760727, 0.06482083350419998, -0.23680882155895233, -0.15312747657299042, -0.08214054256677628, -0.15940740704536438, -0.21466635167598724, -0.24672667682170868, 0.1969916820526123, -0.17827291786670685, 0.12421301007270813, -0.3399248421192169, 0.15852995216846466, 0.028870172798633575, -0.06315814703702927, -0.330705463886261, 0.2496069371700287, 0.19610430300235748, -0.11666844040155411, -0.24490512907505035, -0.18595314025878906, 0.13384577631950378, -0.05898609757423401, -0.23845666646957397, 0.27701449394226074, -0.2845366299152374, 0.19540706276893616, -0.19476944208145142, -0.15484878420829773, 0.30042552947998047, 0.21515421569347382, 0.008346140384674072, 0.00976281613111496, 0.07761912792921066, 0.12158389389514923, 0.014177816919982433, -0.13948528468608856, 0.0827282965183258, 0.3288419842720032, -0.065109483897686, -0.21365785598754883, 0.33681535720825195, -0.07140041887760162, 0.12502825260162354, -0.23906035721302032, 0.12252664566040039, -0.21688628196716309, -0.041654448956251144, -0.0586727000772953, -0.34402990341186523, -0.12880179286003113, 0.3273674249649048, -0.003033517161384225, 0.0035262033343315125, -0.31799668073654175, 0.03671156242489815, -0.016194429248571396, -0.22150129079818726, 0.12772119045257568, 0.0934251919388771, 0.1266714334487915, 0.17354272305965424, -0.10072127729654312, 0.15299925208091736, 0.05000273138284683, -0.1649763286113739, 0.33836355805397034, -0.053216345608234406, -0.24490520358085632, -0.1584423929452896, 0.013708647340536118, -0.005389571655541658, -0.0903581827878952, -0.15278641879558563, 0.011683626100420952, 0.15314550697803497, 0.11340905725955963, 0.07949184626340866, 0.021174810826778412, 0.09384319931268692, -0.3139481246471405, -1.4969615222071297e-05, -0.27226969599723816, -0.02223009429872036, -0.06737275421619415, -0.10438033193349838, -0.04915144294500351, -0.17800991237163544, -0.041651442646980286, -0.18638299405574799, 0.02458900399506092, -0.08051876723766327, -0.02292480506002903, 0.039422426372766495, 0.12099014222621918, -0.07442715764045715, -0.03687242045998573, 0.12994897365570068, -0.012090925127267838, -0.03126304969191551, 0.16964411735534668, 0.08482372015714645, 0.0054623945616185665, -0.1627359539270401, -0.03526011109352112, 0.040061041712760925, 0.15194672346115112, 0.11545614153146744, -0.07530548423528671, -0.17536060512065887, 0.07117434591054916, -0.025011805817484856, 0.15671177208423615, 0.06766626983880997, -0.0651414766907692, -0.05168085917830467, -0.04122260957956314, -0.029961341992020607, -0.0770784467458725, 0.07250269502401352, 0.03525891527533531, -0.1460074484348297, -0.1415373533964157, 0.08948185294866562, -0.20814910531044006, 0.06704628467559814, -0.0366494320333004, 0.22394126653671265, 0.08339176326990128, -0.09812379628419876, 0.17369438707828522, -0.0687740221619606, -0.034991297870874405, -0.15811479091644287, -0.1505640298128128, 0.1401555985212326, -0.17770995199680328, 0.03429048880934715, -0.0716085284948349, -0.11568472534418106, 0.02832108363509178, 0.29633060097694397, 0.09901118278503418, -0.08193257451057434, -0.020669298246502876, 0.29422804713249207, -0.22512628138065338, -0.047111302614212036, -0.028875483199954033, 0.07933700084686279, -0.24781471490859985, 0.08974682539701462, -0.16267067193984985, 0.23353959619998932, -0.0039190505631268024, -0.04293801635503769, -0.16066506505012512, 0.17175285518169403, 0.1365649402141571, 0.031210852786898613, 0.22158275544643402, 0.130432590842247, -0.016648845747113228, 0.10761991143226624, 0.2853105366230011, 0.1740908920764923, -0.13783159852027893, -0.24985387921333313, 0.03665667399764061, 0.17970000207424164, 0.339491069316864, 0.19136439263820648, -0.007942423224449158, -0.060547973960638046, -0.01648641750216484, 0.08023384213447571, 0.3745380640029907, 0.03651199862360954, 0.2166980504989624, -0.021807247772812843, -0.23578456044197083, 0.2745139002799988, -0.024780184030532837, -0.012578336521983147, 0.27142876386642456, 0.016538161784410477, -0.14959211647510529, 0.22132658958435059, -0.10272638499736786, 0.0065628825686872005, -0.06294036656618118, -0.11055927723646164, 0.05053148418664932, -0.1007411777973175, -0.1580520123243332, 0.13724395632743835, -0.0014435752527788281, 0.14066416025161743, 0.040574874728918076, 0.13373608887195587, 0.06706207990646362, -0.09327640384435654, -0.21346916258335114, 0.22143667936325073, 0.04333224520087242, 0.16255401074886322, -0.09156066924333572, -0.10236504673957825, -0.058962903916835785, 0.18534155189990997, -0.022621074691414833, 0.055400438606739044, 0.10110526531934738, -0.020161395892500877, 0.004908976145088673, -0.26823845505714417, 0.030835889279842377, 0.3349422514438629, -0.1426405906677246, -0.03499969467520714, 0.06970370560884476, -0.047317370772361755, -0.06489310413599014, -0.039741288870573044, -0.01119493879377842, -0.04136168584227562, -0.206812784075737, 0.09929106384515762, 0.21976301074028015, -0.38043832778930664, -0.16192524135112762, 0.020163675770163536, -0.15520761907100677, 0.09047408401966095, -0.1285267323255539, 0.18709953129291534, 0.19201958179473877, -0.05636122450232506, 0.25315356254577637, -0.16876094043254852, -0.08373017609119415, 0.023070724681019783, -0.2754269540309906, -0.29408952593803406, -0.22407574951648712, -0.04620398208498955, 0.024380721151828766, 0.13654473423957825, -0.05550505965948105, -0.22087474167346954, -0.1011304259300232, 0.1964782327413559, 0.19950442016124725, 0.16866646707057953, 0.0496228002011776, 0.3228391706943512, -0.20164726674556732, 0.04388662800192833, 0.00547464843839407, -0.21376845240592957, -0.024631479755043983, 0.07960677146911621, 0.5047653317451477, -0.2550930976867676, -0.04621293395757675, 0.02296556904911995, -0.042388916015625, 0.23668093979358673, 0.16901330649852753, -0.09728162735700607, 0.04581994190812111, -0.04218996316194534, -0.06536318361759186, 0.12161625921726227, -0.22819523513317108, 0.13475146889686584, 0.23777823150157928, -0.18162362277507782, -0.15093809366226196, -0.21997791528701782, -0.23197752237319946, 0.009810262359678745, 0.06087466701865196, 0.010354856960475445, 0.15371251106262207, -0.0850583091378212, -0.1891927719116211, 0.3023877739906311, -0.03409675881266594, -0.02920149825513363, 0.08358640968799591, -0.023382367566227913, 0.16280125081539154, -0.05043162778019905, -0.03807401657104492, -0.31465473771095276, -0.028893858194351196, 0.20421342551708221, 0.12325023859739304, -0.19739225506782532, 0.12782752513885498, -0.01778976246714592, 0.034552641212940216, 0.09651777148246765, 0.1487959772348404, -0.033668313175439835, -0.02891705185174942, -0.17478738725185394, -0.09777108579874039, -0.1355866938829422, -0.06215924769639969, 0.42416849732398987, 0.015713432803750038, -0.25156548619270325, 0.3128325343132019, 0.02733832597732544, -0.21144044399261475, -0.04610623046755791, 0.17565226554870605, 0.1269073188304901, -0.21858668327331543, 0.12179568409919739, 0.1502428650856018, -0.2048415243625641, -0.21700546145439148, -0.19375045597553253, -0.07372024655342102, -0.106573686003685, 0.011646089144051075, -0.02830992452800274, 0.22408336400985718, -0.39031365513801575, -0.016781743615865707, 0.011568043380975723, 0.001091700978577137, -0.11047429591417313, 0.14999881386756897, 0.12873560190200806, -0.12911202013492584, -0.03404972329735756, 0.01245178747922182, -0.11833534389734268, 0.032693710178136826, -0.09172261506319046, 0.10727918893098831, 0.10462398082017899, 0.07756761461496353, -0.19378319382667542, 0.14520560204982758, -0.03232784569263458, 0.02557148039340973, -0.03352968767285347, 0.14241327345371246, -0.05488264560699463, -0.040933504700660706, -0.019640235230326653, 0.31331634521484375, 0.1971384882926941, -0.09786253422498703, 0.23521533608436584, -0.017204416915774345, 0.2102254033088684, -0.09718102961778641, -0.05377184599637985, -0.09111104905605316, 0.0677332729101181, 0.21009910106658936, 0.16205459833145142, -0.11499708890914917, -0.20977354049682617, 0.3696231245994568, 0.05101902782917023, 0.08191539347171783, 0.1783432811498642, -0.20218072831630707, -0.3065182566642761, 0.2403455227613449, -0.26722025871276855, -0.09505247324705124, 0.31164664030075073, -0.14124161005020142, -0.13160571455955505, -0.2953144609928131, 0.02436419390141964, 0.06978467851877213, -0.6112337112426758, -0.1502108871936798, 0.15875346958637238, -0.1570243537425995, 0.14368115365505219, -0.059328217059373856, 0.16014587879180908, -0.07729600369930267, -0.06267296522855759, 0.13733124732971191, 0.15753334760665894, -0.12368731200695038, 0.03336282819509506, 0.06048246845602989, -0.06646545231342316, -0.0945097953081131, 0.21853120625019073, -0.13153910636901855, 0.36840635538101196, -0.054938703775405884, -0.30645042657852173, -0.2319241315126419, -0.09162060171365738, 0.3128732442855835, 0.033504411578178406, -0.05903690680861473, -0.3513053357601166, 0.06386581808328629, -0.17104797065258026, -0.08033841103315353, -0.24312929809093475, 0.20591546595096588, 0.13201527297496796, 0.09169435501098633, -0.10624521970748901, -0.11208508908748627, -0.25537919998168945, -0.11043144017457962, -0.36718887090682983, 0.001165158930234611, 0.08985187858343124, -0.03223416581749916, -0.35376644134521484, -0.09066607058048248, -0.0616316981613636, -0.30062317848205566, 0.027958407998085022, 0.1207236796617508, -0.23442073166370392, 0.019047584384679794, -0.09395937621593475, 0.104408398270607, 0.05284800007939339, 0.13938690721988678, -0.056230101734399796, 0.005122256465256214, -0.04209882766008377, 0.13277089595794678, 0.041682273149490356, 0.056114863604307175, 0.08162470906972885, 0.25748562812805176, -0.0005424871342256665, 0.06870019435882568, 0.07429969310760498, -0.13708406686782837, 0.0233222097158432, 0.042403221130371094, 0.06669699400663376, -0.23637709021568298, 0.14206857979297638, -0.1328078806400299, -0.08563753962516785, 0.5748769044876099, 0.014744461514055729, -0.1802167445421219, -0.09073293954133987, -0.004219787660986185, 0.10675519704818726, -0.15344420075416565, 0.11397525668144226, 0.06024233624339104, 0.00016122132365126163, -0.042971182614564896, -0.10130415111780167, -0.1830192506313324, 0.03833889961242676, -0.001581178163178265, -0.08429698646068573, 0.1514769196510315, -0.20060177147388458, -0.07738038152456284, 0.014631083235144615, -0.042798444628715515, 0.24944157898426056, 0.13080468773841858, -0.09853532165288925, 0.017655717208981514, -0.08158457279205322, 0.06481330841779709, -0.15490825474262238, -0.06036968529224396, 0.14099813997745514, 0.04204465076327324, 0.1300758719444275, 0.17572198808193207, -0.2053554356098175, -0.0579579658806324, 0.04122081771492958, 0.051291439682245255, 0.09110980480909348, 0.17811845242977142, -0.05045226216316223, -0.10362060368061066, -0.22664670646190643, -0.0740024596452713, -0.128828763961792, -0.1524692177772522, 0.2692887783050537, -0.09806427359580994, -0.3202958405017853, 0.08855704218149185, -0.20634394884109497, -0.028432073071599007, 0.05402875691652298, 0.14092303812503815, 0.3597853183746338, 0.1493406742811203, -0.00800943374633789, 0.32703492045402527, 0.03942349553108215, -0.10964348167181015, -0.26291921734809875, -0.032702554017305374, -0.09986572712659836, -0.028191009536385536, 0.14039146900177002, 0.1978796273469925, -0.1722760647535324, 0.08182850480079651, 0.19055752456188202, -0.05877832695841789, 0.1437353491783142, -0.18678279221057892, 0.17130470275878906, 0.08539210259914398, -0.02951696701347828, 0.037880077958106995, -0.08692090213298798, -0.05220126733183861, -0.18517310917377472, 0.07481268793344498, -0.04865973815321922, 0.1409631073474884, -0.2827456593513489, -0.05826480686664581, -0.07469211518764496, -0.06371219456195831, 0.11679340153932571, 0.18951033055782318, -0.18291832506656647, -0.002214026404544711, -0.20044410228729248, 0.03106173500418663, -0.04424704611301422, -0.11053099483251572, 0.4108238220214844, -0.18036329746246338, -0.009687229990959167, 0.20059944689273834, 0.007444650400429964, -0.14447647333145142, -0.03227412700653076, 0.08861925452947617, 0.032348886132240295, -0.06076592579483986, -0.20818117260932922, 0.11043117195367813, -0.14408831298351288, -0.14792205393314362, 0.15667349100112915, -0.03117367811501026, 0.1363399773836136, 0.005711783189326525, 0.056176815181970596, 0.12698934972286224, 0.048341404646635056, -0.07069241255521774, 0.2110719531774521, 0.11578916758298874, -0.023588290438055992, 0.06451217830181122, 0.12880194187164307, -0.15028518438339233, -0.051475632935762405, -0.17004284262657166, 0.08712451905012131, -0.1708846241235733, 0.16397474706172943, 0.11098288744688034, -0.14077547192573547, -0.007424212992191315, 0.24720239639282227, -0.07428179681301117, 0.0654570460319519, -0.035421472042798996, 0.12489227950572968, -0.04104427248239517, 0.17891864478588104, 0.05977892875671387, -0.033105362206697464, -0.18320134282112122, 0.21022719144821167, 0.08890120685100555, -0.43838438391685486, 0.05333620682358742, 0.18246501684188843, -0.16124913096427917, 0.06592260301113129, 0.1894492208957672, -0.1840803623199463, -0.07835350930690765, -0.16588298976421356, 0.20396459102630615, -0.19424095749855042, 0.04257122054696083, 0.05175553634762764, 0.009127292782068253, 0.07798279821872711, -0.057063523679971695, 0.14945948123931885, 0.1313779652118683, -0.03756453096866608, -0.13356521725654602, 0.01706230454146862, 0.07944180816411972, -0.005877552554011345, -0.09565981477499008, -0.05274306237697601, 0.04195978492498398, 0.04751938581466675, 0.17121542990207672, 0.13359634578227997, -0.11343707144260406, -0.05137383192777634, 0.08724929392337799, 0.06507603079080582, 0.01712425798177719, -0.004307192284613848, 0.07149023562669754, -0.12844586372375488, -0.03358026593923569, -0.15171925723552704, -0.23986218869686127, -0.2571680545806885, -0.1111770048737526, -0.04279128834605217, 0.0771697536110878, -0.20406748354434967, -0.34418341517448425, -0.3857264518737793, 0.13246749341487885, 0.10882671922445297, 0.004544418305158615, 0.24056455492973328, -0.24943594634532928, 0.0352778285741806, -0.060599956661462784, -0.19401764869689941, 0.08723427355289459, -0.28016945719718933, -0.3166942596435547, 0.14087358117103577, -0.02647540159523487, -0.2045702487230301, 0.12554775178432465, 0.1314743161201477, 0.01939164474606514, 0.26938602328300476, 0.24691520631313324, 0.06235421448945999, -0.02729237824678421, 0.03923199698328972, -0.2725001275539398, -0.030547436326742172, 0.04609869420528412, -0.18246521055698395, -0.06891833990812302, 0.031208239495754242, -0.023929642513394356, 0.034094300121068954, -0.06720615178346634, 0.16422268748283386, 0.04034201800823212, 0.011859203688800335, 0.14524149894714355, -0.08461952209472656, -0.0619196742773056, 0.08237750083208084, -0.06595460325479507, 0.071937695145607, -0.210481196641922, -0.017153531312942505, -0.18139085173606873, 0.18519599735736847, 0.0460536852478981, 0.27804264426231384, 0.2300814837217331, 0.22554856538772583, -0.006942346692085266, -0.4676992893218994, 0.023954186588525772, 0.15443077683448792, -0.16989222168922424, -0.0805654302239418, 0.16584362089633942, 0.03450019657611847, -0.052127473056316376, -0.12575854361057281, 0.17937512695789337, -0.18938419222831726, 0.048837922513484955, 0.1388118863105774, 0.09466779977083206, 0.216279998421669, -0.00055218260968104, 0.08717154711484909, 0.25615066289901733, -0.06094823032617569, -0.04308206960558891, 0.23412999510765076, -0.14070042967796326, -0.08463511615991592, -0.0853213369846344, -0.11857717484235764, 0.11921410262584686, -0.1721080094575882, -0.029767705127596855, 0.11462638527154922, -0.17327150702476501, 0.13462649285793304, -0.11604209244251251, 0.16260038316249847, -0.06907177716493607, 0.002016186947003007, -0.07451946288347244, 0.14585496485233307, -0.12191051244735718, 0.010947806760668755, -0.003000968135893345, -0.11866448819637299, -0.041957687586545944, 0.041098468005657196, 0.14413373172283173, 0.028268922120332718, 0.11231238394975662, -0.06516856700181961, -0.05486033111810684, -0.25428637862205505, 0.028035612776875496, 0.0018662139773368835, 0.06110300123691559, -0.2777822017669678, 0.1444273442029953, 0.043157946318387985, -0.14603684842586517, -0.29798445105552673, 0.07938151061534882, -0.0034334275405853987, -0.11543113738298416, 0.03136252239346504, 0.036493029445409775, 0.20272302627563477, -0.1886795461177826, 0.01951908878982067, 0.1716863214969635, -0.281495064496994, -0.03565235063433647, -0.18054763972759247, -0.16146810352802277, -0.0029024221003055573, 0.036674145609140396, -0.13595038652420044, 0.021750902757048607, -0.22952182590961456, -0.12876318395137787, -0.02168898843228817, 0.02129575051367283, 0.14521820843219757, -0.10931616276502609, 0.06146595627069473, -0.35210955142974854, -0.17524956166744232, 0.16537852585315704, 0.16866207122802734, 0.1802813559770584, 0.22180604934692383, -0.1508990079164505, -0.07926512509584427, 0.27059584856033325, 0.16437827050685883, 0.33464938402175903, -0.03903529420495033, -0.026910046115517616, -0.2368534952402115, -0.17905883491039276, 0.3208683729171753, 0.0614502839744091, 0.3962577283382416, 0.014772105030715466, -0.4259130656719208, -0.01252890843898058, -0.3174743950366974, -0.22236108779907227, -0.11445647478103638, 0.27249500155448914, 0.2723761796951294, 0.19513431191444397, 0.19631342589855194, 0.1496146023273468, -0.09783026576042175, 0.07937076687812805, 0.06229666620492935, 0.03986412286758423, 0.19832377135753632, 0.2377534657716751, -0.2081841081380844, 0.14762455224990845, 0.038129810243844986, -0.12971502542495728, 0.08550766855478287, -0.013724211603403091, 0.06342484802007675, 0.12424679845571518, -0.006944997701793909, 0.18144932389259338, -0.10244882106781006, 0.04685584083199501, 0.09014499932527542, 0.1317177265882492, 0.0892481654882431, 0.06580634415149689, -0.048354338854551315, 0.1482497602701187, -0.024721916764974594, -0.09944338351488113, -0.01912517286837101, -0.10340376198291779, -0.11707822233438492, -0.05738221853971481, -0.09375084191560745, 0.015116624534130096, 0.16422227025032043, -0.12155227363109589, 0.22867776453495026, -0.01730336993932724, -0.19141802191734314, 0.1869879812002182, -0.18419985473155975, -0.015670372173190117, 0.14838343858718872, -0.054543569684028625, 0.18676573038101196, -0.22769372165203094, -0.006506223697215319, -0.09596006572246552, -0.17580559849739075, 0.05987473577260971, 0.058981411159038544, 0.07582685351371765, -0.009439576417207718, 0.1128658875823021, 0.21296700835227966, -0.010929782874882221, 0.039014022797346115, -0.12887540459632874, 0.002701664576306939, 0.033967189490795135, 0.1331208497285843, 0.0028453636914491653, -0.21031078696250916, 0.024678297340869904, -0.03156336024403572, -0.04194746911525726, 0.0006876083207316697, -0.6843248009681702, 0.7404410243034363, 0.2357441633939743, -0.28746581077575684, 0.34682077169418335, -0.2445291131734848, 0.10333265364170074, 0.5765831470489502, -0.5609044432640076, 0.7373758554458618, 0.5591084957122803, -0.01989108882844448, -0.5444287657737732, 0.5382995009422302, -0.47418540716171265, 0.24814970791339874, -0.15534624457359314, -0.06560409069061279, -0.49074363708496094, 0.29943257570266724, 0.4672788381576538, 0.0574149526655674, 0.18860433995723724, 0.32489293813705444, 0.25205883383750916, -0.2302771508693695, 0.21282874047756195, -0.33483004570007324, -0.2446334958076477, -0.11117909848690033, 0.03451380133628845, 0.056708790361881256, 0.05361180379986763, -0.08145184069871902, 0.4251560866832733, 0.12915463745594025, -0.1526939570903778, -0.0589245967566967, -0.5604782700538635, -0.28161171078681946, 0.08837507665157318, 0.041543446481227875, -0.13412050902843475, 0.09998077154159546, 0.11662951856851578, 0.15817791223526, -0.12685951590538025, -0.12797969579696655, -0.5025785565376282, 0.230298712849617, -0.06505247950553894, -0.09595688432455063, -0.5683085918426514, -0.013721637427806854, -0.5609865188598633, -0.05775594338774681, -0.13192859292030334, -0.010511582717299461, 0.40118345618247986, 0.3008144795894623, 0.09050947427749634, 0.09325693547725677, -0.11206918954849243, 0.3150675594806671, 0.32206660509109497, 0.07811004668474197, -0.1079845279455185, 0.04179118946194649, 0.15048588812351227, -0.17963027954101562, 0.10308333486318588, 0.11166448146104813, -0.05941162630915642, -0.056384678930044174, 0.2760317921638489, -0.025170685723423958, 0.10235407948493958, 0.02485004812479019, -0.03762948885560036, 0.13639184832572937, 0.28202125430107117, 0.2094256430864334, -0.050880566239356995, -0.09189385175704956, -0.075009785592556, 0.14467108249664307, 0.0029987762682139874, 0.2721918523311615, -0.08040939271450043, -0.11560387164354324, -0.33519431948661804, 0.01897277869284153, -0.10135422646999359, 0.0718056857585907, -0.23441319167613983, -0.09466664493083954, -0.21074512600898743, 0.14389246702194214, 0.07635524123907089, -0.4566079080104828, -0.12402662634849548, 0.06013396754860878, -0.03184811398386955, -0.021866438910365105, -0.0837797150015831, 0.08475236594676971, 0.28292152285575867, 0.4404653012752533, 0.17011919617652893, 0.22198058664798737, -0.09807739406824112, -0.017183121293783188, 0.42281246185302734, -0.10907728970050812, -0.09732721000909805, 0.22010062634944916, -0.1817239671945572, 0.0669320821762085, -0.08878004550933838, -0.16043569147586823, 0.1745598316192627, 0.02425667643547058, -0.3432871699333191, 0.12506705522537231, 0.0994129553437233, 0.09236220270395279, 0.2123718410730362, 0.31107664108276367, 0.15035836398601532, -0.05883844941854477, -0.05932311713695526, -0.04895005375146866, 0.06402845680713654, -0.05531459301710129, -0.10137365758419037, -0.01236572302877903, -0.006536164786666632, 0.30752453207969666, 0.1143125370144844, 0.053669728338718414, 0.2222251445055008, 0.0817742720246315, -0.12397296726703644, -0.27541184425354004, 0.4900597929954529, -0.003415919141843915, 0.03711404278874397, 0.298304945230484, -0.024047134444117546, -0.2834438383579254, 0.09342102706432343, -0.18634572625160217, 0.15893180668354034, -0.2682540714740753, -0.011210493743419647, -0.28647446632385254, -0.05094058811664581, 0.05342412367463112, 0.10136012732982635, 0.42389318346977234, -0.263824999332428, -0.07828670740127563, 0.017135119065642357, 0.12663425505161285, 0.19312287867069244, -0.10534181445837021, 0.034155406057834625, -0.04129059240221977, -0.08482978492975235, 0.15891331434249878, -0.2302243560552597, -0.020701196044683456, -0.03678992763161659, 0.13864721357822418, -0.07697848230600357, 0.22302179038524628, -0.28055742383003235, -0.16179712116718292, -0.41468650102615356, 0.3831731677055359, -0.11557294428348541, 0.04253274202346802, 0.05148943513631821, 0.1753995716571808, 0.17727366089820862, -0.49530595541000366, 0.02414020337164402, -0.11152877658605576, -0.36153605580329895, 0.06375184655189514, 0.35527610778808594, 0.24465656280517578, -0.6044756770133972, -0.10906068235635757, 0.0386379174888134, -0.0006192572182044387, 0.3394354581832886, 0.03478911891579628, 0.022490670904517174, -0.2314213216304779, -0.17024323344230652, -0.19334577023983002, 0.7162995338439941, -0.44025444984436035, -0.49573802947998047, -0.027124857529997826, 0.06139581277966499, -0.44369325041770935, -0.3658396601676941, -0.028789915144443512, -0.12078113108873367, 0.16283603012561798, -0.08521556854248047, -0.23877151310443878, -0.2383575588464737, -0.07349687814712524, -0.1315256804227829, -0.17274421453475952, 0.07446164637804031, -0.05950823053717613, 0.11418454349040985, 0.036486513912677765, -0.09862395375967026, -0.27438637614250183, 0.4533509910106659, -0.15813274681568146, -0.20601865649223328, 0.05131533741950989, -0.31993812322616577, 0.22425007820129395, -0.16045793890953064, -0.022172987461090088, -0.04475012421607971, 0.017060235142707825, 0.020987054333090782, -0.029158083721995354, 0.2694370150566101, -0.06148218363523483, -0.032323844730854034, 0.24065904319286346, 0.25007393956184387, 0.042654357850551605, -0.28179699182510376, -0.18713796138763428, 0.21947096288204193, -0.1214388832449913, -0.21520105004310608, 0.4334816038608551, 0.24661971628665924, 0.20969830453395844, -0.12515459954738617, 0.029689598828554153, 0.015157550573348999, -0.017974214628338814, -0.2646327018737793, 0.007890969514846802, -0.10624166578054428, -0.03785989433526993, -0.16205090284347534, -0.10390450060367584, 0.11747902631759644, -0.023819036781787872, -0.1572854071855545, 0.13126051425933838, 0.24001754820346832, 0.2215275913476944, 0.15194381773471832, -0.20777460932731628, -0.1590094417333603, -0.054750651121139526, 0.0908738225698471, -0.019286883994936943, -0.009532419964671135, 0.12895555794239044, 0.05520672723650932, -0.07169944792985916, -0.046005260199308395, 0.07384360581636429, 0.013799937441945076, -0.22252248227596283, -0.1603824496269226, 0.014404219575226307, 0.07019088417291641, 0.09867952018976212, 0.05281296744942665, 0.07770723849534988, 0.023304743692278862, 0.0374155193567276, -0.016718680039048195, -0.214861199259758, 0.0418940894305706, -0.01079600490629673, 0.007687403354793787, 0.1374145746231079, -0.33066606521606445, -0.03326276317238808, 0.08591379225254059, -0.020145658403635025, 0.23556312918663025, 0.023838181048631668, -0.18164926767349243, 0.08654164522886276, 0.09268049895763397, 0.019687211140990257, 0.33786600828170776, 0.15524131059646606, 0.02058865875005722, -0.20470499992370605, -0.3429262936115265, -0.05618603900074959, -0.011659867130219936, 0.0762120708823204, -0.0782056525349617, -0.27907049655914307, -0.1695735901594162, 0.0538836233317852, 0.028803011402487755, -0.12788552045822144, 0.00430698087438941, -0.22487865388393402, 0.03684758394956589, -0.1498953104019165, -0.23834237456321716, 0.025131843984127045, -0.036937415599823, -0.15738676488399506, 0.09544702619314194, -0.017397409304976463, -0.29250091314315796, -0.16787080466747284, -0.1803610771894455, 0.035921771079301834, 0.11261124908924103, -0.20347435772418976, 0.12554681301116943, 0.044724803417921066, 0.6003959774971008, -0.14457736909389496, -0.07524149864912033, 0.01969963125884533, 0.31926074624061584, -0.678922712802887, -0.45468246936798096, -0.01812533289194107, 0.02479442209005356, 0.29284605383872986, -0.39066827297210693, 0.10807950794696808, -0.05626361444592476, 0.07850511372089386, 0.07631029933691025, -0.2575128972530365, -0.00703110545873642, -0.14887718856334686, 0.20285889506340027, 0.04483355954289436, -0.05557835474610329, -0.25846368074417114, -0.19596533477306366, 0.0012175888987258077, 0.42558109760284424, 0.0034942934289574623, -0.056436989456415176, -0.008182013407349586, -0.14440405368804932, 0.22431214153766632, 0.6369484066963196, 0.059561487287282944, 0.10903490334749222, 0.084998719394207, -0.08115096390247345, -0.3607335388660431, 0.049807071685791016, -0.09493210911750793, -0.29868921637535095, 0.11097973585128784, -0.11429080367088318, 0.29314568638801575, 0.008290114812552929, -0.07253297418355942, -0.6657848358154297, 0.24154935777187347, -0.5271099805831909, -0.01652495190501213, 0.2125411331653595, -0.33917394280433655, -0.018345488235354424, 0.21124079823493958, 0.06790979206562042, -0.2664107084274292, -0.07871376723051071, 0.14615638554096222, 0.18170179426670074, 0.18391241133213043, -0.33410853147506714, 0.15458731353282928, -0.13894449174404144, -0.03474105894565582, -0.24612957239151, -0.33719977736473083, 0.031792089343070984, 0.09875529259443283, 0.23021236062049866, -0.11476218700408936, 0.0020193993113934994, -0.07548022270202637, 0.22028498351573944, 0.040844857692718506, -0.03685639798641205, -0.12588773667812347, 0.056861281394958496, -0.12214846909046173, 0.12133701890707016, -0.0996529832482338, 0.3926953077316284, -0.6790081858634949, 0.10144704580307007, 0.27529579401016235, -0.05080149322748184, 0.035662051290273666, 0.05495585501194, -0.1311245858669281, 0.041966795921325684, 0.10137810558080673, -0.041351404041051865, 0.019153714179992676, -0.21849460899829865, -0.051256753504276276, 0.08999098092317581, 0.21515285968780518, 0.19160349667072296, -0.05153356492519379, 0.14961688220500946, -0.11400064080953598, 0.012195761315524578, 0.06598781049251556, 0.19672635197639465, 0.22931991517543793, 0.22797593474388123, -0.014757143333554268, 0.16683027148246765, -0.06175539642572403, -0.14572732150554657, 0.1272093951702118, 0.0799766331911087, 0.001988530158996582, -0.039803069084882736, -0.1623832881450653, 0.14264002442359924, 0.0836188867688179, -0.03484856337308884, -0.0437946692109108, 0.009667475707828999, 0.0004985944251529872, 0.19212383031845093, 0.06523635983467102, -0.09494473040103912, -0.33375653624534607, -0.21189960837364197, 0.015718478709459305, 0.19158954918384552, 0.0751432403922081, 0.1690121442079544, -0.049037449061870575, 0.18107561767101288, 0.2378135323524475, 0.13853004574775696, -0.015699608251452446, 0.15862827003002167, -0.2123842090368271, 0.011376786977052689, 0.04154760763049126, -0.34874215722084045, -0.11029769480228424, -0.023326897993683815, 0.06472024321556091, -0.20382200181484222, 0.11932335793972015, -0.02500840276479721, 0.058608539402484894, 0.07476959377527237, 0.017340684309601784, 0.0057554966770112514, 0.18292708694934845, 0.08837907761335373, 0.09505470842123032, -0.007056661415845156, -0.04155851900577545, -0.14223431050777435, 0.14417967200279236, 0.027309052646160126, 0.21266016364097595, 0.11231280863285065, -0.008755963295698166, -0.1062292829155922, 0.10368518531322479, 0.07528873533010483, -0.0634375661611557, 0.03974250704050064, 0.016700224950909615, 0.0509340763092041, -0.07297972589731216, -0.23471800982952118, 0.07923661917448044, 0.23633426427841187, -0.01827283389866352, -0.033082425594329834, -0.012039842084050179, -0.07457219809293747, 0.03449539095163345, -0.196724072098732, -0.042046353220939636, -0.12959392368793488, -0.017466841265559196, 0.01956143230199814, -0.1355636715888977, 0.21021504700183868, -0.11540699750185013, -0.27850592136383057, 0.2345159947872162, -0.17089518904685974, -0.12084988504648209, -0.42487165331840515, 0.3432149291038513, -0.2205401062965393, 0.19589753448963165, -0.32090476155281067, -0.0912339985370636, 0.09942372143268585, 0.010958373546600342, 0.20032550394535065, 0.17646527290344238, -0.11650600284337997, -0.30607879161834717, -0.1539674997329712, 0.255860835313797, 0.007804555352777243, 0.3070250153541565, -0.09573167562484741, 0.18541204929351807, -0.10389868915081024, -0.06096884608268738, -0.16246773302555084, -0.2768423855304718, -0.054516855627298355, -0.01859232224524021, 0.15108437836170197, -0.033061396330595016, -0.06021245941519737, -0.15627321600914001, -0.15278296172618866, 0.039444372057914734, 0.249797061085701, -0.10912472754716873, 0.06586138159036636, 0.012173200026154518, -0.0220456812530756, 0.2228011190891266, 0.22645750641822815, -0.07500699162483215, 0.1651398241519928, 0.11232446879148483, 0.2576228678226471, -0.05285768583416939, 0.017147116363048553, -0.08832551538944244, -0.16366057097911835, 0.02811981923878193, -0.10791482031345367, -0.023672815412282944, -0.13226869702339172, -0.05783774331212044, -0.0017007344868034124, 0.244586780667305, 0.29089120030403137, 0.0006774616776965559, -0.04693269357085228, -0.0817241296172142, -0.07518196105957031, -0.08471136540174484, 0.18933378159999847, -0.14824722707271576, -0.0923813134431839, 0.2466503083705902, 0.0024935691617429256, -0.16023875772953033, -0.12879997491836548, 0.07652083039283752, 0.043046824634075165, -0.005254261661320925, -0.09640752524137497, -0.07120773941278458, -0.033523574471473694, -0.12339238822460175, -0.09126780927181244, 0.08062803000211716, 0.21162007749080658, 0.03486178442835808, -0.11714348196983337, -0.24971580505371094, 0.0995400920510292, 0.012845829129219055, 0.11703742295503616, 0.08483585715293884, -0.10281208157539368, -0.030923424288630486, -0.07568550109863281, 0.010462231934070587, 0.1695694923400879, -0.058488279581069946, 0.02508743293583393, 0.10569591075181961, 0.0020754823926836252, 0.04847322031855583, -0.20101603865623474, 0.06731381267309189, 0.06840109825134277, 0.14667503535747528, 0.1561320722103119, -0.11225026100873947, 0.2654103636741638, 0.2325124889612198, -0.25027257204055786, 0.0359828919172287, 0.056844115257263184, 0.20541124045848846, -0.026640694588422775, 0.11763781309127808, 0.22366033494472504, 0.3113323450088501, -0.062208108603954315, 0.04888594523072243, -0.13000811636447906, 0.0042019677348434925, 0.04887767136096954, -0.0763283222913742, 0.056797370314598083, 0.15204541385173798, -0.0948430597782135, -0.15887406468391418, -0.09996392577886581, 0.057448502629995346, -0.019203342497348785, 0.11216185241937637, -0.07883619517087936, 0.033159323036670685, 0.009323185309767723, 0.020726051181554794, 0.14750519394874573, 0.008864372037351131, -0.2220975160598755, -0.0590791180729866, 0.16618192195892334, -0.12204238772392273, -0.1225898489356041, -0.13743238151073456, 0.045167215168476105, -0.13285230100154877, 0.03796198219060898, 0.029401075094938278, 0.051648564636707306, 0.01184562686830759, 0.10051406174898148, 0.003419827204197645, -0.1385633498430252, 0.08179018646478653, -0.2548159956932068, 0.19703926146030426, 0.06603752821683884, 0.12674224376678467, 0.1335974931716919, -0.053983502089977264, 0.2695571780204773, 0.12074541300535202, 0.11135580390691757, -0.13376286625862122, -0.1786685585975647, 0.23298656940460205, 0.010117428377270699, -0.3361389636993408, -0.06628408282995224, 0.09289777278900146, -0.026954952627420425, -0.1363811045885086, 0.04282870888710022, 0.10211992263793945, -0.04693925380706787, 0.07623142004013062, 0.10863486677408218, 0.05100759118795395, -0.054574597626924515, -0.19782286882400513, -0.13681140542030334, -0.18033476173877716, -0.04943913221359253, 0.007683221250772476, 0.014377126470208168, -0.14401352405548096, -0.049718618392944336, 0.0579921156167984, 0.04281925782561302, 0.03498857840895653, -0.08328422158956528, -0.04207858443260193, 0.2184055596590042, 0.16611042618751526, -0.13802030682563782, 0.11734829843044281, -0.004033541772514582, -0.18274244666099548, -0.028592197224497795, 0.1260288655757904, -0.19893202185630798, -0.006726503372192383, 0.022227536886930466, 0.1276041716337204, -0.33161303400993347, -0.2448781579732895, 0.1374845802783966, 0.14558829367160797, -0.06927958875894547, -0.19752530753612518, 0.07527697086334229, 0.16171333193778992, -0.12457166612148285, 0.2874623239040375, -0.09766463190317154, -0.11301136761903763, 0.2502475380897522, -0.3740360140800476, -0.09152824431657791, 0.05314963683485985, -0.03741540014743805, 0.31563717126846313, -0.13950079679489136, 0.049239546060562134, 0.13221238553524017, 0.07949419319629669, -0.04395660385489464, -0.07557682693004608, -0.09746651351451874, 0.11840204894542694, 0.279278427362442, 0.0685439184308052, 0.03962390497326851, -0.2226087599992752, -0.22123098373413086, 0.07457194477319717, 0.20370011031627655, -0.10560538619756699, 0.07888317108154297, -0.3943719267845154, 0.02969881147146225, -0.18620826303958893, -0.34443196654319763, 0.1250375360250473, -0.06532076001167297, -0.2306942492723465, 0.017320428043603897, 0.06707420945167542, -0.24017341434955597, 0.04934990778565407, 0.021894194185733795, 0.09304631501436234, 0.16101044416427612, -0.032443106174468994, -0.0028154118917882442, 0.08890926837921143, -0.050231657922267914, 0.04825057461857796, -0.12273991852998734, -0.031163685023784637, 0.3605848252773285, 0.26442742347717285, 0.09550844877958298, 0.44505584239959717, 0.08526645600795746, -0.10971978306770325, -0.25241029262542725, -0.0813899114727974, -0.1767122596502304, -0.2520906329154968, 0.180442214012146, 0.18550890684127808, 0.05655857175588608, 0.1048714742064476, 0.03831901028752327, -0.049893103539943695, -0.09754538536071777, 0.08449476212263107, 0.0865594744682312, -0.14798450469970703, -0.1657443642616272, 0.13335104286670685, -0.1846754103899002, 0.08886423707008362, -0.005138646811246872, -0.18915052711963654, 0.023457517847418785, -0.1271979659795761, -0.17626245319843292, -0.2229868769645691, -0.4590959846973419, 0.11680029332637787, -0.10915885120630264, 0.16652995347976685, 0.21958553791046143, -0.0043178643099963665, 0.10478734970092773, -0.13036537170410156, 0.12987051904201508, 0.006810357328504324, 0.04125520586967468, 0.19776928424835205, 0.49693483114242554, -0.08617197722196579, 0.1251535266637802, -0.022962454706430435, 0.05603400245308876, 0.14736883342266083, -0.39464089274406433, 0.14785955846309662, 0.031617697328329086, 0.0038769596721976995, -0.04036838561296463, -0.4405922591686249, 0.18755164742469788, -0.18335862457752228, -0.20394393801689148, 0.35773906111717224, -0.04193618521094322, -0.06955211609601974, 0.16043926775455475, 0.11562294512987137, -0.018927710130810738, -0.26242345571517944, -0.10274230688810349, -0.013711483217775822, 0.1940506100654602, 0.07386273890733719, -0.022385405376553535, -0.1614294946193695, -0.2073403298854828, 0.1533859223127365, 0.2827719748020172, 0.09117011725902557, -0.039241574704647064, -0.0048643844202160835, 0.10638407617807388, -0.17495937645435333, -0.18480002880096436, 0.16974899172782898, 0.12311680614948273, -0.24754741787910461, 0.26504284143447876, -0.02981574647128582, -0.09043151140213013, -0.20769527554512024, -0.1942080855369568, 0.12751463055610657, 0.005579696502536535, 0.18188680708408356, 0.2107284665107727, -0.10915482044219971, -0.05702373757958412, -0.19131344556808472, -0.22443349659442902, -0.279800683259964, 0.09482619911432266, -0.1981847733259201, -0.09224586933851242, 0.1568673998117447, -0.2753140926361084, -0.19294299185276031, -0.23666825890541077, 0.023249877616763115, 0.0768652856349945, -0.09868188947439194, 0.1309681534767151, -0.0639529600739479, -0.12148837000131607, -0.14476026594638824, 0.19435472786426544, -0.001899430644698441, 0.0463983416557312, -0.05115954205393791, 0.01472260057926178, -0.05820881947875023, -0.021885424852371216, -0.2790824770927429, -0.02718193084001541, 0.01751898042857647, -0.27293920516967773, -0.1415218561887741, -0.08916457742452621, -0.24581384658813477, -0.11637727916240692, 0.11154519766569138, 0.18498173356056213, -0.0946236327290535, -0.07654348015785217, -0.04911120980978012, 0.009877407923340797, 0.09307144582271576, 0.10973048210144043, 0.05977542698383331, -0.042131174355745316, -0.11817582696676254, 0.3240264654159546, 0.2182944267988205, 0.12625759840011597, 0.05697326362133026, -0.07950007170438766, 0.696731448173523, 0.24783238768577576, 0.45826685428619385, -0.32867735624313354, 0.09606734663248062, -0.19208890199661255, -0.2403591424226761, -0.02298506535589695, -0.3014029562473297, 0.42096176743507385, 0.18609996140003204, -0.08163369446992874, 0.2702238857746124, 0.14896439015865326, 0.32583561539649963, 0.08824359625577927, -0.1225368082523346, 0.0014034089399501681, 0.19179201126098633, -0.2005559355020523, -0.03914476931095123, -0.3222000002861023, -0.012387245893478394, 0.04404435306787491, 0.21081528067588806, -0.06183156371116638, 0.03965933248400688, 0.007278310135006905, 0.005517988465726376, 0.20140337944030762, 0.6806672811508179, -0.05157706141471863, -0.5821691155433655, -0.11320536583662033, 0.02541561983525753, -0.22530309855937958, -0.09836600720882416, 0.00379257183521986, -0.18639777600765228, 0.19860397279262543, -0.17253169417381287, -0.11617308855056763, -0.003694219747558236, 0.02782384864985943, -0.027445921674370766, 0.10803587734699249, 0.08084281533956528, 0.2768915891647339, 0.24637916684150696, -0.06242087483406067, -0.06271984428167343, 0.027106933295726776, -0.2932634651660919, -0.12501327693462372, 0.12828603386878967, -0.0984758511185646, 0.18595848977565765, 0.29597508907318115, -0.07226090878248215, -0.03634798899292946, -0.14320595562458038, 0.1441832035779953, -0.12866148352622986, -0.16964282095432281, 0.01434736605733633, -0.12688294053077698, 0.2448294460773468, 0.0559590682387352, 0.005859327968209982, -0.16731218993663788, -0.10847777873277664, 0.03843408077955246, 0.2800763249397278, 0.042298171669244766, 0.08534134179353714, -0.17762529850006104, 0.033500269055366516, 0.03954644128680229, 0.12151782959699631, -0.010706753470003605, -0.16502788662910461, -0.12128569930791855, -0.2928589880466461, 0.056521572172641754, 0.04997849091887474, -0.14784686267375946, 0.12655524909496307, 0.2308182269334793, 0.01835170015692711, 0.059613294899463654, -0.2343720942735672, 0.13136343657970428, 0.43586045503616333, -0.32077160477638245, 0.0974888950586319, 0.19391214847564697, 0.03473460674285889, -0.028557762503623962, 0.07873081415891647, 0.10862059146165848, 0.055813174694776535, -0.06443090736865997, -0.2793102562427521, 0.39360398054122925, 0.05824131518602371, 0.13133469223976135, 0.06209734082221985, 0.1398554891347885, 0.07047159969806671, -0.19126109778881073, 0.007173670455813408, 0.17581236362457275, 0.10345295071601868, -0.012885554693639278, -0.23964154720306396, -0.31321337819099426, 0.021385613828897476, -0.11978715658187866, 0.21443581581115723, -0.01204755064100027, -0.021886250004172325, -0.24551549553871155, -0.05241113156080246, 0.2719845175743103, -0.14848974347114563, -0.011688743717968464, -0.278308629989624, 0.20765438675880432, -0.004454307723790407, -0.1286933273077011, -0.027818085625767708, -0.00891809444874525, -0.1012345403432846, 0.006396422162652016, 0.060346100479364395, -0.0992877334356308, 0.005770486313849688, -0.017202308401465416, 0.06620091199874878, 0.057952046394348145, 0.04278651624917984, 0.38765382766723633, -0.11887513846158981, -0.11017027497291565, 0.1917155683040619, -0.14875337481498718, 0.12789708375930786, 0.013020513579249382, -0.15948086977005005, -0.08552684634923935, 0.06445364654064178, 0.24504904448986053, 0.05550556629896164, 0.009618992917239666, 0.009044467471539974, -0.2265130877494812, -0.04650427773594856, -0.03764686360955238, 0.43965944647789, -0.17934851348400116, 0.47579097747802734, -1.01749587059021, -1.0570011138916016, -0.24346283078193665, 0.44379693269729614, -0.4025741517543793, 0.2403770536184311, 0.3842962384223938, -0.43163028359413147, 0.27084630727767944, -0.019541239365935326, -0.5727715492248535, -0.029599342495203018, -0.33730146288871765, -0.15536639094352722, -0.10817733407020569, 0.14964307844638824, -0.14208053052425385, -0.019360078498721123, 0.03952702507376671, 0.15218429267406464, -0.5265344381332397, -0.533711850643158, -0.07906308025121689, -0.13527345657348633, 0.10719066858291626, 0.1455405056476593, -0.14325930178165436, 0.056670501828193665, -0.04121198505163193, -0.1353839784860611, -0.25489184260368347, -0.018142683431506157, -0.4273897409439087, -0.002010015305131674, 0.08971162885427475, 0.1424034833908081, -0.1475345343351364, -0.01980193704366684, -0.012147234752774239, -0.15231215953826904, 0.18735763430595398, -0.09916549175977707, 0.1382111757993698, 0.12003419548273087, 0.014212031848728657, 0.02099217101931572, 0.29312020540237427, 0.03243919089436531, -0.07486579567193985, 0.3428490161895752, -0.21036092936992645, -0.34776571393013, 0.11041633784770966, 0.3026811182498932, -0.11997731029987335, -0.1192595511674881, -0.12824507057666779, -0.012326925061643124, -0.07700715959072113, 0.06228908151388168, 0.26826509833335876, -0.22069181501865387, 0.15563508868217468, -0.011548426933586597, 0.2180032581090927, 0.14892497658729553, 0.2627657651901245, 0.3867536187171936, -0.08669697493314743, -0.29809463024139404, -0.1903427392244339, -0.06837797164916992, -0.33406978845596313, 0.2606607675552368, 0.22387652099132538, -0.08681853115558624, -0.436978816986084, 0.21230028569698334, -0.08910449594259262, -0.04829346388578415, 0.1272970587015152, 0.2051784247159958, -0.07965242862701416, 0.024440301582217216, -0.1626458317041397, 0.24084244668483734, 0.0979490876197815, 0.12909166514873505, 0.1702561378479004, -0.125223308801651, -0.1821957230567932, -0.1909538209438324, -0.12781377136707306, -0.2114608883857727, 0.09442385286092758, 0.2199387401342392, 0.21108165383338928, -0.10166756808757782, 0.23176296055316925, -0.010212846100330353, 0.06055738776922226, 0.14663991332054138, 0.18446865677833557, -0.27958032488822937, 0.35210126638412476, -0.021595751866698265, -0.1327534317970276, -0.2632941007614136, 0.15675082802772522, -0.14384113252162933, -0.1785591095685959, -0.04857119545340538, -0.037106405943632126, 0.1693997085094452, -0.034777406603097916, 0.1002589538693428, 0.1308685690164566, -0.01778513193130493, 0.03419700264930725, 0.08706257492303848, -0.026289651170372963, 0.16254673898220062, 0.06474316865205765, 0.18588514626026154, -0.2114032357931137, -0.1159561425447464, 0.2841879427433014, -0.08712843060493469, 0.20358063280582428, 0.5398567914962769, -0.2605317533016205, 0.11634767800569534, 0.336441308259964, 0.24322764575481415, -0.06824273616075516, 0.08292491734027863, 0.06210010498762131, -0.10599003732204437, -0.00944060180336237, 0.2765347957611084, 0.15586765110492706, -0.2950422763824463, 0.041690316051244736, -0.03787395358085632, 0.007797813042998314, 0.3003803789615631, 0.042475298047065735, -0.09822484850883484, -0.07959625124931335, 0.07654096931219101, 0.0346543975174427, -0.015511393547058105, -0.12619473040103912, 0.08824438601732254, 0.02753511816263199, -0.00909839291125536, 0.042584456503391266, 0.08787698298692703, 0.18800640106201172, 0.11754699051380157, -0.021628469228744507, -0.048796147108078, -0.0008113126386888325, -0.0013843749184161425, -0.20924699306488037, -0.24164408445358276, -0.11071429401636124, 0.16882266104221344, -0.16533687710762024, 0.19613490998744965, 0.0356731116771698, 0.09358207881450653, -0.05066594108939171, -0.1846931129693985, 0.050108619034290314, -0.21184994280338287, -0.14931149780750275, -0.07069080322980881, -0.019552234560251236, 0.016066724434494972, -0.1727176159620285, 0.3875536620616913, -0.018052447587251663, -0.08322666585445404, -0.04689355567097664, -0.1700277179479599, 0.15500301122665405, 0.04008549824357033, -0.05452663078904152, 0.11383122950792313, -0.058313123881816864, -0.17328333854675293, -0.17555150389671326, -0.16273154318332672, -0.21059781312942505, -0.04825962707400322, 0.1903330385684967, -0.0648864358663559, 0.24223411083221436, 0.35531219840049744, 0.24045921862125397, -0.18795306980609894, 0.2977233827114105, -0.28854164481163025, -0.006467800587415695, -0.04293396323919296, 0.22149673104286194, 0.12347077578306198, 0.26128384470939636, -0.08419016003608704, 0.030963458120822906, -0.20055410265922546, -0.04125601798295975, 0.32536011934280396, 0.05268380045890808, -0.21367791295051575, -0.20416301488876343, -0.022562116384506226, 0.049276288598775864, 0.0784255862236023, -0.1949407160282135, -0.10767169296741486, 0.20787863433361053, 0.08341532200574875, 0.2761583626270294, 0.043177030980587006, 0.11358755826950073, -0.01962110586464405, 0.052416156977415085, 0.06955042481422424, 0.21134276688098907, -0.03609166666865349, -0.20403894782066345, -0.1432660073041916, -0.19319872558116913, -0.025252217426896095, -0.05898074060678482, 0.2698090076446533, -0.12493041902780533, 0.06890047341585159, 0.11014211177825928, -0.17074847221374512, -0.05164278671145439, 0.16029894351959229, 0.2727152109146118, -0.10673662275075912, 0.08703483641147614, -0.26509207487106323, 0.06844860315322876, -0.0426410473883152, -0.0030823422130197287, -0.05801219865679741, 0.16365453600883484, -0.12367985397577286, 0.19434083998203278, -0.22982318699359894, -0.1546562761068344, 0.09174845367670059, -0.22181366384029388, 0.3514804542064667, -0.49818968772888184, -0.08166628330945969, 0.1380622833967209, -0.20694921910762787, -0.14933554828166962, 0.1600952446460724, 0.12879978120326996, 0.20679980516433716, -0.14721356332302094, -0.25033456087112427, 0.029078040271997452, 0.028610317036509514, -0.08062688261270523, 0.027727406471967697, -0.048124171793460846, 0.026570016518235207, 0.058204520493745804, -0.06815192848443985, 0.101918064057827, 0.11639943718910217, 0.07401006668806076, -0.04068597033619881, -0.249188631772995, -0.07403766363859177, 0.10194117575883865, 0.11195288598537445, 0.0802018940448761, -0.11866025626659393, 0.316031813621521, 0.17291875183582306, 0.12939168512821198, -0.09028156846761703, 0.12865372002124786, -0.14865052700042725, 0.07269834727048874, 0.13831259310245514, -0.07725397497415543, 0.04778825864195824, 0.05387350916862488, -0.16158023476600647, 0.16547855734825134, -0.0856868103146553, 0.10527963936328888, -0.009728013537824154, 0.18290027976036072, -0.008865110576152802, 0.2511586844921112, 0.2924450933933258, 0.18260453641414642, -0.08025085926055908, 0.03587653487920761, -0.06774334609508514, 0.12981420755386353, 0.048288971185684204, 0.32342445850372314, 0.17620433866977692, 0.1604643613100052, -0.308411180973053, -0.19606877863407135, -0.3414180874824524, -0.29914283752441406, 0.055644817650318146, 0.22581221163272858, 0.19222572445869446, -0.012435542419552803, 0.1663849949836731, -0.10924410074949265, 0.135476753115654, -0.33244162797927856, -0.027246039360761642, -0.10040459036827087, -0.01674017310142517, -0.07903926819562912, 0.06719963252544403, -0.017857080325484276, 0.14791271090507507, -0.04442223533987999, -0.006071966607123613, -0.08676374703645706, -0.16943760216236115, -0.08952978253364563, 0.10557754337787628, 0.062012795358896255, 0.0722147673368454, 0.2680453658103943, 0.2046377956867218, -0.04773552715778351, -0.06825223565101624, 0.08581829816102982, 0.019969074055552483, -0.18991398811340332, -0.1274995356798172, 0.025518039241433144, 0.2806180715560913, -0.12524189054965973, -0.03388499468564987, -0.24114497005939484, -0.0842781662940979, 0.06917590647935867, 0.2420395016670227, 0.11889166384935379, 0.05751315876841545, -0.2228478640317917, 0.009565744549036026, -0.2296288013458252, 0.2568219006061554, -0.10379539430141449, -0.05683206394314766, 0.15909169614315033, -0.02514558844268322, -0.11780988425016403, 0.14472079277038574, -0.04813750088214874, -0.027534155175089836, 0.21039308607578278, 0.2348681539297104, 0.01447443850338459, -0.1488446444272995, 0.10024633258581161, -0.08078116923570633, -0.2096039056777954, -0.038140684366226196, 0.13586640357971191, 0.18570426106452942, 0.038302723318338394, 0.4298723042011261, -0.16513903439044952, -0.0239791851490736, 0.009807021357119083, -0.1534847766160965, -0.1515113264322281, 0.06095869839191437, 0.02588650770485401, 0.0060241976752877235, -0.10737895220518112, -0.02317994460463524, 0.16056574881076813, 0.2123604118824005, 0.20919619500637054, 0.0029534567147493362, -0.07626739144325256, -0.22914402186870575, -0.12521572411060333, -0.20233413577079773, 0.00043611100409179926, 0.09135986864566803, 0.048544593155384064, -0.2733045518398285, -0.06157582253217697, -0.3429907560348511, 0.305534303188324, 0.09630849957466125, -0.03353947773575783, -0.07093746215105057, 0.06595953553915024, -0.07035820186138153, 0.0881994217634201, 0.0687398836016655, 0.020252421498298645, -0.07464032620191574, 0.20405177772045135, 0.20989704132080078, -0.09652507305145264, -0.054363738745450974, -0.10184042900800705, 0.2528216242790222, -0.19788138568401337, -0.16210484504699707, 0.16346092522144318, -0.0667249783873558, 0.1444442868232727, 0.6006084084510803, 0.058597415685653687, 0.04418441653251648, -0.6136313080787659, 0.1791379302740097, 0.14141136407852173, -0.16437336802482605, -0.0907481387257576, 0.024282842874526978, 0.31337764859199524, -0.016027411445975304, 0.038716498762369156, 0.1389884054660797, -0.001266462029889226, 0.08562715351581573, 0.24032489955425262, 0.17351026833057404, -0.06579974293708801, -0.10425863415002823, 0.028272531926631927, -0.13800643384456635, -0.06300181895494461, 0.08835256099700928, 0.02431725338101387, -0.03121250681579113, -0.28758499026298523, -0.10461492091417313, 0.3800761103630066, 0.05729027837514877, 0.0513404943048954, -0.04327862709760666, -0.09799564629793167, -0.09611272066831589, -0.15406420826911926, 0.10079337656497955, 0.11280152201652527, -0.15046341717243195, 0.042494770139455795, 0.13602159917354584, -0.26847121119499207, -0.06400731950998306, -0.07946570962667465, 0.225533127784729, -0.19377492368221283, -0.10376875102519989, 0.19912868738174438, -0.04442448168992996, -0.005055297166109085, 0.2944203317165375, -0.012245221063494682, 0.20652273297309875, 0.02700120210647583, 0.13802994787693024, 0.029919538646936417, 0.023464374244213104, -0.0958317443728447, 0.08931957930326462, 0.0413590706884861, 0.05923563987016678, 0.030650386586785316, 0.14247769117355347, 0.02442779950797558, -0.07847603410482407, -0.022755946964025497, 0.19381558895111084, 0.029093433171510696, -0.11196629703044891, -0.06117090582847595, -0.04527062922716141, 0.023480817675590515, 0.12065549939870834, 0.008193525485694408, 0.02729444019496441, 0.046422116458415985, -0.05939183756709099, 0.2364930957555771, 0.059800077229738235, 0.00595701253041625, -0.09980941563844681, 0.12117034196853638, -0.05121678486466408, -0.2281830757856369, -0.04061141610145569, 0.10712077468633652, -0.12241427600383759, 0.0565343014895916, 0.11932653188705444, -0.10816966742277145, -0.13596172630786896, -0.14809013903141022, 0.03340490907430649, -0.20038576424121857, -0.16320502758026123, 0.255062460899353, -0.16126838326454163, 0.01194112841039896, -0.026327570900321007, -0.16706569492816925, -0.04291943833231926, 0.011320125311613083, -0.1026919037103653, 0.06109374761581421, 0.07174252718687057, -0.2646632194519043, -0.01589604839682579, -0.018308991566300392, -0.09679066389799118, 0.01875823363661766, 0.08889849483966827, -0.02600080892443657, -0.1623307168483734, -0.14604414999485016, 0.048858705908060074, -0.18830648064613342, -0.0457724966108799, 0.03653690963983536, 0.15145134925842285, 0.10134851187467575, -0.18008355796337128, -0.2051580399274826, 0.13863646984100342, -0.09459695965051651, 0.07693865150213242, -0.3093246519565582, 0.13798364996910095, 0.05967666208744049, 0.01021652016788721, -0.36918142437934875, 0.11361078917980194, -0.01725822128355503, -0.09106604009866714, -0.22409212589263916, -0.1324109435081482, -0.1976727843284607, -0.09181905537843704, 0.05888742208480835, 0.11844739317893982, 0.03658628836274147, -0.12369082123041153, 0.07784165441989899, 0.14093773066997528, -0.2636373043060303, 0.0860552191734314, 0.052059706300497055, -0.10430756956338882, -0.059033479541540146, -0.08336102962493896, 0.00604204460978508, -0.09155502915382385, -0.02805822156369686, 0.24460835754871368, -0.07305048406124115, -0.13353464007377625, -0.1763744056224823, 0.056502655148506165, 0.11540713906288147, -0.04910804703831673, 0.1833338886499405, 0.11634986847639084, 0.04523327946662903, 0.006431811023503542, 0.06293380260467529, 0.21415674686431885, -0.1590661257505417, -0.03707561269402504, 0.04407937452197075, -0.18128512799739838, -0.04228851571679115, 0.11615795642137527, 0.09175977855920792, 0.08638101071119308, -0.2728315591812134, -0.0519440695643425, 0.10049793869256973, -0.02541452832520008, 0.02842874638736248, -0.4438409209251404, 0.049854520708322525, -0.1487109512090683, 