{"version": "0.5.4", "metadata": {"date": {"year": 2025, "month": 12, "day": 14, "hour": 15, "minute": 10, "second": 58}, "loudness": -12.571588516235352, "gain": 0.7832913756399166}, "architecture": "WaveNet", "config": {"layers": [{"input_size": 1, "condition_size": 1, "head_size": 8, "channels": 16, "kernel_size": 3, "dilations": [1, 2, 4, 8, 16, 32, 64, 128, 256, 512], "activation": "Tanh", "gated": false, "head_bias": false}, {"input_size": 16, "condition_size": 1, "head_size": 1, "channels": 8, "kernel_size": 3, "dilations": [1, 2, 4, 8, 16, 32, 64, 128, 256, 512], "activation": "Tanh", "gated": false, "head_bias": true}], "head": null, "head_scale": 0.02}, "weights": [-0.03955989331007004, 0.5592778921127319, -0.9637883305549622, -0.8117098808288574, -0.3204922676086426, 0.213507279753685, 0.009972927160561085, 0.7933863997459412, -0.27040377259254456, 0.2980808615684509, -0.17668244242668152, -0.15953871607780457, -0.9072561264038086, -0.6863159537315369, -0.2647508382797241, 0.17788465321063995, 0.14953315258026123, 0.33446717262268066, -0.3202398717403412, -0.12676048278808594, -0.20828990638256073, 0.28200945258140564, 0.012044263072311878, 0.37365245819091797, -0.17432233691215515, 0.06804069876670837, 0.3897802233695984, -0.2921343743801117, -0.019971992820501328, 0.21925024688243866, -0.22169679403305054, 0.06951659172773361, -0.3507819175720215, 0.09551484882831573, -0.013776562176644802, 0.03627670183777809, -0.257903128862381, 0.07171600311994553, -0.1992795616388321, 0.22394981980323792, 0.08528649806976318, 0.20721901953220367, -0.15887445211410522, -0.1844041496515274, -0.34842750430107117, 0.10128862410783768, 0.13766106963157654, 0.33166101574897766, -0.22204992175102234, 0.061437785625457764, 0.33700600266456604, -0.037992049008607864, 0.10912364721298218, 0.27736929059028625, -0.06525257974863052, -0.025398749858140945, 0.2863595187664032, -0.26984623074531555, -0.04559038206934929, 0.1830090880393982, -0.09017477929592133, -0.058758221566677094, -0.304185688495636, 0.2920109033584595, -0.17102587223052979, 0.13441145420074463, -0.18061596155166626, 0.26150837540626526, -0.09576742351055145, 0.2614571452140808, -0.3310498297214508, 0.1374741792678833, -0.05991164967417717, -0.10625839978456497, 0.31148600578308105, 0.006605968810617924, -0.19979436695575714, 0.06253080070018768, -0.11445105075836182, 0.12205087393522263, -0.32481077313423157, 0.23603597283363342, 0.02868025377392769, 0.032617416232824326, -0.129392609000206, 0.19464415311813354, -0.2114264816045761, 0.04908357560634613, -0.1622280478477478, 0.1333487629890442, -0.06284652650356293, 0.2926226854324341, -0.07969006150960922, 0.1776326447725296, -0.35071229934692383, 0.08128254860639572, -0.0535711832344532, -0.19905830919742584, 0.05986035615205765, -0.219223752617836, -0.09056246280670166, 0.28007471561431885, -0.18049466609954834, -0.25544726848602295, 0.05467647686600685, -0.11925575137138367, -0.3268415033817291, 0.069420225918293, -0.1292947381734848, 0.2933526635169983, -0.24486757814884186, 0.2536140978336334, -0.10956622660160065, 0.13423983752727509, 0.23801065981388092, -0.05144131928682327, -0.008827528916299343, -0.09060042351484299, -0.05410761013627052, -0.0007852360140532255, 0.1396227478981018, -0.06482335925102234, -0.09849662333726883, 0.16167773306369781, -0.19575601816177368, -0.10193096101284027, 0.06699825078248978, 0.0032353028655052185, -0.02627432346343994, -0.21942663192749023, -0.06779157370328903, 0.0002371144510107115, -0.06018219515681267, 0.06737218797206879, 0.130338653922081, -0.11016523092985153, -0.05472814291715622, -0.012414366938173771, 0.170088991522789, 0.15212318301200867, 0.1458061784505844, -0.02434079349040985, 0.07429821789264679, -0.02789502777159214, -0.03159021958708763, -0.12486346811056137, 0.08062580227851868, 0.10648395866155624, -0.1436125785112381, -0.1390141099691391, -0.03956253081560135, -0.19023919105529785, -0.05478103086352348, 0.17639252543449402, 0.012199421413242817, -0.1608225554227829, 0.1762898713350296, -0.06599386036396027, -0.047772858291864395, -0.23369456827640533, 0.010410014539957047, 0.06761050224304199, -0.21619679033756256, -0.18379755318164825, -0.10836993902921677, 0.07598543167114258, -0.013639373704791069, 0.14330454170703888, -0.18920795619487762, 0.048414990305900574, 0.2125939279794693, -0.1291029304265976, 0.18574480712413788, 0.12717968225479126, -0.20813344419002533, 0.03736400976777077, -0.09959564357995987, 0.01590903289616108, 0.061637189239263535, -0.10339858382940292, -0.017601031810045242, -0.08624173700809479, 0.01435831282287836, 0.11309462040662766, 0.10763207077980042, 0.12527090311050415, -0.13381797075271606, -0.0798087790608406, -0.1865987330675125, 0.1686713695526123, 0.15159881114959717, 0.17107604444026947, -0.1743568480014801, 0.05956267938017845, -0.021457716822624207, -0.16377216577529907, -0.023499660193920135, 0.13637609779834747, -0.15483185648918152, 0.05386315658688545, 0.09023477882146835, 0.014887116849422455, -0.05770086124539375, -0.014323617331683636, -0.14859482645988464, 0.029805069789290428, -0.1022992879152298, 0.2602189779281616, -0.20734761655330658, 0.30507564544677734, 0.12996718287467957, 0.202793151140213, -0.27293944358825684, -0.17926174402236938, -0.22630564868450165, 0.3030901551246643, 0.03297969326376915, -0.29901954531669617, 0.40413588285446167, 0.03345125913619995, -0.2451731115579605, 0.43091779947280884, 0.19673368334770203, 0.22243022918701172, -0.40945926308631897, -0.07779859006404877, -0.1675090491771698, 0.20427417755126953, 0.01447579637169838, 0.20147645473480225, -0.28547564148902893, -0.030526157468557358, -0.21324364840984344, 0.4308168888092041, 0.23623380064964294, 0.14407429099082947, -0.21920880675315857, -0.23911313712596893, -0.2889707684516907, 0.30795708298683167, 0.17986784875392914, -0.1327209621667862, 0.2326785922050476, 0.13606852293014526, -0.15259405970573425, 0.15063787996768951, 0.24896717071533203, -0.3419201374053955, 0.29078179597854614, 0.12362184375524521, -0.30916839838027954, 0.2879590094089508, 0.24817600846290588, 0.23787516355514526, -0.3984959125518799, -0.17823630571365356, -0.21644043922424316, 0.10884557664394379, 0.07038314640522003, 0.022763529792428017, -0.10482381284236908, -0.019140763208270073, -0.04778933897614479, 0.12870867550373077, 0.14040523767471313, -0.16961351037025452, -0.017023921012878418, 0.14008274674415588, 0.005144004710018635, 0.06625358015298843, 0.03588079288601875, 0.05036270618438721, -0.16646459698677063, -0.07757796347141266, -0.07184091955423355, -0.05685802921652794, 0.20803047716617584, 0.030391693115234375, -0.040318530052900314, -0.0593428872525692, -0.10306506603956223, -0.037690721452236176, 0.024565517902374268, 0.22486186027526855, -0.012219005264341831, 0.004677810240536928, -0.15242229402065277, 0.07119252532720566, 0.06310644000768661, -0.11341119557619095, -0.05684766173362732, 0.15535444021224976, -0.07743129879236221, 0.017394689843058586, 0.06451557576656342, -0.20612064003944397, 0.1232895478606224, -0.0031610422302037477, -0.05493290722370148, -0.025572529062628746, 0.020652499049901962, 0.13671867549419403, -0.11725457012653351, -0.12984293699264526, -0.0057865651324391365, -0.12016398459672928, 0.18429288268089294, 0.13029229640960693, 0.09166567772626877, -0.1402176320552826, -0.1858288049697876, -0.06628141552209854, 0.15435482561588287, -0.12401280552148819, 0.013842852786183357, 0.21208778023719788, -0.1389257162809372, -0.025875406339764595, 0.18732811510562897, 0.07890971004962921, 0.041738275438547134, -0.110760897397995, -0.10982963442802429, 0.015905439853668213, 0.18113115429878235, 0.20018748939037323, 0.12252571433782578, -0.09827204048633575, 0.0061265635304152966, -0.0841892883181572, 0.047239940613508224, -0.057795315980911255, 0.16222243010997772, -0.04701514169573784, -0.15658622980117798, 0.0248698890209198, 0.21828095614910126, 0.08013873547315598, 0.10001525282859802, 0.2440313696861267, -0.10552036762237549, -0.09040194749832153, 0.23142480850219727, 0.007617877330631018, -0.12145247310400009, 0.24885815382003784, 0.00413472019135952, 0.04186190664768219, 0.02081705629825592, 0.11357863992452621, -0.0574287548661232, -0.10874564945697784, -0.028500260785222054, -0.09797333180904388, 0.0003314344503451139, 0.09289048612117767, 0.10915783792734146, 0.09765667468309402, -0.11709797382354736, -0.1293751299381256, -0.13531406223773956, -0.16654348373413086, -0.27314653992652893, 0.07998522371053696, 0.044299375265836716, -0.014847997575998306, 0.09205783903598785, -0.1034788191318512, 0.05924990028142929, 0.002711453242227435, -0.14182062447071075, -0.09319213777780533, -0.30113422870635986, -0.04286393150687218, 0.023612041026353836, -0.047974880784749985, 0.09438110142946243, -0.04481630027294159, 0.0860157385468483, 0.13034376502037048, 0.2697513997554779, -0.0216173455119133, 0.04946243017911911, -0.02345258742570877, 0.015357812866568565, 0.11599530279636383, -0.07354527711868286, 0.07155366986989975, -0.07878058403730392, -0.09229491651058197, -0.01732240617275238, -0.06290319561958313, -0.23791711032390594, -0.10899490118026733, -0.1280977874994278, -0.05500885471701622, 0.06965959817171097, 0.037512265145778656, 0.0309792160987854, 0.07286014407873154, 0.14301416277885437, -0.08959855884313583, -0.006317595485597849, 0.11699438095092773, 0.1733296811580658, -0.1436411291360855, 0.1416473537683487, -0.006366401445120573, -0.018517572432756424, 0.08619577437639236, -0.19544903934001923, 0.01545758731663227, 0.13804766535758972, -0.10700758546590805, -0.06198088452219963, -0.054889556020498276, 0.06720730662345886, -0.07817161083221436, 0.014748465269804, 0.025900935754179955, -0.004897051025182009, -0.09219968318939209, 0.11929205805063248, 0.025305286049842834, 0.08961920440196991, -0.23275943100452423, 0.041411902755498886, -0.12119930237531662, 0.039902519434690475, -0.00816300604492426, -0.08227656036615372, -0.0424843467772007, 0.16843044757843018, 0.0322917141020298, -0.19671368598937988, 8.976292156148702e-05, 0.03728843852877617, -0.22310608625411987, 0.10628224164247513, -0.1197904646396637, -0.24864573776721954, -0.09595248848199844, -0.01222950778901577, -0.008532493375241756, -0.09557901322841644, 0.07616650313138962, 0.0637035220861435, -0.030952386558055878, -0.04784229397773743, -0.09245418757200241, 0.18390364944934845, 0.16952399909496307, 0.13576729595661163, 0.035138919949531555, -0.19008435308933258, 0.11626973003149033, 0.036013901233673096, -0.031336523592472076, -0.11154244840145111, -0.0052328817546367645, -0.2273911088705063, -0.04700970649719238, 0.06605856865644455, -0.01936176046729088, 0.032236646860837936, 0.029956035315990448, 0.13467545807361603, 0.07961677759885788, -0.0026914775371551514, 0.0546128936111927, 0.05884517356753349, 0.10077794641256332, 0.0016800162848085165, 0.01846763864159584, 0.11461079865694046, -0.049184706062078476, -0.13623017072677612, 0.016474608331918716, -0.16174474358558655, 0.07681486755609512, -0.06326134502887726, -0.15232187509536743, -0.10160965472459793, 0.11981388181447983, -0.1127394288778305, 0.10857004672288895, 0.12145647406578064, -0.016856277361512184, 0.009934228844940662, -0.004509955644607544, -0.12189824879169464, 0.018338656052947044, 0.09721262753009796, -0.0020068285521119833, 0.08401045948266983, -0.08735774457454681, -0.3359110355377197, -0.1692032814025879, 0.25270503759384155, 0.3570159673690796, -0.04057725518941879, -0.009754638187587261, -0.14073237776756287, -0.00651575019583106, 0.2226179540157318, -0.293764591217041, -0.041029855608940125, 0.17031218111515045, -0.2682854235172272, -0.03703443706035614, 0.07081204652786255, 0.30104461312294006, 0.043994802981615067, -0.16654422879219055, 0.019905468448996544, -0.010070089250802994, 0.03259718045592308, 0.2251644879579544, 0.1649140566587448, -0.12711384892463684, -0.1810278296470642, -0.11695171147584915, 0.18322744965553284, 0.10303173959255219, -0.013301249593496323, -0.19863152503967285, -0.06832822412252426, -0.10958032310009003, 0.11687217652797699, -0.28869912028312683, 0.05720030888915062, 0.2549263834953308, -0.32452768087387085, -0.19828414916992188, 0.0052013820968568325, -0.22010642290115356, -0.11867962032556534, 0.02221974916756153, -0.26264411211013794, -0.055078137665987015, 0.033329226076602936, 0.29240041971206665, 0.029745813459157944, -0.21292699873447418, 0.31388068199157715, -0.07118917256593704, -0.02551875077188015, -0.27181434631347656, 0.14562588930130005, 0.0964425653219223, 0.13759784400463104, -0.32807788252830505, 0.17360177636146545, 0.18424266576766968, -0.17173650860786438, 0.020376356318593025, 0.24376565217971802, -0.2361922264099121, 0.13398748636245728, -0.2549947202205658, 0.06797883659601212, -0.10366696864366531, 0.08071468025445938, -0.15591751039028168, -0.02674279920756817, -0.13496366143226624, 0.16467103362083435, -0.052617862820625305, 0.372810035943985, -0.17639388144016266, 0.13119624555110931, -0.18681453168392181, 0.1555808037519455, -0.12330237030982971, 0.24544155597686768, -0.06643286347389221, -0.016458900645375252, 0.14856387674808502, -0.1306459903717041, 0.1821911334991455, 0.23403465747833252, -0.31118857860565186, -0.09423588216304779, 0.3050471842288971, -0.21135388314723969, -0.041185058653354645, 0.2979326844215393, -0.13309763371944427, 0.1523565798997879, -0.21757112443447113, 0.22537913918495178, -0.18956974148750305, -0.07603725790977478, -0.077180877327919, 0.1741710752248764, 0.036674514412879944, 0.08893926441669464, 0.06812907755374908, 0.16607233881950378, -0.09137862920761108, -0.07063678652048111, -0.027475198730826378, -0.31326907873153687, 0.1920212358236313, -0.034036777913570404, -0.26744991540908813, 0.14341455698013306, -0.09105757623910904, 0.14288175106048584, -0.07758830487728119, -0.04956687241792679, -0.26807281374931335, 0.2826635241508484, -0.08757985383272171, 0.26594623923301697, 0.06800397485494614, 0.10132136940956116, -0.20362423360347748, 0.21691997349262238, -0.012938826344907284, 0.13324914872646332, 0.05614015460014343, 0.06836330890655518, -0.33751118183135986, 0.01798705942928791, -0.06325200945138931, -0.07234342396259308, 0.05853422358632088, -0.10410088300704956, -0.2227730005979538, 0.14477159082889557, 0.06136452034115791, -0.16806486248970032, 0.07392566651105881, 0.08573488891124725, -0.23648852109909058, 0.0013222057605162263, -0.1508706957101822, 0.07779911160469055, -0.10590176284313202, -0.18629363179206848, 0.20832067728042603, -0.08503921329975128, 0.0855155736207962, -0.29548731446266174, 0.2421620786190033, -0.15859530866146088, 0.32148003578186035, -0.2128819078207016, -0.10700246691703796, 0.2833661139011383, -0.16051164269447327, 0.03976354002952576, 0.10265211760997772, -0.23146840929985046, 0.008854457177221775, -0.17757436633110046, 0.23563440144062042, -0.08152221143245697, 0.2639111280441284, 0.00355148664675653, 0.041019145399332047, -0.10138874500989914, -0.006615991238504648, -0.06359351426362991, 0.3450917601585388, -0.13535445928573608, 0.18898725509643555, -0.23643453419208527, 0.2334313541650772, -0.2200489342212677, 0.1642373502254486, -0.1344568133354187, -0.03913221135735512, 0.24268533289432526, -0.013788348995149136, -0.09338843822479248, 0.1996619701385498, -0.004670371301472187, -0.11095385253429413, 0.3287140130996704, -0.197837695479393, -0.0980854257941246, 0.1821335405111313, -0.045874133706092834, 0.1938677877187729, -0.21035505831241608, 0.04867840185761452, -0.2994626760482788, -0.25141918659210205, -0.05897994339466095, 0.23490789532661438, 0.33258795738220215, 0.2127276360988617, -0.3021390736103058, -0.371803343296051, 0.02616337314248085, -0.4218343496322632, -0.20861627161502838, -0.057447727769613266, -0.3885646164417267, -0.1859288364648819, -0.20211340487003326, 0.3446301221847534, 0.15005679428577423, 0.06638029217720032, -0.04718901962041855, 0.10177364200353622, -0.12569817900657654, 0.40675705671310425, 0.22644902765750885, 0.0144003015011549, -0.4580761194229126, -0.385794997215271, 0.04268403351306915, 0.2900872528553009, 0.2590104341506958, 0.1266651600599289, -0.22682441771030426, -0.13407383859157562, 0.020949356257915497, -0.4297867715358734, -0.2683911621570587, -0.16483500599861145, -0.3984725773334503, -0.20826265215873718, 0.05208029970526695, -0.4317033886909485, -0.1571638435125351, -0.15486213564872742, -0.3429754674434662, -0.12446866929531097, -0.1066645160317421, 0.35503438115119934, 0.119290791451931, 0.17193244397640228, 0.03161344304680824, -0.3847945034503937, 0.18259623646736145, -0.11067873239517212, 0.18030500411987305, -0.09086945652961731, 0.13347363471984863, -0.33867326378822327, 0.15210378170013428, 0.1353207379579544, -0.20369082689285278, 0.018747014924883842, -0.006563733331859112, -0.3306300640106201, -0.008074197918176651, -0.01923450641334057, 0.3976251780986786, 0.022336356341838837, 0.0020935714710503817, -0.18919715285301208, 0.11316566169261932, 0.09411671757698059, 0.2390199452638626, -0.1853020191192627, 0.04637935012578964, -0.22887451946735382, -0.016440030187368393, 0.1092369556427002, 0.33274659514427185, -0.20421451330184937, -0.009615693241357803, -0.16085544228553772, -0.022716516628861427, -0.017649199813604355, -0.22581279277801514, -0.003251532092690468, 0.08905346691608429, -0.22176037728786469, 0.177628755569458, -0.0782439336180687, -0.15437722206115723, 0.009127694182097912, 0.16159184277057648, -0.41640397906303406, -0.031488995999097824, 0.06564830243587494, 0.2661919593811035, -0.1854550838470459, -0.06967947632074356, -0.0656566172838211, -0.004331611562520266, -0.08778993785381317, 0.028839346021413803, 0.05330803617835045, -0.019475869834423065, -0.018032720312476158, 0.10411103814840317, 0.11900432407855988, -0.0157525222748518, -0.007673959247767925, -0.022182289510965347, -0.05499522387981415, -0.17674753069877625, -0.062037236988544464, 0.5858471393585205, -0.30406174063682556, 0.6954711079597473, -0.6223630309104919, -0.14756645262241364, 0.7880340814590454, 0.8661355972290039, -0.5255932211875916, 0.1429261416196823, 0.08426453173160553, -0.5635668039321899, -0.3704974949359894, 0.22018177807331085, -0.585340678691864, 0.23803000152111053, 0.3415756821632385, -0.25278934836387634, -0.2048858404159546, -0.10646931082010269, 0.07938896119594574, 0.14938509464263916, -0.2614763379096985, 0.05954974144697189, 0.08923612534999847, -0.006710721645504236, -0.15517762303352356, 0.10143950581550598, 0.21684537827968597, 0.092378169298172, -0.12577204406261444, 0.10573103278875351, 0.03809736669063568, 0.6594825983047485, -0.17171858251094818, -0.269690603017807, 0.16222253441810608, -0.4514681398868561, -0.09398157894611359, -0.27609485387802124, -0.29038897156715393, -0.003814851399511099, 0.04220446199178696, -0.7028122544288635, 0.09680432081222534, -0.15904095768928528, -0.09801071137189865, 0.27499210834503174, -0.04649460315704346, 0.07102493941783905, 0.013211963698267937, -0.06961911171674728, 0.2959647476673126, 0.0497814305126667, -0.1885899305343628, 0.038817621767520905, -0.3037101924419403, -0.18085838854312897, -0.28190627694129944, 0.09090621769428253, -0.12183308601379395, 0.09745153039693832, 0.48680761456489563, 0.40745359659194946, 0.009861904196441174, 0.04696270078420639, -0.1600031703710556, 0.005392434541136026, -0.19583123922348022, -0.18838946521282196, -0.034133926033973694, -0.01804593950510025, 0.073121078312397, -0.10552079230546951, -0.08194811642169952, 0.044692594558000565, 0.1691513955593109, 0.15313419699668884, 0.07268520444631577, -0.12422813475131989, 0.020920217037200928, -0.32224923372268677, -0.25983917713165283, -0.15352913737297058, 0.2429267317056656, -0.2753829061985016, 0.01632441021502018, 0.068299300968647, -0.26013854146003723, 0.1028946191072464, 0.08417513966560364, -0.1482187956571579, 0.4451403319835663, 0.04144774377346039, -0.06252733618021011, -0.2815015912055969, 0.10588162392377853, -0.1450733244419098, -0.0021793830674141645, 0.046572454273700714, 0.09475519508123398, 0.2518651783466339, 0.18436135351657867, 0.1575794816017151, 0.06720241159200668, 0.14714547991752625, -0.06594590842723846, -0.21020659804344177, -0.11767677217721939, 0.0008161141886375844, -0.12738780677318573, -0.14330139756202698, 0.0001797856530174613, 0.1178085207939148, 0.06446851789951324, 0.2262367606163025, 0.15252719819545746, -0.2630603015422821, -0.1954042911529541, 0.09736142307519913, 0.006868087686598301, 0.0847892314195633, -0.2409040480852127, -0.32380640506744385, 0.1942104995250702, 0.12141641229391098, -0.20110377669334412, 0.06990563869476318, -0.2128022462129593, 0.245670884847641, 0.25510838627815247, 0.2985157370567322, -0.24332916736602783, -0.2394932061433792, 0.24858316779136658, 0.3211689591407776, 0.12712304294109344, 0.12555114924907684, -0.05120833218097687, 0.21979880332946777, -0.3411848247051239, 0.11805321276187897, -0.16024760901927948, -0.24119049310684204, 0.05261505767703056, -0.22951923310756683, -0.4064885377883911, -0.20435601472854614, -0.299436092376709, 0.19342991709709167, -0.2186686247587204, -0.11215545982122421, 0.0645727589726448, -0.1411852389574051, -0.22681452333927155, 0.27132004499435425, 0.43654048442840576, 0.09859766811132431, -0.27246496081352234, 0.16610033810138702, 0.19152991473674774, -0.29536283016204834, -0.10030676424503326, 0.3883771300315857, -0.4083772897720337, -0.5730838179588318, 0.11332318931818008, 0.3359605073928833, 0.006566100288182497, 0.31027865409851074, 0.3902885317802429, 0.2779301702976227, 0.12115267664194107, 0.4386303722858429, -0.29717570543289185, -0.15502415597438812, 0.23548200726509094, 0.2537477910518646, 0.2769721746444702, -0.15529672801494598, 0.09877154231071472, -0.033481210470199585, -0.12142710387706757, 0.09638159722089767, -0.008045735768973827, 0.03946741297841072, -0.13232915103435516, -0.13245591521263123, -0.17441986501216888, -0.12441650032997131, 0.20517092943191528, 0.24074266850948334, 0.2233201414346695, 0.2014235556125641, 0.07471625506877899, -0.13172872364521027, 0.31175804138183594, -0.1224440485239029, -0.28042298555374146, -0.28845348954200745, -0.2769506573677063, -0.2647286355495453, -0.5360422730445862, -0.283820778131485, -0.05242020636796951, -0.26128894090652466, 0.4813356101512909, -0.2955239415168762, -0.42249220609664917, -0.1670922040939331, -0.29137569665908813, 0.06820157915353775, 0.003943667281419039, -0.15757720172405243, -0.29295945167541504, -0.03350703418254852, 0.1949605494737625, 0.3237323760986328, -0.13987044990062714, -0.1627017706632614, 0.4269163906574249, 0.248536616563797, -0.3923901915550232, -0.018096160143613815, 0.25937873125076294, -0.3186485767364502, -0.3462361991405487, -0.03386364504694939, 0.08284031599760056, -0.23054289817810059, 0.06280211359262466, 0.2893579602241516, 0.20284686982631683, -0.0007361284224316478, -0.11926301568746567, 0.16290178894996643, 0.28942206501960754, 0.00849295686930418, -0.2133292555809021, -0.1598024219274521, 0.36425456404685974, 0.15044796466827393, 0.2757425606250763, 0.09214797616004944, -0.19732914865016937, 0.39628297090530396, 0.24641437828540802, 0.3453803062438965, 0.23739123344421387, -0.22251641750335693, 0.3563038408756256, 0.11887592077255249, -0.3251376152038574, 0.2795008420944214, 0.297314316034317, -0.11549674719572067, 0.051419880241155624, 0.05123836547136307, 0.004140193108469248, 0.40032756328582764, -0.25125202536582947, -0.4496929943561554, 0.3587588369846344, 0.31441736221313477, 0.4100094437599182, 0.12231248617172241, 0.06316124647855759, 0.14395037293434143, -0.2219356894493103, 0.28070035576820374, -0.18095354735851288, 0.19802826642990112, 0.24287787079811096, 0.09078896045684814, -0.019855579361319542, 0.1078239232301712, -0.1971864402294159, -0.15781241655349731, -0.0460936613380909, 0.07163283973932266, -0.02700129896402359, 0.0725049078464508, -0.13850221037864685, 0.13941305875778198, -0.19312438368797302, -0.030145181342959404, 0.015500507317483425, 0.05875566974282265, 0.001038676011376083, 0.09024849534034729, 0.0426139198243618, -0.1208534687757492, -0.04210353642702103, -0.5373625159263611, -0.0539262518286705, 0.02631186880171299, 0.14340391755104065, 0.05942530184984207, -0.2948386073112488, -0.020138127729296684, 0.03324039280414581, -0.3220997750759125, -0.18544413149356842, 0.3052937984466553, 0.3383154571056366, 0.19131667912006378, 0.2165999859571457, -0.11800623685121536, -0.4337511956691742, 0.13025598227977753, 0.07785799354314804, -0.18215426802635193, -0.39195477962493896, 0.0193263441324234, 0.339267760515213, -0.08689755946397781, -0.21635285019874573, -0.10263790935277939, -0.39204293489456177, 0.22350893914699554, 0.09191948175430298, -0.09846431016921997, -0.22642244398593903, -0.10284829884767532, 0.2777838408946991, -0.405281126499176, -0.05722269415855408, 0.5489020943641663, -0.1704467386007309, -0.08562496304512024, 0.47746792435646057, 0.14470252394676208, 0.5247740149497986, -0.22635717689990997, 0.21741436421871185, -0.13371680676937103, -0.3748902976512909, -0.00166831084061414, 0.07048479467630386, 0.14524812996387482, -0.17019782960414886, -0.22670653462409973, 0.11557109653949738, -0.09999988228082657, -0.08439314365386963, 0.2881322503089905, -0.22767098248004913, 0.0450098030269146, 0.050995998084545135, 0.03412846848368645, -0.11143752932548523, 0.14927658438682556, -0.004306689836084843, -0.036873213946819305, -0.08304183930158615, -0.012577404268085957, -0.11516930162906647, -0.25386059284210205, 0.2729257643222809, 0.048341184854507446, -0.1322679966688156, -0.2816102206707001, 0.1309303492307663, -0.24971355497837067, 0.19320160150527954, 0.12182867527008057, -0.2704562544822693, -0.03067535161972046, -0.21793116629123688, -0.09861073642969131, -0.2501053810119629, -0.2074248492717743, 0.31608107686042786, -0.2343631535768509, -0.1816992163658142, 0.038975171744823456, -0.0504826195538044, -0.06676321476697922, 0.10611823201179504, 0.0999016985297203, 0.08498263359069824, -0.2005288451910019, 0.10867264121770859, 0.19360066950321198, -0.28361839056015015, -0.22158360481262207, -0.2594573199748993, -0.14445094764232635, 0.05846478044986725, 0.07275139540433884, 0.5217697620391846, -0.02525290474295616, 0.14723776280879974, -0.23121537268161774, 0.2614634335041046, 0.12095685303211212, 0.005677924957126379, 0.23186343908309937, 0.11676577478647232, 0.09313793480396271, 0.056346967816352844, -0.047307565808296204, -0.3179677128791809, -0.35203617811203003, -0.4993249475955963, 0.3863872289657593, -0.17128504812717438, -0.17365145683288574, 0.3815121650695801, -0.2701990008354187, -0.48222291469573975, 0.048894211649894714, -0.08030381053686142, 0.004494098946452141, 0.24378256499767303, -0.21760204434394836, -0.22503598034381866, 0.021526947617530823, 0.2334248274564743, 0.16807079315185547, -0.3011707067489624, -0.010129689238965511, -0.3234890401363373, 0.09799806028604507, -0.24883858859539032, -0.07086221873760223, -0.06445696949958801, 0.008984503336250782, -0.03865065798163414, -0.5180222988128662, -0.2591726779937744, 0.005297026131302118, 0.4758836030960083, 0.05692042410373688, -0.08419894427061081, 0.11014167964458466, -0.32484328746795654, 0.11301524937152863, 0.06634832918643951, 0.09057512134313583, 0.0365019254386425, -0.25385111570358276, 0.1147216409444809, 0.047540511935949326, -0.19358351826667786, -0.051596108824014664, -0.16448496282100677, -0.09591366350650787, -0.128505676984787, 0.17838235199451447, 0.030931752175092697, 0.029426919296383858, -0.1620062291622162, 0.20451095700263977, -0.2560698688030243, 0.0013806866481900215, 0.1222609207034111, 0.37543606758117676, -0.4012218117713928, 0.12225895375013351, 0.08025635033845901, -0.23940004408359528, 0.10009564459323883, 0.15168020129203796, 0.052853647619485855, 0.033292826265096664, 0.19737939536571503, 0.14199945330619812, 0.04295607656240463, 0.378094345331192, -0.12825697660446167, 0.13590165972709656, 0.3170245885848999, -0.3112277388572693, -0.03239253908395767, -0.010634725913405418, 0.021991068497300148, 0.16297166049480438, -0.05596629157662392, 0.029096774756908417, 0.158296599984169, -0.015428788959980011, -0.07450958341360092, -0.03472820296883583, -0.021482421085238457, 0.17148253321647644, 0.08599912375211716, -0.14469221234321594, 0.10243798047304153, 0.008158239535987377, -0.2030622810125351, 0.11313669383525848, 0.14995568990707397, -0.12393325567245483, 0.02341722697019577, -0.07596493512392044, -0.006019998341798782, -0.1277637779712677, -0.16928404569625854, -0.08363748341798782, -0.09085691720247269, 0.026427632197737694, 0.08661053329706192, 0.1152656227350235, 0.028959868475794792, 0.07002922147512436, -0.06591904163360596, 0.025422224774956703, -0.003363898955285549, -0.0786418542265892, -0.012877944856882095, 0.2336563915014267, 0.11448187381029129, 0.1619754284620285, -0.19862312078475952, 0.0757276713848114, 0.1350523680448532, -0.34297966957092285, -0.15815052390098572, 0.2039417028427124, -0.2120935320854187, -0.04128709062933922, -0.047657862305641174, 0.13310952484607697, -0.19905303418636322, -0.14859013259410858, 0.17245422303676605, 0.017001627013087273, -0.09727688133716583, 0.10505606234073639, -0.3258821368217468, -0.10969793051481247, -0.5276821851730347, 0.05517895147204399, -0.024119922891259193, -0.3421158790588379, -0.2075950652360916, -0.30141037702560425, -0.023735173046588898, 0.1209375411272049, 0.02608298324048519, -0.1328267902135849, 0.17816711962223053, 0.1350966989994049, 0.4591972827911377, 0.36591675877571106, 0.387952983379364, -0.000542757916264236, -0.22565659880638123, 0.012682969681918621, 0.12134898453950882, -0.23050223290920258, 0.13237710297107697, 0.37347421050071716, 0.028398599475622177, -0.09768041223287582, 0.11869284510612488, -0.2462826669216156, -0.03467332571744919, -0.09207946062088013, -0.08496657758951187, -0.059450604021549225, 0.1268603503704071, 0.08323688060045242, 0.11651571840047836, 0.1630622148513794, 0.18951654434204102, 0.3279922902584076, 0.1958666443824768, -0.038753557950258255, 0.3347232937812805, 0.16514268517494202, 0.144259512424469, -0.16599509119987488, -0.08037610352039337, -0.31037136912345886, -0.09860357642173767, -0.08791300654411316, 0.02971038967370987, -0.11507344990968704, 0.04713449627161026, 0.1553853303194046, 0.17546820640563965, -0.04245287552475929, -0.053997475653886795, 0.1507938653230667, 0.01572607085108757, -0.06934361159801483, -0.07569693773984909, -0.09996344894170761, 0.12890319526195526, -0.037413015961647034, 0.1842828392982483, -0.12283128499984741, 0.02169489860534668, 0.11269700527191162, 0.025344213470816612, 0.25585389137268066, 0.12609194219112396, 0.1843709498643875, 0.019437449052929878, -0.21505652368068695, -0.299105167388916, -0.36935853958129883, 0.10579660534858704, 0.03184894099831581, -0.0430426225066185, -0.11308770626783371, -0.02707919478416443, 0.0544978529214859, -0.12827752530574799, 0.09469428658485413, 0.05303460359573364, -0.05599916726350784, -0.14854872226715088, 0.06270327419042587, -0.03899283707141876, 0.0015854896046221256, -0.21066996455192566, -0.11230657994747162, -0.11009867489337921, -0.29752036929130554, -0.01354201976209879, -0.04080900549888611, -0.07075787335634232, -0.08954302221536636, 0.0019234817009419203, 0.18362660706043243, 0.07542237639427185, -0.09306900948286057, 0.027011854574084282, -0.15129506587982178, -0.06650654971599579, 0.11182820796966553, -0.18276067078113556, -0.11529795825481415, -0.15264610946178436, -0.03054174780845642, -0.10135011374950409, -0.1710018515586853, -0.032214660197496414, -0.046884920448064804, 0.018982861191034317, 0.04353874921798706, 0.031586650758981705, 0.15699702501296997, 0.171823188662529, -0.002899737562984228, -0.003013993613421917, 0.015731191262602806, -0.0901084840297699, 0.18414661288261414, 0.18886014819145203, 0.1367749124765396, -0.07790551334619522, 0.14964234828948975, -0.14001652598381042, 0.10408336669206619, -0.2116106003522873, -0.08922231197357178, 0.08013936877250671, -0.007078568916767836, 0.1059018224477768, 0.0037674359045922756, -0.06892211735248566, 0.0736439898610115, -0.012641792185604572, 0.06873099505901337, 0.03168201446533203, -0.0919007733464241, 0.10173914581537247, 0.04284670948982239, 0.007797175087034702, 0.04326126351952553, 0.18174755573272705, -0.09710283577442169, -0.16594751179218292, -0.18520838022232056, -0.1746375560760498, 0.13681010901927948, 0.20292042195796967, 0.2614166736602783, 0.25978484749794006, 0.05812907963991165, -0.019584571942687035, 0.26457884907722473, 0.12374652177095413, 0.11624503135681152, -0.18558573722839355, 0.013900317251682281, -0.09618344157934189, 0.11588700115680695, -0.14424444735050201, -0.14864610135555267, -0.287361204624176, -0.1127328872680664, 0.09214459359645844, 0.03375845029950142, -0.011307508684694767, 0.1307910829782486, -0.06826481968164444, 0.05884385481476784, -0.13541927933692932, -0.044800564646720886, -0.008269130252301693, -0.08178877085447311, 0.17486067116260529, -0.04253530502319336, 0.02671278826892376, 0.06639596819877625, 0.08584518730640411, 0.036536410450935364, -0.03875691443681717, -0.05451391637325287, -0.20394019782543182, -0.11423361301422119, -0.1289428323507309, 0.18683189153671265, -0.18800370395183563, -0.063773974776268, -0.09160704165697098, 0.08033538609743118, 0.17588824033737183, -0.0320812352001667, 0.02405364066362381, 0.0337287001311779, 0.2074277698993683, -0.10310683399438858, 0.02907940000295639, -0.1225280836224556, 0.02813575230538845, 0.07043878734111786, -0.09085004776716232, 0.1513756960630417, -0.14925773441791534, -0.02838350087404251, -0.06619514524936676, 0.22815006971359253, 0.10334338992834091, 0.20799322426319122, -0.1654670536518097, 0.14976172149181366, -0.1950237900018692, 0.00736091798171401, 0.21986123919487, 0.008256606757640839, 0.21045544743537903, -0.22449927031993866, -0.13354453444480896, -0.07156815379858017, 0.14982356131076813, 0.013001576066017151, 0.031160257756710052, 0.09168286621570587, 0.06456568092107773, -0.11649063229560852, -0.06677216291427612, -0.04595053941011429, -0.22925785183906555, -0.15366236865520477, -0.07322726398706436, -0.189629465341568, -0.11567024141550064, -0.20636776089668274, 0.03279208764433861, 0.012004559859633446, -0.07479672878980637, 0.010450365953147411, -0.020854080095887184, 0.17303752899169922, 0.1772477924823761, -0.06852229684591293, 0.009762424975633621, -0.06764419376850128, -0.1381634622812271, 0.06336263567209244, 0.1678890734910965, 0.30641481280326843, -0.22575058043003082, -0.00797698087990284, 0.015335735864937305, -0.15546195209026337, -0.07672495394945145, -0.1304316520690918, 0.014949765987694263, -0.18699277937412262, -0.10427992045879364, 0.07358460128307343, 0.19431908428668976, 0.20864000916481018, 0.005466611590236425, -0.054411616176366806, -0.12305382639169693, 0.1434510052204132, 0.34053176641464233, 0.32534733414649963, -0.058721285313367844, -0.15693001449108124, -0.20695272088050842, 0.2974562346935272, 0.29837051033973694, 0.27226153016090393, -0.044876690953969955, -0.015926038846373558, 0.07855386286973953, 0.038618870079517365, 0.1914178431034088, 0.12138883024454117, 0.0805758535861969, 0.06844095885753632, 0.09419205784797668, 0.06959789246320724, 0.2914101481437683, -0.08961469680070877, 0.142096608877182, -0.15266406536102295, -0.17326024174690247, 0.04278935492038727, -0.005251056514680386, -0.2184271514415741, -0.16845610737800598, -0.18570548295974731, 0.03660751134157181, -0.3583989143371582, -0.04661054536700249, 0.09257140010595322, 0.043408360332250595, 0.08032020926475525, -0.024228788912296295, 0.09082086384296417, 0.13132840394973755, -0.09215056151151657, -0.10194192826747894, 0.3129907250404358, 0.07524517923593521, 0.014883581548929214, -0.015831276774406433, 0.22136399149894714, 0.20167818665504456, 0.1919803023338318, 0.08145630359649658, 0.05999419838190079, -0.06915661692619324, -0.24540488421916962, -0.04869697988033295, 0.17043867707252502, 0.014496535994112492, -0.41290056705474854, -0.24335598945617676, 0.028577042743563652, -0.07817360758781433, 0.07153225690126419, 0.026911411434412003, -0.05229644477367401, 0.010097602382302284, -0.10396081954240799, 0.13296127319335938, 0.17060692608356476, -0.27989399433135986, 0.13309936225414276, -0.0825151801109314, -0.16011211276054382, -0.14185543358325958, 0.0024471606593579054, 0.0778273418545723, -0.11371871083974838, 0.05542803555727005, -0.004965628497302532, 0.1748526692390442, 0.041347477585077286, -0.07662109285593033, 0.1656419038772583, 0.11942224949598312, -0.05210163816809654, 0.11033257097005844, 0.014528345316648483, -0.11267390847206116, 0.21290408074855804, -0.12417244911193848, -0.22385326027870178, -0.18719790875911713, 0.1134452149271965, 0.13270363211631775, 0.16122250258922577, -0.11523406952619553, 0.028691599145531654, -0.2070542424917221, -0.1201789379119873, 0.14321769773960114, -0.05870983749628067, 0.1532294750213623, 0.0389326848089695, -0.14500682055950165, -0.012740693055093288, -0.05270073190331459, 0.013797285035252571, -0.03567109629511833, 0.003917141351848841, 0.2476000338792801, -0.1782313883304596, -0.09579118341207504, 0.23886524140834808, -0.055363044142723083, 0.058346863836050034, 0.12580633163452148, -0.06492704153060913, -0.06772981584072113, -0.07455489784479141, 0.024133922532200813, -0.006995726376771927, -0.02765982411801815, 0.08344784379005432, 0.07544374465942383, 0.04814877733588219, -0.20075930655002594, 0.08283723145723343, -0.30744820833206177, 0.4010448753833771, 0.04299890995025635, 0.16476044058799744, -0.08530548214912415, -0.09471388906240463, -0.06284298002719879, -0.10813290625810623, -0.17514485120773315, -0.03250686451792717, 0.026997018605470657, 0.010627117939293385, -0.13283446431159973, 0.04902278631925583, 0.09026741236448288, -0.20423802733421326, 0.002063885796815157, 0.2484113723039627, -0.02471906505525112, 0.03406134992837906, 0.20322610437870026, 0.24296016991138458, -0.3869558870792389, 0.10999389737844467, -0.0012049400247633457, -0.23645420372486115, 0.24478255212306976, -0.0006352625787258148, 0.14502061903476715, -0.032093409448862076, 0.10598453879356384, 0.15651024878025055, -0.30365920066833496, -0.0975072979927063, -0.2557942867279053, -0.18435828387737274, 0.18304823338985443, -0.07701709121465683, -0.2254921793937683, 0.105916328728199, -0.2241392433643341, 0.10324941575527191, -0.19801649451255798, -0.17542028427124023, 0.2374277412891388, 0.12379293143749237, -0.14916206896305084, -0.18306469917297363, -0.4162161648273468, 0.06987728923559189, -0.0812203586101532, -0.14926402270793915, -0.0624055378139019, -0.33845487236976624, -0.10930494219064713, -0.14786678552627563, -0.1278800368309021, -0.0209429319947958, 0.13887162506580353, 0.014087081886827946, 0.21171244978904724, 0.034921638667583466, 0.18579430878162384, -0.08917447179555893, -0.14704474806785583, 0.03194195404648781, -0.026940565556287766, 0.07384498417377472, 0.12756656110286713, 0.30105486512184143, -0.35915353894233704, -0.18200275301933289, -0.07318224012851715, -0.17303909361362457, 0.1652507781982422, -0.17849744856357574, -0.09502722322940826, -0.21500928699970245, 0.13278956711292267, 0.14475475251674652, -0.20247216522693634, 0.25172072649002075, -0.2079785317182541, 0.0003464919573161751, 0.11699537932872772, -0.0005857779178768396, -0.04411294311285019, -0.032386213541030884, -0.0811711922287941, -0.027715278789401054, -0.0317523255944252, -0.14715100824832916, 0.03405294567346573, -0.041252974420785904, 0.16404792666435242, -0.20155060291290283, -0.04893346130847931, -0.05333689972758293, 0.045681215822696686, 0.23771223425865173, 0.16913990676403046, 0.0074914260767400265, 0.05042969062924385, 0.05437810346484184, -0.11672527343034744, -0.15964283049106598, -0.04211895912885666, 0.05832241475582123, 0.14420734345912933, 0.04618963599205017, -0.04466989263892174, -0.06742127984762192, -0.06399476528167725, -0.12502124905586243, -0.03349728882312775, -0.20025856792926788, -0.05666029825806618, -0.0100906016305089, 0.04261835291981697, -0.12195532023906708, -0.2333524376153946, 0.006787260994315147, 0.1839379519224167, 0.1193636953830719, -0.04627227783203125, -0.2974063456058502, 0.018574485555291176, 0.0025177181232720613, -0.05395304784178734, -0.3357301354408264, -0.11756982654333115, 0.05433868244290352, -0.04402109235525131, 0.14671942591667175, -0.08527463674545288, 0.14219339191913605, 0.0795515701174736, 0.06307031214237213, -0.09394757449626923, 0.04535151273012161, 0.13937628269195557, 0.261942982673645, 0.10557813942432404, -0.1748899519443512, 0.14433349668979645, -0.16841015219688416, 0.23506726324558258, 0.15181852877140045, 0.24841907620429993, -0.1657852977514267, -0.0849030390381813, 0.12785068154335022, 0.059863075613975525, 0.11145198345184326, 0.125723198056221, 0.20986704528331757, -0.03889461234211922, -0.6046549677848816, 0.22803710401058197, 0.5914760828018188, -0.5309345126152039, 0.0571565218269825, -0.8353776931762695, -0.11746170371770859, -0.23344363272190094, 0.7209755182266235, -0.8103870749473572, -0.7530794143676758, -0.8300866484642029, 0.2329702079296112, -0.5772476196289062, 0.4738532304763794, -0.6775355935096741, -0.16637416183948517, -0.2845158576965332, 0.18462520837783813, 0.256091833114624, 0.05846329778432846, 0.08744613826274872, -0.12904593348503113, -0.0476398691534996, -0.11267875134944916, 0.09463267773389816, 0.08696053177118301, 0.11819299310445786, 0.12032514810562134, 0.35810038447380066, 0.13001620769500732, 0.1087576374411583, -0.026342662051320076, -0.10898356139659882, 0.08079735934734344, -0.11893543601036072, -0.41557979583740234, 0.0122001888230443, -0.2909914255142212, -0.19612686336040497, 0.2013145238161087, -0.11479127407073975, -0.01698349602520466, 0.3725350499153137, 0.24537059664726257, 0.10385282337665558, 0.10027012974023819, 0.3352509140968323, -0.07852599024772644, -0.30190470814704895, 0.10456079989671707, 0.30891716480255127, 0.0700509175658226, 0.14369399845600128, -0.07659315317869186, 0.17525030672550201, -0.13712666928768158, 0.04954177886247635, -0.18024942278862, -0.22478143870830536, -0.001111176679842174, 0.28561168909072876, 0.06053534150123596, 0.04914391040802002, 0.2774663269519806, 0.23291568458080292, -0.3727194666862488, -0.13120070099830627, 0.01852019689977169, 0.13664549589157104, -0.10904612392187119, 0.007743494119495153, -0.17833934724330902, -0.01557302474975586, -0.10560400784015656, 0.3371948301792145, -0.048188719898462296, -0.19659875333309174, -0.09355640411376953, -0.09356673061847687, 0.3376699388027191, 0.1307900846004486, -0.33378276228904724, -0.11267337203025818, 0.4256456196308136, 0.02803116850554943, 0.058289047330617905, 0.4188769459724426, -0.08534567058086395, -0.23894362151622772, -0.01660262420773506, 0.6030067801475525, -0.5060077905654907, 0.10757800936698914, -0.17314784228801727, -0.4883277714252472, -0.23887576162815094, -0.0294377151876688, -0.1443089246749878, -0.1971157044172287, 0.07846464216709137, -0.19550900161266327, 0.1369677633047104, 0.039438050240278244, -0.00044051773147657514, 0.025202257558703423, 0.13598431646823883, -0.08959188312292099, -0.22563260793685913, -0.16909277439117432, -0.015310695394873619, 0.1091628298163414, 0.22235135734081268, -0.1685677170753479, 0.10742249339818954, -0.06537687033414841, 0.22865250706672668, 0.3274948000907898, -0.26479649543762207, -0.2992939054965973, 0.38711413741111755, -6.387786470440915e-06, -0.149295374751091, 0.2063680738210678, -0.07758263498544693, 0.0011912640184164047, 0.06446606665849686, -0.07711868733167648, 0.1386946737766266, -0.04468713328242302, 0.10567294806241989, -0.023033207282423973, 0.198795884847641, -0.13760033249855042, -0.017728781327605247, 0.0381997674703598, 0.041718192398548126, 0.2131412923336029, -0.11739087104797363, 0.10523571074008942, -0.0190915334969759, 0.004549729637801647, 0.1726134717464447, 0.08594027161598206, -0.13119706511497498, 0.0451386384665966, -0.17237859964370728, -0.15225692093372345, -0.32022443413734436, -0.23072870075702667, -0.15891186892986298, -0.2616485059261322, 0.2386433184146881, 0.1759277582168579, 0.024374598637223244, -0.011225556023418903, 0.11096828430891037, 0.13194842636585236, -0.229298397898674, 0.26946231722831726, -0.14100362360477448, 0.005278704687952995, -0.041536517441272736, -0.01464355830103159, 0.2705310881137848, -0.0031977405305951834, 0.30690017342567444, -0.05470593646168709, -0.050842802971601486, -0.07861495763063431, 0.24192361533641815, 0.2934727072715759, -0.05542907863855362, 0.06802833080291748, 0.24649353325366974, -0.28913217782974243, -0.1803169995546341, -0.0010977702913805842, -0.14069898426532745, 0.07791374623775482, -0.22112415730953217, -0.19906163215637207, 0.04692025110125542, -0.08429280668497086, 0.2692129611968994, 0.33710378408432007, -0.3420927822589874, -0.20664632320404053, 0.4671436548233032, -0.05919310823082924, 0.000957258278504014, 0.10305331647396088, 0.3256162405014038, 0.4200737774372101, -0.46855786442756653, -0.21551772952079773, -0.13937580585479736, -0.03955558314919472, -0.049188610166311264, 0.31765198707580566, -0.40688708424568176, 0.12746982276439667, 0.25647297501564026, 0.01825646124780178, 0.06321354955434799, -0.23998595774173737, -0.15511886775493622, -0.08413659781217575, -0.15266664326190948, -0.21579676866531372, -0.2566947340965271, 0.1975252330303192, -0.18313971161842346, 0.12826396524906158, -0.34589681029319763, 0.16305853426456451, 0.02863781899213791, -0.06056799739599228, -0.33038583397865295, 0.2548958659172058, 0.19936487078666687, -0.11869154870510101, -0.24670563638210297, -0.19256000220775604, 0.1308853179216385, -0.06295426189899445, -0.23945185542106628, 0.2851104438304901, -0.281951367855072, 0.19635368883609772, -0.18671979010105133, -0.15535081923007965, 0.30115631222724915, 0.21535515785217285, 0.006774845067411661, 0.0103905675932765, 0.07734652608633041, 0.12780790030956268, 0.028233131393790245, -0.14273573458194733, 0.07765597850084305, 0.33455824851989746, -0.06031610816717148, -0.2160622775554657, 0.3361422121524811, -0.06999365985393524, 0.1310122013092041, -0.23806965351104736, 0.12252957373857498, -0.21946844458580017, -0.04131864011287689, -0.05241399630904198, -0.3480466902256012, -0.13139474391937256, 0.3333602249622345, -0.0009989464888349175, -0.0032008583657443523, -0.32301488518714905, 0.03753863275051117, -0.014967710711061954, -0.2243238240480423, 0.12549027800559998, 0.0872943103313446, 0.12303296476602554, 0.17550526559352875, -0.10086696594953537, 0.1505136489868164, 0.04644029960036278, -0.16469568014144897, 0.34279730916023254, -0.054113369435071945, -0.2376241534948349, -0.1596822440624237, 0.015232832171022892, -0.0033324859105050564, -0.08974263072013855, -0.1531957983970642, 0.010704711079597473, 0.15438514947891235, 0.11227057874202728, 0.08044853806495667, 0.021646151319146156, 0.09330791234970093, -0.31541964411735535, -0.0028935177251696587, -0.2727803587913513, -0.020509010180830956, -0.06866353750228882, -0.10297585278749466, -0.051817771047353745, -0.1790534108877182, -0.040882907807826996, -0.17894244194030762, 0.030199650675058365, -0.08377022296190262, -0.03317183256149292, 0.037247318774461746, 0.12020312994718552, -0.0774414986371994, -0.04156991094350815, 0.12870463728904724, -0.01505738589912653, -0.034058328717947006, 0.1691567450761795, 0.08778268843889236, 0.004516222048550844, -0.15832072496414185, -0.029915697872638702, 0.03905713930726051, 0.1470625251531601, 0.11243946850299835, -0.07360953837633133, -0.1706339716911316, 0.07507672160863876, -0.022667981684207916, 0.15325506031513214, 0.06310205906629562, -0.06788456439971924, -0.05317933112382889, -0.0376201830804348, -0.02643449790775776, -0.0786527767777443, 0.07393499463796616, 0.034965403378009796, -0.14320197701454163, -0.14623047411441803, 0.07835038006305695, -0.20415610074996948, 0.0702211782336235, -0.04040136933326721, 0.2263123095035553, 0.08384982496500015, -0.10148174315690994, 0.16811998188495636, -0.07860883325338364, -0.0366879478096962, -0.15720324218273163, -0.14500992000102997, 0.13759665191173553, -0.18031123280525208, 0.03624815493822098, -0.07719480246305466, -0.11841771006584167, 0.02688625454902649, 0.2944401204586029, 0.09825391322374344, -0.08551862835884094, -0.02038899064064026, 0.29102200269699097, -0.22293776273727417, -0.047383904457092285, -0.02978632226586342, 0.07357479631900787, -0.24509525299072266, 0.08961198478937149, -0.15880413353443146, 0.22743244469165802, -0.0019886812660843134, -0.03814627230167389, -0.15899425745010376, 0.17476944625377655, 0.12874643504619598, 0.03101753443479538, 0.22419634461402893, 0.1355152428150177, -0.01299942098557949, 0.10963234305381775, 0.27731797099113464, 0.1772279590368271, -0.14155526459217072, -0.2539612650871277, 0.03487834706902504, 0.1790562868118286, 0.3284962773323059, 0.19516968727111816, -0.005103561095893383, -0.061193693429231644, -0.019043195992708206, 0.0828588604927063, 0.37521830201148987, 0.040587861090898514, 0.22072197496891022, -0.015349566005170345, -0.2329634726047516, 0.27327510714530945, -0.023381700739264488, -0.008792548440396786, 0.2699493169784546, 0.01728207617998123, -0.14740197360515594, 0.2219916731119156, -0.10096531361341476, 0.01095044519752264, -0.05867824703454971, -0.11224231868982315, 0.04965151101350784, -0.09697064757347107, -0.15819986164569855, 0.13815587759017944, -0.002173139713704586, 0.14729848504066467, 0.03549956902861595, 0.13096411526203156, 0.06489219516515732, -0.08726920932531357, -0.21606074273586273, 0.21731890738010406, 0.04132632911205292, 0.16281658411026, -0.09140000492334366, -0.1038440689444542, -0.057644765824079514, 0.18576069176197052, -0.024126200005412102, 0.054961349815130234, 0.1021413654088974, -0.022844063118100166, 0.008246042765676975, -0.26922866702079773, 0.03074019029736519, 0.338773250579834, -0.13844667375087738, -0.04407159239053726, 0.07357097417116165, -0.04902125522494316, -0.06032312288880348, -0.0362648069858551, -0.011122003197669983, -0.04209395498037338, -0.20854175090789795, 0.09363701939582825, 0.21945449709892273, -0.3836032450199127, -0.16290265321731567, 0.012232499197125435, -0.15446175634860992, 0.0893806517124176, -0.13411150872707367, 0.18278701603412628, 0.18693415820598602, -0.07159831374883652, 0.25148066878318787, -0.17373666167259216, -0.07422517985105515, 0.02228056639432907, -0.2824953496456146, -0.2820465564727783, -0.22464275360107422, -0.04658486321568489, 0.02503274381160736, 0.138457790017128, -0.05673163756728172, -0.22017432749271393, -0.09970248490571976, 0.20257151126861572, 0.19752010703086853, 0.1686103492975235, 0.05282043293118477, 0.32224175333976746, -0.20067515969276428, 0.04802754893898964, 0.003668521996587515, -0.21302340924739838, -0.02053731307387352, 0.07276444137096405, 0.5055646896362305, -0.2608646750450134, -0.03905728459358215, 0.01764931157231331, -0.04118195176124573, 0.2324194312095642, 0.168844535946846, -0.09702500700950623, 0.046862002462148666, -0.04346950724720955, -0.0661347433924675, 0.13389170169830322, -0.22911684215068817, 0.14197956025600433, 0.22984679043293, -0.18314798176288605, -0.15665708482265472, -0.2208164632320404, -0.23068183660507202, 0.0077536627650260925, 0.06356824189424515, 0.012076134793460369, 0.15376336872577667, -0.08939628303050995, -0.19044558703899384, 0.30692169070243835, -0.039264436811208725, -0.03053087368607521, 0.08366113901138306, -0.027431614696979523, 0.15836107730865479, -0.05203572288155556, -0.039537083357572556, -0.3115980625152588, -0.03260068967938423, 0.20514605939388275, 0.12318418174982071, -0.19869790971279144, 0.1348777711391449, -0.0192740336060524, 0.03647473827004433, 0.09382607042789459, 0.14591988921165466, -0.03641044348478317, -0.024463877081871033, -0.17776522040367126, -0.09697844088077545, -0.1366235315799713, -0.06132405623793602, 0.4301990568637848, 0.011687921360135078, -0.2566045820713043, 0.3159177899360657, 0.018536895513534546, -0.21418794989585876, -0.047155991196632385, 0.17117314040660858, 0.1261894702911377, -0.22029660642147064, 0.12394260615110397, 0.1474340707063675, -0.20675604045391083, -0.2134471982717514, -0.18182514607906342, -0.08286334574222565, -0.11935331672430038, 0.017814164981245995, -0.030301349237561226, 0.21870629489421844, -0.38409045338630676, -0.026490479707717896, -0.0020395820029079914, -0.010259246453642845, -0.10859309136867523, 0.15420730412006378, 0.11636540293693542, -0.1268744170665741, -0.031029120087623596, 0.005894587840884924, -0.11402329057455063, 0.03819867968559265, -0.08782217651605606, 0.1042390838265419, 0.10557076334953308, 0.08394107967615128, -0.19174206256866455, 0.147278293967247, -0.03386159613728523, 0.024868817999958992, -0.03208367899060249, 0.14534573256969452, -0.05281900241971016, -0.04097731038928032, -0.015375115908682346, 0.3171301782131195, 0.19604384899139404, -0.10974536836147308, 0.23751220107078552, -0.014586016535758972, 0.21131755411624908, -0.09502014517784119, -0.06057228147983551, -0.0905848890542984, 0.06516826897859573, 0.21068769693374634, 0.1570027470588684, -0.1104804128408432, -0.19978708028793335, 0.37539416551589966, 0.049976229667663574, 0.08000576496124268, 0.19507718086242676, -0.19661538302898407, -0.3003571629524231, 0.2514004111289978, -0.2642437219619751, -0.09331654757261276, 0.32221895456314087, -0.13679710030555725, -0.12793587148189545, -0.30687978863716125, 0.01825135014951229, 0.06254959106445312, -0.6186121702194214, -0.15674692392349243, 0.15551242232322693, -0.16006287932395935, 0.144520103931427, -0.0586627833545208, 0.16685888171195984, -0.07906470447778702, -0.06412602961063385, 0.13599342107772827, 0.15811437368392944, -0.12034457921981812, 0.033806417137384415, 0.06357696652412415, -0.06823988258838654, -0.09570583701133728, 0.2182905673980713, -0.12823738157749176, 0.37321653962135315, -0.04664187505841255, -0.30342718958854675, -0.23824442923069, -0.09445887804031372, 0.30736008286476135, 0.03487087041139603, -0.0587482824921608, -0.35532674193382263, 0.06804084032773972, -0.1695963591337204, -0.08156239241361618, -0.2522996962070465, 0.20126773416996002, 0.12812986969947815, 0.09225323796272278, -0.10527784377336502, -0.10727494955062866, -0.24753817915916443, -0.10672648251056671, -0.37097883224487305, 0.008664976805448532, 0.09126690775156021, -0.03809374198317528, -0.34691792726516724, -0.09143747389316559, -0.06762054562568665, -0.30396416783332825, 0.029442409053444862, 0.12774713337421417, -0.23639993369579315, 0.01482621394097805, -0.08869898319244385, 0.10156983882188797, 0.04975316673517227, 0.14370974898338318, -0.05010570213198662, 0.005625061225146055, -0.044839274138212204, 0.12994033098220825, 0.04573364555835724, 0.05753227323293686, 0.07772044092416763, 0.2579946517944336, -0.0024216303136199713, 0.06512764096260071, 0.07586013525724411, -0.13543999195098877, 0.017286119982600212, 0.04844537377357483, 0.06202214956283569, -0.2369440197944641, 0.14095212519168854, -0.13043388724327087, -0.09274262934923172, 0.578667402267456, 0.009924722835421562, -0.17724665999412537, -0.08264555037021637, -0.00403052382171154, 0.10596827417612076, -0.15214689075946808, 0.12265055626630783, 0.05655908212065697, 0.005037390161305666, -0.04244721308350563, -0.10631002485752106, -0.19395413994789124, 0.03582039847970009, 0.002217443659901619, -0.08964312821626663, 0.16132064163684845, -0.2139299362897873, -0.08827116340398788, 0.014080982655286789, -0.04421895742416382, 0.25952696800231934, 0.12688523530960083, -0.09632287919521332, 0.024721873924136162, -0.07970384508371353, 0.06564992666244507, -0.15335004031658173, -0.05846600607037544, 0.13980014622211456, 0.04140232503414154, 0.13159127533435822, 0.18117257952690125, -0.20377223193645477, -0.05906655639410019, 0.039613619446754456, 0.047877389937639236, 0.09162923693656921, 0.1819177120923996, -0.0486777164041996, -0.10564574599266052, -0.22788672149181366, -0.0757935494184494, -0.12484744191169739, -0.15231934189796448, 0.2713504135608673, -0.09691713005304337, -0.330325722694397, 0.09174951165914536, -0.2091999500989914, -0.03146852180361748, 0.05254039540886879, 0.1349223256111145, 0.36143192648887634, 0.1602872908115387, -0.016604872420430183, 0.32870736718177795, 0.03840946406126022, -0.11364387720823288, -0.25957897305488586, -0.037438031286001205, -0.10220905393362045, -0.027194980531930923, 0.1372007578611374, 0.19856110215187073, -0.1657663732767105, 0.08092324435710907, 0.19505979120731354, -0.06676014512777328, 0.14849841594696045, -0.18871073424816132, 0.15967240929603577, 0.09035448729991913, -0.03094407357275486, 0.03456501662731171, -0.08837632834911346, -0.049384091049432755, -0.18802280724048615, 0.07171445339918137, -0.053846195340156555, 0.1436520665884018, -0.2839837670326233, -0.0595150850713253, -0.07108023017644882, -0.06500385701656342, 0.11866309493780136, 0.18987372517585754, -0.18483877182006836, -0.003447199473157525, -0.19397632777690887, 0.02761560119688511, -0.04037494212388992, -0.12044759094715118, 0.4180487096309662, -0.1808370053768158, -0.006731088273227215, 0.1931367814540863, 0.00503785815089941, -0.1459585428237915, -0.03700292482972145, 0.0824030190706253, 0.02654637210071087, -0.05578673630952835, -0.20621691644191742, 0.11605054140090942, -0.14564619958400726, -0.149478942155838, 0.1596643328666687, -0.02773156575858593, 0.13526831567287445, 0.00786673091351986, 0.05805183947086334, 0.12859852612018585, 0.0507800355553627, -0.06704635173082352, 0.21103651821613312, 0.11499723047018051, -0.02652476355433464, 0.06988181918859482, 0.12833435833454132, -0.15474802255630493, -0.04818166047334671, -0.16859808564186096, 0.08824115991592407, -0.17128680646419525, 0.1630219668149948, 0.11227564513683319, -0.13900238275527954, -0.009176834486424923, 0.2463482916355133, -0.08003322035074234, 0.0676516517996788, -0.033674456179142, 0.128630131483078, -0.041457824409008026, 0.17832134664058685, 0.05562708154320717, -0.03182871267199516, -0.1816064864397049, 0.20967303216457367, 0.09026928246021271, -0.44168904423713684, 0.06077595800161362, 0.18335269391536713, -0.16097091138362885, 0.06971361488103867, 0.1914280652999878, -0.183200865983963, -0.07480617612600327, -0.17359626293182373, 0.2004910409450531, -0.2010549008846283, 0.041982028633356094, 0.050615012645721436, 0.002682433696463704, 0.08049023151397705, -0.057444121688604355, 0.1526419222354889, 0.1312522143125534, -0.042624861001968384, -0.1303987205028534, 0.01811133325099945, 0.07962064445018768, -0.0037726687733083963, -0.09840619564056396, -0.04831814393401146, 0.040410272777080536, 0.04296358674764633, 0.17711351811885834, 0.13379472494125366, -0.11876120418310165, -0.05452312156558037, 0.08347003161907196, 0.06807689368724823, 0.01745324768126011, 0.00046616545296274126, 0.07330679893493652, -0.129002645611763, -0.031239423900842667, -0.15118856728076935, -0.2406531721353531, -0.2613843083381653, -0.11265138536691666, -0.04166828468441963, 0.07961367070674896, -0.2037660777568817, -0.3510451316833496, -0.3871450424194336, 0.13007725775241852, 0.10952604562044144, 0.0016290557105094194, 0.24277783930301666, -0.24606473743915558, 0.035410527139902115, -0.059054918587207794, -0.19214598834514618, 0.08863268047571182, -0.28342539072036743, -0.3146747052669525, 0.14292360842227936, -0.024582969024777412, -0.20185586810112, 0.1279592216014862, 0.13359828293323517, 0.020287925377488136, 0.27120959758758545, 0.24434396624565125, 0.06072176620364189, -0.03232470527291298, 0.03976097330451012, -0.2741386294364929, -0.021854450926184654, 0.0454159714281559, -0.18564455211162567, -0.06751730293035507, 0.03173604980111122, -0.023617364466190338, 0.036456331610679626, -0.0663241446018219, 0.1687847226858139, 0.04271887615323067, 0.006891245488077402, 0.1426175832748413, -0.0885353609919548, -0.05912371352314949, 0.08538199961185455, -0.072363942861557, 0.071491539478302, -0.21341381967067719, -0.015995515510439873, -0.17570458352565765, 0.1907019466161728, 0.042267296463251114, 0.2793366611003876, 0.23053708672523499, 0.22533370554447174, -0.009234911762177944, -0.47279804944992065, 0.02488417737185955, 0.15503914654254913, -0.1734953224658966, -0.07721534371376038, 0.16684603691101074, 0.028387311846017838, -0.05396268889307976, -0.12434231489896774, 0.18434911966323853, -0.18896399438381195, 0.054446008056402206, 0.1403486728668213, 0.0929574966430664, 0.2142416536808014, 0.0014768368564546108, 0.09247688949108124, 0.25793880224227905, -0.06039615720510483, -0.03773157298564911, 0.23229245841503143, -0.13472360372543335, -0.07658447325229645, -0.083305224776268, -0.1203191801905632, 0.11383293569087982, -0.17044200003147125, -0.03177398070693016, 0.10828427225351334, -0.17818006873130798, 0.12920783460140228, -0.1245531514286995, 0.16419102251529694, -0.06745640188455582, 0.006929926574230194, -0.07814911007881165, 0.14283595979213715, -0.12132475525140762, 0.015610408037900925, 0.0004851389385294169, -0.12010170519351959, -0.043971672654151917, 0.038611821830272675, 0.14626234769821167, 0.029083844274282455, 0.11241865903139114, -0.06207562983036041, -0.05179396644234657, -0.2546738386154175, 0.02382712997496128, -0.00013748728088103235, 0.059487950056791306, -0.27111902832984924, 0.14852285385131836, 0.0458710715174675, -0.14428555965423584, -0.30085548758506775, 0.07392477244138718, -0.01599438674747944, -0.11968573927879333, 0.029098456725478172, 0.040220703929662704, 0.1849396824836731, -0.1954817771911621, 0.01880945824086666, 0.1669156849384308, -0.280332088470459, -0.030749130994081497, -0.2063179612159729, -0.17444832623004913, -0.011098372749984264, 0.05571231618523598, -0.1284915953874588, 0.025496693328022957, -0.2244471162557602, -0.12522675096988678, -0.018070703372359276, 0.031234867870807648, 0.14676758646965027, -0.11074154824018478, 0.054100170731544495, -0.34365522861480713, -0.1685878336429596, 0.16167019307613373, 0.1684378832578659, 0.1778515875339508, 0.22409918904304504, -0.1530868262052536, -0.08143767714500427, 0.2683872580528259, 0.15831714868545532, 0.3296205401420593, -0.03269428759813309, -0.0319376178085804, -0.24391984939575195, -0.16218671202659607, 0.32568448781967163, 0.06646294891834259, 0.40569910407066345, 0.010716721415519714, -0.43159323930740356, -0.011041003279387951, -0.3144662380218506, -0.21650664508342743, -0.1048293188214302, 0.2818407416343689, 0.2734643816947937, 0.18052035570144653, 0.1924085170030594, 0.14524362981319427, -0.10055384784936905, 0.07095097750425339, 0.0654079020023346, 0.038366712629795074, 0.19400091469287872, 0.22871766984462738, -0.20850059390068054, 0.1443091183900833, 0.048046741634607315, -0.13196682929992676, 0.0970265343785286, -0.009988256730139256, 0.06285246461629868, 0.13158707320690155, -0.01094901468604803, 0.18259744346141815, -0.10405274480581284, 0.04911603406071663, 0.08827950060367584, 0.13047626614570618, 0.08769989013671875, 0.06902895122766495, -0.04782680794596672, 0.14647981524467468, -0.028600597754120827, -0.10149025171995163, -0.016213057562708855, -0.10498347133398056, -0.12067662924528122, -0.05773890018463135, -0.09507458657026291, 0.01194522064179182, 0.16551612317562103, -0.12226319313049316, 0.23872224986553192, -0.0232891533523798, -0.19891519844532013, 0.1822916567325592, -0.17205947637557983, -0.02192528359591961, 0.1481042206287384, -0.052267950028181076, 0.18785421550273895, -0.22074571251869202, 0.0028058658353984356, -0.09502002596855164, -0.17753058671951294, 0.06244819611310959, 0.061931997537612915, 0.07665440440177917, -0.009005945175886154, 0.11494537442922592, 0.21433666348457336, -0.010058010928332806, 0.0378757044672966, -0.13276779651641846, 0.006216769572347403, 0.034370195120573044, 0.1333855241537094, 0.0032133886124938726, -0.210612952709198, 0.02653658017516136, -0.032318439334630966, -0.04331943765282631, 0.002153598004952073, -0.6851698756217957, 0.7380658984184265, 0.2298426479101181, -0.2826394736766815, 0.3469797968864441, -0.23978769779205322, 0.10140132158994675, 0.5825660228729248, -0.5625038743019104, 0.7340752482414246, 0.5621587038040161, -0.02887055277824402, -0.5420292019844055, 0.5415640473365784, -0.4849805533885956, 0.24945759773254395, -0.1586373895406723, -0.06757284700870514, -0.49214795231819153, 0.30389171838760376, 0.47074970602989197, 0.058782387524843216, 0.18673890829086304, 0.3323267698287964, 0.2577754855155945, -0.23133224248886108, 0.21611657738685608, -0.3410080075263977, -0.24218083918094635, -0.10705848038196564, 0.033890463411808014, 0.057275936007499695, 0.04690275713801384, -0.08470362424850464, 0.42169347405433655, 0.1381027102470398, -0.15104158222675323, -0.056195005774497986, -0.5587567090988159, -0.2754826843738556, 0.09227050095796585, 0.03526456281542778, -0.12598609924316406, 0.09497250616550446, 0.11543761938810349, 0.16318361461162567, -0.12786239385604858, -0.1224212497472763, -0.49628403782844543, 0.23118451237678528, -0.0587778277695179, -0.09488781541585922, -0.5638757944107056, -0.02221347764134407, -0.5681390166282654, -0.06123233959078789, -0.1332135647535324, -0.012066851370036602, 0.4044884741306305, 0.3004193603992462, 0.08605796843767166, 0.0895574688911438, -0.11378546804189682, 0.3119252324104309, 0.32393911480903625, 0.07571782916784286, -0.11221832036972046, 0.04591866582632065, 0.14523491263389587, -0.1879958063364029, 0.10287434607744217, 0.11320442706346512, -0.06362825632095337, -0.0558774434030056, 0.2808491289615631, -0.031344663351774216, 0.09662612527608871, 0.025483760982751846, -0.03804400935769081, 0.14014866948127747, 0.2895786464214325, 0.21198511123657227, -0.0452292300760746, -0.0974382683634758, -0.06427913159132004, 0.14298616349697113, -0.005861541256308556, 0.27569580078125, -0.07618510723114014, -0.10885685682296753, -0.3381286561489105, 0.022310620173811913, -0.10936316102743149, 0.06649743765592575, -0.24102401733398438, -0.09158200025558472, -0.2099921703338623, 0.14098495244979858, 0.07564914971590042, -0.45747798681259155, -0.11888238787651062, 0.06414762884378433, -0.02934686653316021, -0.017193278297781944, -0.07434584945440292, 0.08765602111816406, 0.286744624376297, 0.44292008876800537, 0.1653088480234146, 0.22865477204322815, -0.10500255227088928, -0.019666507840156555, 0.42174533009529114, -0.10857675969600677, -0.09590347856283188, 0.21373894810676575, -0.1820063441991806, 0.06173807010054588, -0.09076245874166489, -0.1678553819656372, 0.17698124051094055, 0.023261113092303276, -0.3417947292327881, 0.12810765206813812, 0.08751025050878525, 0.09784577041864395, 0.2161492258310318, 0.31398844718933105, 0.15060247480869293, -0.06515094637870789, -0.06018092855811119, -0.04321329668164253, 0.06650026887655258, -0.054518748074769974, -0.10062388330698013, -0.003288682084530592, -0.0011845824774354696, 0.3114502429962158, 0.11442962288856506, 0.04951462522149086, 0.22837094962596893, 0.08147479593753815, -0.12456795573234558, -0.27249011397361755, 0.48815521597862244, -0.006128210574388504, 0.03466007485985756, 0.3009295165538788, -0.01649988815188408, -0.28400254249572754, 0.09714999794960022, -0.18226933479309082, 0.15903522074222565, -0.2693770229816437, -0.007065958343446255, -0.2898710370063782, -0.058525584638118744, 0.05683808773756027, 0.10264471918344498, 0.42502740025520325, -0.26281872391700745, -0.08187445998191833, 0.014986516907811165, 0.12308627367019653, 0.1899651288986206, -0.10104350745677948, 0.036302242428064346, -0.037934839725494385, -0.08081508427858353, 0.15482933819293976, -0.23408439755439758, -0.016917094588279724, -0.035145293921232224, 0.13700821995735168, -0.07619074732065201, 0.22394059598445892, -0.28434598445892334, -0.1605214774608612, -0.42014533281326294, 0.38663727045059204, -0.11735052615404129, 0.0441264808177948, 0.05491258203983307, 0.177028626203537, 0.1758819967508316, -0.498989999294281, 0.02457050047814846, -0.11563233286142349, -0.3633763790130615, 0.07351281493902206, 0.3567126989364624, 0.24566984176635742, -0.6083856225013733, -0.11267390847206116, 0.04143233969807625, -1.659936060605105e-05, 0.3423932194709778, 0.036146193742752075, 0.022363197058439255, -0.2293848991394043, -0.1755574643611908, -0.1978955715894699, 0.7226678729057312, -0.4451538324356079, -0.4975436329841614, -0.029370136559009552, 0.06499983370304108, -0.4444437026977539, -0.36206433176994324, -0.027316447347402573, -0.1263355016708374, 0.16574683785438538, -0.08652021735906601, -0.24149329960346222, -0.24131403863430023, -0.07528123259544373, -0.14200443029403687, -0.1821192502975464, 0.07379204779863358, -0.06270457804203033, 0.11895481497049332, 0.03383209928870201, -0.09899190068244934, -0.2802990674972534, 0.4521186351776123, -0.15483485162258148, -0.20613792538642883, 0.053144797682762146, -0.32403555512428284, 0.2206311821937561, -0.16616593301296234, -0.029062118381261826, -0.05281510204076767, 0.014044413343071938, 0.022101376205682755, -0.030597945675253868, 0.26562511920928955, -0.059339843690395355, -0.028214309364557266, 0.2460271269083023, 0.25703516602516174, 0.037167131900787354, -0.2771397531032562, -0.18694968521595, 0.2178034484386444, -0.12163496762514114, -0.2147558331489563, 0.43286094069480896, 0.25633442401885986, 0.21441857516765594, -0.13131660223007202, 0.0269435103982687, 0.016974089667201042, -0.01904544048011303, -0.26578056812286377, 0.009888033382594585, -0.10339334607124329, -0.041262462735176086, -0.16002821922302246, -0.10950321704149246, 0.11972561478614807, -0.026800258085131645, -0.15745218098163605, 0.12400190532207489, 0.24566851556301117, 0.22641927003860474, 0.14965161681175232, -0.20711015164852142, -0.16637997329235077, -0.0557476244866848, 0.09297721087932587, -0.018143681809306145, -0.0033245417289435863, 0.13295018672943115, 0.05766741558909416, -0.0709485113620758, -0.0445668064057827, 0.07599198818206787, 0.011675622314214706, -0.22417405247688293, -0.16235408186912537, 0.014268708415329456, 0.06853050738573074, 0.09626276791095734, 0.0533691868185997, 0.08276136964559555, 0.02047949656844139, 0.03121880441904068, -0.01786240004003048, -0.20405474305152893, 0.040266942232847214, -0.021822143346071243, 0.005583333317190409, 0.1421639323234558, -0.3314592242240906, -0.03990742191672325, 0.08462436497211456, -0.012849551625549793, 0.2379920333623886, 0.024773551151156425, -0.1731213629245758, 0.08526968955993652, 0.09748654067516327, 0.022133661434054375, 0.33090975880622864, 0.15242280066013336, 0.018493888899683952, -0.20447805523872375, -0.33980047702789307, -0.052729785442352295, -0.012274367734789848, 0.07543624937534332, -0.08133711665868759, -0.27143049240112305, -0.16618484258651733, 0.05904022604227066, 0.02816314622759819, -0.1366887390613556, 0.0021238457411527634, -0.20867542922496796, 0.031769126653671265, -0.1539747565984726, -0.23861949145793915, 0.027021901682019234, -0.034169454127550125, -0.16239705681800842, 0.09476089477539062, -0.015759728848934174, -0.2940279543399811, -0.16397765278816223, -0.16892655193805695, 0.04552068933844566, 0.11605589091777802, -0.20447833836078644, 0.13297146558761597, 0.037355903536081314, 0.6074762344360352, -0.15054111182689667, -0.08416523784399033, 0.02736000530421734, 0.32188382744789124, -0.6813364028930664, -0.4523167312145233, -0.007521685212850571, 0.044086240231990814, 0.2874394655227661, -0.38627609610557556, 0.12724626064300537, -0.06589660048484802, 0.08151143789291382, 0.07637298107147217, -0.2632637917995453, -0.0070801046676933765, -0.14937995374202728, 0.20459309220314026, 0.04632357135415077, -0.06150141358375549, -0.2589494287967682, -0.1942858248949051, 0.0007307459600269794, 0.4339040219783783, 0.0010488004190847278, -0.06277769058942795, -0.008261747658252716, -0.14524830877780914, 0.2151441127061844, 0.6491338610649109, 0.05320978909730911, 0.12161216884851456, 0.08677536249160767, -0.07963588833808899, -0.35849812626838684, 0.05130144581198692, -0.08672680705785751, -0.29566487669944763, 0.10934045165777206, -0.11259648203849792, 0.29937565326690674, 0.005801299121230841, -0.07114725559949875, -0.6885656714439392, 0.2556714415550232, -0.5328496694564819, -0.022314071655273438, 0.22109344601631165, -0.3457134962081909, -0.01827574148774147, 0.21042177081108093, 0.07210137695074081, -0.26736053824424744, -0.08203113824129105, 0.14913326501846313, 0.1795613020658493, 0.18838386237621307, -0.33561691641807556, 0.1544991433620453, -0.13706670701503754, -0.032732266932725906, -0.24134215712547302, -0.34217584133148193, 0.03556862846016884, 0.09947429597377777, 0.23741979897022247, -0.10729380697011948, -0.0006959518068470061, -0.07870829850435257, 0.21736577153205872, 0.043474070727825165, -0.03339812532067299, -0.12590408325195312, 0.05418344587087631, -0.12411376088857651, 0.11727713793516159, -0.10454443097114563, 0.39876890182495117, -0.6911560297012329, 0.10063876956701279, 0.27834805846214294, -0.05214499682188034, 0.036273278295993805, 0.05716660991311073, -0.12990392744541168, 0.04139891266822815, 0.10753031820058823, -0.03702265024185181, 0.018419407308101654, -0.21877901256084442, -0.05181633681058884, 0.08491238206624985, 0.21272771060466766, 0.18490788340568542, -0.046516500413417816, 0.1407061219215393, -0.11625567823648453, 0.014935298822820187, 0.0637473315000534, 0.1950369030237198, 0.23212048411369324, 0.23144365847110748, -0.014608211815357208, 0.16758033633232117, -0.058321718126535416, -0.14355258643627167, 0.12769608199596405, 0.08605952560901642, 0.004936337471008301, -0.04013391211628914, -0.15692660212516785, 0.1441499888896942, 0.08451714366674423, -0.039410289376974106, -0.046991538256406784, 0.010975031182169914, -7.858585377107374e-06, 0.19368386268615723, 0.06435560435056686, -0.09705990552902222, -0.3349612057209015, -0.21100066602230072, 0.01450921781361103, 0.19315046072006226, 0.07409854233264923, 0.16057088971138, -0.053414419293403625, 0.1809292435646057, 0.24172520637512207, 0.14190855622291565, -0.015645485371351242, 0.160111665725708, -0.21088282763957977, 0.010390234179794788, 0.04165056720376015, -0.3482896089553833, -0.10984771698713303, -0.023380734026432037, 0.0653160810470581, -0.2015073001384735, 0.11172373592853546, -0.025758761912584305, 0.05594839155673981, 0.08019804209470749, 0.022741010412573814, -0.0005937383393757045, 0.1830640733242035, 0.09453646838665009, 0.08226124197244644, -0.00495515763759613, -0.03702150657773018, -0.13382717967033386, 0.13963615894317627, 0.02998417615890503, 0.21597056090831757, 0.10642202943563461, -0.010758500546216965, -0.11173348128795624, 0.09507191926240921, 0.0692409798502922, -0.06915736198425293, 0.045022495090961456, 0.023252546787261963, 0.05074971541762352, -0.07847736775875092, -0.23773349821567535, 0.08337311446666718, 0.24553750455379486, -0.017153041437268257, -0.035732295364141464, -0.011476550251245499, -0.08069536089897156, 0.03674639016389847, -0.19410930573940277, -0.04232845827937126, -0.12188522517681122, -0.02076353318989277, 0.023999283090233803, -0.13993096351623535, 0.2181369662284851, -0.112210214138031, -0.281781405210495, 0.24252676963806152, -0.1702074259519577, -0.11091843247413635, -0.4296834170818329, 0.33878234028816223, -0.2300485223531723, 0.2049989551305771, -0.32476291060447693, -0.08883675932884216, 0.0853007435798645, 0.019791480153799057, 0.20204167068004608, 0.1764642745256424, -0.11893894523382187, -0.30519139766693115, -0.15748541057109833, 0.24177515506744385, 0.009407964535057545, 0.31504493951797485, -0.08883045613765717, 0.1904655396938324, -0.09901218861341476, -0.05741151049733162, -0.1610226333141327, -0.2705007791519165, -0.05690430849790573, -0.016282204538583755, 0.14403347671031952, -0.03166673332452774, -0.05802284926176071, -0.15485341846942902, -0.15587981045246124, 0.031476788222789764, 0.2418263554573059, -0.10729332268238068, 0.07067523896694183, 0.009383412078022957, -0.02284524030983448, 0.21618671715259552, 0.21969561278820038, -0.06507008522748947, 0.16531884670257568, 0.12503841519355774, 0.2695942521095276, -0.05125803500413895, 0.01491622906178236, -0.08841351419687271, -0.16202278435230255, 0.02388530597090721, -0.10850565135478973, -0.021957987919449806, -0.13450723886489868, -0.055129945278167725, 0.00494764419272542, 0.2387586086988449, 0.291443794965744, -0.006005604285746813, -0.04522872343659401, -0.08559142798185349, -0.08133768290281296, -0.07946553826332092, 0.1844303011894226, -0.15880148112773895, -0.10533762723207474, 0.24721349775791168, 0.01308951061218977, -0.1708521544933319, -0.13316786289215088, 0.08575892448425293, 0.029191821813583374, -0.0072012669406831264, -0.09255418181419373, -0.07253549247980118, -0.02662697806954384, -0.13072551786899567, -0.10293038934469223, 0.07112034410238266, 0.2119280993938446, 0.034892383962869644, -0.11505277454853058, -0.24658291041851044, 0.1116061806678772, 0.016762981191277504, 0.11532733589410782, 0.08844255656003952, -0.09856688976287842, -0.03456258401274681, -0.0603819340467453, 0.014398408122360706, 0.1769050508737564, -0.05320248007774353, 0.022824838757514954, 0.10135847330093384, -0.0005225450731813908, 0.04966044798493385, -0.2047688066959381, 0.05409035459160805, 0.062197860330343246, 0.14654727280139923, 0.143819659948349, -0.11731399595737457, 0.2505511939525604, 0.23624572157859802, -0.25183260440826416, 0.03382383659482002, 0.06246064230799675, 0.20923030376434326, -0.021449312567710876, 0.11174124479293823, 0.22718635201454163, 0.31674909591674805, -0.060406316071748734, 0.04416432976722717, -0.12697477638721466, 0.01245593186467886, 0.05451028421521187, -0.06789551675319672, 0.06067527085542679, 0.15471145510673523, -0.09459973126649857, -0.16156086325645447, -0.10519695281982422, 0.05873335897922516, -0.017814956605434418, 0.11421563476324081, -0.07515056431293488, 0.03606981411576271, 0.006702021695673466, 0.015687186270952225, 0.1467720866203308, 0.012984809465706348, -0.21786022186279297, -0.05769818276166916, 0.16616564989089966, -0.12854480743408203, -0.12039145082235336, -0.1341504156589508, 0.04355423524975777, -0.13185185194015503, 0.04221729561686516, 0.03110790252685547, 0.05473368614912033, 0.013263054192066193, 0.09609591960906982, 0.010482776910066605, -0.1380544900894165, 0.08705094456672668, -0.2508685290813446, 0.20136409997940063, 0.0651581883430481, 0.12875111401081085, 0.13548308610916138, -0.053077369928359985, 0.27739623188972473, 0.1230202317237854, 0.11312926560640335, -0.13317342102527618, -0.1803627461194992, 0.22922943532466888, 0.00860678032040596, -0.34073033928871155, -0.06827303767204285, 0.09600456804037094, -0.023495955392718315, -0.13935784995555878, 0.047050490975379944, 0.1056332215666771, -0.04953896254301071, 0.07167237251996994, 0.10477538406848907, 0.051824260503053665, -0.049079060554504395, -0.19507478177547455, -0.13483548164367676, -0.1808289736509323, -0.051029447466135025, 0.006195437163114548, 0.013118569739162922, -0.14253203570842743, -0.0483715645968914, 0.0584123432636261, 0.041596751660108566, 0.03955173119902611, -0.08007515966892242, -0.041213810443878174, 0.21760955452919006, 0.16414529085159302, -0.13857457041740417, 0.11698949337005615, -0.004300481639802456, -0.1835862696170807, -0.031045176088809967, 0.1302572786808014, -0.19550099968910217, -0.0040440866723656654, 0.02765396237373352, 0.13421809673309326, -0.328575998544693, -0.24452674388885498, 0.13794106245040894, 0.14578105509281158, -0.08594990521669388, -0.18321575224399567, 0.08495522290468216, 0.1517212837934494, -0.1269814521074295, 0.28806209564208984, -0.09515614807605743, -0.12095420062541962, 0.24986772239208221, -0.3787927031517029, -0.09342891722917557, 0.05655079707503319, -0.032020095735788345, 0.31351351737976074, -0.1426774561405182, 0.058541398495435715, 0.1218932718038559, 0.0910678505897522, -0.05014153942465782, -0.07134407758712769, -0.09768363833427429, 0.12675268948078156, 0.28319206833839417, 0.06291116774082184, 0.03965102136135101, -0.22220128774642944, -0.2275126874446869, 0.08126700669527054, 0.20806646347045898, -0.10845806449651718, 0.06608016043901443, -0.38278770446777344, 0.028850235044956207, -0.20190578699111938, -0.34480223059654236, 0.1149325892329216, -0.06807757914066315, -0.2451063096523285, 0.012882192619144917, 0.06435893476009369, -0.24853777885437012, 0.05133521929383278, 0.031451575458049774, 0.10075464844703674, 0.15292079746723175, -0.034711334854364395, 0.0034781540744006634, 0.08572638779878616, -0.05363191291689873, 0.0551825612783432, -0.12061946839094162, -0.030288662761449814, 0.3623371720314026, 0.26702365279197693, 0.09620257467031479, 0.4414359927177429, 0.08271273970603943, -0.11347213387489319, -0.25380247831344604, -0.08138586580753326, -0.1790691316127777, -0.2553672790527344, 0.18093231320381165, 0.18609823286533356, 0.053147442638874054, 0.10639236122369766, 0.03923475369811058, -0.04702359437942505, -0.09501892328262329, 0.08755389600992203, 0.0889110267162323, -0.15122677385807037, -0.16565868258476257, 0.1339099109172821, -0.18455304205417633, 0.091278575360775, -0.0035992416087538004, -0.19554440677165985, 0.01700856164097786, -0.11698412150144577, -0.18021345138549805, -0.22857066988945007, -0.4609138071537018, 0.11419504880905151, -0.11262702941894531, 0.16181311011314392, 0.21807290613651276, -0.0070594679564237595, 0.10279928147792816, -0.1304095983505249, 0.12987419962882996, 0.00753880525007844, 0.0411435104906559, 0.19957980513572693, 0.5006397366523743, -0.08106726408004761, 0.12887604534626007, -0.020611010491847992, 0.05469959229230881, 0.14909066259860992, -0.3945779502391815, 0.14577648043632507, 0.030615786090493202, 0.0037063071504235268, -0.03707198426127434, -0.44415661692619324, 0.18624049425125122, -0.17656546831130981, -0.20150789618492126, 0.3591398000717163, -0.042278509587049484, -0.06936865299940109, 0.16114234924316406, 0.11560747772455215, -0.01965685747563839, -0.2635066509246826, -0.10327652096748352, -0.01545876357704401, 0.19521000981330872, 0.07338343560695648, -0.024847932159900665, -0.16290201246738434, -0.20613519847393036, 0.15394510328769684, 0.2883988916873932, 0.09310337156057358, -0.036825913935899734, -0.003522288054227829, 0.10723184794187546, -0.1732475906610489, -0.18864457309246063, 0.1651650369167328, 0.1210981234908104, -0.2474673092365265, 0.2663203477859497, -0.029096970334649086, -0.0902000293135643, -0.20227377116680145, -0.1995093822479248, 0.13102498650550842, 0.00696686003357172, 0.18105146288871765, 0.216624453663826, -0.11718530207872391, -0.060549668967723846, -0.19839708507061005, -0.22966070473194122, -0.27556735277175903, 0.0895005390048027, -0.19511207938194275, -0.09146188199520111, 0.16411933302879333, -0.2659146785736084, -0.2099703550338745, -0.2381712794303894, 0.034730199724435806, 0.06439298391342163, -0.10114547610282898, 0.13647544384002686, -0.06317801028490067, -0.11270106583833694, -0.14421425759792328, 0.1910092681646347, -0.007264775689691305, 0.044980477541685104, -0.05084886774420738, 0.014542650431394577, -0.05882994830608368, -0.019229579716920853, -0.28084564208984375, -0.029111428186297417, 0.01737704686820507, -0.2741812765598297, -0.15254326164722443, -0.08425669372081757, -0.2469821572303772, -0.11480917036533356, 0.11229143291711807, 0.1865583211183548, -0.09340102970600128, -0.07714595645666122, -0.048182256519794464, 0.014359259977936745, 0.09005925804376602, 0.10868200659751892, 0.06073969602584839, -0.050283752381801605, -0.1223096027970314, 0.3145962059497833, 0.2255035936832428, 0.12360928952693939, 0.05814322084188461, -0.07039222121238708, 0.7037056088447571, 0.25031590461730957, 0.4605735242366791, -0.33687642216682434, 0.09692510962486267, -0.19358089566230774, -0.24073174595832825, -0.02577127143740654, -0.30782365798950195, 0.42338132858276367, 0.17779891192913055, -0.0972667708992958, 0.27212223410606384, 0.14858829975128174, 0.3212030827999115, 0.08906326442956924, -0.12488672882318497, 0.0009027481428347528, 0.18961670994758606, -0.19703221321105957, -0.035336531698703766, -0.3201345205307007, -0.011227299459278584, 0.04645373672246933, 0.20952828228473663, -0.0568036325275898, 0.045835230499506, 0.013082891702651978, 0.00917714461684227, 0.21866875886917114, 0.6925086379051208, -0.0530611053109169, -0.5853646397590637, -0.11525299400091171, 0.027281412854790688, -0.22577859461307526, -0.10004694014787674, -0.0011102198623120785, -0.19524185359477997, 0.19130998849868774, -0.17414359748363495, -0.11718133091926575, -0.00030255026649683714, 0.03585466742515564, -0.013123340904712677, 0.11223815381526947, 0.08107340335845947, 0.2788624167442322, 0.24509093165397644, -0.0639062151312828, -0.06108144298195839, 0.02854953706264496, -0.29651716351509094, -0.1245315819978714, 0.12867866456508636, -0.09817216545343399, 0.18285506963729858, 0.29178115725517273, -0.07577013224363327, -0.04306161776185036, -0.14983084797859192, 0.14278578758239746, -0.13028497993946075, -0.16859221458435059, 0.016969703137874603, -0.12551161646842957, 0.24600504338741302, 0.051811471581459045, 0.0041844104416668415, -0.16592495143413544, -0.10234805941581726, 0.04320923611521721, 0.28310203552246094, 0.03908844292163849, 0.08546105027198792, -0.1768927127122879, 0.0413874052464962, 0.044372428208589554, 0.12380623072385788, -0.01096834521740675, -0.16826914250850677, -0.1272115409374237, -0.2902686893939972, 0.05842824652791023, 0.04866586625576019, -0.14520388841629028, 0.12719491124153137, 0.22827757894992828, 0.020407630130648613, 0.06011117249727249, -0.23394721746444702, 0.13024023175239563, 0.44155898690223694, -0.3185979127883911, 0.09216446429491043, 0.19927529990673065, 0.03559310734272003, -0.027267854660749435, 0.07842529565095901, 0.10906888544559479, 0.05376609042286873, -0.0710347443819046, -0.2885083854198456, 0.39819857478141785, 0.05798358842730522, 0.13849791884422302, 0.06659995019435883, 0.14463816583156586, 0.07895124703645706, -0.19115571677684784, 0.0030853303615003824, 0.17175428569316864, 0.10295534133911133, -0.010560682974755764, -0.23622539639472961, -0.311695396900177, 0.02414705418050289, -0.11900373548269272, 0.21261145174503326, -0.014792283996939659, -0.025392884388566017, -0.24521109461784363, -0.05116637051105499, 0.27213436365127563, -0.15603207051753998, -0.010254510678350925, -0.2855567932128906, 0.20673812925815582, -0.008731944486498833, -0.12845683097839355, -0.029492124915122986, -0.015327034518122673, -0.11070577055215836, 0.0057528079487383366, 0.0634891539812088, -0.09669084846973419, 0.013264443725347519, -0.012544946745038033, 0.07442625612020493, 0.058467235416173935, 0.0456082783639431, 0.3876074552536011, -0.118065245449543, -0.10725606232881546, 0.18951381742954254, -0.1499614417552948, 0.13360187411308289, 0.011123277246952057, -0.1607341766357422, -0.08471788465976715, 0.06687799096107483, 0.25078654289245605, 0.057082924991846085, 0.007559625897556543, 0.006832870189100504, -0.22582364082336426, -0.046821046620607376, -0.036337386816740036, 0.4381974935531616, -0.18328583240509033, 0.471876323223114, -1.020529866218567, -1.0627466440200806, -0.2430463284254074, 0.4469468593597412, -0.40735405683517456, 0.23749077320098877, 0.38380366563796997, -0.42805230617523193, 0.27448761463165283, -0.02290571853518486, -0.5696521401405334, -0.027443902567029, -0.33838310837745667, -0.15718087553977966, -0.1218237355351448, 0.1432967483997345, -0.14391140639781952, -0.02419355884194374, 0.03134559094905853, 0.1411338448524475, -0.5235786437988281, -0.5297378301620483, -0.08087281137704849, -0.13837172091007233, 0.10936382412910461, 0.1485353708267212, -0.13614901900291443, 0.05676306039094925, -0.04292558133602142, -0.134342759847641, -0.25179779529571533, -0.01853841543197632, -0.4227645993232727, 0.0022368368227034807, 0.09639705717563629, 0.14438745379447937, -0.143425852060318, -0.02354240231215954, -0.013851468451321125, -0.15605583786964417, 0.19835823774337769, -0.09918069839477539, 0.14231149852275848, 0.12514805793762207, 0.012463335879147053, 0.021459879353642464, 0.29749932885169983, 0.03448951616883278, -0.07954470068216324, 0.35495471954345703, -0.21107597649097443, -0.35403600335121155, 0.12129680812358856, 0.2994917035102844, -0.12518896162509918, -0.12093036621809006, -0.12925496697425842, -0.011517053470015526, -0.08469471335411072, 0.06301174312829971, 0.2689526379108429, -0.22169038653373718, 0.1593959629535675, -0.01774211972951889, 0.22688882052898407, 0.15080244839191437, 0.2689627707004547, 0.3952395021915436, -0.09586303681135178, -0.3058818280696869, -0.18698906898498535, -0.07861699163913727, -0.33733752369880676, 0.2680436074733734, 0.23397569358348846, -0.08591887354850769, -0.43983691930770874, 0.21396738290786743, -0.0919908806681633, -0.041956786066293716, 0.12237577140331268, 0.19850334525108337, -0.08849845826625824, 0.019263118505477905, -0.16643254458904266, 0.24947160482406616, 0.10089980065822601, 0.13247427344322205, 0.16497080028057098, -0.1181645616889, -0.19338934123516083, -0.20003385841846466, -0.1303899586200714, -0.21314741671085358, 0.09336188435554504, 0.22069072723388672, 0.21509963274002075, -0.10429017245769501, 0.23162248730659485, -0.009584235958755016, 0.056588899344205856, 0.1485467404127121, 0.18214142322540283, -0.28260084986686707, 0.3518705666065216, -0.021679971367120743, -0.13371065258979797, -0.26857393980026245, 0.16090895235538483, -0.1362609714269638, -0.17759564518928528, -0.05429492145776749, -0.03245434910058975, 0.1757354438304901, -0.036775652319192886, 0.1023080125451088, 0.1325555443763733, -0.021268730983138084, 0.035405561327934265, 0.09301633387804031, -0.024060139432549477, 0.16800044476985931, 0.06606723368167877, 0.17785096168518066, -0.21119169890880585, -0.12091196328401566, 0.2933467626571655, -0.08445311337709427, 0.20194146037101746, 0.5453419089317322, -0.25977444648742676, 0.10854533314704895, 0.3435613214969635, 0.25070273876190186, -0.06849857419729233, 0.08625715970993042, 0.06735294312238693, -0.11864204704761505, -0.01280290074646473, 0.27839452028274536, 0.16267745196819305, -0.2983168959617615, 0.04220493137836456, -0.0454130694270134, 0.013063499704003334, 0.30071064829826355, 0.040961313992738724, -0.0921584814786911, -0.08265325427055359, 0.07143731415271759, 0.031179944053292274, -0.020283997058868408, -0.11642763763666153, 0.08491083234548569, 0.029640471562743187, -0.0036290762946009636, 0.053814247250556946, 0.08430688828229904, 0.19362343847751617, 0.12033572793006897, -0.02506559155881405, -0.05886993929743767, -0.0036224054638296366, -0.0033617611043155193, -0.2119666039943695, -0.24348950386047363, -0.11108250170946121, 0.1764184534549713, -0.16978836059570312, 0.19742156565189362, 0.03559177741408348, 0.0984274223446846, -0.05577048286795616, -0.1831584870815277, 0.050333425402641296, -0.21462492644786835, -0.1506623923778534, -0.0717235803604126, -0.016938496381044388, 0.016532495617866516, -0.1772187501192093, 0.391032874584198, -0.01660257577896118, -0.08998432010412216, -0.04373563826084137, -0.1668875366449356, 0.16062599420547485, 0.04383998364210129, -0.06254739314317703, 0.11139966547489166, -0.0628313273191452, -0.1734514832496643, -0.17984257638454437, -0.16862235963344574, -0.21134629845619202, -0.04871586710214615, 0.19838093221187592, -0.06664120405912399, 0.243219256401062, 0.3611297905445099, 0.24905629456043243, -0.19127026200294495, 0.2987164258956909, -0.28097453713417053, -0.007234189193695784, -0.03834186866879463, 0.22335295379161835, 0.11365161091089249, 0.25845980644226074, -0.07713373005390167, 0.03211545571684837, -0.20003049075603485, -0.0354926735162735, 0.3239036798477173, 0.05198635533452034, -0.22322426736354828, -0.20654858648777008, -0.02801690623164177, 0.061404094099998474, 0.07964468747377396, -0.19851534068584442, -0.10638462752103806, 0.2105589658021927, 0.07820102572441101, 0.27535805106163025, 0.04343508183956146, 0.11693394184112549, -0.010752779431641102, 0.04415008798241615, 0.062272001057863235, 0.21252653002738953, -0.04273266717791557, -0.2062585949897766, -0.14255519211292267, -0.19229191541671753, -0.02674407698214054, -0.061720944941043854, 0.268544465303421, -0.12424998730421066, 0.07362812757492065, 0.1090787872672081, -0.17403021454811096, -0.052569154649972916, 0.16147243976593018, 0.2692910432815552, -0.10869289189577103, 0.08728079497814178, -0.26082128286361694, 0.06425166875123978, -0.04456353560090065, -0.005403787828981876, -0.05851736292243004, 0.16799430549144745, -0.1258634477853775, 0.19556979835033417, -0.22612382471561432, -0.15542538464069366, 0.09326723217964172, -0.22055821120738983, 0.3541357219219208, -0.5061460733413696, -0.08676447719335556, 0.14494527876377106, -0.2026679515838623, -0.14886586368083954, 0.14773990213871002, 0.12503233551979065, 0.2099013775587082, -0.14135590195655823, -0.25120240449905396, 0.032068319618701935, 0.03465208038687706, -0.08141471445560455, 0.028788935393095016, -0.04839007556438446, 0.028263671323657036, 0.05944756790995598, -0.07348094135522842, 0.10256645083427429, 0.11638504266738892, 0.07474011927843094, -0.04152176156640053, -0.24859900772571564, -0.07423979789018631, 0.10313967615365982, 0.1126287579536438, 0.07947719842195511, -0.12724077701568604, 0.31460776925086975, 0.1679866760969162, 0.13061198592185974, -0.08979102969169617, 0.13208255171775818, -0.14161129295825958, 0.0812075138092041, 0.14614132046699524, -0.08149046450853348, 0.047427497804164886, 0.05424908548593521, -0.16598942875862122, 0.1657654196023941, -0.08483044803142548, 0.11144515126943588, -0.007867000065743923, 0.1857295036315918, -0.008435592986643314, 0.24739079177379608, 0.29365238547325134, 0.18634919822216034, -0.07658757269382477, 0.03785768523812294, -0.0691320151090622, 0.1259043961763382, 0.04400520771741867, 0.32078349590301514, 0.17143051326274872, 0.1581251621246338, -0.3243728578090668, -0.19399069249629974, -0.33369180560112, -0.30687209963798523, 0.05926157906651497, 0.2303597629070282, 0.19566847383975983, -0.007075663655996323, 0.17232999205589294, -0.10368136316537857, 0.1362527757883072, -0.33524054288864136, -0.032637715339660645, -0.10454239696264267, -0.025688642635941505, -0.08631926774978638, 0.06988628208637238, -0.009492957964539528, 0.1462346762418747, -0.0433141328394413, -0.005324569996446371, -0.07909661531448364, -0.16944384574890137, -0.09494240581989288, 0.11362679302692413, 0.056256022304296494, 0.07511670142412186, 0.2575436234474182, 0.20114867389202118, -0.05220633000135422, -0.08228891342878342, 0.08564300090074539, 0.014782438986003399, -0.18951646983623505, -0.1283576637506485, 0.027917208150029182, 0.2815288007259369, -0.12207355350255966, -0.0394606813788414, -0.23614445328712463, -0.08543489128351212, 0.07456375658512115, 0.24075056612491608, 0.12701231241226196, 0.05838657543063164, -0.21748554706573486, 0.012576496228575706, -0.22028478980064392, 0.24981124699115753, -0.10946765542030334, -0.055083829909563065, 0.14936046302318573, -0.027059605345129967, -0.12177758663892746, 0.14797690510749817, -0.05345939099788666, -0.0312609039247036, 0.2109857052564621, 0.23493759334087372, 0.014560402370989323, -0.15459991991519928, 0.11305613815784454, -0.07466775923967361, -0.20581093430519104, -0.03881358727812767, 0.13829635083675385, 0.18605607748031616, 0.03614605963230133, 0.42754271626472473, -0.16789470613002777, -0.024266498163342476, 0.006238284986466169, -0.1568976789712906, -0.15208202600479126, 0.06621159613132477, 0.029725665226578712, 0.0027216551825404167, -0.10826166719198227, -0.028083743527531624, 0.16617459058761597, 0.2152627408504486, 0.21206147968769073, 0.0004472075670491904, -0.07845720648765564, -0.23334252834320068, -0.12223473936319351, -0.2009052336215973, -0.0059189326129853725, 0.08675086498260498, 0.046975474804639816, -0.2697119414806366, -0.06244391202926636, -0.34443792700767517, 0.30424946546554565, 0.09903707355260849, -0.030049072578549385, -0.06773865222930908, 0.06788270175457001, -0.06632490456104279, 0.08908537775278091, 0.07110309600830078, 0.02358458749949932, -0.07089415937662125, 0.2031785249710083, 0.211191788315773, -0.09482863545417786, -0.05330483615398407, -0.10134782642126083, 0.2493036389350891, -0.1968972384929657, -0.1616905927658081, 0.16817514598369598, -0.06455171853303909, 0.14626869559288025, 0.5951676964759827, 0.06839030236005783, 0.05771664157509804, -0.6189053654670715, 0.17625194787979126, 0.14355869591236115, -0.16483354568481445, -0.08685586601495743, 0.026188233867287636, 0.3139795660972595, -0.019067781046032906, 0.03777015954256058, 0.1423589289188385, -0.009371491149067879, 0.07894529402256012, 0.24312084913253784, 0.17797888815402985, -0.06050610542297363, -0.10771699249744415, 0.023104779422283173, -0.1434060037136078, -0.06632626801729202, 0.0893644243478775, 0.025910167023539543, -0.032287776470184326, -0.28768235445022583, -0.10800576955080032, 0.3795187771320343, 0.060182828456163406, 0.05252134054899216, -0.04442940652370453, -0.0982351154088974, -0.09524565190076828, -0.15061897039413452, 0.09938563406467438, 0.11354023218154907, -0.15164270997047424, 0.039173152297735214, 0.13731800019741058, -0.2709886431694031, -0.0633796826004982, -0.08042359352111816, 0.22687000036239624, -0.18701572716236115, -0.10169020295143127, 0.19825465977191925, -0.046672407537698746, -0.0026053229812532663, 0.2897860109806061, -0.01065891794860363, 0.20533262193202972, 0.0197526216506958, 0.13859400153160095, 0.03267912566661835, 0.020620666444301605, -0.08979771286249161, 0.08692138642072678, 0.04807847738265991, 0.06303326785564423, 0.03105151653289795, 0.15138748288154602, 0.020306751132011414, -0.07875804603099823, -0.022463057190179825, 0.19737990200519562, 0.029162732884287834, -0.11264707893133163, -0.0690113976597786, -0.04043092951178551, 0.014809210784733295, 0.1209794133901596, 0.003375251078978181, 0.026888776570558548, 0.04369792714715004, -0.05599720776081085, 0.2352844625711441, 0.06018687039613724, 0.00717666931450367, -0.10474011301994324, 0.12659385800361633, -0.05363531410694122, -0.22507770359516144, -0.042767733335494995, 0.10807592421770096, -0.12182331830263138, 0.05223122984170914, 0.11752451956272125, -0.10778108239173889, -0.1401263326406479, -0.14588403701782227, 0.036545928567647934, -0.19831523299217224, -0.15717437863349915, 0.2560894191265106, -0.1628052443265915, 0.017540229484438896, -0.014871815219521523, -0.17617519199848175, -0.039100635796785355, 0.012727519497275352, -0.1004563421010971, 0.06541971117258072, 0.07555557042360306, -0.26205360889434814, -0.008413677103817463, -0.0152182811871171, -0.09179888665676117, 0.010554668493568897, 0.08402048796415329, -0.021778400987386703, -0.16405639052391052, -0.1585773527622223, 0.04369928687810898, -0.18237431347370148, -0.039116933941841125, 0.040432434529066086, 0.15250475704669952, 0.10510431975126266, -0.17674675583839417, -0.1999337524175644, 0.14601755142211914, -0.09520785510540009, 0.07441505044698715, -0.31745266914367676, 0.140517920255661, 0.060115959495306015, 0.020418914034962654, -0.3779814541339874, 0.10336697101593018, -0.011588692665100098, -0.08577378839254379, -0.22105316817760468, -0.1312820315361023, -0.19470952451229095, -0.07955320179462433, 0.06670159846544266, 0.12542632222175598, 0.029920479282736778, -0.12564237415790558, 0.0738157108426094, 0.14065952599048615, -0.2661156952381134, 0.08929033577442169, 0.04834577441215515, -0.10031760483980179, -0.056601252406835556, -0.08504991233348846, 0.008385801687836647, -0.09201090037822723, -0.02786724455654621, 0.24359531700611115, -0.08053559064865112, -0.13166700303554535, -0.18120424449443817, 0.050467599183321, 0.13123060762882233, -0.05034453049302101, 0.18130698800086975, 0.12002456933259964, 0.044255804270505905, 0.00520771648734808, 0.06193288788199425, 0.21484683454036713, -0.15714579820632935, -0.0372181236743927, 0.05245071277022362, -0.18023477494716644, -0.048066169023513794, 0.11111322790384293, 0.09572762995958328, 0.08656355738639832, -0.2666572034358978, -0.04576675593852997, 0.09258327633142471, -0.024383796378970146, 0.02848578244447708, -0.44444432854652405, 0.047695569694042206, -0.15019701421260834, 0.05082523822784424, 0.1421775221824646, 0.03988151624798775, 0.05364120006561279, 