{"version": "0.5.4", "metadata": {"date": {"year": 2025, "month": 12, "day": 14, "hour": 17, "minute": 38, "second": 56}, "loudness": -12.532751083374023, "gain": 0.7721740370819535}, "architecture": "WaveNet", "config": {"layers": [{"input_size": 1, "condition_size": 1, "head_size": 8, "channels": 16, "kernel_size": 3, "dilations": [1, 2, 4, 8, 16, 32, 64, 128, 256, 512], "activation": "Tanh", "gated": false, "head_bias": false}, {"input_size": 16, "condition_size": 1, "head_size": 1, "channels": 8, "kernel_size": 3, "dilations": [1, 2, 4, 8, 16, 32, 64, 128, 256, 512], "activation": "Tanh", "gated": false, "head_bias": true}], "head": null, "head_scale": 0.02}, "weights": [-0.03444143384695053, 0.5507367849349976, -0.958344578742981, -0.8041611909866333, -0.31833192706108093, 0.2052551656961441, 0.0094247255474329, 0.7852977514266968, -0.26727354526519775, 0.2954047620296478, -0.17532896995544434, -0.15090110898017883, -0.8976292610168457, -0.680920422077179, -0.26154306530952454, 0.17448320984840393, 0.14850324392318726, 0.33708611130714417, -0.3153214752674103, -0.12510013580322266, -0.21126879751682281, 0.27755028009414673, 0.010704616084694862, 0.37596574425697327, -0.1703229397535324, 0.06649776548147202, 0.3920176327228546, -0.2877172529697418, -0.021131368353962898, 0.22216194868087769, -0.2174854427576065, 0.07042653113603592, -0.35305434465408325, 0.09194043278694153, -0.013083170168101788, 0.03357894718647003, -0.2591405510902405, 0.07273232936859131, -0.20224274694919586, 0.21974831819534302, 0.08385884016752243, 0.21030206978321075, -0.15475298464298248, -0.18248172104358673, -0.3508923649787903, 0.09748086333274841, 0.13598579168319702, 0.33414387702941895, -0.2178635150194168, 0.060246095061302185, 0.339643657207489, -0.03430824726819992, 0.10743111371994019, 0.2800251543521881, -0.06165038049221039, -0.02656356431543827, 0.289042592048645, -0.26543837785720825, -0.04652344435453415, 0.18614636361598969, -0.08634018152952194, -0.05747119337320328, -0.30700868368148804, 0.2872685492038727, -0.17082975804805756, 0.13412533700466156, -0.18038253486156464, 0.2620445787906647, -0.09481647610664368, 0.2615308165550232, -0.3313977122306824, 0.136323019862175, -0.06076236069202423, -0.10742759704589844, 0.3096916377544403, 0.005503819324076176, -0.20056594908237457, 0.061684634536504745, -0.11508853733539581, 0.1230672225356102, -0.32303106784820557, 0.23617742955684662, 0.029960935935378075, 0.03201446682214737, -0.1303185075521469, 0.19547829031944275, -0.2100205272436142, 0.04994802176952362, -0.16304437816143036, 0.13236939907073975, -0.06352770328521729, 0.2930448055267334, -0.07882894575595856, 0.17796222865581512, -0.3508574366569519, 0.0803980603814125, -0.05442354828119278, -0.1996941715478897, 0.05917156860232353, -0.21924889087677002, -0.09177953004837036, 0.278410941362381, -0.1808912754058838, -0.25604215264320374, 0.05385695770382881, -0.11985694617033005, -0.3270331919193268, 0.06864860653877258, -0.12979967892169952, 0.2936417758464813, -0.24350568652153015, 0.25358331203460693, -0.1096072867512703, 0.13529321551322937, 0.2378043830394745, -0.05007263645529747, -0.010138195008039474, -0.09072403609752655, -0.055149782449007034, 0.0005272830021567643, 0.13952940702438354, -0.06581208109855652, -0.09682583063840866, 0.1615082323551178, -0.19618453085422516, -0.10018552094697952, 0.06723087280988693, 0.004515419714152813, -0.027349989861249924, -0.21893733739852905, -0.06552337110042572, -0.0009672687738202512, -0.06154017150402069, 0.06834477186203003, 0.128533273935318, -0.11020416021347046, -0.0556391142308712, -0.010934772901237011, 0.17002366483211517, 0.15269842743873596, 0.1438455432653427, -0.02479500323534012, 0.07302170991897583, -0.02632433921098709, -0.030897336080670357, -0.12547144293785095, 0.08175043016672134, 0.10666358470916748, -0.14431290328502655, -0.1371907889842987, -0.03899261727929115, -0.19075368344783783, -0.05324561893939972, 0.17619124054908752, 0.011082399636507034, -0.15881475806236267, 0.17616762220859528, -0.06472653150558472, -0.049091886729002, -0.2334519773721695, 0.011033611372113228, 0.06489730626344681, -0.21683546900749207, -0.18463745713233948, -0.10538089275360107, 0.07744419574737549, -0.012020692229270935, 0.1402074694633484, -0.19023606181144714, 0.04979103058576584, 0.2092466950416565, -0.130350261926651, 0.18652698397636414, 0.12407880276441574, -0.20914258062839508, 0.03562347590923309, -0.09683981537818909, 0.017413374036550522, 0.05853346362709999, -0.10154477506875992, -0.01492363028228283, -0.08748076111078262, 0.016892975196242332, 0.11441952735185623, 0.10871676355600357, 0.12216769903898239, -0.13512060046195984, -0.0809791311621666, -0.18322530388832092, 0.1698935627937317, 0.15241244435310364, 0.1677985042333603, -0.175516277551651, 0.060731593519449234, -0.02403777651488781, -0.16502338647842407, -0.02186432294547558, 0.13329777121543884, -0.1559922993183136, 0.05520036816596985, 0.08730221539735794, 0.013090601190924644, -0.056069813668727875, -0.016900580376386642, -0.1497913897037506, 0.028358712792396545, -0.09918023645877838, 0.26112091541290283, -0.20951227843761444, 0.301815927028656, 0.1293327361345291, 0.20479801297187805, -0.2702753245830536, -0.1794046312570572, -0.22817255556583405, 0.3003818988800049, 0.033745814114809036, -0.30061450600624084, 0.40105873346328735, 0.034204062074422836, -0.24702779948711395, 0.4276806712150574, 0.19681748747825623, 0.22408437728881836, -0.40653374791145325, -0.07844562083482742, -0.1630968302488327, 0.2066793590784073, 0.014939146116375923, 0.20345762372016907, -0.2828039228916168, -0.03126638010144234, -0.21530334651470184, 0.4274699091911316, 0.23604165017604828, 0.1463569849729538, -0.21668027341365814, -0.23898422718048096, -0.2907450199127197, 0.3050713837146759, 0.17987215518951416, -0.1351546049118042, 0.22996148467063904, 0.13615630567073822, -0.1547355204820633, 0.14847595989704132, 0.2489224076271057, -0.3433957099914551, 0.28808167576789856, 0.12400912493467331, -0.31087180972099304, 0.2851220965385437, 0.2478957176208496, 0.23989610373973846, -0.3951633870601654, -0.1780875027179718, -0.21547077596187592, 0.11194656044244766, 0.0734344944357872, 0.0232543908059597, -0.10810495167970657, -0.02284497581422329, -0.04824962839484215, 0.1318831890821457, 0.14365674555301666, -0.16962051391601562, -0.013328788802027702, 0.1433209478855133, 0.00456992257386446, 0.06968756765127182, 0.03952974081039429, 0.05084581673145294, -0.16930708289146423, -0.0808585062623024, -0.07051815837621689, -0.060052573680877686, 0.20252425968647003, 0.03089885041117668, -0.04383116215467453, -0.06290984898805618, -0.10318950563669205, -0.03378617390990257, 0.028365379199385643, 0.2245739847421646, -0.015932099893689156, 0.0007755947299301624, -0.15227900445461273, 0.0746750608086586, 0.06670432537794113, -0.11345013976097107, -0.05292259156703949, 0.15864555537700653, -0.07776759564876556, 0.02097892388701439, 0.06804599612951279, -0.20597024261951447, 0.12651081383228302, 0.0006384501466527581, -0.05520610883831978, -0.0217641182243824, 0.024372301995754242, 0.13664329051971436, -0.12064452469348907, -0.1333032101392746, -0.005827052053064108, -0.11670569330453873, 0.18491609394550323, 0.1306837946176529, 0.08829771727323532, -0.1410854309797287, -0.18606829643249512, -0.06302425265312195, 0.15514664351940155, -0.12446676194667816, 0.016798479482531548, 0.21266330778598785, -0.13924670219421387, -0.022718211635947227, 0.18803691864013672, 0.07958967983722687, 0.03875359147787094, -0.11160976439714432, -0.1081748977303505, 0.012730834074318409, 0.17687250673770905, 0.2003527283668518, 0.11904425173997879, -0.09929220378398895, 0.005271443631500006, -0.08078640699386597, 0.048523470759391785, -0.056765466928482056, 0.15849794447422028, -0.04832347482442856, -0.15672309696674347, 0.02786298841238022, 0.2188941389322281, 0.07907117903232574, 0.10272877663373947, 0.24465078115463257, -0.10603123903274536, -0.08704878389835358, 0.2319444864988327, 0.0067007592879235744, -0.11797010153532028, 0.2493252009153366, 0.0033247501123696566, 0.04477083310484886, 0.022130584344267845, 0.11390984058380127, -0.06036568433046341, -0.10983695834875107, -0.027927877381443977, -0.09623313695192337, 0.0004949229769408703, 0.0925859585404396, 0.10730288177728653, 0.09689231216907501, -0.11671552807092667, -0.12744176387786865, -0.13441118597984314, -0.16597239673137665, -0.27069008350372314, 0.08010194450616837, 0.044172585010528564, -0.01327481772750616, 0.09218231588602066, -0.10295668244361877, 0.05769738927483559, 0.0023730022367089987, -0.13906635344028473, -0.09252910315990448, -0.30042728781700134, -0.042664218693971634, 0.022064490243792534, -0.04821067303419113, 0.09401765465736389, -0.04317208379507065, 0.08613578230142593, 0.12983667850494385, 0.26722124218940735, -0.02203020639717579, 0.049364492297172546, -0.021861672401428223, 0.015752946957945824, 0.11553946137428284, -0.07181503623723984, 0.07176079601049423, -0.07853337377309799, -0.09050194919109344, -0.016857458278536797, -0.062702976167202, -0.23557841777801514, -0.10818664729595184, -0.1276153177022934, -0.053345419466495514, 0.06979325413703918, 0.03730151057243347, 0.029328688979148865, 0.07213453948497772, 0.14319069683551788, -0.0871688649058342, -0.0053904191590845585, 0.11627212166786194, 0.17066368460655212, -0.14371325075626373, 0.1413649618625641, -0.004350993782281876, -0.01790490187704563, 0.08612339943647385, -0.19274304807186127, 0.015952711924910545, 0.13785451650619507, -0.10457491874694824, -0.06115128844976425, -0.054823100566864014, 0.06512019783258438, -0.07834377139806747, 0.01497795432806015, 0.023561639711260796, -0.006423688493669033, -0.09211786091327667, 0.11684715002775192, 0.02464783750474453, 0.08966386318206787, -0.22977982461452484, 0.04196473956108093, -0.12110614776611328, 0.037645310163497925, -0.00880423840135336, -0.08157627284526825, -0.04021383821964264, 0.1685100644826889, 0.032652873545885086, -0.19380046427249908, 0.0008774261805228889, 0.03740018978714943, -0.22029493749141693, 0.10644454509019852, -0.11907732486724854, -0.2457105815410614, -0.09502174705266953, -0.011794484220445156, -0.0063808695413172245, -0.09453264623880386, 0.07542948424816132, 0.06125999242067337, -0.03163899853825569, -0.04828644171357155, -0.08841600269079208, 0.18642210960388184, 0.17043671011924744, 0.13143101334571838, 0.03149215877056122, -0.1910010576248169, 0.11965537071228027, 0.03937689587473869, -0.03282126784324646, -0.10733532905578613, -0.0017293832497671247, -0.22807928919792175, -0.04299107939004898, 0.06933452934026718, -0.017680048942565918, 0.028503350913524628, 0.02653448097407818, 0.1354903131723404, 0.07508716732263565, -0.008165480569005013, 0.05601217597723007, 0.054811205714941025, 0.09690068662166595, 0.00020071030303370208, 0.022335361689329147, 0.11782162636518478, -0.04749703034758568, -0.13966035842895508, 0.012790914624929428, -0.16256774961948395, 0.08040638267993927, -0.05948689207434654, -0.15306444466114044, -0.09725792706012726, 0.12306450307369232, -0.11392201483249664, 0.11198500543832779, 0.1245097815990448, -0.018367577344179153, 0.01374130044132471, -0.0009681620285846293, -0.12290588766336441, 0.022144507616758347, 0.10038840770721436, -0.0006255126208998263, 0.0796922892332077, -0.09073299914598465, -0.33524200320243835, -0.16695661842823029, 0.25027260184288025, 0.3565904498100281, -0.042061664164066315, -0.007884262129664421, -0.14107894897460938, -0.004828437697142363, 0.21997757256031036, -0.29353970289230347, -0.039210423827171326, 0.16788145899772644, -0.26809975504875183, -0.035188931971788406, 0.06878475844860077, 0.30087125301361084, 0.04243367165327072, -0.1639917939901352, 0.020750977098941803, -0.011868954636156559, 0.03239497169852257, 0.225197434425354, 0.1626407951116562, -0.12483306974172592, -0.18125885725021362, -0.1149279773235321, 0.18068376183509827, 0.1034577265381813, -0.014968250878155231, -0.19613328576087952, -0.06882232427597046, -0.10744339972734451, 0.11471833288669586, -0.28858718276023865, 0.05851264297962189, 0.25216391682624817, -0.3241889476776123, -0.19588473439216614, 0.0033727381378412247, -0.22016601264476776, -0.11658786237239838, 0.02030310034751892, -0.2625810503959656, -0.05330057069659233, 0.03132648020982742, 0.2921879291534424, 0.028043316677212715, -0.21025022864341736, 0.31211379170417786, -0.07214406132698059, -0.025886541232466698, -0.2709583640098572, 0.14595557749271393, 0.0965249091386795, 0.13728781044483185, -0.32770565152168274, 0.17255917191505432, 0.18375787138938904, -0.17193205654621124, 0.019898422062397003, 0.24298705160617828, -0.2362135648727417, 0.13305027782917023, -0.2542385458946228, 0.06852307915687561, -0.10291538387537003, 0.07845769822597504, -0.15562953054904938, -0.02561628445982933, -0.1346529722213745, 0.16490960121154785, -0.0519942007958889, 0.371492475271225, -0.1767250895500183, 0.13016271591186523, -0.18624593317508698, 0.155928373336792, -0.12234289199113846, 0.24452081322669983, -0.06716076284646988, -0.016896143555641174, 0.14814633131027222, -0.13104699552059174, 0.1809915453195572, 0.2333674281835556, -0.3108804523944855, -0.09430563449859619, 0.3040998876094818, -0.21143218874931335, -0.04146692529320717, 0.2968583405017853, -0.13355852663516998, 0.15133343636989594, -0.21676422655582428, 0.22556209564208984, -0.18830980360507965, -0.07303556054830551, -0.0745319202542305, 0.1711808145046234, 0.03400631994009018, 0.0861654058098793, 0.07075244188308716, 0.167975515127182, -0.088614821434021, -0.07330439239740372, -0.024863053113222122, -0.309693843126297, 0.18841597437858582, -0.031315334141254425, -0.2639789283275604, 0.14004144072532654, -0.09303942322731018, 0.14010298252105713, -0.0743669643998146, -0.0506506972014904, -0.2701300382614136, 0.2810716927051544, -0.08978847414255142, 0.2625257074832916, 0.07065548747777939, 0.10350729525089264, -0.20039987564086914, 0.21328933537006378, -0.015515077859163284, 0.1302124559879303, 0.05874139815568924, 0.0707479938864708, -0.33374133706092834, 0.015188055112957954, -0.0604771189391613, -0.06956106424331665, 0.055676255375146866, -0.10119497030973434, -0.21951961517333984, 0.14133621752262115, 0.06368087977170944, -0.16499435901641846, 0.07075444608926773, 0.08799972385168076, -0.2331646829843521, -0.0015381964622065425, -0.15300071239471436, 0.07494901865720749, -0.10274135321378708, -0.1858830451965332, 0.20643457770347595, -0.08591903746128082, 0.08516745269298553, -0.2932509183883667, 0.24249200522899628, -0.15792933106422424, 0.3191865086555481, -0.2132808268070221, -0.10653673112392426, 0.2812036871910095, -0.16111205518245697, 0.039618927985429764, 0.1010972112417221, -0.23185625672340393, 0.008681054227054119, -0.17591390013694763, 0.23580917716026306, -0.08292946964502335, 0.26358169317245483, 0.005059478804469109, 0.040801215916872025, -0.09988270699977875, -0.005399114452302456, -0.06337542831897736, 0.34262263774871826, -0.13613338768482208, 0.18832416832447052, -0.23434172570705414, 0.23386432230472565, -0.219307079911232, 0.16238437592983246, -0.13529615104198456, -0.03910088539123535, 0.24048356711864471, -0.015110020525753498, -0.09297684580087662, 0.19780562818050385, -0.005834283772855997, -0.1105019599199295, 0.32636311650276184, -0.19831661880016327, -0.09776317328214645, 0.18025508522987366, -0.046984728425741196, 0.19327197968959808, -0.2082972526550293, 0.049851514399051666, -0.2928242087364197, -0.24374327063560486, -0.058519553393125534, 0.2273654341697693, 0.32378801703453064, 0.21213090419769287, -0.2943399250507355, -0.36286333203315735, 0.02581331878900528, -0.4136185646057129, -0.20029422640800476, -0.05747733265161514, -0.3804848790168762, -0.17764148116111755, -0.20152612030506134, 0.33691486716270447, 0.14215686917304993, 0.06634873151779175, -0.05183602124452591, 0.09653899818658829, -0.12410382181406021, 0.39858004450798035, 0.2180589735507965, 0.014612733386456966, -0.4496820271015167, -0.3768015205860138, 0.042315635830163956, 0.2823101580142975, 0.2504533529281616, 0.12641456723213196, -0.21936504542827606, -0.1260838657617569, 0.020640717819333076, -0.4214451014995575, -0.25979167222976685, -0.1642446666955948, -0.39034226536750793, -0.19993554055690765, 0.05164933204650879, -0.42341405153274536, -0.14896796643733978, -0.15449635684490204, -0.3350037634372711, -0.11642751842737198, -0.10644832998514175, 0.34695279598236084, 0.1111297756433487, 0.17132870852947235, 0.03717854619026184, -0.3783317506313324, 0.18230287730693817, -0.1160350814461708, 0.1739174723625183, -0.09122563153505325, 0.13876540958881378, -0.33167779445648193, 0.15223638713359833, 0.1405935436487198, -0.1972057968378067, 0.01936877705156803, -0.0007120177033357322, -0.323645681142807, -0.007339805830270052, -0.024639977142214775, 0.3906362056732178, 0.02162049524486065, -0.0015642439248040318, -0.1940881758928299, 0.10885006189346313, 0.08799349516630173, 0.2323969453573227, -0.18530429899692535, 0.05190116912126541, -0.22237777709960938, -0.01575683429837227, 0.10300643742084503, 0.32572248578071594, -0.20419834554195404, -0.003945566713809967, -0.15472346544265747, -0.02208050899207592, -0.011893892660737038, -0.21922673285007477, -0.002319704508408904, 0.09451395273208618, -0.21520090103149414, 0.17766089737415314, -0.07215100526809692, -0.14803941547870636, 0.009786060079932213, 0.16669827699661255, -0.40925970673561096, -0.030790263786911964, 0.05959387868642807, 0.25946083664894104, -0.1854616105556488, -0.0662817731499672, -0.06492823362350464, -0.005138113163411617, -0.08446567505598068, 0.026255100965499878, 0.052189555019140244, -0.021472863852977753, -0.020147006958723068, 0.10440026968717575, 0.11738183349370956, -0.017318150028586388, -0.007463838439434767, -0.0232437402009964, -0.05529007688164711, -0.17675304412841797, -0.06151222437620163, 0.5803344249725342, -0.301855206489563, 0.6925491690635681, -0.6183943748474121, -0.14795947074890137, 0.781405508518219, 0.8616435527801514, -0.5240446329116821, 0.14189861714839935, 0.08047570288181305, -0.5596588253974915, -0.3687606453895569, 0.2223464995622635, -0.5820624828338623, 0.2374105155467987, 0.3396482765674591, -0.24685947597026825, -0.1994050294160843, -0.10479751229286194, 0.07786484807729721, 0.14828139543533325, -0.2560206949710846, 0.060425255447626114, 0.08856095373630524, -0.005358553025871515, -0.15139220654964447, 0.10065905749797821, 0.2111029028892517, 0.09242952615022659, -0.12599949538707733, 0.10072381049394608, 0.03783367574214935, 0.647158682346344, -0.16944625973701477, -0.26612406969070435, 0.1585119515657425, -0.4419388771057129, -0.09092742949724197, -0.2697505056858063, -0.282909631729126, -0.0038860877975821495, 0.04553208127617836, -0.6865698099136353, 0.09146281331777573, -0.16153563559055328, -0.0962536558508873, 0.27569380402565, -0.048485077917575836, 0.07376386225223541, 0.013608737848699093, -0.06887403130531311, 0.2953307330608368, 0.04845137149095535, -0.18738652765750885, 0.03888454660773277, -0.30208727717399597, -0.1786043345928192, -0.28243112564086914, 0.091102235019207, -0.12155799567699432, 0.09824099391698837, 0.4824829697608948, 0.40332090854644775, 0.010484017431735992, 0.0508570596575737, -0.16447877883911133, 0.004736723843961954, -0.19602267444133759, -0.19061340391635895, -0.03533328324556351, -0.02016705460846424, 0.0717480480670929, -0.09998463839292526, -0.08246726542711258, 0.040379177778959274, 0.17407828569412231, 0.15556420385837555, 0.06460890918970108, -0.12532837688922882, 0.023237818852066994, -0.3181963860988617, -0.2594616711139679, -0.15455801784992218, 0.2440396398305893, -0.27178627252578735, 0.015635786578059196, 0.06634503602981567, -0.2603909373283386, 0.10044582933187485, 0.08248333632946014, -0.14711688458919525, 0.44305261969566345, 0.03977010026574135, -0.059720106422901154, -0.2812366783618927, 0.10432615876197815, -0.14454571902751923, -0.004563043359667063, 0.04762957990169525, 0.09274964779615402, 0.2506136894226074, 0.18336881697177887, 0.15799638628959656, 0.06803877651691437, 0.1467525064945221, -0.0648653581738472, -0.21179690957069397, -0.11436429619789124, 0.0011696848087012768, -0.1272110491991043, -0.14072495698928833, 0.000312669959384948, 0.1216268464922905, 0.06418289989233017, 0.22485777735710144, 0.15313327312469482, -0.26387646794319153, -0.1952914446592331, 0.09599392116069794, 0.005997357424348593, 0.08575426787137985, -0.24201475083827972, -0.3254070281982422, 0.19399982690811157, 0.12253300845623016, -0.2030387818813324, 0.06953881680965424, -0.20996138453483582, 0.2377195805311203, 0.25755518674850464, 0.2977592349052429, -0.243230402469635, -0.23383133113384247, 0.2493537813425064, 0.32173702120780945, 0.1279308795928955, 0.1201992779970169, -0.04619099199771881, 0.22176991403102875, -0.3444005846977234, 0.11481133103370667, -0.15189754962921143, -0.23695430159568787, 0.05076197162270546, -0.22235314548015594, -0.4059058129787445, -0.20498882234096527, -0.29630303382873535, 0.1921946108341217, -0.21985313296318054, -0.11405207216739655, 0.061840254813432693, -0.14092117547988892, -0.22870998084545135, 0.26576778292655945, 0.4367414712905884, 0.09818924218416214, -0.27235180139541626, 0.1626814305782318, 0.1905994713306427, -0.28735971450805664, -0.09743986278772354, 0.38464027643203735, -0.4046647846698761, -0.5709901452064514, 0.11340335756540298, 0.3324553370475769, 0.002765367738902569, 0.3065149188041687, 0.38828209042549133, 0.2725551426410675, 0.11753144860267639, 0.43208596110343933, -0.2903553545475006, -0.15218524634838104, 0.22933155298233032, 0.2642631232738495, 0.27477678656578064, -0.15601272881031036, 0.10033538937568665, -0.03461814671754837, -0.12006425112485886, 0.09404800832271576, -0.010298383422195911, 0.03829521685838699, -0.13156606256961823, -0.1382472664117813, -0.17367704212665558, -0.12557272613048553, 0.20567217469215393, 0.23747918009757996, 0.2201949506998062, 0.19852137565612793, 0.07048700749874115, -0.1271066963672638, 0.3066326975822449, -0.12828363478183746, -0.27790579199790955, -0.2857986092567444, -0.27301666140556335, -0.2582279443740845, -0.5323647856712341, -0.282498836517334, -0.047968875616788864, -0.25012579560279846, 0.47048109769821167, -0.2941964864730835, -0.413167804479599, -0.16302038729190826, -0.2922142446041107, 0.070131316781044, 0.0005407028365880251, -0.16175046563148499, -0.29019632935523987, -0.03324032947421074, 0.19436705112457275, 0.3318946063518524, -0.13968220353126526, -0.1612987369298935, 0.4275188148021698, 0.2545451819896698, -0.4026528596878052, -0.015653196722269058, 0.26422473788261414, -0.3205496668815613, -0.34727075695991516, -0.03544880822300911, 0.08258494734764099, -0.22443212568759918, 0.05910217761993408, 0.285404771566391, 0.19971556961536407, 0.001589569146744907, -0.12038359045982361, 0.1648625284433365, 0.29308974742889404, 0.010535781271755695, -0.2175065129995346, -0.16204044222831726, 0.3643278181552887, 0.14850345253944397, 0.278763085603714, 0.09469100087881088, -0.19674159586429596, 0.3884854316711426, 0.24631202220916748, 0.34666019678115845, 0.23808684945106506, -0.22233353555202484, 0.3546510338783264, 0.12311074882745743, -0.3265078663825989, 0.27923107147216797, 0.2966165244579315, -0.11227505654096603, 0.05210939794778824, 0.05964089184999466, 0.001176689867861569, 0.394115149974823, -0.24715758860111237, -0.4488353133201599, 0.35671019554138184, 0.30824533104896545, 0.4019959270954132, 0.11945772916078568, 0.06183811277151108, 0.1338423490524292, -0.2205774039030075, 0.2730652093887329, -0.17554983496665955, 0.19307607412338257, 0.2344568818807602, 0.09082590043544769, -0.017608603462576866, 0.10417170822620392, -0.19411058723926544, -0.15598924458026886, -0.045429401099681854, 0.06982848048210144, -0.025200819596648216, 0.06874419748783112, -0.1357807219028473, 0.14039042592048645, -0.1908751279115677, -0.029094690456986427, 0.014934121631085873, 0.05605287477374077, 0.0024394039064645767, 0.08686366677284241, 0.036144282668828964, -0.1177699863910675, -0.042055267840623856, -0.524994969367981, -0.058667827397584915, 0.03188202902674675, 0.14047574996948242, 0.05938706547021866, -0.29098886251449585, -0.017849763855338097, 0.03563782572746277, -0.3195835053920746, -0.18149259686470032, 0.3058996796607971, 0.33120810985565186, 0.1925239861011505, 0.2171914279460907, -0.12042779475450516, -0.42521044611930847, 0.12553513050079346, 0.07499915361404419, -0.18257971107959747, -0.39167529344558716, 0.01716112717986107, 0.33026206493377686, -0.08086436986923218, -0.2171725034713745, -0.10383341461420059, -0.3889602720737457, 0.221980482339859, 0.08785978704690933, -0.10293158143758774, -0.22399571537971497, -0.09946618974208832, 0.2766352593898773, -0.40209004282951355, -0.05751057341694832, 0.5572788715362549, -0.1710064709186554, -0.09457266330718994, 0.4879617691040039, 0.1443183273077011, 0.516188383102417, -0.22577063739299774, 0.21533995866775513, -0.13550834357738495, -0.3733483552932739, -0.0018735014600679278, 0.0701616108417511, 0.14616654813289642, -0.17197978496551514, -0.2180408090353012, 0.1093439981341362, -0.0971570685505867, -0.08397598564624786, 0.2906024158000946, -0.2268962413072586, 0.04486684501171112, 0.05114801228046417, 0.03457973897457123, -0.1084548756480217, 0.149424210190773, -0.005578132811933756, -0.040332209318876266, -0.08149328827857971, -0.017606567591428757, -0.10845685750246048, -0.2584364116191864, 0.2704335153102875, 0.04662885516881943, -0.13429990410804749, -0.2809588611125946, 0.13050484657287598, -0.2467392385005951, 0.19084881246089935, 0.12098190188407898, -0.2704719305038452, -0.031184116378426552, -0.21551650762557983, -0.0997202917933464, -0.24839070439338684, -0.2063927799463272, 0.31409960985183716, -0.24036739766597748, -0.17628227174282074, 0.04054589197039604, -0.055053986608982086, -0.06932834535837173, 0.10707537829875946, 0.10017303377389908, 0.07748428732156754, -0.19721725583076477, 0.10617873072624207, 0.1921994537115097, -0.28409528732299805, -0.21777115762233734, -0.25639039278030396, -0.14196212589740753, 0.05049540847539902, 0.06282738596200943, 0.5138804912567139, -0.023510392755270004, 0.14639592170715332, -0.22504080832004547, 0.26005393266677856, 0.12039332836866379, 0.006650611758232117, 0.2277020663022995, 0.11576588451862335, 0.09201522916555405, 0.05504118651151657, -0.042087897658348083, -0.31159350275993347, -0.3540155589580536, -0.5039612054824829, 0.3805578052997589, -0.17047978937625885, -0.17319956421852112, 0.3770717978477478, -0.2657066285610199, -0.4785623252391815, 0.05077541992068291, -0.07916618138551712, 0.0035022571682929993, 0.23913335800170898, -0.2170420140028, -0.22928805649280548, 0.021199895069003105, 0.2301395982503891, 0.16845066845417023, -0.2977977395057678, -0.0066443271934986115, -0.3244093954563141, 0.09998253732919693, -0.23969867825508118, -0.06489171087741852, -0.06022457778453827, 0.014154935255646706, -0.033409398049116135, -0.5084726214408875, -0.25682884454727173, 0.0039005170110613108, 0.47123435139656067, 0.052613288164138794, -0.08731433749198914, 0.10938672721385956, -0.3162902295589447, 0.11241617053747177, 0.05967037379741669, 0.08887844532728195, 0.03076777793467045, -0.2608511447906494, 0.11672025173902512, 0.04921228811144829, -0.19064034521579742, -0.04614109918475151, -0.16085323691368103, -0.09209982305765152, -0.11562517285346985, 0.194129079580307, 0.04793299362063408, 0.03096807189285755, -0.16308113932609558, 0.19953173398971558, -0.257750928401947, 0.0036367285065352917, 0.12462375313043594, 0.3688793480396271, -0.4039849638938904, 0.12253899872303009, 0.07286488264799118, -0.23882518708705902, 0.10311633348464966, 0.14659859240055084, 0.04738243296742439, 0.025002453476190567, 0.20292405784130096, 0.14425697922706604, 0.04354521632194519, 0.37327632308006287, -0.12968556582927704, 0.1479887217283249, 0.31052663922309875, -0.3083922266960144, -0.016562240198254585, -0.015822356566786766, 0.02208665758371353, 0.16319075226783752, -0.06316118687391281, 0.027347445487976074, 0.15810731053352356, -0.015476205386221409, -0.07216888666152954, -0.04016837105154991, -0.029906613752245903, 0.18180657923221588, 0.091652512550354, -0.1374640017747879, 0.10199650377035141, 0.009594205766916275, -0.20054569840431213, 0.11150197684764862, 0.14663435518741608, -0.12702974677085876, 0.02652735449373722, -0.08067683130502701, -0.00843909289687872, -0.13165804743766785, -0.17646600306034088, -0.09261151403188705, -0.08009342849254608, 0.03131427988409996, 0.08277042955160141, 0.11237236857414246, 0.03040899895131588, 0.06994179636240005, -0.06375806033611298, 0.01887947879731655, -0.007142348680645227, -0.0806407555937767, -0.012472734786570072, 0.23562033474445343, 0.11922065168619156, 0.170441135764122, -0.1977558583021164, 0.07797731459140778, 0.13347022235393524, -0.34811514616012573, -0.15080955624580383, 0.19712969660758972, -0.2092762440443039, -0.04613595828413963, -0.05616236478090286, 0.14337527751922607, -0.2100478708744049, -0.146951824426651, 0.1695440262556076, 0.015143402852118015, -0.09455733746290207, 0.09969750791788101, -0.3187108337879181, -0.09646400064229965, -0.523600161075592, 0.03993266075849533, -0.03277745097875595, -0.35122227668762207, -0.1963256299495697, -0.3006245493888855, -0.029721742495894432, 0.12053357809782028, 0.02912667579948902, -0.13713687658309937, 0.1723596453666687, 0.1421123743057251, 0.46049970388412476, 0.3598082661628723, 0.40163135528564453, -0.0009637736366130412, -0.23889458179473877, 0.003576507093384862, 0.12975485622882843, -0.2310882806777954, 0.119363933801651, 0.36499425768852234, 0.035031940788030624, -0.08143609017133713, 0.1213972270488739, -0.24459215998649597, -0.04412706941366196, -0.08889377117156982, -0.08337196707725525, -0.07340440899133682, 0.12339423596858978, 0.07812090218067169, 0.1198476031422615, 0.1504780799150467, 0.18302541971206665, 0.33880844712257385, 0.17862774431705475, -0.027479786425828934, 0.3458402752876282, 0.16797958314418793, 0.15718907117843628, -0.1628388613462448, -0.07721613347530365, -0.30756068229675293, -0.10958528518676758, -0.0801854282617569, 0.032453976571559906, -0.11750151962041855, 0.040211912244558334, 0.15382735431194305, 0.19006246328353882, -0.038612086325883865, -0.04801876097917557, 0.15336038172245026, 0.019658546894788742, -0.0669448971748352, -0.07654081284999847, -0.09986525028944016, 0.13027141988277435, -0.038489267230033875, 0.1776939034461975, -0.12847734987735748, 0.014574605040252209, 0.11007954925298691, 0.020877685397863388, 0.26930102705955505, 0.12446588277816772, 0.1801435947418213, 0.017495566979050636, -0.20504994690418243, -0.29534026980400085, -0.371269553899765, 0.10861385613679886, 0.027835864573717117, -0.04547691345214844, -0.11466067284345627, -0.02664104849100113, 0.06434917449951172, -0.13210296630859375, 0.09862104058265686, 0.05576607212424278, -0.04301280900835991, -0.15285106003284454, 0.06284420937299728, -0.023930396884679794, 8.594240352977067e-05, -0.22121386229991913, -0.10819347202777863, -0.11134772002696991, -0.3053232729434967, -0.010530208237469196, -0.044384341686964035, -0.07090042531490326, -0.08791809529066086, -0.0009754861239343882, 0.1825953871011734, 0.06795041263103485, -0.08481850475072861, 0.029039856046438217, -0.14891526103019714, -0.06809277832508087, 0.10843777656555176, -0.1824139505624771, -0.11434155702590942, -0.15337897837162018, -0.03364192694425583, -0.09746839851140976, -0.17132839560508728, -0.033918701112270355, -0.04931829497218132, 0.016671638935804367, 0.034503646194934845, 0.0356111042201519, 0.15817125141620636, 0.17160966992378235, -0.0024082937743514776, -0.0011199663858860731, 0.0173488836735487, -0.09365574270486832, 0.18390507996082306, 0.18915043771266937, 0.136591836810112, -0.07516903430223465, 0.15229468047618866, -0.13727235794067383, 0.10796578228473663, -0.21441631019115448, -0.08734758198261261, 0.07623512297868729, -0.010885117575526237, 0.10265441238880157, 0.004251789767295122, -0.06955904513597488, 0.06930417567491531, -0.014210757799446583, 0.07514988631010056, 0.02356240712106228, -0.09239658713340759, 0.1024368405342102, 0.042547862976789474, 0.009857993572950363, 0.040142349898815155, 0.18179798126220703, -0.09386535733938217, -0.15319393575191498, -0.1966972053050995, -0.18394072353839874, 0.1267668902873993, 0.20729844272136688, 0.2708287835121155, 0.2626892626285553, 0.059483155608177185, -0.01162676140666008, 0.2725696861743927, 0.11543256044387817, 0.1213272213935852, -0.18430393934249878, 0.019478727132081985, -0.08864077180624008, 0.12913557887077332, -0.15551933646202087, -0.15827888250350952, -0.2841150462627411, -0.11165641248226166, 0.08605439960956573, 0.03219227492809296, -0.009220770560204983, 0.1354176551103592, -0.06545557081699371, 0.05943051353096962, -0.13919386267662048, -0.05459330976009369, -0.010575294494628906, -0.09360054135322571, 0.17832526564598083, -0.04500177130103111, 0.033333562314510345, 0.07997781038284302, 0.08336599171161652, 0.04493897780776024, -0.03291857987642288, -0.0527326874434948, -0.19245970249176025, -0.12800781428813934, -0.11526975780725479, 0.1907050758600235, -0.18624912202358246, -0.06175431236624718, -0.09542614966630936, 0.08687327802181244, 0.17588071525096893, -0.023409252986311913, 0.02917304076254368, 0.029122982174158096, 0.2041599303483963, -0.10447318106889725, 0.025545958429574966, -0.12347176671028137, 0.024279288947582245, 0.06655216962099075, -0.0946052297949791, 0.1571359932422638, -0.1463290899991989, -0.02627565525472164, -0.06405699253082275, 0.23494315147399902, 0.10803084820508957, 0.21407420933246613, -0.16561216115951538, 0.15193873643875122, -0.1994912177324295, 0.006656760815531015, 0.21639934182167053, 0.013956204988062382, 0.20834417641162872, -0.21476778388023376, -0.13857324421405792, -0.07281891256570816, 0.14844051003456116, 0.007543452084064484, 0.023384833708405495, 0.08717997372150421, 0.06851892918348312, -0.11602682620286942, -0.06919499486684799, -0.039327315986156464, -0.22899913787841797, -0.14044007658958435, -0.06985824555158615, -0.18282726407051086, -0.10255960375070572, -0.2142959088087082, 0.03742266073822975, 0.011239083483815193, -0.08091826736927032, 0.0077568949200212955, -0.02247888594865799, 0.17461127042770386, 0.1805892288684845, -0.06401468813419342, 0.01006383541971445, -0.06706494837999344, -0.14521056413650513, 0.06203670799732208, 0.1651260405778885, 0.3097470998764038, -0.2258705049753189, -0.010610921308398247, 0.014624995179474354, -0.15500496327877045, -0.07888342440128326, -0.13187275826931, 0.0076541174203157425, -0.18852704763412476, -0.10615073144435883, 0.07792653888463974, 0.19595597684383392, 0.2052156925201416, 0.005757200066000223, -0.05296066775918007, -0.12460610270500183, 0.14557646214962006, 0.34388795495033264, 0.32863372564315796, -0.056448061019182205, -0.1543712317943573, -0.20628000795841217, 0.29591262340545654, 0.2985468804836273, 0.2725229561328888, -0.04663004353642464, -0.018670715391635895, 0.07630732655525208, 0.04343356192111969, 0.19156430661678314, 0.12282806634902954, 0.08826281875371933, 0.06607121229171753, 0.09822090715169907, 0.06830460578203201, 0.2906750738620758, -0.08274048566818237, 0.1431455761194229, -0.1501205861568451, -0.1720038652420044, 0.03950917348265648, -0.0022032910492271185, -0.2230415791273117, -0.166428804397583, -0.18468627333641052, 0.03811053931713104, -0.35639405250549316, -0.04452403262257576, 0.0970131903886795, 0.04280749335885048, 0.08000872284173965, -0.02403646521270275, 0.08885665982961655, 0.12894338369369507, -0.09389147907495499, -0.1113232746720314, 0.3024948239326477, 0.06531583517789841, 0.014686629176139832, -0.014716298319399357, 0.2185225784778595, 0.20215120911598206, 0.19105257093906403, 0.0808877944946289, 0.056677695363759995, -0.0634908452630043, -0.25078001618385315, -0.047495827078819275, 0.17186272144317627, 0.012618910521268845, -0.40665075182914734, -0.23807010054588318, 0.03579259291291237, -0.07832421362400055, 0.06900455802679062, 0.027827169746160507, -0.058692965656518936, 0.015597653575241566, -0.11473140865564346, 0.12457790970802307, 0.1709655225276947, -0.2909063696861267, 0.13272535800933838, -0.08278457075357437, -0.15726035833358765, -0.13985125720500946, 0.005062333308160305, 0.0774058923125267, -0.11464234441518784, 0.05450311675667763, -0.0010358865838497877, 0.18155938386917114, 0.038210876286029816, -0.08112547546625137, 0.16583554446697235, 0.11582110822200775, -0.04782034084200859, 0.11085496097803116, 0.015896255150437355, -0.11155269294977188, 0.2185097187757492, -0.12023348361253738, -0.22265955805778503, -0.1819150596857071, 0.11739134788513184, 0.13381411135196686, 0.16565200686454773, -0.11566909402608871, 0.02543751336634159, -0.20986764132976532, -0.11886799335479736, 0.1401234269142151, -0.061430372297763824, 0.1519261747598648, 0.04354973882436752, -0.15026138722896576, -0.012205834500491619, -0.05404219403862953, 0.011558630503714085, -0.043251149356365204, 0.003270860994234681, 0.25395873188972473, -0.17628933489322662, -0.09558054804801941, 0.23797385394573212, -0.05172784626483917, 0.06324440985918045, 0.12137780338525772, -0.057681258767843246, -0.06181061640381813, -0.08271606266498566, 0.02437940426170826, -0.0055143521167337894, -0.033184561878442764, 0.08227367699146271, 0.07411729544401169, 0.04649519547820091, -0.19989760220050812, 0.0800807848572731, -0.3033224940299988, 0.39661338925361633, 0.04158155992627144, 0.163519024848938, -0.08948346972465515, -0.09534099698066711, -0.06121484935283661, -0.10643050819635391, -0.17324016988277435, -0.030726298689842224, 0.028391653671860695, 0.010762868449091911, -0.12829741835594177, 0.05866862088441849, 0.09742728620767593, -0.20373626053333282, 0.00014890432066749781, 0.24354307353496552, -0.024150695651769638, 0.03634003922343254, 0.20466159284114838, 0.24031737446784973, -0.38495779037475586, 0.10644389688968658, -0.0021600062027573586, -0.23299384117126465, 0.2437162548303604, -0.002646560315042734, 0.13965386152267456, -0.03384827822446823, 0.10833003371953964, 0.15667547285556793, -0.30044683814048767, -0.09876653552055359, -0.24740444123744965, -0.19203056395053864, 0.1809048354625702, -0.06920208781957626, -0.22713138163089752, 0.10367312282323837, -0.2235940545797348, 0.10592731088399887, -0.1984916776418686, -0.17341084778308868, 0.23654083907604218, 0.12530039250850677, -0.14720416069030762, -0.18246619403362274, -0.40938299894332886, 0.0610579252243042, -0.07439860701560974, -0.15479475259780884, -0.05814535170793533, -0.33856281638145447, -0.10867565125226974, -0.1471514105796814, -0.12824538350105286, -0.01906774565577507, 0.13583695888519287, 0.013184184208512306, 0.21346357464790344, 0.02864309400320053, 0.1846778690814972, -0.0817505344748497, -0.15390419960021973, 0.03531254082918167, -0.02441142126917839, 0.07398411631584167, 0.12835946679115295, 0.3029032349586487, -0.35614609718322754, -0.1822139322757721, -0.06902381032705307, -0.17180386185646057, 0.1639472395181656, -0.1806139051914215, -0.09324789047241211, -0.21245351433753967, 0.13163010776042938, 0.14327645301818848, -0.2008369117975235, 0.26332756876945496, -0.21063752472400665, -0.004572008270770311, 0.13053704798221588, 0.004148879088461399, -0.058151744306087494, -0.0385793000459671, -0.07504981756210327, -0.030634932219982147, -0.029416419565677643, -0.14493602514266968, 0.033882204443216324, -0.041224200278520584, 0.16444191336631775, -0.1979021430015564, -0.05186211317777634, -0.05687388405203819, 0.04063742980360985, 0.23582740128040314, 0.16876572370529175, 0.009317554533481598, 0.0493793711066246, 0.05326850712299347, -0.11603349447250366, -0.16150768101215363, -0.042746540158987045, 0.059548959136009216, 0.14793413877487183, 0.05051538348197937, -0.0431533046066761, -0.0691773071885109, -0.06601175665855408, -0.12547416985034943, -0.03235778212547302, -0.20013904571533203, -0.05847378447651863, -0.010497321374714375, 0.043194741010665894, -0.1179615929722786, -0.23279452323913574, 0.005281041841953993, 0.18228089809417725, 0.11876358836889267, -0.04775957018136978, -0.29908984899520874, 0.017576472833752632, 0.0027765838894993067, -0.053608592599630356, -0.3352165222167969, -0.1182946264743805, 0.06212099641561508, -0.04113267734646797, 0.14788271486759186, -0.0764913484454155, 0.14635160565376282, 0.08226067572832108, 0.0632428303360939, -0.09341295063495636, 0.043946750462055206, 0.1376366764307022, 0.2586479187011719, 0.10564561188220978, -0.17419838905334473, 0.1419762372970581, -0.16650910675525665, 0.23673291504383087, 0.15093177556991577, 0.24765530228614807, -0.16801588237285614, -0.0779656320810318, 0.12991665303707123, 0.05876322463154793, 0.11088836938142776, 0.1236153393983841, 0.20869094133377075, -0.03812308609485626, -0.6047301888465881, 0.22306251525878906, 0.5839425921440125, -0.5289389491081238, 0.05917984992265701, -0.8420118689537048, -0.11423579603433609, -0.22956576943397522, 0.7081345319747925, -0.8102976679801941, -0.7540719509124756, -0.8275870680809021, 0.22813256084918976, -0.5737831592559814, 0.4776305556297302, -0.678370475769043, -0.16678734123706818, -0.2818088233470917, 0.18478251993656158, 0.25204741954803467, 0.05483456701040268, 0.08814620971679688, -0.13701099157333374, -0.0518854521214962, -0.10742251574993134, 0.09760698676109314, 0.0872039943933487, 0.11990456283092499, 0.1240435540676117, 0.35233956575393677, 0.12683315575122833, 0.11565188318490982, -0.03258644789457321, -0.10705424100160599, 0.0795135349035263, -0.12069825083017349, -0.41170233488082886, 0.012280752882361412, -0.2975045144557953, -0.1954161822795868, 0.19757002592086792, -0.11721394211053848, -0.016149528324604034, 0.36626020073890686, 0.24074524641036987, 0.1006467267870903, 0.09394153952598572, 0.33417990803718567, -0.08361605554819107, -0.3012824058532715, 0.11045876145362854, 0.30538463592529297, 0.069791778922081, 0.14709605276584625, -0.07653495669364929, 0.17063528299331665, -0.13574177026748657, 0.04978790506720543, -0.1827641874551773, -0.2179066240787506, -0.002810800215229392, 0.28075554966926575, 0.06445788592100143, 0.049855634570121765, 0.2710724472999573, 0.2233002632856369, -0.3614165186882019, -0.12442618608474731, 0.020336953923106194, 0.135915145277977, -0.1137872263789177, -0.001521610771305859, -0.1721419394016266, -0.0059923650696873665, -0.10387228429317474, 0.31341591477394104, -0.04507423937320709, -0.1859501451253891, -0.09039583802223206, -0.08027443289756775, 0.33817750215530396, 0.12337163090705872, -0.3328751027584076, -0.11404141783714294, 0.42609909176826477, 0.029885491356253624, 0.06401870399713516, 0.41139674186706543, -0.0771995335817337, -0.23673862218856812, -0.017124081030488014, 0.6065685749053955, -0.5049718022346497, 0.10475368052721024, -0.17303091287612915, -0.479890376329422, -0.23332767188549042, -0.029608041048049927, -0.1502595841884613, -0.1923220008611679, 0.08271479606628418, -0.19403348863124847, 0.14804120361804962, 0.04061798378825188, 0.003058665432035923, 0.015561708249151707, 0.13898776471614838, -0.08228873461484909, -0.23129083216190338, -0.17580625414848328, -0.015947207808494568, 0.10882025212049484, 0.2287674844264984, -0.16675160825252533, 0.10573936253786087, -0.06825903058052063, 0.22505536675453186, 0.3265780508518219, -0.2700602412223816, -0.30356258153915405, 0.38733017444610596, 0.00788091029971838, -0.14891061186790466, 0.1938057839870453, -0.073761947453022, -0.002331462223082781, 0.057777099311351776, -0.07765833288431168, 0.14125919342041016, -0.0453658401966095, 0.0959165096282959, -0.02861773408949375, 0.19905535876750946, -0.13564488291740417, -0.0176951102912426, 0.043087806552648544, 0.03860652074217796, 0.19830255210399628, -0.11959711462259293, 0.1213340312242508, -0.022927189245820045, 0.005501368083059788, 0.16757884621620178, 0.08273740112781525, -0.13410508632659912, 0.04610958322882652, -0.168770894408226, -0.15385428071022034, -0.3193064033985138, -0.22991079092025757, -0.1611790657043457, -0.25579196214675903, 0.23477435111999512, 0.17627868056297302, 0.025347350165247917, -0.012756267562508583, 0.11418162286281586, 0.12939466536045074, -0.23548685014247894, 0.26446083188056946, -0.13310690224170685, 0.012506580911576748, -0.047855161130428314, -0.024350449442863464, 0.2750941514968872, -0.01216159202158451, 0.31326138973236084, -0.0473736934363842, -0.05089525133371353, -0.08010603487491608, 0.24415118992328644, 0.3012923002243042, -0.05606752634048462, 0.05825602635741234, 0.23993860185146332, -0.2992500066757202, -0.17784132063388824, 0.0028573251329362392, -0.13997989892959595, 0.0799354836344719, -0.22258208692073822, -0.19596950709819794, 0.04730707406997681, -0.08464983850717545, 0.2719813287258148, 0.33990320563316345, -0.33877599239349365, -0.20520363748073578, 0.46905338764190674, -0.056914735585451126, 0.004121406935155392, 0.10315948724746704, 0.321191668510437, 0.4159042239189148, -0.46468207240104675, -0.2101900577545166, -0.14051175117492676, -0.039845578372478485, -0.042963944375514984, 0.31757426261901855, -0.40932440757751465, 0.13228744268417358, 0.25524380803108215, 0.012257627211511135, 0.06449469923973083, -0.2338944524526596, -0.1507440209388733, -0.08155074715614319, -0.16046881675720215, -0.21087568998336792, -0.2438705563545227, 0.19671408832073212, -0.17824773490428925, 0.12192214280366898, -0.33721545338630676, 0.16230778396129608, 0.024519193917512894, -0.06147465854883194, -0.33152341842651367, 0.25330737233161926, 0.19469548761844635, -0.1152382418513298, -0.24225299060344696, -0.18946132063865662, 0.13357962667942047, -0.06238624081015587, -0.23859700560569763, 0.2822670638561249, -0.2933209538459778, 0.20005705952644348, -0.1953008621931076, -0.15436400473117828, 0.30000734329223633, 0.22088375687599182, 0.007733128499239683, 0.007402861025184393, 0.08305647224187851, 0.12493688613176346, 0.022747328504920006, -0.14144445955753326, 0.08768995851278305, 0.33049899339675903, -0.0681600347161293, -0.21624433994293213, 0.34039220213890076, -0.0728263333439827, 0.12705574929714203, -0.23541533946990967, 0.11896698921918869, -0.22290055453777313, -0.0390988364815712, -0.05523744970560074, -0.34925857186317444, -0.12687921524047852, 0.327054500579834, -0.00587820028886199, 0.0035266829654574394, -0.3139350116252899, 0.03583543375134468, -0.021940626204013824, -0.22071772813796997, 0.12345246970653534, 0.08959031105041504, 0.12594377994537354, 0.17461077868938446, -0.10036354511976242, 0.1529867798089981, 0.04949122667312622, -0.16418297588825226, 0.33524733781814575, -0.055309683084487915, -0.24534793198108673, -0.15749269723892212, 0.01591465249657631, -0.005360027309507132, -0.09156538546085358, -0.1525675356388092, 0.013473725877702236, 0.15260601043701172, 0.11206883937120438, 0.07904375344514847, 0.01993437483906746, 0.09431220591068268, -0.31323370337486267, 0.0012802877463400364, -0.2694786787033081, -0.02099662646651268, -0.06841012835502625, -0.1015009731054306, -0.05141398683190346, -0.1805121898651123, -0.038703396916389465, -0.18846720457077026, 0.026634281501173973, -0.07793113589286804, -0.02512940764427185, 0.03988040238618851, 0.11882878839969635, -0.07111766189336777, -0.03316809982061386, 0.12644167244434357, -0.008622965775430202, -0.026401571929454803, 0.16778194904327393, 0.08386304974555969, 0.006689704488962889, -0.16019374132156372, -0.03539883717894554, 0.04137285053730011, 0.15625838935375214, 0.11736629158258438, -0.08002918213605881, -0.1728116273880005, 0.06903140991926193, -0.02660294622182846, 0.1596049964427948, 0.06847311556339264, -0.07054688781499863, -0.047478243708610535, -0.0437755212187767, -0.03278784826397896, -0.07986229658126831, 0.0744757279753685, 0.04062516242265701, -0.14774805307388306, -0.1410405933856964, 0.08530839532613754, -0.20404331386089325, 0.06750565767288208, -0.03766855224967003, 0.22337178885936737, 0.08408717066049576, -0.09777611494064331, 0.17677508294582367, -0.06619147211313248, -0.039431288838386536, -0.1665370911359787, -0.1521834135055542, 0.14288480579853058, -0.18576522171497345, 0.033898722380399704, -0.07435388118028641, -0.12280219048261642, 0.02720181830227375, 0.2984539866447449, 0.1030481681227684, -0.08253481984138489, -0.024931075051426888, 0.30211547017097473, -0.22094841301441193, -0.05092472955584526, -0.025327816605567932, 0.07979108393192291, -0.24748405814170837, 0.0832596868276596, -0.16433404386043549, 0.2292327731847763, -0.0015172876883298159, -0.04107583686709404, -0.1564629077911377, 0.16640570759773254, 0.1319752335548401, 0.031024355441331863, 0.22471214830875397, 0.13209636509418488, -0.01366459857672453, 0.10049185901880264, 0.28156378865242004, 0.17724981904029846, -0.1342456191778183, -0.2488807886838913, 0.031880494207143784, 0.17521707713603973, 0.33189839124679565, 0.191532164812088, -0.012590351514518261, -0.06444809585809708, -0.019438203424215317, 0.08454766869544983, 0.37535032629966736, 0.035325657576322556, 0.21740442514419556, -0.021640131250023842, -0.23073595762252808, 0.2688918709754944, -0.024278704077005386, -0.011335470713675022, 0.26787069439888, 0.017879188060760498, -0.1501920372247696, 0.21873077750205994, -0.10196535289287567, 0.006340727675706148, -0.06043437868356705, -0.11181112378835678, 0.047578830271959305, -0.09729626774787903, -0.1607520580291748, 0.13395854830741882, 0.002095913514494896, 0.13720138370990753, 0.04005683586001396, 0.1317874789237976, 0.07262778282165527, -0.09260567277669907, -0.2158779352903366, 0.22312606871128082, 0.046347711235284805, 0.1612682044506073, -0.0907307118177414, -0.10109948366880417, -0.0621408112347126, 0.1829974204301834, -0.019624285399913788, 0.0535285584628582, 0.101495161652565, -0.018736261874437332, 0.008539054542779922, -0.2710392475128174, 0.02584480680525303, 0.3320494592189789, -0.14489313960075378, -0.02976631373167038, 0.06303384900093079, -0.044582728296518326, -0.06548983603715897, -0.03610899671912193, -0.011423470452427864, -0.04324508458375931, -0.2113620787858963, 0.10041666775941849, 0.22321785986423492, -0.3780764937400818, -0.16195359826087952, 0.020825276151299477, -0.15210765600204468, 0.09027300775051117, -0.1286858767271042, 0.18943555653095245, 0.19148339331150055, -0.05408336967229843, 0.2517450153827667, -0.1689126193523407, -0.08304397761821747, 0.02307160384953022, -0.2776953876018524, -0.29291483759880066, -0.226504847407341, -0.04464666545391083, 0.024723226204514503, 0.13929949700832367, -0.05799286812543869, -0.2208143174648285, -0.10053122788667679, 0.19605036079883575, 0.19786512851715088, 0.16594825685024261, 0.051581971347332, 0.3225385546684265, -0.2013542354106903, 0.04328272119164467, 0.005339010618627071, -0.21436764299869537, -0.021917393431067467, 0.07877127081155777, 0.5037580728530884, -0.2548980414867401, -0.04599566012620926, 0.020952630788087845, -0.036568187177181244, 0.23867414891719818, 0.16879908740520477, -0.09742239117622375, 0.04546793922781944, -0.0449591800570488, -0.06705127656459808, 0.12157376110553741, -0.228177011013031, 0.1344577819108963, 0.23657140135765076, -0.18389469385147095, -0.1460983157157898, -0.21779291331768036, -0.23460473120212555, 0.009102096781134605, 0.05517486110329628, 0.008333262987434864, 0.1568172574043274, -0.08117303252220154, -0.1863056719303131, 0.3001788854598999, -0.03199629858136177, -0.026189835742115974, 0.08382818847894669, -0.02259848080575466, 0.16545376181602478, -0.05269871652126312, -0.03850048780441284, -0.3175440728664398, -0.026484664529561996, 0.20394746959209442, 0.12173295021057129, -0.19586271047592163, 0.12626132369041443, -0.017871864140033722, 0.03287370502948761, 0.09704197198152542, 0.14867788553237915, -0.03224723041057587, -0.028792602941393852, -0.17606090009212494, -0.1005682647228241, -0.1369815617799759, -0.058990251272916794, 0.4207211136817932, 0.014337838627398014, -0.24974338710308075, 0.3087030351161957, 0.03780016675591469, -0.2119869440793991, -0.04468256235122681, 0.17918109893798828, 0.1275886744260788, -0.21730555593967438, 0.12143222987651825, 0.14889566600322723, -0.20264388620853424, -0.21495284140110016, -0.19361791014671326, -0.0750366747379303, -0.10750764608383179, 0.012806740589439869, -0.029492150992155075, 0.22183988988399506, -0.3905722498893738, -0.01703636720776558, 0.010908021591603756, -0.001137147075496614, -0.110911063849926, 0.14880463480949402, 0.12809215486049652, -0.12898223102092743, -0.03403226658701897, 0.01352057233452797, -0.11822567135095596, 0.03634185343980789, -0.09110234677791595, 0.10555676370859146, 0.1008206233382225, 0.07966843247413635, -0.19094838201999664, 0.14622525870800018, -0.03220386058092117, 0.024267688393592834, -0.033783573657274246, 0.1447450965642929, -0.05304941162467003, -0.03919603303074837, -0.018099550157785416, 0.3136129379272461, 0.19698785245418549, -0.10032239556312561, 0.23423494398593903, -0.017680199816823006, 0.20340068638324738, -0.10068979114294052, -0.055740151554346085, -0.09234780818223953, 0.06538837403059006, 0.2063547670841217, 0.1649722307920456, -0.11394885927438736, -0.20821063220500946, 0.3715220093727112, 0.05410867556929588, 0.0836457759141922, 0.17933546006679535, -0.1947941780090332, -0.3120672106742859, 0.24595607817173004, -0.257424533367157, -0.10177408903837204, 0.31094107031822205, -0.13794296979904175, -0.13517597317695618, -0.29398417472839355, 0.01047126017510891, 0.0696752667427063, -0.6078636050224304, -0.1619012951850891, 0.15607118606567383, -0.16218696534633636, 0.14145059883594513, -0.05506552383303642, 0.16863389313220978, -0.07649921625852585, -0.0704791471362114, 0.13657967746257782, 0.16225247085094452, -0.12052614241838455, 0.030356962233781815, 0.06266912072896957, -0.06338240206241608, -0.09590324014425278, 0.22038596868515015, -0.12920722365379333, 0.36319392919540405, -0.0430685319006443, -0.3001534044742584, -0.22990991175174713, -0.10378117114305496, 0.30957338213920593, 0.025972209870815277, -0.05604962632060051, -0.3437604308128357, 0.06607118248939514, -0.1726125180721283, -0.08502649515867233, -0.24237868189811707, 0.1988014578819275, 0.13596464693546295, 0.08848172426223755, -0.10021476447582245, -0.10891370475292206, -0.25950953364372253, -0.1124529093503952, -0.3674883544445038, 0.0029245803598314524, 0.08679691702127457, -0.03230194374918938, -0.3585839569568634, -0.08882633596658707, -0.06136378273367882, -0.2968415319919586, 0.02745037153363228, 0.12069454789161682, -0.22522477805614471, 0.015195522457361221, -0.09318524599075317, 0.10463444888591766, 0.056052859872579575, 0.14163775742053986, -0.05222591757774353, 0.0001096867272281088, -0.04130135104060173, 0.13578327000141144, 0.04178798943758011, 0.056037936359643936, 0.07281848043203354, 0.26135826110839844, -0.0014354027807712555, 0.07062478363513947, 0.07237273454666138, -0.1363978087902069, 0.014068757183849812, 0.048713184893131256, 0.06527506560087204, -0.23238526284694672, 0.14129699766635895, -0.13376283645629883, -0.10263655334711075, 0.5763890147209167, 0.013315382413566113, -0.18407833576202393, -0.09256020188331604, -0.005684402771294117, 0.11322309821844101, -0.1510619968175888, 0.11822270601987839, 0.05905268341302872, 0.0002882392145693302, -0.04265156015753746, -0.10320468991994858, -0.1833183318376541, 0.036681029945611954, -0.003643860574811697, -0.08137844502925873, 0.15194366872310638, -0.20113876461982727, -0.07774612307548523, 0.015297017060220242, -0.042218681424856186, 0.2480231523513794, 0.1300840824842453, -0.09824920445680618, 0.018041353672742844, -0.08203431218862534, 0.06476418673992157, -0.15595538914203644, -0.057932835072278976, 0.14164616167545319, 0.0432296097278595, 0.12818951904773712, 0.17582666873931885, -0.20538145303726196, -0.06018993631005287, 0.04235456883907318, 0.05133553966879845, 0.09273049980401993, 0.17768046259880066, -0.05064866319298744, -0.10613112151622772, -0.22728900611400604, -0.07346377521753311, -0.1276721954345703, -0.15280072391033173, 0.2698938846588135, -0.09485378861427307, -0.32436811923980713, 0.08722139894962311, -0.207925483584404, -0.027925007045269012, 0.05395019054412842, 0.1395503729581833, 0.36467212438583374, 0.14722836017608643, -0.01031547598540783, 0.3260222375392914, 0.03895571827888489, -0.11193331331014633, -0.2636965215206146, -0.03057693876326084, -0.09898942708969116, -0.028359567746520042, 0.14221210777759552, 0.19582779705524445, -0.16948693990707397, 0.0856090635061264, 0.1893034428358078, -0.05735086277127266, 0.1387476921081543, -0.18871967494487762, 0.1730261892080307, 0.08146382868289948, -0.03108122944831848, 0.03692895546555519, -0.08752172440290451, -0.05333564803004265, -0.185418039560318, 0.07360543310642242, -0.04997187852859497, 0.13872438669204712, -0.2824867367744446, -0.054990943521261215, -0.07439067959785461, -0.06298297643661499, 0.1157163679599762, 0.18788646161556244, -0.1825246810913086, 0.00042710787965916097, -0.20064496994018555, 0.03410652279853821, -0.0446929931640625, -0.10784518718719482, 0.40759193897247314, -0.18259459733963013, -0.00957132875919342, 0.20217365026474, 0.00548560032621026, -0.14476850628852844, -0.03331012651324272, 0.08855152130126953, 0.03152678161859512, -0.0665997788310051, -0.20845718681812286, 0.10753604769706726, -0.14391636848449707, -0.14475764334201813, 0.15812046825885773, -0.031436145305633545, 0.1358904242515564, 0.008462987840175629, 0.05671894550323486, 0.12541615962982178, 0.047945763915777206, -0.07296649366617203, 0.21091727912425995, 0.11370298266410828, -0.024132579565048218, 0.06492951512336731, 0.1239403784275055, -0.15121214091777802, -0.05143576115369797, -0.17306241393089294, 0.08676528185606003, -0.16882087290287018, 0.16572773456573486, 0.11150754988193512, -0.1417713463306427, -0.006317319348454475, 0.2482752501964569, -0.0746958926320076, 0.0664718821644783, -0.0353056937456131, 0.12654165923595428, -0.04173557832837105, 0.17953833937644958, 0.0595875047147274, -0.03089667484164238, -0.18256963789463043, 0.20964407920837402, 0.08674199879169464, -0.43942561745643616, 0.05314858257770538, 0.18030041456222534, -0.16176897287368774, 0.06656777858734131, 0.19049635529518127, -0.1839030683040619, -0.07879850268363953, -0.16530169546604156, 0.2054915875196457, -0.1903969645500183, 0.04301994666457176, 0.053409457206726074, 0.008963686414062977, 0.0783524140715599, -0.05704466998577118, 0.15232643485069275, 0.13006165623664856, -0.037856705486774445, -0.13150665163993835, 0.020136402919888496, 0.08046285063028336, -0.006779950112104416, -0.09497907757759094, -0.0525558777153492, 0.03855928033590317, 0.047578033059835434, 0.1711498200893402, 0.13057664036750793, -0.11382182687520981, -0.0513225756585598, 0.0844944417476654, 0.06327378004789352, 0.01744561642408371, -0.0013866977533325553, 0.07035203278064728, -0.12997986376285553, -0.03155248984694481, -0.15080967545509338, -0.23972727358341217, -0.2579526901245117, -0.11205383390188217, -0.044082947075366974, 0.0791967585682869, -0.2027519792318344, -0.3449402153491974, -0.3856237828731537, 0.13246120512485504, 0.10956165194511414, 0.0007218955433927476, 0.24297688901424408, -0.25058186054229736, 0.030630050227046013, -0.060603067278862, -0.19437724351882935, 0.08859957009553909, -0.2796964645385742, -0.3156818747520447, 0.1414555311203003, -0.026898836717009544, -0.2071717083454132, 0.12732455134391785, 0.1320774406194687, 0.01604451984167099, 0.2686340808868408, 0.2539871037006378, 0.06100483611226082, -0.024296993389725685, 0.03961993753910065, -0.2754691541194916, -0.033323436975479126, 0.04392718896269798, -0.18031640350818634, -0.06893718242645264, 0.028268927708268166, -0.026323441416025162, 0.03422655165195465, -0.06942474097013474, 0.16581058502197266, 0.03982121869921684, 0.017033537849783897, 0.14325594902038574, -0.0809059590101242, -0.061312127858400345, 0.08092100918292999, -0.0652233213186264, 0.07180080562829971, -0.20733624696731567, -0.017644768580794334, -0.18250910937786102, 0.18282024562358856, 0.04605276137590408, 0.2801581919193268, 0.2333449274301529, 0.22460058331489563, -0.008231164887547493, -0.46616077423095703, 0.023849526420235634, 0.15423138439655304, -0.16290946304798126, -0.08220817148685455, 0.16587382555007935, 0.036630645394325256, -0.0524933822453022, -0.12916512787342072, 0.17956316471099854, -0.18925519287586212, 0.04800098389387131, 0.13725362718105316, 0.09301528334617615, 0.2174234539270401, -0.00159212457947433, 0.08593228459358215, 0.25736936926841736, -0.06297442317008972, -0.043144360184669495, 0.23461103439331055, -0.14033928513526917, -0.0826634094119072, -0.08622857183218002, -0.11562740802764893, 0.12248201668262482, -0.1740006059408188, -0.02816995419561863, 0.11917486041784286, -0.17304052412509918, 0.13561655580997467, -0.1161995455622673, 0.16265816986560822, -0.07054179161787033, 0.0033460757695138454, -0.0735226571559906, 0.14364053308963776, -0.1266053169965744, 0.009789695031940937, -0.001216401346027851, -0.11842142790555954, -0.04191695153713226, 0.039499495178461075, 0.1394229382276535, 0.0288339052349329, 0.11204739660024643, -0.06870011985301971, -0.05536877363920212, -0.25239646434783936, 0.03236584737896919, 0.004562191665172577, 0.07024134695529938, -0.2792424261569977, 0.14407998323440552, 0.044275108724832535, -0.1452798694372177, -0.3006261885166168, 0.08131381869316101, -0.0032378409523516893, -0.11441345512866974, 0.029366061091423035, 0.029911929741501808, 0.20027513802051544, -0.1904388815164566, 0.020066658034920692, 0.16652488708496094, -0.2783787250518799, -0.034225355833768845, -0.18396171927452087, -0.16406561434268951, 0.002398198936134577, 0.04305963218212128, -0.1345592737197876, 0.022120561450719833, -0.22489888966083527, -0.12593749165534973, -0.021281884983181953, 0.022105997428297997, 0.1454954743385315, -0.10997357964515686, 0.059448760002851486, -0.3526420593261719, -0.17824067175388336, 0.1719275861978531, 0.1667827069759369, 0.18115784227848053, 0.21767286956310272, -0.152548685669899, -0.0795525535941124, 0.2763471305370331, 0.16175110638141632, 0.33330440521240234, -0.0431239940226078, -0.02850935235619545, -0.23388400673866272, -0.17844651639461517, 0.32464921474456787, 0.06313102692365646, 0.39376458525657654, 0.010931229218840599, -0.43050873279571533, -0.014243070967495441, -0.3204790949821472, -0.2230784147977829, -0.10465598851442337, 0.2701636552810669, 0.2726026177406311, 0.19801169633865356, 0.19361190497875214, 0.1504386067390442, -0.09823217242956161, 0.07775989919900894, 0.058685481548309326, 0.03957602381706238, 0.19461049139499664, 0.23358570039272308, -0.21335402131080627, 0.14566601812839508, 0.03479636088013649, -0.13144853711128235, 0.08645106106996536, -0.0066514452919363976, 0.062317389994859695, 0.1270187795162201, -0.0013228058815002441, 0.18124763667583466, -0.09955871105194092, 0.04866514354944229, 0.08747419714927673, 0.1272914856672287, 0.08887290954589844, 0.07060719281435013, -0.0497756265103817, 0.14286015927791595, -0.02511855959892273, -0.0992712676525116, -0.01781426928937435, -0.09878068417310715, -0.11539491266012192, -0.05921855941414833, -0.09170985221862793, 0.011588933877646923, 0.15931855142116547, -0.1235906109213829, 0.23071615397930145, -0.011821260675787926, -0.18839998543262482, 0.18449755012989044, -0.18267618119716644, -0.016661232337355614, 0.14427731931209564, -0.05114588886499405, 0.18410943448543549, -0.22580479085445404, -0.0008355188183486462, -0.09149917960166931, -0.1770308017730713, 0.054688386619091034, 0.057450298219919205, 0.07633285224437714, -0.009062489494681358, 0.11232901364564896, 0.21266420185565948, -0.011254161596298218, 0.0393405444920063, -0.12966549396514893, 0.004909235518425703, 0.034691259264945984, 0.13286246359348297, 0.003127539297565818, -0.21030625700950623, 0.024097591638565063, -0.03278088569641113, -0.04144784435629845, -0.0032512680627405643, -0.6813921928405762, 0.743417501449585, 0.23409289121627808, -0.2903229594230652, 0.3480900228023529, -0.24268501996994019, 0.10349103808403015, 0.5734264850616455, -0.5591583251953125, 0.7354080080986023, 0.5605155229568481, -0.017261391505599022, -0.5488161444664001, 0.5344784259796143, -0.47937193512916565, 0.2485169917345047, -0.15588319301605225, -0.0670754611492157, -0.4898499548435211, 0.2991393804550171, 0.4656069278717041, 0.057456400245428085, 0.18740703165531158, 0.3242802321910858, 0.25346142053604126, -0.22854742407798767, 0.2123454064130783, -0.33454903960227966, -0.24398323893547058, -0.11105529963970184, 0.03270416706800461, 0.057490669190883636, 0.05652112886309624, -0.07993753254413605, 0.4222252666950226, 0.13220900297164917, -0.15310698747634888, -0.057707615196704865, -0.5596454739570618, -0.28385913372039795, 0.08753180503845215, 0.04171622544527054, -0.13305479288101196, 0.0993037223815918, 0.11822936683893204, 0.159587100148201, -0.12911838293075562, -0.13035301864147186, -0.5007514953613281, 0.22994370758533478, -0.06868696957826614, -0.09641364216804504, -0.5679944753646851, -0.013515668921172619, -0.5630374550819397, -0.05537853389978409, -0.1342347264289856, -0.013039704412221909, 0.3977152705192566, 0.30287444591522217, 0.08959633111953735, 0.09041012823581696, -0.11172724515199661, 0.313996285200119, 0.3203532099723816, 0.07867061346769333, -0.10761409252882004, 0.040256451815366745, 0.14508405327796936, -0.1795850396156311, 0.09896610677242279, 0.10798775404691696, -0.06101469695568085, -0.05855489522218704, 0.2771289646625519, -0.02248380333185196, 0.10104609280824661, 0.02027246728539467, -0.03905324637889862, 0.1389508992433548, 0.27690303325653076, 0.2050645798444748, -0.050368934869766235, -0.08869942277669907, -0.07147611677646637, 0.14397431910037994, 0.003641777439042926, 0.2727266252040863, -0.07879535853862762, -0.11578872799873352, -0.33423998951911926, 0.01664874143898487, -0.10368041694164276, 0.07297682762145996, -0.22773107886314392, -0.09141769260168076, -0.20863108336925507, 0.14357714354991913, 0.07744789123535156, -0.45326730608940125, -0.12595483660697937, 0.05985288321971893, -0.028688661754131317, -0.017398551106452942, -0.08289004117250443, 0.08260763436555862, 0.2831959128379822, 0.43856728076934814, 0.17303745448589325, 0.22409939765930176, -0.09534716606140137, -0.019599471241235733, 0.41934293508529663, -0.10591766238212585, -0.09530184417963028, 0.21834447979927063, -0.1810259222984314, 0.06487047672271729, -0.09307234734296799, -0.16300047934055328, 0.17011809349060059, 0.025736209005117416, -0.3416064977645874, 0.1274101883172989, 0.1022605374455452, 0.08873402327299118, 0.21229058504104614, 0.3125751316547394, 0.14897824823856354, -0.06027710810303688, -0.05731067433953285, -0.04786534979939461, 0.060411036014556885, -0.05371006578207016, -0.10076756775379181, -0.015895206481218338, -0.00495817931368947, 0.30573299527168274, 0.11441656947135925, 0.05000704526901245, 0.22242040932178497, 0.08232680708169937, -0.12113452702760696, -0.27499598264694214, 0.48820412158966064, -0.003252334427088499, 0.03751927986741066, 0.2947274446487427, -0.02931877225637436, -0.28405269980430603, 0.09059213101863861, -0.19285185635089874, 0.15938585996627808, -0.26604822278022766, -0.00991919543594122, -0.28421762585639954, -0.05242935195565224, 0.05313912406563759, 0.09843957424163818, 0.4210450351238251, -0.2628794312477112, -0.0756477490067482, 0.018293162807822227, 0.12860234081745148, 0.1928502768278122, -0.10297895222902298, 0.03880620375275612, -0.040799301117658615, -0.08553178608417511, 0.15794798731803894, -0.2325771600008011, -0.020821362733840942, -0.03660885989665985, 0.13958372175693512, -0.07510072737932205, 0.22411967813968658, -0.2808231711387634, -0.16045130789279938, -0.41227930784225464, 0.3809414505958557, -0.11927080154418945, 0.04195837676525116, 0.04938826709985733, 0.1709212362766266, 0.17538952827453613, -0.4921782314777374, 0.024954020977020264, -0.11090411990880966, -0.3606700301170349, 0.06206265836954117, 0.3524067997932434, 0.2439662665128708, -0.6051223278045654, -0.10612950474023819, 0.0376259982585907, -0.0022666866425424814, 0.33839213848114014, 0.034945715218782425, 0.02097182907164097, -0.23481141030788422, -0.17115028202533722, -0.19057951867580414, 0.7160283327102661, -0.4383832514286041, -0.49581319093704224, -0.02563936449587345, 0.059381499886512756, -0.4444121718406677, -0.3667384386062622, -0.02514883130788803, -0.12192385643720627, 0.1600244641304016, -0.086407870054245, -0.23546911776065826, -0.24031661450862885, -0.0778668001294136, -0.1336427927017212, -0.16821256279945374, 0.074131079018116, -0.05711887404322624, 0.11628842353820801, 0.034382957965135574, -0.10331712663173676, -0.27270588278770447, 0.45055437088012695, -0.15895135700702667, -0.20483259856700897, 0.04692669212818146, -0.3190310299396515, 0.22053749859333038, -0.16913838684558868, -0.025728702545166016, -0.04286738112568855, 0.02027888223528862, 0.024649836122989655, -0.02808012254536152, 0.2663283348083496, -0.06578182429075241, -0.03398323431611061, 0.2421686351299286, 0.25245001912117004, 0.04082348942756653, -0.28105807304382324, -0.1832844614982605, 0.21862587332725525, -0.11967779695987701, -0.21210038661956787, 0.4358294904232025, 0.24541664123535156, 0.20738735795021057, -0.12350596487522125, 0.025651823729276657, 0.012333300895988941, -0.017053164541721344, -0.2652568519115448, 0.004085686057806015, -0.10641822218894958, -0.033227331936359406, -0.15813834965229034, -0.10563741624355316, 0.11533292382955551, -0.02409023605287075, -0.15519917011260986, 0.1322929561138153, 0.23609155416488647, 0.22255483269691467, 0.1494615525007248, -0.20324505865573883, -0.15790621936321259, -0.054565541446208954, 0.08997379243373871, -0.01911812089383602, -0.00853382796049118, 0.1277696192264557, 0.0521768182516098, -0.07209976017475128, -0.045283760875463486, 0.07187989354133606, 0.013834543526172638, -0.22217251360416412, -0.16018155217170715, 0.015098918229341507, 0.0712118074297905, 0.09964218735694885, 0.05434561148285866, 0.07909703999757767, 0.022477107122540474, 0.03977106139063835, -0.013251788914203644, -0.21520660817623138, 0.04678759723901749, -0.0073151239193975925, 0.0007845748914405704, 0.13700813055038452, -0.33225110173225403, -0.040929704904556274, 0.08046206831932068, -0.02918923646211624, 0.24400874972343445, 0.018288780003786087, -0.19068416953086853, 0.09787743538618088, 0.0899517759680748, 0.02005360834300518, 0.33771422505378723, 0.15831302106380463, 0.02118437923491001, -0.20209753513336182, -0.3379008173942566, -0.051673244684934616, -0.01667686365544796, 0.07425642013549805, -0.07761824876070023, -0.27826952934265137, -0.16582217812538147, 0.057594675570726395, 0.024213949218392372, -0.1266583353281021, 0.010676617734134197, -0.2233000546693802, 0.032725971192121506, -0.15429706871509552, -0.23417030274868011, 0.026170101016759872, -0.03920239210128784, -0.16315141320228577, 0.09582026302814484, -0.02207162044942379, -0.29067641496658325, -0.16865113377571106, -0.18411687016487122, 0.041759852319955826, 0.11821790039539337, -0.19662579894065857, 0.1138337180018425, 0.033129606395959854, 0.5968808531761169, -0.13828925788402557, -0.06854314357042313, 0.018647780641913414, 0.3225771486759186, -0.6781042218208313, -0.4629661440849304, -0.021651504561305046, 0.018236804753541946, 0.29577919840812683, -0.3992944657802582, 0.10671044886112213, -0.05305894464254379, 0.0679204910993576, 0.07851403951644897, -0.2567797899246216, -0.008783661760389805, -0.14922060072422028, 0.2035098820924759, 0.045601408928632736, -0.05154559016227722, -0.2594381868839264, -0.19467264413833618, -0.0013429003302007914, 0.42768874764442444, 0.012429849244654179, -0.05339477211236954, -0.0091390460729599, -0.14130942523479462, 0.210511714220047, 0.636667013168335, 0.06926340609788895, 0.10231257975101471, 0.08709036558866501, -0.08745689690113068, -0.3619242012500763, 0.04690316319465637, -0.09338085353374481, -0.3009456396102905, 0.11007060110569, -0.11743337661027908, 0.2907801866531372, 0.00961731094866991, -0.07772800326347351, -0.6628183126449585, 0.2360655516386032, -0.5174887180328369, -0.01485365629196167, 0.21196702122688293, -0.33658114075660706, -0.013289195485413074, 0.214573472738266, 0.0731700137257576, -0.2619122266769409, -0.0754491537809372, 0.14789283275604248, 0.18162070214748383, 0.18236961960792542, -0.3353349268436432, 0.15061892569065094, -0.14252869784832, -0.03683172166347504, -0.24822776019573212, -0.33665725588798523, 0.030396627262234688, 0.10234354436397552, 0.2302199900150299, -0.11050013452768326, 0.0008314168662764132, -0.07591160386800766, 0.21967200934886932, 0.04311317205429077, -0.035379450768232346, -0.12525874376296997, 0.05443080887198448, -0.12313314527273178, 0.12036581337451935, -0.09881583601236343, 0.393926739692688, -0.6764035820960999, 0.10321425646543503, 0.27599653601646423, -0.04978577792644501, 0.0390905886888504, 0.0579194650053978, -0.1309434175491333, 0.045180656015872955, 0.10296676307916641, -0.04114151373505592, 0.016217458993196487, -0.22260786592960358, -0.05422748625278473, 0.09110527485609055, 0.2154289335012436, 0.19199921190738678, -0.0484585165977478, 0.14971254765987396, -0.11417893320322037, 0.015546602196991444, 0.06822937726974487, 0.1979523003101349, 0.2293982058763504, 0.22976045310497284, -0.012798749841749668, 0.16633117198944092, -0.06269384175539017, -0.14554108679294586, 0.12411210685968399, 0.07773308455944061, 0.0028129545971751213, -0.042319413274526596, -0.16312651336193085, 0.14205728471279144, 0.08439188450574875, -0.03509628027677536, -0.04266922548413277, 0.0094917556270957, 0.0015664971433579922, 0.1922101527452469, 0.06663084030151367, -0.0942811518907547, -0.33375340700149536, -0.21211516857147217, 0.016296813264489174, 0.19211764633655548, 0.07982001453638077, 0.17106816172599792, -0.04981590807437897, 0.18460184335708618, 0.23834693431854248, 0.13790936768054962, -0.016118429601192474, 0.1592247486114502, -0.21279726922512054, 0.011105352081358433, 0.040644291788339615, -0.34983664751052856, -0.11147002875804901, -0.025204071775078773, 0.06389934569597244, -0.20211651921272278, 0.11972761154174805, -0.0252988338470459, 0.060931503772735596, 0.07426381856203079, 0.017642930150032043, 0.006062606815248728, 0.18462951481342316, 0.08482597768306732, 0.09690286964178085, -0.004743871279060841, -0.04227139800786972, -0.1415504813194275, 0.13751636445522308, 0.027575591579079628, 0.2117554098367691, 0.104578897356987, -0.008795098401606083, -0.10549256205558777, 0.10760660469532013, 0.07846424728631973, -0.06323360651731491, 0.03319135680794716, 0.012277599424123764, 0.04544561356306076, -0.07144578546285629, -0.23491346836090088, 0.08533544093370438, 0.23614929616451263, -0.019991477951407433, -0.03631269559264183, -0.011332071386277676, -0.07255985587835312, 0.0361989289522171, -0.1915196031332016, -0.03822900354862213, -0.12892282009124756, -0.016771463677287102, 0.023316968232393265, -0.13226205110549927, 0.2133464366197586, -0.11746129393577576, -0.277026504278183, 0.23225119709968567, -0.17415687441825867, -0.1248108297586441, -0.4339558482170105, 0.3423796594142914, -0.22349172830581665, 0.19792573153972626, -0.3218831419944763, -0.07676736265420914, 0.09811099618673325, 0.005805594846606255, 0.19814930856227875, 0.17241999506950378, -0.11855539679527283, -0.31660470366477966, -0.14957095682621002, 0.2570137083530426, 0.006443082354962826, 0.30985891819000244, -0.09251879155635834, 0.17887406051158905, -0.09727761894464493, -0.056613486260175705, -0.1664607673883438, -0.2766394317150116, -0.05384749919176102, -0.020792806521058083, 0.15104492008686066, -0.03679388388991356, -0.05839432775974274, -0.15563099086284637, -0.15064717829227448, 0.04436887800693512, 0.24578090012073517, -0.11152434349060059, 0.07089225947856903, 0.013438615016639233, -0.020498229190707207, 0.24005961418151855, 0.22015179693698883, -0.0798785462975502, 0.16621282696723938, 0.11241743713617325, 0.25795525312423706, -0.055753014981746674, 0.015708032995462418, -0.08869008719921112, -0.16964974999427795, 0.028504248708486557, -0.10801169276237488, -0.022310970351099968, -0.12979017198085785, -0.05345984920859337, 0.005175842437893152, 0.24225130677223206, 0.28997451066970825, -0.0023048478178679943, -0.046781025826931, -0.08432062715291977, -0.07686490565538406, -0.08274488896131516, 0.1887621432542801, -0.14597313106060028, -0.08569318801164627, 0.24905641376972198, 0.004393874201923609, -0.16516785323619843, -0.1285555511713028, 0.07587729394435883, 0.03790516033768654, -0.003186816582456231, -0.0953662320971489, -0.06969086080789566, -0.029572641476988792, -0.12751244008541107, -0.09606445580720901, 0.07627683877944946, 0.2112201303243637, 0.03641926124691963, -0.11604689061641693, -0.2465250939130783, 0.09924042969942093, 0.010368728078901768, 0.11654631793498993, 0.0877033919095993, -0.10073396563529968, -0.03447088971734047, -0.07499109953641891, 0.007875311188399792, 0.16980867087841034, -0.06002930924296379, 0.025603128597140312, 0.10630086064338684, 0.005919426679611206, 0.047856710851192474, -0.20117968320846558, 0.06554456055164337, 0.0653558075428009, 0.1495412290096283, 0.15102440118789673, -0.11116358637809753, 0.26565292477607727, 0.2391030639410019, -0.2511923015117645, 0.030618328601121902, 0.0558588020503521, 0.2084946483373642, -0.024052008986473083, 0.11780829727649689, 0.2197602391242981, 0.31422457098960876, -0.06783957779407501, 0.04224061220884323, -0.13393376767635345, 0.007773436140269041, 0.05416540801525116, -0.08130733668804169, 0.06161500886082649, 0.155120387673378, -0.09336870163679123, -0.160406693816185, -0.10470447689294815, 0.055000316351652145, -0.01731663942337036, 0.1154840886592865, -0.07566089928150177, 0.035686686635017395, 0.006623304449021816, 0.01988920010626316, 0.1438199132680893, 0.011873858980834484, -0.22033557295799255, -0.05802898854017258, 0.16180820763111115, -0.12318535894155502, -0.12378700077533722, -0.13515688478946686, 0.04305402189493179, -0.13180990517139435, 0.041800666600465775, 0.033273693174123764, 0.047715336084365845, 0.007990896701812744, 0.09927771240472794, 0.002769565675407648, -0.13674014806747437, 0.07886304706335068, -0.24927574396133423, 0.20043253898620605, 0.06864055246114731, 0.12369009107351303, 0.1300685703754425, -0.04958513006567955, 0.2708366811275482, 0.11789843440055847, 0.10887209326028824, -0.13309448957443237, -0.18053878843784332, 0.2321028709411621, 0.00876081082969904, -0.3352418541908264, -0.06370621919631958, 0.09310901910066605, -0.02516961097717285, -0.1326836496591568, 0.043834373354911804, 0.1035415381193161, -0.04832099750638008, 0.07444244623184204, 0.10964539647102356, 0.05356679484248161, -0.05259092524647713, -0.1975870430469513, -0.13671426475048065, -0.1786063313484192, -0.04753033071756363, 0.006475137546658516, 0.012008077464997768, -0.14725236594676971, -0.04975862801074982, 0.05824202299118042, 0.042728573083877563, 0.03698308765888214, -0.0836278572678566, -0.04570453241467476, 0.21836121380329132, 0.16565875709056854, -0.1377127766609192, 0.11556695401668549, -0.005553288850933313, -0.1830495446920395, -0.02758684568107128, 0.12627330422401428, -0.19982723891735077, -0.004218284040689468, 0.023461194708943367, 0.12834762036800385, -0.3324342370033264, -0.2438778281211853, 0.13692621886730194, 0.14566856622695923, -0.059351846575737, -0.19641491770744324, 0.06787688285112381, 0.16467808187007904, -0.12248726934194565, 0.27781420946121216, -0.10088086873292923, -0.1115398034453392, 0.2577359080314636, -0.36904969811439514, -0.09226901829242706, 0.05994350463151932, -0.038610707968473434, 0.3149392306804657, -0.14027565717697144, 0.041553281247615814, 0.1301785558462143, 0.07355917990207672, -0.042147520929574966, -0.0740659311413765, -0.09234623610973358, 0.12089496850967407, 0.2846682369709015, 0.06582461297512054, 0.03665658459067345, -0.22625760734081268, -0.21612636744976044, 0.07712942361831665, 0.20878173410892487, -0.10658352822065353, 0.08542270958423615, -0.39515185356140137, 0.03453347459435463, -0.17897838354110718, -0.34802311658859253, 0.11819357424974442, -0.07159225642681122, -0.22892320156097412, 0.014930909499526024, 0.06344552338123322, -0.24329213798046112, 0.05580305680632591, 0.02533923089504242, 0.09150121361017227, 0.16068053245544434, -0.02653205208480358, 0.0014173632953315973, 0.08313789963722229, -0.05128347873687744, 0.04605301097035408, -0.12527996301651, -0.03329061344265938, 0.35720664262771606, 0.2604433298110962, 0.09056412428617477, 0.4403232932090759, 0.08606725186109543, -0.11052192747592926, -0.2523841857910156, -0.07356291264295578, -0.17561057209968567, -0.24997778236865997, 0.18284782767295837, 0.18603651225566864, 0.05794670432806015, 0.1046299859881401, 0.03761114925146103, -0.050603654235601425, -0.09551859647035599, 0.08540739864110947, 0.08686237037181854, -0.1515003889799118, -0.1657121777534485, 0.1329008936882019, -0.18301306664943695, 0.09085887670516968, -0.004353837575763464, -0.19874899089336395, 0.021112073212862015, -0.12774287164211273, -0.17864936590194702, -0.22565418481826782, -0.460860013961792, 0.11317025125026703, -0.11127139627933502, 0.16512709856033325, 0.2195473164319992, -0.006093431729823351, 0.10418401658535004, -0.1257757693529129, 0.1341170370578766, 0.009621752426028252, 0.038863442838191986, 0.19910821318626404, 0.49559664726257324, -0.0834445208311081, 0.11998262256383896, -0.017964977771043777, 0.06115834414958954, 0.15069487690925598, -0.3915300965309143, 0.14781147241592407, 0.03544554486870766, 0.001716797472909093, -0.03774670138955116, -0.44006645679473877, 0.189557284116745, -0.18633724749088287, -0.20085348188877106, 0.3556034564971924, -0.04526473581790924, -0.06818903237581253, 0.15728382766246796, 0.11728519201278687, -0.018367458134889603, -0.25944456458091736, -0.10423735529184341, -0.011415502056479454, 0.19285330176353455, 0.0745314434170723, -0.025363106280565262, -0.15992805361747742, -0.20963282883167267, 0.15340659022331238, 0.28115761280059814, 0.09541527926921844, -0.050021130591630936, 0.002203855197876692, 0.10894792526960373, -0.17543773353099823, -0.1817963719367981, 0.16972225904464722, 0.12542137503623962, -0.25203296542167664, 0.26559048891067505, -0.02940482087433338, -0.09050934761762619, -0.20753738284111023, -0.1963544487953186, 0.1264636367559433, 0.004927007481455803, 0.18001151084899902, 0.21050897240638733, -0.1100749522447586, -0.05695614591240883, -0.1994367390871048, -0.22009120881557465, -0.2791810929775238, 0.09626466780900955, -0.1930488497018814, -0.08831869065761566, 0.15834000706672668, -0.28132206201553345, -0.19499197602272034, -0.2376035451889038, 0.017288122326135635, 0.07476500421762466, -0.09730379283428192, 0.13048996031284332, -0.062281981110572815, -0.11860612034797668, -0.14430420100688934, 0.19345374405384064, -0.002083588857203722, 0.0441109873354435, -0.05403412878513336, 0.010792011395096779, -0.0550280325114727, -0.019309386610984802, -0.27363190054893494, -0.029327623546123505, 0.015358694829046726, -0.27517175674438477, -0.14028729498386383, -0.0852716788649559, -0.2478279024362564, -0.11797327548265457, 0.11322006583213806, 0.18319250643253326, -0.09175380319356918, -0.07397739589214325, -0.04755452647805214, 0.01092451997101307, 0.09396626055240631, 0.11168743669986725, 0.055163994431495667, -0.04514119401574135, -0.11938878148794174, 0.32411110401153564, 0.21474967896938324, 0.11865195631980896, 0.05865482985973358, -0.07947031408548355, 0.6962388157844543, 0.24699899554252625, 0.4536646902561188, -0.3278019428253174, 0.09413675963878632, -0.19445639848709106, -0.24110212922096252, -0.02490304782986641, -0.29879704117774963, 0.42197152972221375, 0.1838729977607727, -0.07813890278339386, 0.27205097675323486, 0.14676164090633392, 0.3258919417858124, 0.08617202192544937, -0.12233829498291016, 0.0004297806299291551, 0.1926494687795639, -0.19899524748325348, -0.03948120027780533, -0.32329636812210083, -0.011517752893269062, 0.04434935748577118, 0.21175998449325562, -0.05916694924235344, 0.039376549422740936, 0.005504255183041096, 0.0076513150706887245, 0.20241235196590424, 0.6790221929550171, -0.053027983754873276, -0.5808145999908447, -0.11191852390766144, 0.024248365312814713, -0.22648611664772034, -0.0991576611995697, 0.00159669597633183, -0.18653687834739685, 0.19981788098812103, -0.17145861685276031, -0.11524002999067307, -0.0031013842672109604, 0.03089347667992115, -0.03003445453941822, 0.10569275915622711, 0.08390115201473236, 0.27518388628959656, 0.24590371549129486, -0.06422150135040283, -0.060719478875398636, 0.024338480085134506, -0.29520392417907715, -0.12474910169839859, 0.1299712359905243, -0.09831602871417999, 0.1804089993238449, 0.29703542590141296, -0.07395463436841965, -0.042891111224889755, -0.1418643295764923, 0.1435285359621048, -0.12749066948890686, -0.16829301416873932, 0.014647459611296654, -0.12786994874477386, 0.24399523437023163, 0.051420994102954865, 0.004419470205903053, -0.17077581584453583, -0.10441158711910248, 0.04025258123874664, 0.2820362448692322, 0.03958085924386978, 0.08481716364622116, -0.17993302643299103, 0.03979770466685295, 0.040308963507413864, 0.1214195117354393, -0.00948988925665617, -0.16565950214862823, -0.12066923826932907, -0.2890787124633789, 0.060944098979234695, 0.052867598831653595, -0.14493966102600098, 0.12653404474258423, 0.23317407071590424, 0.016616785898804665, 0.054957401007413864, -0.23447006940841675, 0.12955939769744873, 0.43744194507598877, -0.3234311640262604, 0.09337013214826584, 0.19746504724025726, 0.038352686911821365, -0.02951502799987793, 0.07800490409135818, 0.11481650918722153, 0.05682870000600815, -0.07135975360870361, -0.27790606021881104, 0.3974667191505432, 0.06540430337190628, 0.12461995333433151, 0.0669717863202095, 0.1426669955253601, 0.06447867304086685, -0.18905457854270935, 0.0033668638207018375, 0.1733172982931137, 0.10296525806188583, -0.01136253122240305, -0.23684313893318176, -0.3108256757259369, 0.02120807394385338, -0.11870603263378143, 0.21160683035850525, -0.011059745214879513, -0.02246478572487831, -0.2439650446176529, -0.05252690240740776, 0.2723418176174164, -0.15615662932395935, -0.009254766628146172, -0.2783435881137848, 0.20797611773014069, 0.000586512207519263, -0.13079681992530823, -0.02834952063858509, -0.012196322903037071, -0.10308806598186493, 0.0059943185187876225, 0.06126171350479126, -0.10111895948648453, 0.008298711851239204, -0.01305128913372755, 0.0630565658211708, 0.0571175217628479, 0.04203123599290848, 0.39150720834732056, -0.11930108070373535, -0.11032143980264664, 0.1913975328207016, -0.14811298251152039, 0.12343469262123108, 0.014394200406968594, -0.1601606160402298, -0.08361832052469254, 0.0654139593243599, 0.24630895256996155, 0.05510609596967697, 0.010335260070860386, 0.00648563914000988, -0.22617022693157196, -0.047713082283735275, -0.037670671939849854, 0.4350335896015167, -0.1727837771177292, 0.4758502244949341, -1.0168306827545166, -1.0552998781204224, -0.24481691420078278, 0.4428179860115051, -0.40651801228523254, 0.2403363436460495, 0.3885531723499298, -0.4302861988544464, 0.2704467475414276, -0.023643000051379204, -0.5753999948501587, -0.034241653978824615, -0.3342460095882416, -0.15513114631175995, -0.1053616851568222, 0.1496516764163971, -0.13956226408481598, -0.021077819168567657, 0.04097003489732742, 0.15582507848739624, -0.5243749022483826, -0.53304123878479, -0.08114859461784363, -0.13165511190891266, 0.10761605948209763, 0.14230197668075562, -0.1474541425704956, 0.05800165235996246, -0.03898806869983673, -0.13647210597991943, -0.2569602429866791, -0.017577264457941055, -0.42766788601875305, 0.0006599626503884792, 0.08969040960073471, 0.14204463362693787, -0.14921191334724426, -0.022188615053892136, -0.01110142096877098, -0.15497469902038574, 0.18662647902965546, -0.09739689528942108, 0.1370995193719864, 0.12013589590787888, 0.014244718477129936, 0.019923636689782143, 0.2901626527309418, 0.02931777760386467, -0.07777704298496246, 0.3433251976966858, -0.2096526026725769, -0.34926944971084595, 0.10920412838459015, 0.3006773591041565, -0.12164164334535599, -0.11598185449838638, -0.13325543701648712, -0.011847196146845818, -0.07236543297767639, 0.06164059042930603, 0.2645559310913086, -0.21881070733070374, 0.15472441911697388, -0.00846043135970831, 0.21674732863903046, 0.15163397789001465, 0.26333484053611755, 0.3825300335884094, -0.08990290015935898, -0.2941305935382843, -0.19388023018836975, -0.06930237263441086, -0.3354809880256653, 0.26105421781539917, 0.21967443823814392, -0.08686086535453796, -0.43645742535591125, 0.21471625566482544, -0.0853743851184845, -0.04721176251769066, 0.1286849081516266, 0.19954565167427063, -0.07656507194042206, 0.02715790458023548, -0.16121609508991241, 0.23996783792972565, 0.09914594888687134, 0.13167311251163483, 0.17076745629310608, -0.12943823635578156, -0.18071912229061127, -0.19420136511325836, -0.1286461055278778, -0.21177639067173004, 0.09422043710947037, 0.22204041481018066, 0.2143760323524475, -0.10341272503137589, 0.23365697264671326, -0.009655118919909, 0.06374453753232956, 0.1486748605966568, 0.1856471598148346, -0.28073394298553467, 0.3524225056171417, -0.02412392571568489, -0.1338423788547516, -0.2674380838871002, 0.15787406265735626, -0.13949188590049744, -0.1837405413389206, -0.04763862118124962, -0.036680590361356735, 0.16792617738246918, -0.03740587458014488, 0.09340111911296844, 0.1321970820426941, -0.01464031357318163, 0.03569168597459793, 0.08933976292610168, -0.029156621545553207, 0.16047969460487366, 0.06635133922100067, 0.17963318526744843, -0.20873141288757324, -0.11342015117406845, 0.2890714704990387, -0.08641122281551361, 0.20702089369297028, 0.5372419953346252, -0.2576453983783722, 0.11566423624753952, 0.3380228877067566, 0.24471083283424377, -0.06598331034183502, 0.08194781094789505, 0.062207017093896866, -0.10957346856594086, -0.01243204902857542, 0.2732897400856018, 0.15454667806625366, -0.2936291992664337, 0.03937007859349251, -0.038498930633068085, 0.00916251540184021, 0.3018414080142975, 0.04165269434452057, -0.10034005343914032, -0.08375836163759232, 0.07957710325717926, 0.03389846533536911, -0.01667899265885353, -0.1274096816778183, 0.0903502106666565, 0.022909818217158318, -0.010085303336381912, 0.04369494318962097, 0.09344587475061417, 0.1899295449256897, 0.11855199187994003, -0.02282382734119892, -0.04411151632666588, -0.0018650678684934974, 0.0007864570361562073, -0.207837775349617, -0.2430625557899475, -0.10991518199443817, 0.1674772948026657, -0.16555604338645935, 0.192813903093338, 0.036080677062273026, 0.09123948216438293, -0.05238236486911774, -0.1826937198638916, 0.050778765231370926, -0.20969153940677643, -0.14448396861553192, -0.06775490939617157, -0.01768159680068493, 0.0173734650015831, -0.1738576740026474, 0.38808342814445496, -0.015963753685355186, -0.0836457684636116, -0.04873050004243851, -0.16880621016025543, 0.14904551208019257, 0.04068487137556076, -0.046076882630586624, 0.11487224698066711, -0.05871890112757683, -0.17386579513549805, -0.17566730082035065, -0.16403964161872864, -0.211931511759758, -0.04592369496822357, 0.18574273586273193, -0.06595872342586517, 0.2418738156557083, 0.3552124798297882, 0.24082617461681366, -0.1840866506099701, 0.2969107925891876, -0.2852005064487457, -0.00691038416698575, -0.04602184519171715, 0.21484287083148956, 0.12074534595012665, 0.2567552924156189, -0.08067896217107773, 0.027441876009106636, -0.20866641402244568, -0.04252876341342926, 0.3258984088897705, 0.053114742040634155, -0.21366801857948303, -0.20127643644809723, -0.018504595384001732, 0.050338014960289, 0.07884689420461655, -0.19985762238502502, -0.11290071904659271, 0.20116989314556122, 0.08195992559194565, 0.2749895751476288, 0.04262986779212952, 0.11325893551111221, -0.021742358803749084, 0.048050280660390854, 0.07208837568759918, 0.20969171822071075, -0.03772348538041115, -0.20663981139659882, -0.14138728380203247, -0.19309017062187195, -0.024165594950318336, -0.05515188351273537, 0.2695034444332123, -0.12318053841590881, 0.074105404317379, 0.11471887677907944, -0.17212478816509247, -0.04903024807572365, 0.16275595128536224, 0.27647775411605835, -0.10682453215122223, 0.08909319341182709, -0.2692573368549347, 0.07012886554002762, -0.04231112822890282, -0.004527884069830179, -0.05908755213022232, 0.16290776431560516, -0.11860822141170502, 0.19774185121059418, -0.2274470180273056, -0.154115691781044, 0.08977032452821732, -0.22240924835205078, 0.3500455915927887, -0.4968688488006592, -0.08264473080635071, 0.1412716805934906, -0.20264726877212524, -0.14502020180225372, 0.15965169668197632, 0.12847670912742615, 0.20516636967658997, -0.1473265290260315, -0.2502698004245758, 0.029376929625868797, 0.02597557008266449, -0.08226357400417328, 0.02629593387246132, -0.04752074182033539, 0.024988669902086258, 0.05858992412686348, -0.06783225387334824, 0.10131128877401352, 0.11732026934623718, 0.07409095764160156, -0.03984770551323891, -0.2469516545534134, -0.07309980690479279, 0.10095811635255814, 0.1161317378282547, 0.07731252163648605, -0.11102344840765, 0.3156534433364868, 0.1697799116373062, 0.13402274250984192, -0.09229805320501328, 0.13002723455429077, -0.1502661556005478, 0.07576458156108856, 0.14140921831130981, -0.08081754297018051, 0.0510520301759243, 0.0535106435418129, -0.16950446367263794, 0.1631380319595337, -0.08222102373838425, 0.10076995193958282, -0.007327561266720295, 0.17996683716773987, -0.008266148157417774, 0.2496265172958374, 0.2924240529537201, 0.18210726976394653, -0.07946514338254929, 0.03517628088593483, -0.06520041078329086, 0.12825143337249756, 0.04933382570743561, 0.32482993602752686, 0.1797536313533783, 0.15744861960411072, -0.29232004284858704, -0.19117818772792816, -0.3444649875164032, -0.29959774017333984, 0.053932227194309235, 0.22858944535255432, 0.1925969421863556, -0.013071222230792046, 0.1665974110364914, -0.11145283281803131, 0.13720369338989258, -0.3324551284313202, -0.02931857854127884, -0.10196235030889511, -0.016130173578858376, -0.07407297194004059, 0.06354467570781708, -0.013113303110003471, 0.15016427636146545, -0.046465788036584854, -0.005356757901608944, -0.08746623992919922, -0.1660270243883133, -0.09139988571405411, 0.10670953243970871, 0.05744216591119766, 0.07351713627576828, 0.26821428537368774, 0.20655274391174316, -0.04834229126572609, -0.06795597076416016, 0.088487908244133, 0.01640506647527218, -0.1894037276506424, -0.12995117902755737, 0.02632189728319645, 0.2793230414390564, -0.12250731885433197, -0.036794934421777725, -0.2423257827758789, -0.08627118170261383, 0.07178115099668503, 0.24445417523384094, 0.12277242541313171, 0.055877476930618286, -0.2243400365114212, 0.002702456433326006, -0.22282539308071136, 0.25960877537727356, -0.10615645349025726, -0.05344516411423683, 0.1603662520647049, -0.024598941206932068, -0.11957117170095444, 0.14517438411712646, -0.048105545341968536, -0.0290420800447464, 0.21204987168312073, 0.2342548668384552, 0.014755710028111935, -0.1483413726091385, 0.1010236144065857, -0.07605378329753876, -0.20902487635612488, -0.03550668805837631, 0.1372540295124054, 0.18403929471969604, 0.04172690585255623, 0.4320755898952484, -0.1646537035703659, -0.025272667407989502, 0.013586233370006084, -0.14889073371887207, -0.14845003187656403, 0.06335987150669098, 0.025018827989697456, 0.007295869290828705, -0.11259309202432632, -0.023125993087887764, 0.15480950474739075, 0.21272072196006775, 0.21144439280033112, 0.0058037047274410725, -0.07583623379468918, -0.2302187830209732, -0.1273161917924881, -0.20399722456932068, 0.0018959378357976675, 0.09202679246664047, 0.05061221122741699, -0.2750627398490906, -0.060863759368658066, -0.34378939867019653, 0.3045279085636139, 0.09892865270376205, -0.03288119658827782, -0.07335358113050461, 0.06904462724924088, -0.07250744104385376, 0.08857236057519913, 0.06837528198957443, 0.024167602881789207, -0.07354138791561127, 0.2006509006023407, 0.21285532414913177, -0.09605205804109573, -0.0521906241774559, -0.10379742085933685, 0.25342869758605957, -0.19501091539859772, -0.1594044268131256, 0.16033941507339478, -0.06670375913381577, 0.14569729566574097, 0.6030997037887573, 0.0630076453089714, 0.04677662253379822, -0.607226550579071, 0.18105605244636536, 0.14252300560474396, -0.1630423367023468, -0.08966737240552902, 0.023250864818692207, 0.314512699842453, -0.02018756978213787, 0.03340606763958931, 0.13633868098258972, -0.0005929438630118966, 0.08302579820156097, 0.23867426812648773, 0.17529326677322388, -0.06526345759630203, -0.10144022107124329, 0.025203142315149307, -0.1365024447441101, -0.06576404720544815, 0.08959589153528214, 0.025840967893600464, -0.030011285096406937, -0.2899625301361084, -0.1045326441526413, 0.3782863914966583, 0.05701543390750885, 0.05654893070459366, -0.04191974550485611, -0.09800057113170624, -0.09502668678760529, -0.1533750593662262, 0.10249790549278259, 0.1142844408750534, -0.14909136295318604, 0.044644132256507874, 0.1357993185520172, -0.2667582035064697, -0.06771376729011536, -0.08241700381040573, 0.22297658026218414, -0.19770072400569916, -0.10263938456773758, 0.19802653789520264, -0.04869747906923294, -0.00567178288474679, 0.29265037178993225, -0.01140584796667099, 0.2072935551404953, 0.026981424540281296, 0.13781501352787018, 0.031040674075484276, 0.02382870577275753, -0.10135307163000107, 0.08805970102548599, 0.03945321962237358, 0.06443857401609421, 0.032196804881095886, 0.1447291076183319, 0.0270453579723835, -0.07729436457157135, -0.018719874322414398, 0.1938055008649826, 0.028420710936188698, -0.11340577900409698, -0.06053266301751137, -0.04321294277906418, 0.024882448837161064, 0.11566001176834106, 0.006619556341320276, 0.022652074694633484, 0.044045623391866684, -0.05674385651946068, 0.23709335923194885, 0.05552153289318085, 0.005397912114858627, -0.10229455679655075, 0.12349257618188858, -0.050388652831315994, -0.2284478098154068, -0.04292837902903557, 0.10686644911766052, -0.12215850502252579, 0.05559208244085312, 0.11793708801269531, -0.10929093509912491, -0.1365792453289032, -0.14950571954250336, 0.03217005729675293, -0.20775488018989563, -0.16164061427116394, 0.25482988357543945, -0.16457757353782654, 0.018377630040049553, -0.02547129988670349, -0.16938179731369019, -0.03771938383579254, 0.0163885410875082, -0.1049484983086586, 0.05485522001981735, 0.07345668971538544, -0.2648487985134125, -0.011126725934445858, -0.020303742960095406, -0.0952637791633606, 0.014369307085871696, 0.08185901492834091, -0.024685708805918694, -0.17047162353992462, -0.15068115293979645, 0.04643024876713753, -0.18245327472686768, -0.043760307133197784, 0.038795355707407, 0.14923666417598724, 0.10183897614479065, -0.18253031373023987, -0.20152845978736877, 0.14099547266960144, -0.08967525511980057, 0.07693794369697571, -0.30917176604270935, 0.1376657336950302, 0.06773872673511505, 0.01587245613336563, -0.3719180226325989, 0.11618492752313614, -0.019836630672216415, -0.09201053529977798, -0.2237493395805359, -0.130233034491539, -0.20106597244739532, -0.08997367322444916, 0.05939744785428047, 0.1180429682135582, 0.033060844987630844, -0.1285533607006073, 0.08043337613344193, 0.14509567618370056, -0.25973135232925415, 0.08855506777763367, 0.051422856748104095, -0.10491840541362762, -0.060370542109012604, -0.0878424271941185, 0.006665301974862814, -0.09147503972053528, -0.032222893089056015, 0.24275368452072144, -0.07747670263051987, -0.13100188970565796, -0.17897146940231323, 0.04800776392221451, 0.12310422956943512, -0.0510881245136261, 0.1831768900156021, 0.11659159511327744, 0.04412495717406273, 0.004596130456775427, 0.06274403631687164, 0.21380513906478882, -0.1536719799041748, -0.03519780561327934, 0.04520901292562485, -0.18242008984088898, -0.04346192628145218, 0.11606767028570175, 0.0974353477358818, 0.08674950152635574, -0.27045565843582153, -0.045703500509262085, 0.09693244844675064, -0.025186020880937576, 0.025404175743460655, -0.44291067123413086, 0.04843530431389809, -0.14774884283542633, 0.05115266144275665, 0.14391198754310608, 0.041499119251966476, 0.0544113926589489, 0.17305737733840942, 0.0009175175800919533, -0.07397058606147766, 