{"version": "0.5.4", "metadata": {"date": {"year": 2025, "month": 12, "day": 14, "hour": 15, "minute": 46, "second": 42}, "loudness": -12.36626148223877, "gain": 0.7792704051259552}, "architecture": "WaveNet", "config": {"layers": [{"input_size": 1, "condition_size": 1, "head_size": 8, "channels": 16, "kernel_size": 3, "dilations": [1, 2, 4, 8, 16, 32, 64, 128, 256, 512], "activation": "Tanh", "gated": false, "head_bias": false}, {"input_size": 16, "condition_size": 1, "head_size": 1, "channels": 8, "kernel_size": 3, "dilations": [1, 2, 4, 8, 16, 32, 64, 128, 256, 512], "activation": "Tanh", "gated": false, "head_bias": true}], "head": null, "head_scale": 0.02}, "weights": [-0.03802317753434181, 0.5570876598358154, -0.9621663093566895, -0.8108010292053223, -0.3208696246147156, 0.2094913125038147, 0.004371942020952702, 0.7913786768913269, -0.2684517502784729, 0.29642096161842346, -0.17764514684677124, -0.15703485906124115, -0.903232991695404, -0.6855515837669373, -0.2641521692276001, 0.17336098849773407, 0.15094144642353058, 0.3362438380718231, -0.3172476291656494, -0.12839971482753754, -0.21052980422973633, 0.278637170791626, 0.013787533156573772, 0.37573206424713135, -0.17105348408222198, 0.06972520053386688, 0.39183494448661804, -0.28876516222953796, -0.018209779635071754, 0.2214609682559967, -0.2184014469385147, 0.0677579790353775, -0.3527984619140625, 0.09242954850196838, -0.015501584857702255, 0.03447585925459862, -0.25978073477745056, 0.0698917806148529, -0.2015264928340912, 0.2206299602985382, 0.086991086602211, 0.20948824286460876, -0.155593141913414, -0.18598581850528717, -0.3505389988422394, 0.09807737171649933, 0.13928698003292084, 0.3337612748146057, -0.21877636015415192, 0.06315498054027557, 0.33915233612060547, -0.034819670021533966, 0.11076727509498596, 0.2795308828353882, -0.06209491565823555, -0.023611143231391907, 0.2885368764400482, -0.2664697766304016, -0.0437760166823864, 0.18528325855731964, -0.08697929978370667, -0.06047928333282471, -0.3063679337501526, 0.28859278559684753, -0.17012716829776764, 0.1354462057352066, -0.17927874624729156, 0.2605525255203247, -0.0969158336520195, 0.2598968744277954, -0.33003243803977966, 0.1385827511548996, -0.05854025110602379, -0.10545987635850906, 0.3124212622642517, 0.007905518636107445, -0.19890885055065155, 0.06369394809007645, -0.1130497008562088, 0.12124359607696533, -0.32570934295654297, 0.2345307469367981, 0.027762483805418015, 0.031101953238248825, -0.13094303011894226, 0.1937548965215683, -0.2124689370393753, 0.04771357402205467, -0.16133622825145721, 0.13449135422706604, -0.061445452272892, 0.291631817817688, -0.08086711168289185, 0.17613162100315094, -0.34967949986457825, 0.08241983503103256, -0.052229467779397964, -0.1981293261051178, 0.06108333542943001, -0.21765555441379547, -0.08977711200714111, 0.2810458838939667, -0.17900735139846802, -0.2544957399368286, 0.055871862918138504, -0.11781688779592514, -0.3258223533630371, 0.07058919221162796, -0.12786315381526947, 0.2923566699028015, -0.2458917647600174, 0.2520434856414795, -0.10939735174179077, 0.1351517140865326, 0.23876889050006866, -0.05137054994702339, -0.009973355568945408, -0.09163010865449905, -0.05408825725317001, 0.00036796065978705883, 0.14060397446155548, -0.06478973478078842, -0.09725293517112732, 0.16263550519943237, -0.1955823004245758, -0.10067534446716309, 0.06805359572172165, 0.003291255095973611, -0.027327151969075203, -0.22025863826274872, -0.0678669810295105, -0.0010958039201796055, -0.061498552560806274, 0.06733687967061996, 0.12905830144882202, -0.11118079721927643, -0.05468151345849037, -0.011227539740502834, 0.17106683552265167, 0.1519840955734253, 0.14448611438274384, -0.025463009253144264, 0.07424546033143997, -0.02669927105307579, -0.03042621724307537, -0.12473192811012268, 0.08172335475683212, 0.10752364248037338, -0.14350639283657074, -0.13772951066493988, -0.03841013088822365, -0.19008681178092957, -0.05357230454683304, 0.17734482884407043, 0.012188016436994076, -0.15951187908649445, 0.1772419959306717, -0.06594860553741455, -0.04892202466726303, -0.23462481796741486, 0.011407659389078617, 0.06689558923244476, -0.21660013496875763, -0.18492284417152405, -0.10756108164787292, 0.07661210745573044, -0.012310601770877838, 0.1424652487039566, -0.1897260993719101, 0.04967759922146797, 0.21169188618659973, -0.12967467308044434, 0.18685312569141388, 0.1263469159603119, -0.20863963663578033, 0.03604405000805855, -0.09884302318096161, 0.016540993005037308, 0.06046289578080177, -0.10220721364021301, -0.01615976355969906, -0.08747465163469315, 0.015051258727908134, 0.11369001120328903, 0.1088205873966217, 0.12443408370018005, -0.13440249860286713, -0.08101849257946014, -0.1856844574213028, 0.16924290359020233, 0.1527145504951477, 0.17021659016609192, -0.17488804459571838, 0.060742344707250595, -0.022184569388628006, -0.16436263918876648, -0.022167013958096504, 0.13554054498672485, -0.15538664162158966, 0.05512208864092827, 0.0894409567117691, 0.014171566814184189, -0.056378379464149475, -0.01501460000872612, -0.14914745092391968, 0.028531285002827644, -0.10144272446632385, 0.2607121169567108, -0.20948006212711334, 0.3020934462547302, 0.12780101597309113, 0.2051841765642166, -0.26969125866889954, -0.17687831819057465, -0.22867709398269653, 0.29981040954589844, 0.03073921799659729, -0.30131542682647705, 0.40076783299446106, 0.031212784349918365, -0.24752068519592285, 0.4275244176387787, 0.19433748722076416, 0.22464382648468018, -0.4062533378601074, -0.07564995437860489, -0.16416452825069427, 0.20736677944660187, 0.01677776500582695, 0.20387718081474304, -0.28220587968826294, -0.028279026970267296, -0.2156427949666977, 0.42739975452423096, 0.23377372324466705, 0.14654426276683807, -0.2159842699766159, -0.23664768040180206, -0.2912798523902893, 0.30467966198921204, 0.17746886610984802, -0.13519902527332306, 0.229446679353714, 0.13368560373783112, -0.15503285825252533, 0.14750444889068604, 0.24652160704135895, -0.3441872000694275, 0.2875064015388489, 0.12128517031669617, -0.31146273016929626, 0.28468623757362366, 0.24569834768772125, 0.2402656525373459, -0.39508017897605896, -0.17578868567943573, -0.21676325798034668, 0.11069818586111069, 0.07284419983625412, 0.023544736206531525, -0.10689070075750351, -0.022023331373929977, -0.048562098294496536, 0.13075533509254456, 0.14317964017391205, -0.17026536166667938, -0.014846649020910263, 0.14284667372703552, 0.004339023493230343, 0.06835126131772995, 0.03873942047357559, 0.051115483045578, -0.16837304830551147, -0.08027984946966171, -0.07162822782993317, -0.05923398584127426, 0.20480677485466003, 0.031178057193756104, -0.04245398938655853, -0.06220182776451111, -0.10375218093395233, -0.035464972257614136, 0.02746950462460518, 0.22544437646865845, -0.014403956942260265, 0.001734113902784884, -0.15303747355937958, 0.07328050583600998, 0.06592673808336258, -0.11405251175165176, -0.054608430713415146, 0.1581292301416397, -0.07817227393388748, 0.019545767456293106, 0.06736116111278534, -0.2067401111125946, 0.12534697353839874, -0.00024250747810583562, -0.05566450208425522, -0.023395506665110588, 0.023515071719884872, 0.13736502826213837, -0.11934418231248856, -0.13265489041805267, -0.006238364614546299, -0.11845029145479202, 0.18579936027526855, 0.13083748519420624, 0.08978518843650818, -0.1420186161994934, -0.18633131682872772, -0.06441987305879593, 0.15614847838878632, -0.12456910312175751, 0.015621135011315346, 0.21381708979606628, -0.13945454359054565, -0.024057049304246902, 0.18908172845840454, 0.07950204610824585, 0.03998687490820885, -0.11250124126672745, -0.10972317308187485, 0.013707933016121387, 0.17850644886493683, 0.20067201554775238, 0.1206061840057373, -0.10012529045343399, 0.005465187132358551, -0.08229950070381165, 0.049147263169288635, -0.057088904082775116, 0.16023926436901093, -0.04894294589757919, -0.15706847608089447, 0.026620062068104744, 0.2199832648038864, 0.07943230867385864, 0.10172972828149796, 0.24576078355312347, -0.10609307140111923, -0.08851596713066101, 0.2331477701663971, 0.006934712175279856, -0.11953458935022354, 0.25056859850883484, 0.0034786751493811607, 0.04360166937112808, 0.02271118201315403, 0.11410791426897049, -0.05920879915356636, -0.1106085404753685, -0.02959226258099079, -0.09739746153354645, 0.0007016985910013318, 0.09418252855539322, 0.10849248617887497, 0.0970906913280487, -0.1183779165148735, -0.12868796288967133, -0.13470865786075592, -0.16776986420154572, -0.2723270058631897, 0.08038269728422165, 0.0428963266313076, -0.014258559793233871, 0.09245661646127701, -0.10203584283590317, 0.05865969508886337, 0.0022659017704427242, -0.14037685096263885, -0.09362687915563583, -0.3016186058521271, -0.04143239185214043, 0.023026134818792343, -0.04840663820505142, 0.09291651099920273, -0.04420448839664459, 0.08641552925109863, 0.13158509135246277, 0.26890408992767334, -0.022099174559116364, 0.04806971177458763, -0.022881142795085907, 0.015807487070560455, 0.11453938484191895, -0.07290118932723999, 0.07197897136211395, -0.0800924152135849, -0.09164303541183472, -0.01682877354323864, -0.06423269212245941, -0.23712602257728577, -0.10841395705938339, -0.12933702766895294, -0.05440342426300049, 0.07005418092012405, 0.0388139933347702, 0.030344346538186073, 0.07229107618331909, 0.14261233806610107, -0.08897321671247482, -0.005497141275554895, 0.11730268597602844, 0.1726207286119461, -0.14437821507453918, 0.14108017086982727, -0.005824171472340822, -0.017635667696595192, 0.08568478375673294, -0.19472801685333252, 0.01630653254687786, 0.13749687373638153, -0.10636580735445023, -0.061052095144987106, -0.05439630523324013, 0.06664960086345673, -0.07891006022691727, 0.014039771631360054, 0.024400996044278145, -0.006270173937082291, -0.09168391674757004, 0.11863764375448227, 0.024411099031567574, 0.08913245797157288, -0.23197348415851593, 0.042268820106983185, -0.12067976593971252, 0.039298638701438904, -0.009051380679011345, -0.08259080350399017, -0.041885942220687866, 0.16915744543075562, 0.031913843005895615, -0.19592295587062836, 0.0010224764700978994, 0.03682531788945198, -0.22235554456710815, 0.10704804956912994, -0.12010523676872253, -0.24786823987960815, -0.09498859196901321, -0.012619399465620518, -0.007968456484377384, -0.09459993988275528, 0.076471708714962, 0.06305201351642609, -0.031845495104789734, -0.04862143099308014, -0.0909418910741806, 0.1853862702846527, 0.17054086923599243, 0.1341368705034256, 0.03327679634094238, -0.19110240042209625, 0.11765582114458084, 0.0378035344183445, -0.0324980653822422, -0.10994589328765869, -0.003411689307540655, -0.22834999859333038, -0.04547150433063507, 0.06781286746263504, -0.018175799399614334, 0.030779680237174034, 0.028184087947010994, 0.13519752025604248, 0.07766306400299072, -0.004904449451714754, 0.055757708847522736, 0.057289645075798035, 0.09885222464799881, 0.0005134143284521997, 0.019971879199147224, 0.11635596305131912, -0.04796512797474861, -0.13762934505939484, 0.014597400091588497, -0.1627337634563446, 0.0782264918088913, -0.06139364093542099, -0.1532624363899231, -0.09994401782751083, 0.12160681933164597, -0.11382631212472916, 0.10996448248624802, 0.12316765636205673, -0.018030839040875435, 0.011430476792156696, -0.0026689593214541674, -0.12293490767478943, 0.019818557426333427, 0.09894261509180069, -0.0008622747263871133, 0.08237963914871216, -0.08915653079748154, -0.3384470045566559, -0.1707274466753006, 0.2499009519815445, 0.3600372076034546, -0.03853566199541092, -0.006707367952913046, -0.14397388696670532, -0.008517422713339329, 0.2193596065044403, -0.29684802889823914, -0.042993053793907166, 0.16711172461509705, -0.2713671624660492, -0.03898555040359497, 0.0677245482802391, 0.30400389432907104, 0.045898888260126114, -0.1634366661310196, 0.022452188655734062, -0.009165436960756779, 0.034193556755781174, 0.22832456231117249, 0.16676431894302368, -0.12394684553146362, -0.1842157542705536, -0.11884453147649765, 0.18001753091812134, 0.10628677159547806, -0.011302012018859386, -0.19541826844215393, -0.071561299264431, -0.11144410818815231, 0.1137750893831253, -0.2917386293411255, 0.05514691397547722, 0.25167426466941833, -0.3275849223136902, -0.20009538531303406, 0.002160460688173771, -0.22327551245689392, -0.12058212608098984, 0.019143834710121155, -0.2657395005226135, -0.05703945830464363, 0.03026575967669487, 0.2954818606376648, 0.031720954924821854, -0.20969930291175842, 0.31342750787734985, -0.07218393683433533, -0.026443039998412132, -0.27150407433509827, 0.14666423201560974, 0.0974942222237587, 0.13742388784885406, -0.32894158363342285, 0.17229457199573517, 0.18402276933193207, -0.17274431884288788, 0.019218498840928078, 0.24347911775112152, -0.2371431291103363, 0.13272404670715332, -0.2547082006931305, 0.06904441118240356, -0.1024659276008606, 0.08042097836732864, -0.15493826568126678, -0.025556590408086777, -0.13479061424732208, 0.165693461894989, -0.051416248083114624, 0.37237390875816345, -0.17743463814258575, 0.12989939749240875, -0.18657855689525604, 0.15662826597690582, -0.12201773375272751, 0.2451193481683731, -0.0675547644495964, -0.0175930168479681, 0.1483604609966278, -0.13171012699604034, 0.18085125088691711, 0.23377273976802826, -0.3120652735233307, -0.09529151022434235, 0.3047117292881012, -0.21233412623405457, -0.0422973670065403, 0.2975858151912689, -0.13414588570594788, 0.15107499063014984, -0.2173035442829132, 0.22635626792907715, -0.1882351040840149, -0.07489895075559616, -0.07667466998100281, 0.17296279966831207, 0.035493362694978714, 0.08842089027166367, 0.06935032457113266, 0.16706134378910065, -0.09086314588785172, -0.07187321037054062, -0.026301801204681396, -0.31254297494888306, 0.1905406415462494, -0.03283829241991043, -0.26675209403038025, 0.1420004516839981, -0.09203022718429565, 0.1423679143190384, -0.07623133063316345, -0.0501982718706131, -0.26849237084388733, 0.2828117907047272, -0.08864547312259674, 0.26526176929473877, 0.06923722475767136, 0.10236992686986923, -0.20299094915390015, 0.21544265747070312, -0.01410075556486845, 0.13265977799892426, 0.057350076735019684, 0.0694475993514061, -0.3367464244365692, 0.016732223331928253, -0.062025286257267, -0.07179958373308182, 0.057268720120191574, -0.10285437852144241, -0.22212862968444824, 0.14334052801132202, 0.062457263469696045, -0.16747082769870758, 0.07256120443344116, 0.08680734783411026, -0.23582440614700317, 5.527931352844462e-05, -0.15191832184791565, 0.0772380605340004, -0.10457203537225723, -0.18565358221530914, 0.2082093209028244, -0.08532416820526123, 0.0848475843667984, -0.2953472435474396, 0.24230025708675385, -0.15784630179405212, 0.3213250935077667, -0.21303854882717133, -0.10630650818347931, 0.2832443118095398, -0.1607203334569931, 0.04030672833323479, 0.10269170254468918, -0.23162028193473816, 0.008251029998064041, -0.1775679588317871, 0.2357286959886551, -0.08103650063276291, 0.2646983861923218, 0.004880180116742849, 0.04038463905453682, -0.10143741965293884, -0.006246156059205532, -0.06295379996299744, 0.34489402174949646, -0.13560698926448822, 0.18823984265327454, -0.23632948100566864, 0.2335994988679886, -0.21926958858966827, 0.16420334577560425, -0.13472244143486023, -0.03857037425041199, 0.2425377368927002, -0.014193147420883179, -0.09270769357681274, 0.19961629807949066, -0.005028300452977419, -0.11025422811508179, 0.3285485506057739, -0.19801253080368042, -0.09741624444723129, 0.1820913553237915, -0.04621081426739693, 0.19314150512218475, -0.21024949848651886, 0.04904532432556152, -0.29572275280952454, -0.2513728439807892, -0.062295179814100266, 0.23072440922260284, 0.3325270116329193, 0.21648740768432617, -0.2978895902633667, -0.3717297911643982, 0.022133151069283485, -0.41747918725013733, -0.20869579911231995, -0.0613897405564785, -0.38423460721969604, -0.18601255118846893, -0.20589123666286469, 0.34052714705467224, 0.15017378330230713, 0.07014010846614838, -0.050178542733192444, 0.10169050097465515, -0.12294574081897736, 0.402403324842453, 0.22652040421962738, 0.01840556040406227, -0.4536806643009186, -0.3856913447380066, 0.03867243602871895, 0.2858341932296753, 0.25903061032295227, 0.13053849339485168, -0.22265483438968658, -0.13421590626239777, 0.016968879848718643, -0.42540979385375977, -0.2682763338088989, -0.16846254467964172, -0.3941362798213959, -0.20834484696388245, 0.04802925884723663, -0.42732006311416626, -0.15727846324443817, -0.15870749950408936, -0.3386811912059784, -0.1245817020535469, -0.1104947179555893, 0.3506852686405182, 0.11935852468013763, 0.17566870152950287, 0.03165585547685623, -0.3842293620109558, 0.18129903078079224, -0.11054843664169312, 0.17993612587451935, -0.08943726867437363, 0.13332466781139374, -0.3381510078907013, 0.15060476958751678, 0.13516920804977417, -0.20330163836479187, 0.017372550442814827, -0.006577744614332914, -0.3301200866699219, -0.009414905682206154, -0.01919405534863472, 0.3970349133014679, 0.023602990433573723, 0.001428809599019587, -0.19002220034599304, 0.11317159235477448, 0.09405241906642914, 0.2385963648557663, -0.18376781046390533, 0.04628685489296913, -0.22847980260849, -0.017784731462597847, 0.10914172232151031, 0.332213431596756, -0.20268549025058746, -0.00969188567250967, -0.16059070825576782, -0.024087296798825264, -0.017623184248805046, -0.22533205151557922, -0.004487554542720318, 0.08895222097635269, -0.22134539484977722, 0.17611105740070343, -0.07819274812936783, -0.15402548015117645, 0.0077701136469841, 0.16139012575149536, -0.41584086418151855, -0.03281785547733307, 0.06558007746934891, 0.2657015919685364, -0.18397127091884613, -0.06829562038183212, -0.06682342290878296, -0.0046552387066185474, -0.08604306727647781, 0.027392059564590454, 0.051642145961523056, -0.02269306592643261, -0.021174699068069458, 0.10448866337537766, 0.11798986047506332, -0.01650376431643963, -0.006588615011423826, -0.021479103714227676, -0.05565214529633522, -0.1754288375377655, -0.06213399022817612, 0.5821778774261475, -0.30509135127067566, 0.6937049031257629, -0.6210852265357971, -0.14521880447864532, 0.7843766808509827, 0.8633763194084167, -0.5255657434463501, 0.1419343799352646, 0.08236367255449295, -0.5599642395973206, -0.36900439858436584, 0.22129450738430023, -0.5844395756721497, 0.24183660745620728, 0.3426208198070526, -0.2540527582168579, -0.19993707537651062, -0.1028289645910263, 0.0770675390958786, 0.14742735028266907, -0.258497029542923, 0.0633910670876503, 0.09292870759963989, -0.005192043725401163, -0.15314719080924988, 0.1054784432053566, 0.21314722299575806, 0.09569618105888367, -0.12812663614749908, 0.10740502923727036, 0.04165371507406235, 0.6558345556259155, -0.17200076580047607, -0.27059078216552734, 0.1616029143333435, -0.4452196955680847, -0.09340769052505493, -0.27599766850471497, -0.29001110792160034, -0.00410217372700572, 0.04321462661027908, -0.6997331976890564, 0.09627103805541992, -0.16174769401550293, -0.0966905951499939, 0.2719699740409851, -0.048764608800411224, 0.0762687399983406, 0.010873011313378811, -0.0704621821641922, 0.2959273159503937, 0.04874766245484352, -0.18874073028564453, 0.037067629396915436, -0.30492255091667175, -0.17804893851280212, -0.2821522355079651, 0.08641138672828674, -0.11993420869112015, 0.09760262072086334, 0.4840798079967499, 0.4046238362789154, 0.009671228937804699, 0.050754744559526443, -0.16375014185905457, 0.0031443166080862284, -0.19449321925640106, -0.1883932501077652, -0.03624311462044716, -0.021143056452274323, 0.0703078955411911, -0.10435113310813904, -0.08339930325746536, 0.040402259677648544, 0.17314794659614563, 0.1528482735157013, 0.07083635777235031, -0.12578707933425903, 0.02067643590271473, -0.3230384588241577, -0.26021304726600647, -0.1541568785905838, 0.24362288415431976, -0.27211666107177734, 0.014614786021411419, 0.0677107498049736, -0.2599036395549774, 0.1008354052901268, 0.08247678726911545, -0.1468878984451294, 0.4458654820919037, 0.040770284831523895, -0.06098117306828499, -0.282513290643692, 0.10559681057929993, -0.14904040098190308, 0.0009124703356064856, 0.0486224964261055, 0.09354667365550995, 0.25334179401397705, 0.1848146766424179, 0.16053862869739532, 0.07024487853050232, 0.1450244039297104, -0.06492552906274796, -0.20533892512321472, -0.11940757185220718, 0.001032319269143045, -0.12543579936027527, -0.13817115128040314, 0.0010698564583435655, 0.1210644394159317, 0.05921480432152748, 0.22206084430217743, 0.15559671819210052, -0.25957462191581726, -0.19906488060951233, 0.0929059237241745, 0.002764928387477994, 0.0833432674407959, -0.24395546317100525, -0.3279971182346344, 0.19894103705883026, 0.11884599179029465, -0.20010721683502197, 0.06630630791187286, -0.21497513353824615, 0.24006015062332153, 0.25768429040908813, 0.29930445551872253, -0.24403181672096252, -0.23791459202766418, 0.25019168853759766, 0.3227423131465912, 0.12862899899482727, 0.12363141030073166, -0.04856191948056221, 0.2229796051979065, -0.3441222906112671, 0.1172666922211647, -0.15718069672584534, -0.2392396777868271, 0.052263278514146805, -0.2287854552268982, -0.4068809449672699, -0.20366986095905304, -0.2997281849384308, 0.19118240475654602, -0.21822915971279144, -0.11210678517818451, 0.06441330164670944, -0.13928647339344025, -0.2262423187494278, 0.2707681357860565, 0.43681609630584717, 0.09991506487131119, -0.2746039628982544, 0.1685989648103714, 0.19257159531116486, -0.2927946448326111, -0.10259703546762466, 0.38602346181869507, -0.406751811504364, -0.5717499852180481, 0.11230756342411041, 0.3333723545074463, 0.004153729882091284, 0.3090220093727112, 0.38918131589889526, 0.2738955318927765, 0.1220211535692215, 0.43567830324172974, -0.2951485514640808, -0.15512941777706146, 0.23245370388031006, 0.2561475336551666, 0.2765049338340759, -0.15594203770160675, 0.10075446963310242, -0.03208397701382637, -0.12258215248584747, 0.09556666016578674, -0.00872709695249796, 0.03648689016699791, -0.13471655547618866, -0.13393227756023407, -0.17363180220127106, -0.12534721195697784, 0.20712140202522278, 0.23941703140735626, 0.22209672629833221, 0.20194794237613678, 0.07313819229602814, -0.1310557872056961, 0.3105885982513428, -0.12485592812299728, -0.2800699472427368, -0.28864920139312744, -0.27675995230674744, -0.26281100511550903, -0.5353348255157471, -0.2852756083011627, -0.05051052197813988, -0.25768300890922546, 0.4780034124851227, -0.2985902726650238, -0.41943109035491943, -0.16139794886112213, -0.2913385331630707, 0.06993711739778519, 0.0010101377265527844, -0.16189217567443848, -0.2894938290119171, -0.03345422074198723, 0.19429241120815277, 0.3301583230495453, -0.13797716796398163, -0.1657438725233078, 0.4256715774536133, 0.25281983613967896, -0.39931201934814453, -0.01600133627653122, 0.2627904415130615, -0.31705960631370544, -0.3446098268032074, -0.03522910922765732, 0.08471566438674927, -0.2292260229587555, 0.062006741762161255, 0.28791365027427673, 0.20060043036937714, -0.0018581844633445144, -0.12019076198339462, 0.16621039807796478, 0.2879803478717804, 0.007687730714678764, -0.21162095665931702, -0.16089628636837006, 0.363310307264328, 0.15176357328891754, 0.27829819917678833, 0.09278402477502823, -0.19579339027404785, 0.39184632897377014, 0.24585959315299988, 0.3461363911628723, 0.23739226162433624, -0.22410008311271667, 0.35469281673431396, 0.12007199972867966, -0.3262638449668884, 0.27894967794418335, 0.298922598361969, -0.11021685600280762, 0.05162694305181503, 0.05381251499056816, 0.0017855038167908788, 0.3962942957878113, -0.24868591129779816, -0.4454365372657776, 0.3568769693374634, 0.31046417355537415, 0.4056461751461029, 0.11971409618854523, 0.0620090551674366, 0.13892345130443573, -0.22063562273979187, 0.27518153190612793, -0.17700432240962982, 0.19638456404209137, 0.23710064589977264, 0.08933842182159424, -0.018846524879336357, 0.10962799936532974, -0.1956377476453781, -0.15853549540042877, -0.04758177697658539, 0.0732455626130104, -0.026906223967671394, 0.07299654185771942, -0.13683141767978668, 0.13782091438770294, -0.19258569180965424, -0.02759639360010624, 0.014609030447900295, 0.05631326138973236, 0.0013025319203734398, 0.0886743813753128, 0.04089956730604172, -0.1208590567111969, -0.042107611894607544, -0.5338755249977112, -0.05431940406560898, 0.028665844351053238, 0.14400172233581543, 0.06122128665447235, -0.2937855124473572, -0.019396187737584114, 0.03418203070759773, -0.3221435844898224, -0.1849275380373001, 0.3051977753639221, 0.3335632383823395, 0.1892828792333603, 0.2146223485469818, -0.11911042034626007, -0.43177229166030884, 0.12910126149654388, 0.07776743173599243, -0.18205274641513824, -0.39192208647727966, 0.018387973308563232, 0.3373531401157379, -0.08604775369167328, -0.21579942107200623, -0.10241115838289261, -0.39114880561828613, 0.22419926524162292, 0.0917426198720932, -0.09864261746406555, -0.2261977344751358, -0.10228009521961212, 0.2775436043739319, -0.4056975543498993, -0.05742685869336128, 0.5502220392227173, -0.1729620099067688, -0.08942751586437225, 0.4774700701236725, 0.14492323994636536, 0.522528886795044, -0.22640641033649445, 0.21781226992607117, -0.1334409862756729, -0.37409836053848267, -0.0027621733024716377, 0.0703485906124115, 0.1452910304069519, -0.16476032137870789, -0.22411009669303894, 0.1118410974740982, -0.09993550926446915, -0.0853993371129036, 0.2890174090862274, -0.227322518825531, 0.04505729302763939, 0.051223091781139374, 0.035205941647291183, -0.11138466000556946, 0.14809748530387878, -0.006345069035887718, -0.03993313014507294, -0.08279161155223846, -0.010077563114464283, -0.11253659427165985, -0.25737863779067993, 0.27252092957496643, 0.049226436764001846, -0.1318686157464981, -0.282717764377594, 0.1309681236743927, -0.24893195927143097, 0.1924120932817459, 0.12365318089723587, -0.26933810114860535, -0.029532859101891518, -0.21698643267154694, -0.09862731397151947, -0.24835827946662903, -0.2086191326379776, 0.31463658809661865, -0.2366430163383484, -0.1783030927181244, 0.038186170160770416, -0.055687639862298965, -0.06640340387821198, 0.10637720674276352, 0.09566210210323334, 0.08228475600481033, -0.19780686497688293, 0.10794631391763687, 0.19537824392318726, -0.28245651721954346, -0.22069714963436127, -0.259010910987854, -0.14287549257278442, 0.0576423816382885, 0.07178562879562378, 0.5144677758216858, -0.025192540138959885, 0.14529183506965637, -0.22879841923713684, 0.2614748179912567, 0.12095613777637482, 0.00623273104429245, 0.23190754652023315, 0.11727483570575714, 0.09234250336885452, 0.05648350715637207, -0.045217059552669525, -0.3147627115249634, -0.3516083061695099, -0.49859392642974854, 0.3809317648410797, -0.17132703959941864, -0.1729782670736313, 0.3800532817840576, -0.2691125273704529, -0.4816390872001648, 0.050715696066617966, -0.08026855438947678, 0.004833860322833061, 0.24262014031410217, -0.218526229262352, -0.22728188335895538, 0.02002684772014618, 0.2333943098783493, 0.16827912628650665, -0.3008718490600586, -0.008008096367120743, -0.3219786286354065, 0.09957276284694672, -0.24548523128032684, -0.0678638443350792, -0.06016764044761658, 0.00886716227978468, -0.038784608244895935, -0.5121347904205322, -0.25906285643577576, 0.005206392612308264, 0.4746105372905731, 0.05493731051683426, -0.0850573405623436, 0.10932182520627975, -0.3205606937408447, 0.11382736265659332, 0.06758273392915726, 0.08693375438451767, 0.03372269123792648, -0.25839537382125854, 0.11507894098758698, 0.04740120843052864, -0.19377215206623077, -0.04951260983943939, -0.16442199051380157, -0.09607881307601929, -0.12109625339508057, 0.18287748098373413, 0.034320149570703506, 0.03182293474674225, -0.16097460687160492, 0.20621080696582794, -0.2555738687515259, 0.0031698134262114763, 0.1252758502960205, 0.3723262548446655, -0.4022185504436493, 0.12120373547077179, 0.07840313762426376, -0.23805725574493408, 0.10294322669506073, 0.1493266373872757, 0.05240420624613762, 0.03268515318632126, 0.1992672234773636, 0.14176078140735626, 0.0420365072786808, 0.3764737844467163, -0.129364013671875, 0.13608703017234802, 0.31413012742996216, -0.3123157024383545, -0.03211025521159172, -0.013076933100819588, 0.02213304489850998, 0.1621871441602707, -0.05830660089850426, 0.030025320127606392, 0.16045495867729187, -0.01182529330253601, -0.07599451392889023, -0.03464435413479805, -0.02740314044058323, 0.1707431823015213, 0.08314540982246399, -0.1429680585861206, 0.10047697275876999, 0.007961872033774853, -0.2036818265914917, 0.11311198770999908, 0.15143731236457825, -0.1290937215089798, 0.024780990555882454, -0.07514538615942001, -0.008050662465393543, -0.12302376329898834, -0.16640037298202515, -0.08831749111413956, -0.09193114936351776, 0.024418123066425323, 0.08793565630912781, 0.11577431857585907, 0.028619462624192238, 0.07395833730697632, -0.06806786358356476, 0.02591351978480816, -0.00013806823699269444, -0.0786910429596901, -0.012890748679637909, 0.23541010916233063, 0.11051428318023682, 0.15984047949314117, -0.20337256789207458, 0.07684455066919327, 0.13516996800899506, -0.34274259209632874, -0.16065713763237, 0.20621132850646973, -0.2072732150554657, -0.041373543441295624, -0.043406035751104355, 0.13898146152496338, -0.1989302784204483, -0.1455114334821701, 0.17636126279830933, 0.01618127152323723, -0.09752244502305984, 0.09798050671815872, -0.32387030124664307, -0.10866411030292511, -0.5262964367866516, 0.04906642064452171, -0.025008298456668854, -0.34614837169647217, -0.19768506288528442, -0.3007056415081024, -0.025343967601656914, 0.12110932916402817, 0.02846013754606247, -0.13764691352844238, 0.171584352850914, 0.1350998878479004, 0.4532371759414673, 0.3563193082809448, 0.3897784352302551, -0.0018070433288812637, -0.2330264449119568, 0.010283083654940128, 0.1315692961215973, -0.22614537179470062, 0.1331779956817627, 0.3663138449192047, 0.031774722039699554, -0.09447953850030899, 0.1264909952878952, -0.24020421504974365, -0.03287738561630249, -0.08748527616262436, -0.07891888171434402, -0.0611104890704155, 0.12273634225130081, 0.07824067026376724, 0.11613694578409195, 0.1554323434829712, 0.18275734782218933, 0.3303563594818115, 0.186265230178833, -0.041744571179151535, 0.33346691727638245, 0.16710154712200165, 0.1497069001197815, -0.16607879102230072, -0.07270064949989319, -0.30293822288513184, -0.09731025248765945, -0.08336636424064636, 0.026837393641471863, -0.11359672993421555, 0.04076407477259636, 0.15520131587982178, 0.1746121048927307, -0.0380307175219059, -0.05325643718242645, 0.15355654060840607, 0.019578967243433, -0.06462083011865616, -0.06963658332824707, -0.10077924281358719, 0.13431961834430695, -0.0331091433763504, 0.18309615552425385, -0.1171787679195404, 0.022817309945821762, 0.10697051882743835, 0.022514276206493378, 0.2546289265155792, 0.12433534860610962, 0.1819516271352768, 0.01586294360458851, -0.20894965529441833, -0.3019939959049225, -0.36664414405822754, 0.10646036267280579, 0.028116434812545776, -0.045632947236299515, -0.11431149393320084, -0.033464960753917694, 0.052532684057950974, -0.12996044754981995, 0.10105179995298386, 0.056636858731508255, -0.05051831528544426, -0.1511884480714798, 0.0690925270318985, -0.03167155757546425, -5.422676258604042e-05, -0.20596493780612946, -0.10783957690000534, -0.110906682908535, -0.29787570238113403, -0.012437328696250916, -0.04538537189364433, -0.07348543405532837, -0.08780582249164581, 0.00048637771396897733, 0.18383952975273132, 0.07249464094638824, -0.10018866509199142, 0.027879498898983, -0.15312592685222626, -0.06668481230735779, 0.10928322374820709, -0.1850634664297104, -0.11629349738359451, -0.1529446542263031, -0.03373904898762703, -0.10322169214487076, -0.169924795627594, -0.03540732339024544, -0.04465863108634949, 0.021241560578346252, 0.042963966727256775, 0.022879373282194138, 0.1578184813261032, 0.1735801249742508, -0.002026449190452695, -0.0024618306197226048, 0.018331045284867287, -0.09223562479019165, 0.18493185937404633, 0.19163809716701508, 0.1368829756975174, -0.0770544484257698, 0.1522362232208252, -0.13954490423202515, 0.1021786779165268, -0.21711236238479614, -0.0899696871638298, 0.07904629409313202, -0.004718210082501173, 0.09966155886650085, 0.005962217692285776, -0.06592312455177307, 0.07172026485204697, -0.011777356266975403, 0.07059459388256073, 0.04018566012382507, -0.09304200857877731, 0.10443481802940369, 0.043048277497291565, 0.008107568137347698, 0.043346431106328964, 0.18235090374946594, -0.09696239978075027, -0.15902402997016907, -0.19314910471439362, -0.17568504810333252, 0.12976743280887604, 0.20586606860160828, 0.2660263776779175, 0.25956523418426514, 0.05824636295437813, -0.01764495298266411, 0.26770904660224915, 0.11795029044151306, 0.11765477806329727, -0.1844559907913208, 0.013801604509353638, -0.09777580201625824, 0.12411222606897354, -0.15129198133945465, -0.15099026262760162, -0.2853643000125885, -0.111909881234169, 0.08993591368198395, 0.034790653735399246, -0.009921477176249027, 0.1306331902742386, -0.06606018543243408, 0.05970708653330803, -0.1375289261341095, -0.048736318945884705, -0.006543534342199564, -0.0830489844083786, 0.1742182821035385, -0.045616310089826584, 0.030270254239439964, 0.07488302886486053, 0.08416835218667984, 0.03562415391206741, -0.0359906442463398, -0.05277319252490997, -0.20345447957515717, -0.12185655534267426, -0.11932159960269928, 0.1868925839662552, -0.18657119572162628, -0.06218545138835907, -0.09341085702180862, 0.07884978502988815, 0.17766915261745453, -0.03156782314181328, 0.027883106842637062, 0.03166786581277847, 0.20445549488067627, -0.10701211541891098, 0.02794124372303486, -0.12151562422513962, 0.026665210723876953, 0.06869667768478394, -0.09163755178451538, 0.1538316309452057, -0.15155473351478577, -0.0295269638299942, -0.06000802293419838, 0.2269231677055359, 0.10279563814401627, 0.21091051399707794, -0.16519692540168762, 0.1469201147556305, -0.1943710446357727, 0.008522357791662216, 0.21953123807907104, 0.005907414481043816, 0.21274393796920776, -0.22418756783008575, -0.1345818191766739, -0.06951836496591568, 0.14940178394317627, 0.009570778347551823, 0.03126709535717964, 0.0910169929265976, 0.06715314090251923, -0.11962747573852539, -0.06717759370803833, -0.04684116691350937, -0.22643545269966125, -0.15587912499904633, -0.07611364126205444, -0.18629181385040283, -0.11515295505523682, -0.2101704329252243, 0.03487122803926468, 0.01430038083344698, -0.07662387192249298, 0.012537168338894844, -0.02101629413664341, 0.17148959636688232, 0.17540957033634186, -0.06514780223369598, 0.00946439616382122, -0.06390351057052612, -0.15137259662151337, 0.06377183645963669, 0.1621263325214386, 0.3086271584033966, -0.22454926371574402, -0.008296934887766838, 0.016902416944503784, -0.1542913168668747, -0.07558856159448624, -0.1305007040500641, 0.014140181243419647, -0.18109281361103058, -0.1008015051484108, 0.07332155108451843, 0.19759026169776917, 0.19895648956298828, 0.004875782411545515, -0.052686914801597595, -0.12397096306085587, 0.14192074537277222, 0.338515043258667, 0.3294028639793396, -0.058980949223041534, -0.15544970333576202, -0.20621460676193237, 0.2957412898540497, 0.29499146342277527, 0.26947271823883057, -0.044097576290369034, -0.01588219590485096, 0.07753325253725052, 0.03912315145134926, 0.19261020421981812, 0.12483663111925125, 0.08300168067216873, 0.06782735139131546, 0.10555195808410645, 0.06917213648557663, 0.28822875022888184, -0.08154590427875519, 0.14143437147140503, -0.15220975875854492, -0.17285709083080292, 0.04343909025192261, -0.0044192662462592125, -0.2163238823413849, -0.17285281419754028, -0.18662461638450623, 0.03446245938539505, -0.3571558892726898, -0.04414992034435272, 0.09680226445198059, 0.042932573705911636, 0.0801512748003006, -0.023466793820261955, 0.08765935897827148, 0.1299959421157837, -0.09255082905292511, -0.11179717630147934, 0.3061876893043518, 0.07235239446163177, 0.010959183797240257, -0.01813366822898388, 0.21826566755771637, 0.2038584202528, 0.19162216782569885, 0.07913056761026382, 0.061600472778081894, -0.0677567645907402, -0.24196110665798187, -0.0452568493783474, 0.1703534722328186, 0.013040455989539623, -0.40986841917037964, -0.24047762155532837, 0.030337205156683922, -0.08092757314443588, 0.07093643397092819, 0.026862166821956635, -0.05420193821191788, 0.008373779244720936, -0.102101169526577, 0.1349509060382843, 0.16946952044963837, -0.278200626373291, 0.1368032842874527, -0.08162108063697815, -0.15812596678733826, -0.13805095851421356, 0.0030466585885733366, 0.07699800282716751, -0.11519564688205719, 0.05673940107226372, -0.0051941946148872375, 0.17665284872055054, 0.04071737080812454, -0.07334701716899872, 0.16458070278167725, 0.12150050699710846, -0.05035548284649849, 0.11135383695363998, 0.015086275525391102, -0.11292523145675659, 0.2170955389738083, -0.12358582764863968, -0.2233312577009201, -0.1821800023317337, 0.11254892498254776, 0.13172289729118347, 0.16210761666297913, -0.11569228768348694, 0.030181150883436203, -0.2083205133676529, -0.12169697880744934, 0.14184917509555817, -0.0611727200448513, 0.15511256456375122, 0.03818661719560623, -0.14772552251815796, -0.014157535508275032, -0.0545177198946476, 0.00922349188476801, -0.035535868257284164, 0.005126130301505327, 0.2515825927257538, -0.17747299373149872, -0.09428656846284866, 0.23841780424118042, -0.052790191024541855, 0.05670195445418358, 0.12547974288463593, -0.06325483322143555, -0.07153249531984329, -0.07705208659172058, 0.024202901870012283, -0.00943925604224205, -0.031183870509266853, 0.08218414336442947, 0.0739990845322609, 0.04804711043834686, -0.20063510537147522, 0.08227764815092087, -0.30726081132888794, 0.3983093202114105, 0.04302366450428963, 0.16302677989006042, -0.08728931099176407, -0.09516330808401108, -0.06253993511199951, -0.10777947306632996, -0.17466123402118683, -0.031964149326086044, 0.027255035936832428, 0.010772974230349064, -0.12991775572299957, 0.05459485203027725, 0.09331478178501129, -0.20432165265083313, 0.00019902795611415058, 0.24791939556598663, -0.024124804884195328, 0.03495713323354721, 0.20339077711105347, 0.24260413646697998, -0.3867464065551758, 0.1092158630490303, -0.0009407731704413891, -0.23568780720233917, 0.24431578814983368, -0.002022918313741684, 0.14291344583034515, -0.03253753110766411, 0.10636826604604721, 0.15659497678279877, -0.3028145730495453, -0.0969814732670784, -0.25567391514778137, -0.1842055320739746, 0.18403218686580658, -0.07488393038511276, -0.22532284259796143, 0.10527636110782623, -0.22266662120819092, 0.10379090905189514, -0.19795440137386322, -0.17519350349903107, 0.23703669011592865, 0.1256602555513382, -0.1495053917169571, -0.18368946015834808, -0.4177132248878479, 0.06131570041179657, -0.07654112577438354, -0.1514250934123993, -0.05979295074939728, -0.3389332890510559, -0.10902096331119537, -0.1467675417661667, -0.12716107070446014, -0.020740637555718422, 0.13839483261108398, 0.01597917079925537, 0.2124166637659073, 0.03787174075841904, 0.1886918842792511, -0.08871891349554062, -0.15502238273620605, 0.03444939851760864, -0.025472721084952354, 0.07301247119903564, 0.12656329572200775, 0.30374675989151, -0.3594236969947815, -0.18290698528289795, -0.07010039687156677, -0.1743270456790924, 0.1631881296634674, -0.18002718687057495, -0.09626436978578568, -0.21666139364242554, 0.13135458528995514, 0.14540643990039825, -0.20016610622406006, 0.257881224155426, -0.21246717870235443, 0.00047732217353768647, 0.12717461585998535, 0.0028938858304172754, -0.048247937113046646, -0.033659208565950394, -0.07559114694595337, -0.0313824787735939, -0.029492102563381195, -0.1482723355293274, 0.031689535826444626, -0.043291132897138596, 0.16297434270381927, -0.2015495002269745, -0.04351786896586418, -0.05006282404065132, 0.04488587751984596, 0.23224465548992157, 0.16406729817390442, 0.0030856116209179163, 0.050791941583156586, 0.05344617739319801, -0.11820092797279358, -0.1551390439271927, -0.04254327341914177, 0.05591924861073494, 0.1510288268327713, 0.04616854712367058, -0.04576491564512253, -0.06228582561016083, -0.05915413796901703, -0.12420021742582321, -0.034055501222610474, -0.19773367047309875, -0.05302374064922333, -0.012987952679395676, 0.04145345091819763, -0.12240952253341675, -0.2353552132844925, 0.009005837142467499, 0.1872442215681076, 0.11601272970438004, -0.04584655165672302, -0.29721108078956604, 0.02242652140557766, 0.0010808933293446898, -0.05684288218617439, -0.33350831270217896, -0.11502058058977127, 0.052002936601638794, -0.04626981541514397, 0.14637185633182526, -0.08494357764720917, 0.13750804960727692, 0.07684070616960526, 0.06333225220441818, -0.09676704555749893, 0.04731866717338562, 0.1424451768398285, 0.2603629231452942, 0.1051545962691307, -0.1747867912054062, 0.14390118420124054, -0.16861727833747864, 0.23080478608608246, 0.14919671416282654, 0.24844899773597717, -0.16625291109085083, -0.08393888175487518, 0.12732450664043427, 0.05948638170957565, 0.1115153357386589, 0.1252831220626831, 0.20915953814983368, -0.03878841549158096, -0.6047394871711731, 0.22718317806720734, 0.5882090926170349, -0.52689129114151, 0.0554904080927372, -0.8333062529563904, -0.1217326894402504, -0.2320696860551834, 0.7174104452133179, -0.8107278347015381, -0.756512463092804, -0.8320275545120239, 0.23231060802936554, -0.5766196250915527, 0.4744153916835785, -0.6732298731803894, -0.16663166880607605, -0.2817578911781311, 0.18475636839866638, 0.25311505794525146, 0.05825260281562805, 0.08608808368444443, -0.13367876410484314, -0.04972229525446892, -0.10966520756483078, 0.0926978588104248, 0.08562640100717545, 0.12277758866548538, 0.11890953779220581, 0.3565099835395813, 0.12865017354488373, 0.10757732391357422, -0.030589794740080833, -0.10816292464733124, 0.08258447796106339, -0.12056565284729004, -0.4152738153934479, 0.00896227266639471, -0.29021891951560974, -0.19637979567050934, 0.20175467431545258, -0.11428411304950714, -0.019216349348425865, 0.3723782002925873, 0.2451227605342865, 0.10555396229028702, 0.09885268658399582, 0.33285394310951233, -0.07999517768621445, -0.2997722327709198, 0.10575088858604431, 0.30775001645088196, 0.07168522477149963, 0.14308764040470123, -0.06714419275522232, 0.17544521391391754, -0.13738052546977997, 0.04802067577838898, -0.18172721564769745, -0.22014686465263367, -0.003477824619039893, 0.2867865264415741, 0.0640091672539711, 0.04604704678058624, 0.2782156467437744, 0.22968259453773499, -0.3695591390132904, -0.13093242049217224, 0.021330581977963448, 0.13294315338134766, -0.11022225022315979, 0.008537244983017445, -0.17773030698299408, -0.011270363815128803, -0.10285115242004395, 0.32617178559303284, -0.04674625024199486, -0.19581426680088043, -0.09696225076913834, -0.0883951410651207, 0.33493101596832275, 0.1302260458469391, -0.3349647521972656, -0.11727897077798843, 0.43080946803092957, 0.031064718961715698, 0.05616319179534912, 0.4168786406517029, -0.08251810073852539, -0.2474573254585266, -0.017878888174891472, 0.6021904945373535, -0.5114361047744751, 0.09988116472959518, -0.17734311521053314, -0.48384687304496765, -0.2373424619436264, -0.027751948684453964, -0.15109950304031372, -0.1956070065498352, 0.07726340740919113, -0.19084148108959198, 0.1321447491645813, 0.04219750687479973, -0.0009510868112556636, 0.016645828261971474, 0.13809306919574738, -0.08459628373384476, -0.2289493829011917, -0.17644110321998596, -0.01441964227706194, 0.10756462812423706, 0.22753743827342987, -0.16211095452308655, 0.10563890635967255, -0.0671401172876358, 0.23157720267772675, 0.32419195771217346, -0.2649793326854706, -0.29943570494651794, 0.386715829372406, -0.0019088826375082135, -0.14662377536296844, 0.20219652354717255, -0.0784187912940979, -0.00025416992139071226, 0.05840439349412918, -0.0759522020816803, 0.13795466721057892, -0.038137950003147125, 0.10238582640886307, -0.027758115902543068, 0.20152725279331207, -0.13823138177394867, -0.014817416667938232, 0.042182911187410355, 0.037700340151786804, 0.2053411900997162, -0.12026612460613251, 0.1160251721739769, -0.02550586499273777, 0.0005155442631803453, 0.17043523490428925, 0.08114767074584961, -0.13071151077747345, 0.03943271189928055, -0.17027750611305237, -0.15009838342666626, -0.3239462077617645, -0.23413528501987457, -0.163264662027359, -0.2625731825828552, 0.23915889859199524, 0.1822335422039032, 0.026700636371970177, -0.01829315535724163, 0.11908570677042007, 0.13509202003479004, -0.23278222978115082, 0.27237868309020996, -0.1389273703098297, 0.005862343590706587, -0.043372735381126404, -0.010829880833625793, 0.27480363845825195, 0.004241507966071367, 0.3090825080871582, -0.0553254671394825, -0.05060185492038727, -0.084176205098629, 0.24305002391338348, 0.29385700821876526, -0.06044897064566612, 0.06299437582492828, 0.2467874437570572, -0.2869802713394165, -0.17975658178329468, -0.0024383419658988714, -0.13955377042293549, 0.0768904983997345, -0.22239695489406586, -0.20074521005153656, 0.040992654860019684, -0.0864955335855484, 0.2715866267681122, 0.3415709435939789, -0.34072262048721313, -0.20823584496974945, 0.47009679675102234, -0.06024891138076782, -0.0018543320475146174, 0.10532091557979584, 0.3248974680900574, 0.4198916554450989, -0.4674643576145172, -0.2148473560810089, -0.13880088925361633, -0.040922392159700394, -0.0462687686085701, 0.3180874288082123, -0.40765005350112915, 0.12873443961143494, 0.2562210261821747, 0.016534455120563507, 0.06254854053258896, -0.23740485310554504, -0.15393610298633575, -0.0832287073135376, -0.15572881698608398, -0.21730609238147736, -0.2484007626771927, 0.20045876502990723, -0.18582038581371307, 0.12135826051235199, -0.332746684551239, 0.16355100274085999, 0.028916768729686737, -0.05298799276351929, -0.3324485123157501, 0.2543778121471405, 0.2053961455821991, -0.10736056417226791, -0.2397177517414093, -0.19250020384788513, 0.13475869596004486, -0.05751661956310272, -0.24031077325344086, 0.280157208442688, -0.2839844226837158, 0.19167715311050415, -0.19278199970722198, -0.15324875712394714, 0.3014186918735504, 0.21788670122623444, 0.009512610733509064, 0.010588601231575012, 0.07944244146347046, 0.1267707496881485, 0.021343763917684555, -0.14273469150066376, 0.07809454947710037, 0.32912978529930115, -0.06050024554133415, -0.2152818888425827, 0.33683261275291443, -0.06856198608875275, 0.12409704923629761, -0.24052836000919342, 0.1225886344909668, -0.21769441664218903, -0.04082196578383446, -0.05449137091636658, -0.34652480483055115, -0.13645674288272858, 0.3269760310649872, -0.00023316153965424746, -0.0012757581425830722, -0.3194108307361603, 0.035502806305885315, -0.016388705000281334, -0.21973402798175812, 0.13021042943000793, 0.08793294429779053, 0.12414885312318802, 0.17482995986938477, -0.10681217908859253, 0.1517476886510849, 0.04978948086500168, -0.1684383600950241, 0.3378187119960785, -0.05554638430476189, -0.23821741342544556, -0.1601061075925827, 0.015116160735487938, -0.002289795083925128, -0.08994679152965546, -0.1536826640367508, 0.013472332619130611, 0.15457624197006226, 0.11180169135332108, 0.08124218136072159, 0.020404843613505363, 0.09229398518800735, -0.3148362636566162, 0.003055600682273507, -0.2724033296108246, -0.024020163342356682, -0.06976427137851715, -0.10829395800828934, -0.04583355039358139, -0.1790647804737091, -0.0463782474398613, -0.183329239487648, 0.02395830675959587, -0.08499623090028763, -0.02275823801755905, 0.04033274203538895, 0.125962033867836, -0.07683899253606796, -0.036520857363939285, 0.13340014219284058, -0.01722445711493492, -0.029972178861498833, 0.17474600672721863, 0.08612089604139328, 0.010367666371166706, -0.16412438452243805, -0.03176704794168472, 0.037211861461400986, 0.14418116211891174, 0.11259768903255463, -0.07898860424757004, -0.17365442216396332, 0.07520230114459991, -0.02440379001200199, 0.1506984680891037, 0.06598549336194992, -0.06839915364980698, -0.0556875541806221, -0.03838922828435898, -0.030315687879920006, -0.0737532377243042, 0.06989502906799316, 0.03715287148952484, -0.14566385746002197, -0.1405429095029831, 0.08801288902759552, -0.20923110842704773, 0.07151906937360764, -0.03930675610899925, 0.23291058838367462, 0.08534383773803711, -0.09853582084178925, 0.16586223244667053, -0.07198944687843323, -0.038009434938430786, -0.15719424188137054, -0.14323920011520386, 0.13908296823501587, -0.17772474884986877, 0.04014604538679123, -0.07736238092184067, -0.11595265567302704, 0.03219343349337578, 0.2999918758869171, 0.09756042063236237, -0.08884197473526001, -0.022405827417969704, 0.289718896150589, -0.22824811935424805, -0.05256211757659912, -0.03090519830584526, 0.07370839267969131, -0.24373427033424377, 0.09110067784786224, -0.15872319042682648, 0.22469565272331238, -0.004539842251688242, -0.041184037923812866, -0.16235515475273132, 0.17560355365276337, 0.13271647691726685, 0.03725654259324074, 0.22069168090820312, 0.1317160278558731, -0.016963625326752663, 0.10973401367664337, 0.28306663036346436, 0.1818244457244873, -0.13867411017417908, -0.2539953589439392, 0.034905124455690384, 0.17900411784648895, 0.33110734820365906, 0.19954423606395721, -0.004790301434695721, -0.06179725378751755, -0.019094128161668777, 0.07851044088602066, 0.37082645297050476, 0.03668633848428726, 0.2168612778186798, -0.018710464239120483, -0.23574507236480713, 0.2739010453224182, -0.024022303521633148, -0.013918697834014893, 0.2707638442516327, 0.01646915264427662, -0.15131407976150513, 0.22205758094787598, -0.10193264484405518, 0.004972871858626604, -0.060345351696014404, -0.1122952550649643, 0.05425019562244415, -0.09760890156030655, -0.15877625346183777, 0.1412617415189743, -0.0026972773484885693, 0.14407995343208313, 0.03827569633722305, 0.13216453790664673, 0.06492926180362701, -0.08982178568840027, -0.21448883414268494, 0.22068940103054047, 0.04054854437708855, 0.16237634420394897, -0.0917285829782486, -0.10417724400758743, -0.05594077333807945, 0.18795454502105713, -0.024659691378474236, 0.05494706332683563, 0.10239896178245544, -0.024154776707291603, 0.006097688805311918, -0.27031728625297546, 0.034426890313625336, 0.33879005908966064, -0.1387331634759903, -0.0391906313598156, 0.0708698034286499, -0.04923252388834953, -0.06174666807055473, -0.03744298964738846, -0.01162844616919756, -0.03878200426697731, -0.20692947506904602, 0.09755750000476837, 0.2172233611345291, -0.38430356979370117, -0.16404478251934052, 0.014758729375898838, -0.1568659245967865, 0.0884961485862732, -0.13175450265407562, 0.18314218521118164, 0.1879173219203949, -0.06365102529525757, 0.25335243344306946, -0.1706426590681076, -0.0774306133389473, 0.026165086776018143, -0.2777683734893799, -0.285663902759552, -0.22411493957042694, -0.04660826921463013, 0.023236099630594254, 0.13543613255023956, -0.05772282928228378, -0.22087684273719788, -0.09985020011663437, 0.20007385313510895, 0.19813698530197144, 0.16751578450202942, 0.051446717232465744, 0.3210598826408386, -0.2004443258047104, 0.04634476080536842, 0.003838315373286605, -0.21513094007968903, -0.022769317030906677, 0.07501926273107529, 0.5065571069717407, -0.25751572847366333, -0.04064924642443657, 0.0165160670876503, -0.04140220209956169, 0.23274338245391846, 0.16719527542591095, -0.09788165986537933, 0.0455990694463253, -0.041396431624889374, -0.06521359086036682, 0.12808740139007568, -0.22913207113742828, 0.13821929693222046, 0.2317701280117035, -0.18071600794792175, -0.1548645794391632, -0.22293294966220856, -0.2321448177099228, 0.010196629911661148, 0.06283917278051376, 0.01366153173148632, 0.15294776856899261, -0.09219391644001007, -0.19307033717632294, 0.30076879262924194, -0.04057282581925392, -0.03048728220164776, 0.08282911777496338, -0.027703626081347466, 0.1602727770805359, -0.05168960988521576, -0.038807403296232224, -0.3125963807106018, -0.030555270612239838, 0.20370106399059296, 0.12312498688697815, -0.19657732546329498, 0.1355339139699936, -0.018877729773521423, 0.03578343614935875, 0.09509868174791336, 0.1481829285621643, -0.03432105854153633, -0.024489087983965874, -0.17760218679904938, -0.09643254429101944, -0.13465867936611176, -0.06501758843660355, 0.42530590295791626, 0.011244657449424267, -0.2539156377315521, 0.31365320086479187, 0.02004852704703808, -0.2156708985567093, -0.049421485513448715, 0.16896779835224152, 0.12519897520542145, -0.2226620614528656, 0.12124241143465042, 0.14909031987190247, -0.20516419410705566, -0.21385501325130463, -0.18475553393363953, -0.0793331190943718, -0.12015882879495621, 0.01294274628162384, -0.031942613422870636, 0.21399809420108795, -0.3841100037097931, -0.023314792662858963, -2.985451283166185e-05, -0.005208761431276798, -0.10694258660078049, 0.15932048857212067, 0.1195109635591507, -0.12549036741256714, -0.02646615356206894, 0.009479768574237823, -0.11470714956521988, 0.038971610367298126, -0.09185072034597397, 0.10390492528676987, 0.10378668457269669, 0.08203715831041336, -0.191950261592865, 0.14373044669628143, -0.03192095831036568, 0.024211954325437546, -0.034204743802547455, 0.1452663689851761, -0.05184096843004227, -0.04271961748600006, -0.014099099673330784, 0.3136986792087555, 0.19204463064670563, -0.10669814795255661, 0.2376626431941986, -0.009309823624789715, 0.2144564986228943, -0.09602119773626328, -0.056852374225854874, -0.08997712284326553, 0.06636501103639603, 0.212022602558136, 0.16120629012584686, -0.11037156730890274, -0.20014147460460663, 0.3748279809951782, 0.05200920253992081, 0.07756955176591873, 0.1818736344575882, -0.20678719878196716, -0.30776992440223694, 0.2394799441099167, -0.2742428779602051, -0.0939992219209671, 0.31197282671928406, -0.14388346672058105, -0.1321118026971817, -0.29722508788108826, 0.03357384353876114, 0.07900327444076538, -0.6104126572608948, -0.14365173876285553, 0.16630293428897858, -0.15387652814388275, 0.14739064872264862, -0.058815743774175644, 0.15830174088478088, -0.08113351464271545, -0.06041322648525238, 0.1401042342185974, 0.1556282639503479, -0.1285506635904312, 0.03132927045226097, 0.05994274839758873, -0.06738703697919846, -0.09071081876754761, 0.21792162954807281, -0.1344943791627884, 0.3690806031227112, -0.05902356654405594, -0.3127950131893158, -0.2360294759273529, -0.08285752683877945, 0.3232066035270691, 0.03520072251558304, -0.06070272624492645, -0.35596132278442383, 0.06257268786430359, -0.1704775094985962, -0.0769638940691948, -0.24287648499011993, 0.21025250852108002, 0.1342448741197586, 0.0959123969078064, -0.10929933190345764, -0.11796200275421143, -0.252146452665329, -0.10493620485067368, -0.3713168799877167, 0.0024590138345956802, 0.09291037172079086, -0.04057611525058746, -0.35037294030189514, -0.08727383613586426, -0.06767209619283676, -0.2992326319217682, 0.02769429422914982, 0.12582457065582275, -0.23628854751586914, 0.01731128618121147, -0.09108829498291016, 0.10448820143938065, 0.049285098910331726, 0.1464395523071289, -0.055780258029699326, 0.0063903131522238255, -0.050176460295915604, 0.13017651438713074, 0.046714603900909424, 0.05883823707699776, 0.08000025898218155, 0.25356990098953247, -0.0010418887250125408, 0.06512840837240219, 0.07740378379821777, -0.1344524472951889, 0.021121138706803322, 0.044973861426115036, 0.06507141143083572, -0.23426824808120728, 0.13939817249774933, -0.13112114369869232, -0.08776910603046417, 0.5733667612075806, 0.01078156940639019, -0.17774520814418793, -0.08638134598731995, -0.006091492250561714, 0.10819471627473831, -0.15114180743694305, 0.12185284495353699, 0.05640619993209839, 0.006128436420112848, -0.040263205766677856, -0.1036657840013504, -0.1856762021780014, 0.03857504203915596, -0.0031994532328099012, -0.09017214924097061, 0.1604166328907013, -0.20688217878341675, -0.07999070733785629, 0.016442565247416496, -0.039579566568136215, 0.26111966371536255, 0.1319836527109146, -0.09309910237789154, 0.02357250265777111, -0.07755105197429657, 0.06835878640413284, -0.1540939062833786, -0.057861361652612686, 0.13862904906272888, 0.04306895285844803, 0.13321933150291443, 0.17728835344314575, -0.20688626170158386, -0.062381356954574585, 0.03882423788309097, 0.049423325806856155, 0.09044098109006882, 0.18056495487689972, -0.05012548342347145, -0.10718799382448196, -0.2322174608707428, -0.07963600009679794, -0.12845692038536072, -0.15024305880069733, 0.27067962288856506, -0.09304319322109222, -0.32780322432518005, 0.09300944954156876, -0.20744749903678894, -0.02972044236958027, 0.05678801238536835, 0.13989461958408356, 0.36675238609313965, 0.1602429449558258, -0.014636763371527195, 0.32778334617614746, 0.038948845118284225, -0.11493997275829315, -0.2625771760940552, -0.03434528782963753, -0.09966423362493515, -0.028783584013581276, 0.14099597930908203, 0.1995716243982315, -0.1685059517621994, 0.08305148780345917, 0.1954117864370346, -0.06109829246997833, 0.1454467624425888, -0.19077883660793304, 0.16577519476413727, 0.08712978661060333, -0.03398320823907852, 0.03828347101807594, -0.08871731907129288, -0.049919791519641876, -0.18747779726982117, 0.0753813162446022, -0.052046626806259155, 0.13968291878700256, -0.2851792871952057, -0.059365276247262955, -0.07118599116802216, -0.06355029344558716, 0.12033843249082565, 0.18734782934188843, -0.18613207340240479, -0.0038648415356874466, -0.1968885213136673, 0.02959160879254341, -0.03912530094385147, -0.1131061390042305, 0.4154137372970581, -0.18298716843128204, -0.006975892465561628, 0.19450658559799194, 0.006245564669370651, -0.1447862833738327, -0.03374010697007179, 0.08544053882360458, 0.030570784583687782, -0.05980435758829117, -0.20945169031620026, 0.1105397492647171, -0.14683376252651215, -0.14797763526439667, 0.1569562405347824, -0.028692949563264847, 0.1337035894393921, 0.003797642420977354, 0.056892380118370056, 0.1274537742137909, 0.04779282584786415, -0.06743261963129044, 0.20882420241832733, 0.1166108250617981, -0.02543286792933941, 0.06879081577062607, 0.1317780762910843, -0.15132485330104828, -0.04864567890763283, -0.16707351803779602, 0.08641859143972397, -0.16765975952148438, 0.1617603451013565, 0.11155331879854202, -0.14095041155815125, -0.007600721437484026, 0.2475551813840866, -0.07723669707775116, 0.0656934529542923, -0.03638303652405739, 0.12651655077934265, -0.03934221342206001, 0.1795593947172165, 0.057680271565914154, -0.03460892289876938, -0.18369677662849426, 0.21116657555103302, 0.0899471715092659, -0.4406009614467621, 0.05908052623271942, 0.18104498088359833, -0.1636715531349182, 0.06864307075738907, 0.18919596076011658, -0.18452607095241547, -0.07701142132282257, -0.16488203406333923, 0.2031741589307785, -0.19665130972862244, 0.04354564845561981, 0.05174291878938675, 0.005514773540198803, 0.08050717413425446, -0.05634760484099388, 0.1503990888595581, 0.12824207544326782, -0.03896722570061684, -0.13407179713249207, 0.01875435933470726, 0.07601799815893173, -0.007523717824369669, -0.0983419120311737, -0.054070837795734406, 0.04106574505567551, 0.04528273269534111, 0.173511803150177, 0.13609567284584045, -0.11645825952291489, -0.05245082452893257, 0.08439189195632935, 0.06619259715080261, 0.017704451456665993, -0.002768811071291566, 0.074369415640831, -0.12502144277095795, -0.02812131866812706, -0.15220333635807037, -0.24083906412124634, -0.26195070147514343, -0.11003531515598297, -0.03808507323265076, 0.08191530406475067, -0.2044227123260498, -0.3468780219554901, -0.3872942328453064, 0.12799857556819916, 0.10442540049552917, 0.0014530513435602188, 0.24262869358062744, -0.24682343006134033, 0.03093748353421688, -0.06077304854989052, -0.19422687590122223, 0.08663058280944824, -0.27892205119132996, -0.31666961312294006, 0.1458686888217926, -0.022640593349933624, -0.1983281821012497, 0.13017325103282928, 0.13239461183547974, 0.01754532754421234, 0.26805993914604187, 0.24673613905906677, 0.05872150510549545, -0.03259009122848511, 0.03711606189608574, -0.27663251757621765, -0.028375886380672455, 0.04577138274908066, -0.18281562626361847, -0.0647471621632576, 0.0333169586956501, -0.023264603689312935, 0.038798216730356216, -0.0684037059545517, 0.16742804646492004, 0.04210779443383217, 0.01074152160435915, 0.14229831099510193, -0.08611565083265305, -0.057949330657720566, 0.08570652455091476, -0.07226745039224625, 0.0698896273970604, -0.21253636479377747, -0.016843901947140694, -0.1746753603219986, 0.18993355333805084, 0.04263119772076607, 0.27780070900917053, 0.23065494000911713, 0.2226014882326126, -0.008752197958528996, -0.47058942914009094, 0.027096401900053024, 0.15398235619068146, -0.1707811951637268, -0.07823847979307175, 0.1659318059682846, 0.030822159722447395, -0.052579525858163834, -0.12478117644786835, 0.18553632497787476, -0.18561656773090363, 0.05439138785004616, 0.14004625380039215, 0.09107955545186996, 0.2129804790019989, 0.0014785255771130323, 0.09104511141777039, 0.25801941752433777, -0.0593961700797081, -0.03752129524946213, 0.2302127182483673, -0.13529740273952484, -0.07825292646884918, -0.0829319879412651, -0.12074965983629227, 0.11398830264806747, -0.1684441864490509, -0.033768367022275925, 0.10800640285015106, -0.17754118144512177, 0.1262812316417694, -0.12428265810012817, 0.1652933657169342, -0.06543485075235367, 0.0069041866809129715, -0.07844953238964081, 0.143194779753685, -0.12177132070064545, 0.0139172887429595, 0.000664195220451802, -0.1192203164100647, -0.044688232243061066, 0.03791678696870804, 0.14507010579109192, 0.027436744421720505, 0.1130925863981247, -0.061801183968782425, -0.05106770247220993, -0.2550133466720581, 0.024185778573155403, -0.002306430833414197, 0.05853287875652313, -0.2694789469242096, 0.14742611348628998, 0.046205099672079086, -0.14550217986106873, -0.3005697727203369, 0.07333885133266449, -0.016113344579935074, -0.12110140174627304, 0.028485193848609924, 0.038459159433841705, 0.19255180656909943, -0.19090043008327484, 0.02403252385556698, 0.16826757788658142, -0.27567243576049805, -0.0305047444999218, -0.19579309225082397, -0.16834960877895355, -0.0008523992728441954, 0.05237898603081703, -0.1302572637796402, 0.020338311791419983, -0.22690804302692413, -0.12728598713874817, -0.0246855691075325, 0.025344105437397957, 0.14461609721183777, -0.11291121691465378, 0.05874822661280632, -0.3403182923793793, -0.17084121704101562, 0.15672411024570465, 0.16490398347377777, 0.18209342658519745, 0.22529055178165436, -0.1531635969877243, -0.07906272262334824, 0.26455816626548767, 0.15784448385238647, 0.3338284492492676, -0.035603251308202744, -0.030135978013277054, -0.2363944947719574, -0.16724953055381775, 0.32370707392692566, 0.060304492712020874, 0.4040955901145935, 0.0127980075776577, -0.4259566068649292, -0.005455769132822752, -0.31037822365760803, -0.21412651240825653, -0.1062534898519516, 0.27972009778022766, 0.27009904384613037, 0.18403522670269012, 0.1919126659631729, 0.15149903297424316, -0.09737978875637054, 0.06965937465429306, 0.06560671329498291, 0.03785455599427223, 0.19314095377922058, 0.23637144267559052, -0.20701204240322113, 0.13961467146873474, 0.04388798400759697, -0.1342354565858841, 0.09607508033514023, -0.013942809775471687, 0.061127446591854095, 0.13284334540367126, -0.009932057000696659, 0.18226811289787292, -0.09989270567893982, 0.047401633113622665, 0.08855139464139938, 0.12960927188396454, 0.09123435616493225, 0.06991229206323624, -0.04958476126194, 0.1476546972990036, -0.02740625850856304, -0.10029598325490952, -0.017360391095280647, -0.10291314125061035, -0.12083073705434799, -0.05811578780412674, -0.09441257268190384, 0.01040608435869217, 0.16501004993915558, -0.12530484795570374, 0.23986662924289703, -0.021439900621771812, -0.19627194106578827, 0.18361246585845947, -0.18178750574588776, -0.02051411010324955, 0.1470094621181488, -0.05329397693276405, 0.18626007437705994, -0.22095809876918793, -0.0016006389632821083, -0.09302196651697159, -0.18044379353523254, 0.06062078848481178, 0.05897977575659752, 0.07752242684364319, -0.008771032094955444, 0.11474783718585968, 0.21525052189826965, -0.011974302120506763, 0.03734809160232544, -0.13259781897068024, -0.00045666410005651414, 0.033888816833496094, 0.13327090442180634, 0.003243738319724798, -0.21032021939754486, 0.026781102642416954, -0.032086290419101715, -0.042825765907764435, -0.0015927304048091173, -0.6887832880020142, 0.7374574542045593, 0.23187999427318573, -0.2806404232978821, 0.34429439902305603, -0.24828526377677917, 0.10280156880617142, 0.5789971947669983, -0.5621833205223083, 0.7373218536376953, 0.5628435611724854, -0.02812320739030838, -0.541763961315155, 0.540411114692688, -0.47996124625205994, 0.2478758692741394, -0.15698739886283875, -0.06816447526216507, -0.49228692054748535, 0.3012074828147888, 0.46885690093040466, 0.06072734296321869, 0.1892808973789215, 0.33277568221092224, 0.25561195611953735, -0.23195427656173706, 0.21356269717216492, -0.336618572473526, -0.24213983118534088, -0.10899847000837326, 0.033847905695438385, 0.05566432699561119, 0.04996195435523987, -0.08259882032871246, 0.4220351576805115, 0.13198773562908173, -0.14958280324935913, -0.057139404118061066, -0.5588600635528564, -0.28131207823753357, 0.09168507158756256, 0.039910364896059036, -0.1316480189561844, 0.09915955364704132, 0.11357972025871277, 0.16038601100444794, -0.12591372430324554, -0.124089315533638, -0.49523210525512695, 0.2314184010028839, -0.06214581057429314, -0.09662532061338425, -0.5605162978172302, -0.01653028465807438, -0.5647258758544922, -0.06030287221074104, -0.13275599479675293, -0.00843990407884121, 0.3985197842121124, 0.3030864894390106, 0.08902958780527115, 0.08941305428743362, -0.111541248857975, 0.31765222549438477, 0.3240148425102234, 0.06858696043491364, -0.11077579110860825, 0.04749419167637825, 0.15150076150894165, -0.1847446709871292, 0.1047784760594368, 0.1153254359960556, -0.05502766743302345, -0.05900902673602104, 0.27758073806762695, -0.030991028994321823, 0.09109772741794586, 0.026835070922970772, -0.03762676939368248, 0.1416427344083786, 0.2908846437931061, 0.21229997277259827, -0.04572382941842079, -0.09604209661483765, -0.07256630063056946, 0.14202718436717987, -0.0015161512419581413, 0.2764214873313904, -0.08225442469120026, -0.11132855713367462, -0.3369525969028473, 0.020977498963475227, -0.1084647849202156, 0.06603305786848068, -0.24260394275188446, -0.09357394278049469, -0.20191167294979095, 0.14568276703357697, 0.07826162129640579, -0.4584544599056244, -0.1276429444551468, 0.06115354225039482, -0.03265399485826492, -0.017672954127192497, -0.08276749402284622, 0.0874747782945633, 0.2851334810256958, 0.44245752692222595, 0.1667783111333847, 0.2226996123790741, -0.10772035270929337, -0.016697710379958153, 0.4250422716140747, -0.11401133984327316, -0.09474734216928482, 0.21781669557094574, -0.17663322389125824, 0.06583653390407562, -0.08618061244487762, -0.1673261821269989, 0.18117541074752808, 0.024915482848882675, -0.3451339304447174, 0.12475200742483139, 0.08894588053226471, 0.09729332476854324, 0.21593470871448517, 0.31761613488197327, 0.15223683416843414, -0.06008712574839592, -0.06394296139478683, -0.04181839898228645, 0.06721393764019012, -0.05187947675585747, -0.09654824435710907, -0.0031984481029212475, -0.008075565099716187, 0.307429701089859, 0.11405348777770996, 0.04999653622508049, 0.22809702157974243, 0.0859752967953682, -0.12950573861598969, -0.27656668424606323, 0.4883590638637543, -0.00511945178732276, 0.038068439811468124, 0.29908186197280884, -0.017659451812505722, -0.28350433707237244, 0.09526903927326202, -0.18777495622634888, 0.16177362203598022, -0.26778239011764526, -0.011466147378087044, -0.28577494621276855, -0.053721729665994644, 0.05468284711241722, 0.1044488325715065, 0.4269685447216034, -0.2623836100101471, -0.08134616166353226, 0.014752212911844254, 0.12547838687896729, 0.1848609745502472, -0.10518781840801239, 0.033056724816560745, -0.036867473274469376, -0.08364970982074738, 0.15189218521118164, -0.23220552504062653, -0.022688403725624084, -0.037417784333229065, 0.13633543252944946, -0.07937061786651611, 0.22310063242912292, -0.2845487594604492, -0.1651325672864914, -0.4174109399318695, 0.38512253761291504, -0.11461923271417618, 0.04382920265197754, 0.05473873391747475, 0.17552103102207184, 0.1800832748413086, -0.49729788303375244, 0.023654840886592865, -0.11380234360694885, -0.3631742596626282, 0.07011684775352478, 0.35695138573646545, 0.24772290885448456, -0.606724739074707, -0.11091787368059158, 0.03672080859541893, 0.0004730717046186328, 0.3449252247810364, 0.03854703530669212, 0.025287047028541565, -0.2308066189289093, -0.17220234870910645, -0.1960400938987732, 0.7207057476043701, -0.44338545203208923, -0.4967919886112213, -0.024938760325312614, 0.06233714520931244, -0.44753220677375793, -0.3702262341976166, -0.025613680481910706, -0.12336363643407822, 0.16152779757976532, -0.07931401580572128, -0.24096590280532837, -0.2398470640182495, -0.07681770622730255, -0.13680966198444366, -0.17261484265327454, 0.07558855414390564, -0.05749247223138809, 0.11888021230697632, 0.03493186831474304, -0.09229990094900131, -0.2806231379508972, 0.45230576395988464, -0.15630048513412476, -0.20365412533283234, 0.05033020302653313, -0.3205869197845459, 0.22515901923179626, -0.16291990876197815, -0.03347134590148926, -0.046748675405979156, 0.01677672192454338, 0.01907331682741642, -0.026607420295476913, 0.26782289147377014, -0.060772959142923355, -0.02833358198404312, 0.24394504725933075, 0.25751301646232605, 0.041175007820129395, -0.27861925959587097, -0.19211384654045105, 0.21305003762245178, -0.1225399449467659, -0.2180209755897522, 0.4294872581958771, 0.25048547983169556, 0.2149243801832199, -0.12877009809017181, 0.028612971305847168, 0.015990879386663437, -0.021842844784259796, -0.26820608973503113, 0.012854436412453651, -0.10113184154033661, -0.04139729589223862, -0.15698929131031036, -0.10835638642311096, 0.11531490087509155, -0.028504572808742523, -0.15850898623466492, 0.1245964840054512, 0.2431848645210266, 0.2257167249917984, 0.1487080305814743, -0.20851677656173706, -0.16743817925453186, -0.05592095106840134, 0.09079121798276901, -0.019420545548200607, -0.003114541759714484, 0.1305445432662964, 0.058401454240083694, -0.0716911107301712, -0.04392834007740021, 0.07723154127597809, 0.011514689773321152, -0.22339637577533722, -0.16277994215488434, 0.013685754500329494, 0.06911282986402512, 0.09640830755233765, 0.054242681711912155, 0.0782671645283699, 0.022003773599863052, 0.0328407920897007, -0.01547715999186039, -0.20626883208751678, 0.03941623494029045, -0.013719175942242146, 0.007334665395319462, 0.13972720503807068, -0.33116772770881653, -0.03648562729358673, 0.08959176391363144, -0.014931059442460537, 0.23957648873329163, 0.02773030661046505, -0.17687776684761047, 0.08580789715051651, 0.09463758021593094, 0.01843470148742199, 0.33102670311927795, 0.15310071408748627, 0.020745810121297836, -0.20340484380722046, -0.3426024317741394, -0.05596180632710457, -0.015437059104442596, 0.0773005560040474, -0.07803148776292801, -0.2724137008190155, -0.16787350177764893, 0.055246930569410324, 0.02550523914396763, -0.13663046061992645, 0.004985721781849861, -0.21408411860466003, 0.034585628658533096, -0.1508980542421341, -0.23637650907039642, 0.02566283941268921, -0.03478812053799629, -0.15611393749713898, 0.09584017097949982, -0.013981392607092857, -0.28997504711151123, -0.16129453480243683, -0.17531436681747437, 0.04216541349887848, 0.11303374916315079, -0.20435918867588043, 0.12922219932079315, 0.03734469786286354, 0.6098307371139526, -0.1477508246898651, -0.07911209762096405, 0.024120759218931198, 0.3181231915950775, -0.6744346022605896, -0.45385515689849854, -0.006283150054514408, 0.031165802851319313, 0.2941448986530304, -0.38680651783943176, 0.11548121273517609, -0.05943511053919792, 0.08028768002986908, 0.07761312276124954, -0.26271969079971313, -0.00726183271035552, -0.1514071673154831, 0.20435459911823273, 0.04411787912249565, -0.05536114424467087, -0.2604984939098358, -0.19432620704174042, -0.0019389719236642122, 0.4325149655342102, 0.003134563798084855, -0.058059558272361755, -0.008940516971051693, -0.1451490968465805, 0.21857260167598724, 0.6427416205406189, 0.055684611201286316, 0.11521162837743759, 0.08919208496809006, -0.08120648562908173, -0.35616493225097656, 0.049584995955228806, -0.08543674647808075, -0.2974723279476166, 0.10999178886413574, -0.11102918535470963, 0.291042685508728, 0.009942371398210526, -0.07079115509986877, -0.6754150390625, 0.24816392362117767, -0.530838668346405, -0.02387922629714012, 0.22106826305389404, -0.3412325084209442, -0.01864742301404476, 0.21154101192951202, 0.06930305063724518, -0.2649979591369629, -0.08009259402751923, 0.14968156814575195, 0.1797798126935959, 0.18805308640003204, -0.33382517099380493, 0.15298204123973846, -0.1375766545534134, -0.034143902361392975, -0.24043413996696472, -0.3441406786441803, 0.03240090236067772, 0.09606920927762985, 0.23666399717330933, -0.10860535502433777, 0.0008649109513498843, -0.07855326682329178, 0.21866865456104279, 0.04308144748210907, -0.033232901245355606, -0.12651005387306213, 0.05476895347237587, -0.12393349409103394, 0.11828353255987167, -0.10530992597341537, 0.3996466100215912, -0.6846746802330017, 0.10064570605754852, 0.27857059240341187, -0.05014174059033394, 0.037937458604574203, 0.05695235729217529, -0.12826471030712128, 0.04184607416391373, 0.10445582866668701, -0.03630056977272034, 0.016924448311328888, -0.21831248700618744, -0.053260769695043564, 0.08521952480077744, 0.21386635303497314, 0.1877955049276352, -0.0463661253452301, 0.1442146748304367, -0.117523692548275, 0.0146165881305933, 0.06343749165534973, 0.1959364265203476, 0.2306336611509323, 0.22826208174228668, -0.014984737150371075, 0.1689155548810959, -0.056259773671627045, -0.1433631181716919, 0.12952245771884918, 0.08534779399633408, 0.005315807648003101, -0.04067543148994446, -0.1590987890958786, 0.14389589428901672, 0.08409981429576874, -0.03911434859037399, -0.04719210043549538, 0.011636197566986084, 0.0005739218322560191, 0.19427554309368134, 0.06357548385858536, -0.09614910185337067, -0.3346841335296631, -0.20985998213291168, 0.015426326543092728, 0.1942320466041565, 0.07361581921577454, 0.1646777242422104, -0.054821617901325226, 0.1824512779712677, 0.24400003254413605, 0.1408345252275467, -0.016540726646780968, 0.15935981273651123, -0.21092702448368073, 0.01060926727950573, 0.04090474918484688, -0.349037230014801, -0.10998568683862686, -0.022174159064888954, 0.06534501910209656, -0.2011159062385559, 0.11407604813575745, -0.024261603131890297, 0.05772072449326515, 0.07721807807683945, 0.019380144774913788, -0.0013626804575324059, 0.18743853271007538, 0.09428493678569794, 0.08197744935750961, -0.0032954018097370863, -0.03928106650710106, -0.1344372183084488, 0.13536202907562256, 0.022808564826846123, 0.21713487803936005, 0.10431170463562012, -0.014358634129166603, -0.11043252050876617, 0.09892389178276062, 0.07373132556676865, -0.06724491715431213, 0.04112293943762779, 0.020824510604143143, 0.049085795879364014, -0.0768846794962883, -0.23232267796993256, 0.07967671006917953, 0.24354493618011475, -0.01894458383321762, -0.036880671977996826, -0.010992340743541718, -0.0748811811208725, 0.038155652582645416, -0.19620871543884277, -0.04209878295660019, -0.12067050486803055, -0.022639138624072075, 0.01627824269235134, -0.14014041423797607, 0.21551978588104248, -0.11543073505163193, -0.2811596691608429, 0.2361709326505661, -0.1734534651041031, -0.11469751596450806, -0.43250223994255066, 0.33645308017730713, -0.2317279577255249, 0.2038518637418747, -0.3185495436191559, -0.09658727049827576, 0.08981528878211975, 0.021590452641248703, 0.20116017758846283, 0.17053548991680145, -0.11503620445728302, -0.303291916847229, -0.160358726978302, 0.24639083445072174, 0.002797849476337433, 0.3197326958179474, -0.09937478601932526, 0.18432477116584778, -0.09175825864076614, -0.07013989239931107, -0.15997248888015747, -0.2733648717403412, -0.05780394747853279, -0.020392077043652534, 0.14824794232845306, -0.03309334069490433, -0.052571482956409454, -0.15643711388111115, -0.15224981307983398, 0.030137108638882637, 0.2432214766740799, -0.10570826381444931, 0.07364137470722198, 0.008960396982729435, -0.019958505406975746, 0.21414951980113983, 0.21843865513801575, -0.059170253574848175, 0.15916958451271057, 0.1219528466463089, 0.2622053027153015, -0.051526013761758804, 0.013765103183686733, -0.08901431411504745, -0.16495291888713837, 0.0243582371622324, -0.11145748943090439, -0.02230033464729786, -0.12586581707000732, -0.05995175987482071, 0.008391064591705799, 0.23561905324459076, 0.30027684569358826, -0.004253944382071495, -0.052517302334308624, -0.08546692878007889, -0.07892011851072311, -0.08314631879329681, 0.18391452729701996, -0.151126891374588, -0.10365796834230423, 0.24107424914836884, 0.007451815064996481, -0.16427397727966309, -0.12775172293186188, 0.08118493109941483, 0.038908399641513824, -0.0030819668900221586, -0.09129268676042557, -0.06857836991548538, -0.030170967802405357, -0.13390550017356873, -0.10179947316646576, 0.07328418642282486, 0.2142942100763321, 0.0367768295109272, -0.1171761229634285, -0.25197064876556396, 0.10473213344812393, 0.017995519563555717, 0.11792439967393875, 0.08851119875907898, -0.10004981607198715, -0.03222567215561867, -0.07190880924463272, 0.015046645887196064, 0.1749449521303177, -0.054168060421943665, 0.0277169831097126, 0.10064268112182617, -0.004200502764433622, 0.04628164693713188, -0.20765984058380127, 0.053730908781290054, 0.06293933093547821, 0.14212794601917267, 0.15172171592712402, -0.11350437998771667, 0.25416314601898193, 0.22783231735229492, -0.2567475140094757, 0.03129521384835243, 0.06241166964173317, 0.2105133980512619, -0.02344590611755848, 0.10808314383029938, 0.22835053503513336, 0.3114546835422516, -0.06770405173301697, 0.04618299379944801, -0.12910757958889008, 0.01711529865860939, 0.055587973445653915, -0.06697063148021698, 0.06583559513092041, 0.15386585891246796, -0.09357833862304688, -0.1619204878807068, -0.1056513711810112, 0.06132838875055313, -0.01789730228483677, 0.11567036807537079, -0.07372520118951797, 0.03426506742835045, 0.005753764417022467, 0.013759637251496315, 0.14781858026981354, 0.010041303001344204, -0.21745365858078003, -0.05813468620181084, 0.16291281580924988, -0.1304977983236313, -0.12166514247655869, -0.13627798855304718, 0.041833795607089996, -0.130082368850708, 0.04388699680566788, 0.02809431590139866, 0.052574917674064636, 0.013118316419422626, 0.0995553731918335, 0.010726300068199635, -0.13602511584758759, 0.08310768008232117, -0.24471957981586456, 0.20120486617088318, 0.0655408501625061, 0.1282239556312561, 0.1350570023059845, -0.05111343786120415, 0.2787826657295227, 0.1198020875453949, 0.11040721088647842, -0.13557766377925873, -0.17957375943660736, 0.22525428235530853, 0.008698890917003155, -0.3375501334667206, -0.06540955603122711, 0.09702737629413605, -0.02488091215491295, -0.13714349269866943, 0.04799225181341171, 0.10404925793409348, -0.049796249717473984, 0.07295110821723938, 0.1096816286444664, 0.05163465440273285, -0.05192327871918678, -0.1988779455423355, -0.13421429693698883, -0.17865373194217682, -0.047519560903310776, 0.006141681224107742, 0.00996115431189537, -0.1475204974412918, -0.04717529937624931, 0.06055847555398941, 0.04390748590230942, 0.03788436949253082, -0.08159378170967102, -0.04770686477422714, 0.2186770737171173, 0.16532371938228607, -0.1391565203666687, 0.11589577794075012, -0.004125835373997688, -0.18355882167816162, -0.030382778495550156, 0.12983515858650208, -0.19920435547828674, -0.0015978184528648853, 0.027854319661855698, 0.13322588801383972, -0.32486939430236816, -0.23838908970355988, 0.14181195199489594, 0.1383284032344818, -0.0748658999800682, -0.20294971764087677, 0.07921551913022995, 0.15805096924304962, -0.11970067769289017, 0.28888559341430664, -0.09825088828802109, -0.10943020135164261, 0.25528010725975037, -0.3660948872566223, -0.09677266329526901, 0.06158751994371414, -0.029931848868727684, 0.3099343180656433, -0.1370392143726349, 0.049352943897247314, 0.13209308683872223, 0.08550470322370529, -0.042880117893218994, -0.07783309370279312, -0.09692295640707016, 0.11540793627500534, 0.2821113169193268, 0.060463789850473404, 0.044820819050073624, -0.22245095670223236, -0.22764207422733307, 0.07097361981868744, 0.20386099815368652, -0.11616141349077225, 0.07430923730134964, -0.3957057595252991, 0.030808836221694946, -0.18671834468841553, -0.3491581678390503, 0.11601376533508301, -0.06705795973539352, -0.23140351474285126, 0.01522906869649887, 0.07201839238405228, -0.24569284915924072, 0.0529530867934227, 0.027718214318156242, 0.09239935129880905, 0.1494503617286682, -0.04303167015314102, 0.0009716971544548869, 0.08433212339878082, -0.056753627955913544, 0.05558318644762039, -0.12197836488485336, -0.02940063737332821, 0.3614300787448883, 0.2638537883758545, 0.09512501209974289, 0.4392862021923065, 0.08635789901018143, -0.11361019313335419, -0.25302666425704956, -0.07471392303705215, -0.1763896942138672, -0.25368252396583557, 0.18156176805496216, 0.18699932098388672, 0.05322149023413658, 0.10694219917058945, 0.03890253230929375, -0.04592999443411827, -0.09613489359617233, 0.08786044269800186, 0.08801650255918503, -0.1516381949186325, -0.16730649769306183, 0.13417333364486694, -0.18524233996868134, 0.0918225571513176, -0.003955269698053598, -0.19585877656936646, 0.012397782877087593, -0.11784402281045914, -0.17866475880146027, -0.22871309518814087, -0.4611140191555023, 0.11342640966176987, -0.11257326602935791, 0.16134154796600342, 0.21967238187789917, -0.007288889493793249, 0.10400045663118362, -0.12882903218269348, 0.13193923234939575, 0.009672154672443867, 0.03689190372824669, 0.19973976910114288, 0.5001117587089539, -0.0857156291604042, 0.12474147230386734, -0.020045621320605278, 0.0556071475148201, 0.14786192774772644, -0.3953980505466461, 0.1481776088476181, 0.030104873701930046, 0.003038928145542741, -0.03883913531899452, -0.44059300422668457, 0.18829236924648285, -0.18037787079811096, -0.19635771214962006, 0.35875704884529114, -0.040178436785936356, -0.06763613969087601, 0.15959914028644562, 0.11409871280193329, -0.0200472641736269, -0.2641565203666687, -0.10277602821588516, -0.014714960008859634, 0.1950424313545227, 0.07346649467945099, -0.025743132457137108, -0.16064253449440002, -0.20637957751750946, 0.1536989063024521, 0.2875673770904541, 0.0886993557214737, -0.042443715035915375, -0.0038109493907541037, 0.10679218173027039, -0.17284324765205383, -0.18635712563991547, 0.16893914341926575, 0.1196667030453682, -0.24638135731220245, 0.2647707164287567, -0.02918435074388981, -0.0905521959066391, -0.20708414912223816, -0.19795477390289307, 0.13075008988380432, 0.0055509223602712154, 0.17853005230426788, 0.21657755970954895, -0.11031534522771835, -0.061451446264982224, -0.1943342387676239, -0.22765450179576874, -0.27707356214523315, 0.09178567677736282, -0.19267743825912476, -0.09284479171037674, 0.16025440394878387, -0.2707153260707855, -0.20647715032100677, -0.2393825352191925, 0.029179727658629417, 0.06652481108903885, -0.10013447701931, 0.13301214575767517, -0.06385694444179535, -0.11859453469514847, -0.1450832039117813, 0.1913946270942688, -0.004162284545600414, 0.046136870980262756, -0.050008129328489304, 0.014884491451084614, -0.059128537774086, -0.019602585583925247, -0.27956798672676086, -0.027906805276870728, 0.017878500744700432, -0.2731684148311615, -0.1443924903869629, -0.08484496176242828, -0.24372704327106476, -0.11514641344547272, 0.11193301528692245, 0.18623989820480347, -0.094077467918396, -0.07819124311208725, -0.04957510903477669, 0.011136007495224476, 0.08936344087123871, 0.10828408598899841, 0.05902307108044624, -0.04882416874170303, -0.12173671275377274, 0.3190081715583801, 0.2222452610731125, 0.12361928075551987, 0.059652235358953476, -0.07497832179069519, 0.7004530429840088, 0.2482147067785263, 0.45874735713005066, -0.3313395082950592, 0.09479573369026184, -0.1937776505947113, -0.2410832941532135, -0.02452223189175129, -0.3051091432571411, 0.4205801486968994, 0.1801179200410843, -0.09003183245658875, 0.2696470618247986, 0.14669236540794373, 0.3236840069293976, 0.08827104419469833, -0.12312343716621399, 0.0018267295090481639, 0.19104866683483124, -0.19846318662166595, -0.037194542586803436, -0.32135626673698425, -0.010382376611232758, 0.04604499787092209, 0.21009841561317444, -0.058723773807287216, 0.04279818758368492, 0.010242186486721039, 0.010649709030985832, 0.20978204905986786, 0.6881338953971863, -0.05269733443856239, -0.5848013758659363, -0.11513347178697586, 0.025743121281266212, -0.22570891678333282, -0.09954362362623215, 0.0011969197075814009, -0.1905311495065689, 0.19318804144859314, -0.17108918726444244, -0.1153373047709465, -0.001954856561496854, 0.034356750547885895, -0.019729524850845337, 0.11060109734535217, 0.08249661326408386, 0.2789516746997833, 0.2470361739397049, -0.0649256557226181, -0.061289433389902115, 0.03300148993730545, -0.2946813702583313, -0.125553697347641, 0.1278943419456482, -0.09684325009584427, 0.18289287388324738, 0.2870810031890869, -0.07261493057012558, -0.043730687350034714, -0.1535898894071579, 0.14434732496738434, -0.1288701593875885, -0.16819539666175842, 0.015550723299384117, -0.1269756704568863, 0.2453131228685379, 0.05020153149962425, 0.0024815169163048267, -0.16839835047721863, -0.10298734158277512, 0.044227004051208496, 0.28403228521347046, 0.03911784663796425, 0.08528769761323929, -0.17752540111541748, 0.04159370809793472, 0.04457996413111687, 0.13077646493911743, -0.00895095057785511, -0.1654561460018158, -0.12528885900974274, -0.2882651686668396, 0.05962594226002693, 0.04920763894915581, -0.1440402865409851, 0.12643587589263916, 0.22728151082992554, 0.017270294949412346, 0.05859899893403053, -0.23980261385440826, 0.12778235971927643, 0.44130948185920715, -0.31823471188545227, 0.09232702851295471, 0.19791293144226074, 0.029513996094465256, -0.025233924388885498, 0.07601645588874817, 0.10993890464305878, 0.05556129664182663, -0.06952673941850662, -0.28202953934669495, 0.39269283413887024, 0.06207471713423729, 0.13541437685489655, 0.06109976768493652, 0.14889924228191376, 0.07552052289247513, -0.19062571227550507, 0.004851426463574171, 0.17456896603107452, 0.10306403785943985, -0.010745320469141006, -0.23845554888248444, -0.31142252683639526, 0.02190341427922249, -0.11841534823179245, 0.2132055014371872, -0.014866235665977001, -0.024624360725283623, -0.24499768018722534, -0.05231298506259918, 0.2724609076976776, -0.1523207724094391, -0.012614552862942219, -0.29149800539016724, 0.20523272454738617, -0.004385081585496664, -0.13239450752735138, -0.028187157586216927, -0.014344214461743832, -0.10400094836950302, 0.005355153698474169, 0.06494694203138351, -0.09772747755050659, 0.007808922789990902, -0.01326768659055233, 0.07253788411617279, 0.059060342609882355, 0.04220844805240631, 0.3897641897201538, -0.11859197169542313, -0.10760131478309631, 0.19122953712940216, -0.1496203988790512, 0.13113225996494293, 0.013091864995658398, -0.1587337702512741, -0.08486899733543396, 0.0652276873588562, 0.24914847314357758, 0.056468650698661804, 0.007973503321409225, 0.012710515409708023, -0.22609563171863556, -0.0487850084900856, -0.037043582648038864, 0.43657219409942627, -0.1851719319820404, 0.47374212741851807, -1.0169041156768799, -1.0551209449768066, -0.23714253306388855, 0.4441035985946655, -0.4076586961746216, 0.2414814978837967, 0.38541659712791443, -0.4291185438632965, 0.27387535572052, -0.021544592455029488, -0.5709405541419983, -0.02583489939570427, -0.3377222716808319, -0.15573552250862122, -0.11627380549907684, 0.144197478890419, -0.14604204893112183, -0.022095084190368652, 0.03078647330403328, 0.13798074424266815, -0.526997447013855, -0.5298620462417603, -0.07981214672327042, -0.13771045207977295, 0.1098141074180603, 0.14301075041294098, -0.1354217380285263, 0.05593417212367058, -0.04449733719229698, -0.13340142369270325, -0.2519700527191162, -0.016466811299324036, -0.4214071035385132, -0.0030187484808266163, 0.09412012994289398, 0.14731785655021667, -0.14866822957992554, -0.02316386066377163, -0.012138678692281246, -0.14969171583652496, 0.19528651237487793, -0.09627015888690948, 0.138456329703331, 0.12694723904132843, 0.015881460160017014, 0.026763061061501503, 0.2981730103492737, 0.03927218168973923, -0.07629887759685516, 0.34717807173728943, -0.20724861323833466, -0.3464723527431488, 0.11636772006750107, 0.29897281527519226, -0.1187061220407486, -0.1145368441939354, -0.1255626529455185, -0.004663359839469194, -0.08481606096029282, 0.0638674646615982, 0.2698797285556793, -0.224210724234581, 0.15395791828632355, -0.018909534439444542, 0.22104518115520477, 0.14974401891231537, 0.25933924317359924, 0.39276984333992004, -0.0970996618270874, -0.30368849635124207, -0.18675008416175842, -0.0780000314116478, -0.33466511964797974, 0.2651243805885315, 0.23229148983955383, -0.0841713696718216, -0.4410993158817291, 0.21348752081394196, -0.09284503757953644, -0.04984903335571289, 0.12408045679330826, 0.2030506730079651, -0.08878258615732193, 0.01798202469944954, -0.16265001893043518, 0.24752958118915558, 0.09909063577651978, 0.12884452939033508, 0.16692496836185455, -0.12386933714151382, -0.1862495094537735, -0.20215068757534027, -0.13052979111671448, -0.21298770606517792, 0.09177079051733017, 0.22085076570510864, 0.2143194079399109, -0.09931643307209015, 0.23156818747520447, -0.013220141641795635, 0.059566739946603775, 0.14919766783714294, 0.18293514847755432, -0.283743292093277, 0.35189762711524963, -0.02220681495964527, -0.13376280665397644, -0.27035775780677795, 0.1596992462873459, -0.1339276134967804, -0.17770540714263916, -0.05268968641757965, -0.03506235033273697, 0.1738426834344864, -0.03757200390100479, 0.09756289422512054, 0.1347920447587967, -0.019820883870124817, 0.03835494816303253, 0.0963137224316597, -0.02232084982097149, 0.16824711859226227, 0.06425773352384567, 0.1771191507577896, -0.21325461566448212, -0.11730197072029114, 0.2876344919204712, -0.08808833360671997, 0.20072880387306213, 0.5428199172019958, -0.26462844014167786, 0.11176718771457672, 0.33832353353500366, 0.2503815293312073, -0.06690126657485962, 0.08290613442659378, 0.06935093551874161, -0.11814896762371063, -0.009310564026236534, 0.27464842796325684, 0.1600145548582077, -0.2950226962566376, 0.04340917989611626, -0.03798975422978401, 0.009698150679469109, 0.2988590598106384, 0.04124872013926506, -0.0957982987165451, -0.08365070819854736, 0.07591062039136887, 0.03245745971798897, -0.012960667721927166, -0.11793261766433716, 0.08419456332921982, 0.02498760260641575, -0.006999647244811058, 0.049734294414520264, 0.08206262439489365, 0.18865980207920074, 0.11832192540168762, -0.023946331813931465, -0.050621725618839264, -0.001701478031463921, -0.0024673165753483772, -0.20816002786159515, -0.24570778012275696, -0.11179371178150177, 0.17100338637828827, -0.16932101547718048, 0.19016045331954956, 0.036888737231492996, 0.0974714457988739, -0.056091636419296265, -0.18108773231506348, 0.05072334408760071, -0.21578563749790192, -0.15257616341114044, -0.07425785064697266, -0.021514983847737312, 0.01210204791277647, -0.17671264708042145, 0.3930456340312958, -0.015986988320946693, -0.08426178991794586, -0.04145148769021034, -0.16757988929748535, 0.15641044080257416, 0.04114155098795891, -0.05991816148161888, 0.1135852187871933, -0.0624217614531517, -0.17248524725437164, -0.18007104098796844, -0.16678492724895477, -0.21179494261741638, -0.04667879641056061, 0.19275254011154175, -0.06787228584289551, 0.24471715092658997, 0.3598111867904663, 0.24691054224967957, -0.1881338357925415, 0.29932597279548645, -0.28063932061195374, -0.007183985318988562, -0.03787780553102493, 0.2266465127468109, 0.12405313551425934, 0.26246553659439087, -0.09079298377037048, 0.03835296258330345, -0.18855349719524384, -0.041503727436065674, 0.3198044002056122, 0.05266634002327919, -0.2129225879907608, -0.20544739067554474, -0.019884539768099785, 0.05086878687143326, 0.08354617655277252, -0.19289912283420563, -0.1020764485001564, 0.21207919716835022, 0.08269831538200378, 0.27411943674087524, 0.04195857420563698, 0.11551171541213989, -0.01591336913406849, 0.04525603726506233, 0.06758785992860794, 0.21399915218353271, -0.036643970757722855, -0.203624427318573, -0.13610142469406128, -0.1947021186351776, -0.025729669257998466, -0.06168249994516373, 0.2665044963359833, -0.12519420683383942, 0.0721292495727539, 0.10980573296546936, -0.16674908995628357, -0.05073585733771324, 0.1585359424352646, 0.2705563008785248, -0.10506514459848404, 0.08557090908288956, -0.27159157395362854, 0.06099782884120941, -0.044696152210235596, -0.004107064567506313, -0.05977679044008255, 0.16492797434329987, -0.12650637328624725, 0.192796990275383, -0.22736021876335144, -0.15592949092388153, 0.09395278990268707, -0.22048410773277283, 0.3551485240459442, -0.5033188462257385, -0.0840999037027359, 0.13928139209747314, -0.20659644901752472, -0.15315113961696625, 0.14727120101451874, 0.12605753540992737, 0.20783983170986176, -0.14526480436325073, -0.2511460781097412, 0.03266580030322075, 0.03239011764526367, -0.07825376838445663, 0.027140583842992783, -0.04727160558104515, 0.02935142070055008, 0.057785309851169586, -0.07021305710077286, 0.10184870660305023, 0.11520195752382278, 0.07395823299884796, -0.041699256747961044, -0.24772942066192627, -0.07576264441013336, 0.10184451937675476, 0.10940255224704742, 0.08228402584791183, -0.12018302083015442, 0.3086027204990387, 0.16487377882003784, 0.1267380267381668, -0.09639690816402435, 0.12436247617006302, -0.15164032578468323, 0.07402701675891876, 0.1404513269662857, -0.07843334972858429, 0.05718030780553818, 0.059905167669057846, -0.15726323425769806, 0.1709422767162323, -0.08128251135349274, 0.10695621371269226, -0.013920546509325504, 0.18002460896968842, -0.010722629725933075, 0.25558099150657654, 0.2993244230747223, 0.1854631006717682, -0.08472298085689545, 0.03079359419643879, -0.07120626419782639, 0.13338719308376312, 0.05191425234079361, 0.3264138102531433, 0.16794703900814056, 0.15780781209468842, -0.3140330910682678, -0.19682887196540833, -0.33832988142967224, -0.30216294527053833, 0.0516679473221302, 0.22247827053070068, 0.1876847743988037, -0.015938470140099525, 0.16335219144821167, -0.11268161237239838, 0.14402183890342712, -0.3283931612968445, -0.024392956867814064, -0.09800735861063004, -0.01576811634004116, -0.07700837403535843, 0.06420440226793289, -0.014150483533740044, 0.1468464583158493, -0.04294232279062271, -0.007104485761374235, -0.0852794423699379, -0.16987089812755585, -0.09679646044969559, 0.10588863492012024, 0.051159415394067764, 0.0745692253112793, 0.2652331590652466, 0.20262449979782104, -0.045444682240486145, -0.06843224167823792, 0.08614614605903625, 0.01614409312605858, -0.19006015360355377, -0.12794411182403564, 0.02781728096306324, 0.2819647789001465, -0.11922821402549744, -0.03604605421423912, -0.23957383632659912, -0.08836685121059418, 0.06921128183603287, 0.238678440451622, 0.1280232071876526, 0.06273855268955231, -0.21838325262069702, 0.0074659232050180435, -0.22869129478931427, 0.250637024641037, -0.11214205622673035, -0.05755554512143135, 0.1540788859128952, -0.02876417711377144, -0.12416637688875198, 0.14308218657970428, -0.0552302785217762, -0.03381576016545296, 0.2086063176393509, 0.23412390053272247, 0.01769951544702053, -0.14861960709095, 0.11137702316045761, -0.07391681522130966, -0.20593346655368805, -0.04311615601181984, 0.13359743356704712, 0.1847742348909378, 0.03751908987760544, 0.4240691363811493, -0.1686512678861618, -0.016524456441402435, 0.015385082922875881, -0.1548958271741867, -0.15485551953315735, 0.06197425350546837, 0.027214623987674713, 0.0006273793405853212, -0.10915762186050415, -0.026391878724098206, 0.1667129397392273, 0.2179127186536789, 0.21141470968723297, 0.0009953267872333527, -0.07943961769342422, -0.23188361525535583, -0.12246102839708328, -0.20054024457931519, -0.003827829845249653, 0.08898530155420303, 0.047826286405324936, -0.27076971530914307, -0.06594225019216537, -0.34557288885116577, 0.30438610911369324, 0.09342063963413239, -0.0337744876742363, -0.06793112307786942, 0.06451854854822159, -0.0712260976433754, 0.09051398187875748, 0.07356426864862442, 0.025672733783721924, -0.07133141160011292, 0.20763792097568512, 0.21175187826156616, -0.0965670794248581, -0.05607479065656662, -0.10386817902326584, 0.24728922545909882, -0.20005610585212708, -0.1644279807806015, 0.1659499704837799, -0.06833621114492416, 0.14337681233882904, 0.597026526927948, 0.06173437461256981, 0.050707072019577026, -0.6168739795684814, 0.17998147010803223, 0.1448078751564026, -0.16392464935779572, -0.09099961817264557, 0.024422526359558105, 0.31697386503219604, -0.01934956945478916, 0.03638758510351181, 0.14095546305179596, -0.0012590148253366351, 0.08319880068302155, 0.24236436188220978, 0.17309419810771942, -0.0647311881184578, -0.10621561855077744, 0.027671534568071365, -0.13854122161865234, -0.0666704848408699, 0.0884237065911293, 0.025064561516046524, -0.030712196603417397, -0.28857937455177307, -0.10611177235841751, 0.37873998284339905, 0.05609522759914398, 0.05153166502714157, -0.04435747489333153, -0.09861712157726288, -0.09823407232761383, -0.15079273283481598, 0.10083172470331192, 0.1151520386338234, -0.15001365542411804, 0.04112526401877403, 0.13734373450279236, -0.2690357565879822, -0.0637228861451149, -0.08061759918928146, 0.22575776278972626, -0.19343513250350952, -0.1009552851319313, 0.1980314701795578, -0.044739942997694016, -0.0031004194170236588, 0.2929249107837677, -0.008919691666960716, 0.20148523151874542, 0.02267013117671013, 0.14181767404079437, 0.030734185129404068, 0.02265341393649578, -0.09218831360340118, 0.0891241580247879, 0.045234471559524536, 0.05500748008489609, 0.033049482852220535, 0.14333422482013702, 0.02174498327076435, -0.07954516261816025, -0.0232711061835289, 0.19586031138896942, 0.029149990528821945, -0.11307062208652496, -0.06365547329187393, -0.039117231965065, 0.01835455931723118, 0.12002793699502945, 0.006623830180615187, 0.025619421154260635, 0.04612167924642563, -0.057717595249414444, 0.2381020039319992, 0.05788889527320862, 0.009362953715026379, -0.10429337620735168, 0.12241413444280624, -0.052239224314689636, -0.22621724009513855, -0.04048687592148781, 0.1073843315243721, -0.1226172000169754, 0.05457344651222229, 0.11692178249359131, -0.11012230068445206, -0.14222195744514465, -0.143047496676445, 0.03469177708029747, -0.19382722675800323, -0.15894004702568054, 0.25832483172416687, -0.1651304066181183, 0.01585674285888672, -0.019369741901755333, -0.1747184544801712, -0.037494078278541565, 0.00903759803622961, -0.09537658095359802, 0.06326957792043686, 0.07312366366386414, -0.26493149995803833, -0.011188334785401821, -0.01717226952314377, -0.09615510702133179, 0.012230089865624905, 0.08879376947879791, -0.022467344999313354, -0.16497306525707245, -0.15262696146965027, 0.04553674906492233, -0.18232682347297668, -0.040790196508169174, 0.03787599503993988, 0.1484258621931076, 0.1049303412437439, -0.17650125920772552, -0.2015170305967331, 0.1418103277683258, -0.09594588726758957, 0.07248840481042862, -0.3141043782234192, 0.13719502091407776, 0.06129958853125572, 0.015360474586486816, -0.3810914158821106, 0.11026318371295929, -0.014246988110244274, -0.083577461540699, -0.22116047143936157, -0.13211171329021454, -0.1923067569732666, -0.0835515558719635, 0.06522063910961151, 0.12029809504747391, 0.030700169503688812, -0.12366429716348648, 0.07278245687484741, 0.1392703354358673, -0.26635345816612244, 0.0853985995054245, 0.050102878361940384, -0.1009165346622467, -0.06268782168626785, -0.08189442753791809, 0.006344944704324007, -0.09501168131828308, -0.03163503110408783, 0.23970405757427216, -0.08182164281606674, -0.13119371235370636, -0.17845705151557922, 0.05724099278450012, 0.12722361087799072, -0.044041913002729416, 0.18438687920570374, 0.11804772913455963, 0.042971670627593994, 0.003671169513836503, 0.06303555518388748, 0.2155180126428604, -0.15605057775974274, -0.04001886397600174, 0.04738594964146614, -0.18438497185707092, -0.048371873795986176, 0.11370682716369629, 0.09842559695243835, 0.08936984837055206, -0.269095778465271, -0.04879491403698921, 0.09103143215179443, -0.0235154926776886, 0.028211696073412895, -0.4458439350128174, 0.05017606168985367, -0.1529047191143036, 0.04914844408631325, 0.14079301059246063, 0.03688858821988106, 0.05289491266012192, 0.17308221757411957, 